<?xml version="1.0"?>
<opencv_storage>
<cascade>
  <stageType>BOOST</stageType>
  <featureType>HAAR</featureType>
  <height>24</height>
  <width>24</width>
  <stageParams>
    <boostType>GAB</boostType>
    <minHitRate>9.9900001287460327e-01</minHitRate>
    <maxFalseAlarm>2.5000000000000000e-01</maxFalseAlarm>
    <weightTrimRate>9.4999999999999996e-01</weightTrimRate>
    <maxDepth>1</maxDepth>
    <maxWeakCount>100</maxWeakCount></stageParams>
  <featureParams>
    <maxCatCount>0</maxCatCount>
    <featSize>1</featSize>
    <mode>BASIC</mode></featureParams>
  <stageNum>10</stageNum>
  <stages>
    <!-- stage 0 -->
    <_>
      <maxWeakCount>5</maxWeakCount>
      <stageThreshold>-1.2468705177307129e+00</stageThreshold>
      <weakClassifiers>
        <_>
          <internalNodes>
            0 -1 6 4.7494415193796158e-03</internalNodes>
          <leafValues>
            -8.9062500000000000e-01 7.5000000000000000e-01</leafValues></_>
        <_>
          <internalNodes>
            0 -1 16 -2.7604349888861179e-03</internalNodes>
          <leafValues>
            5.1604658365249634e-01 -9.9269837141036987e-01</leafValues></_>
        <_>
          <internalNodes>
            0 -1 37 -6.8970974534749985e-03</internalNodes>
          <leafValues>
            5.4321545362472534e-01 -8.4623014926910400e-01</leafValues></_>
        <_>
          <internalNodes>
            0 -1 38 1.4610542915761471e-02</internalNodes>
          <leafValues>
            -5.6844419240951538e-01 8.7183338403701782e-01</leafValues></_>
        <_>
          <internalNodes>
            0 -1 36 -8.7940861703827977e-05</internalNodes>
          <leafValues>
            5.4238224029541016e-01 -8.2359725236892700e-01</leafValues></_></weakClassifiers></_>
    <!-- stage 1 -->
    <_>
      <maxWeakCount>7</maxWeakCount>
      <stageThreshold>-1.3218871355056763e+00</stageThreshold>
      <weakClassifiers>
        <_>
          <internalNodes>
            0 -1 11 3.4729093313217163e-02</internalNodes>
          <leafValues>
            -6.6447371244430542e-01 7.8906250000000000e-01</leafValues></_>
        <_>
          <internalNodes>
            0 -1 5 -6.0265935957431793e-02</internalNodes>
          <leafValues>
            -7.7193391323089600e-01 5.6470888853073120e-01</leafValues></_>
        <_>
          <internalNodes>
            0 -1 80 -4.0347203612327576e-03</internalNodes>
          <leafValues>
            6.5544551610946655e-01 -6.8506616353988647e-01</leafValues></_>
        <_>
          <internalNodes>
            0 -1 17 -4.9587182700634003e-02</internalNodes>
          <leafValues>
            8.0261224508285522e-01 -4.5992067456245422e-01</leafValues></_>
        <_>
          <internalNodes>
            0 -1 56 -7.2162301512435079e-04</internalNodes>
          <leafValues>
            5.1510906219482422e-01 -6.8968403339385986e-01</leafValues></_>
        <_>
          <internalNodes>
            0 -1 12 -1.1338787153363228e-03</internalNodes>
          <leafValues>
            3.5056859254837036e-01 -8.6652946472167969e-01</leafValues></_>
        <_>
          <internalNodes>
            0 -1 29 -2.7486094040796161e-04</internalNodes>
          <leafValues>
            2.7041605114936829e-01 -9.6643376350402832e-01</leafValues></_></weakClassifiers></_>
    <!-- stage 2 -->
    <_>
      <maxWeakCount>9</maxWeakCount>
      <stageThreshold>-6.8694740533828735e-01</stageThreshold>
      <weakClassifiers>
        <_>
          <internalNodes>
            0 -1 24 -3.3717103302478790e-02</internalNodes>
          <leafValues>
            -6.9047617912292480e-01 5.6493508815765381e-01</leafValues></_>
        <_>
          <internalNodes>
            0 -1 81 8.3877788856625557e-03</internalNodes>
          <leafValues>
            -6.1521065235137939e-01 5.9799957275390625e-01</leafValues></_>
        <_>
          <internalNodes>
            0 -1 28 -2.8640408068895340e-02</internalNodes>
          <leafValues>
            6.1700069904327393e-01 -5.9556609392166138e-01</leafValues></_>
        <_>
          <internalNodes>
            0 -1 39 -3.8038604543544352e-04</internalNodes>
          <leafValues>
            3.5052043199539185e-01 -8.4738302230834961e-01</leafValues></_>
        <_>
          <internalNodes>
            0 -1 33 -3.4890902042388916e-01</internalNodes>
          <leafValues>
            7.6773363351821899e-01 -3.4513205289840698e-01</leafValues></_>
        <_>
          <internalNodes>
            0 -1 53 -1.5303473628591746e-04</internalNodes>
          <leafValues>
            2.9366445541381836e-01 -9.2154932022094727e-01</leafValues></_>
        <_>
          <internalNodes>
            0 -1 1 2.6769944815896451e-04</internalNodes>
          <leafValues>
            -6.4932781457901001e-01 3.4766703844070435e-01</leafValues></_>
        <_>
          <internalNodes>
            0 -1 68 -1.1257702484726906e-02</internalNodes>
          <leafValues>
            -3.1890159845352173e-01 7.5424277782440186e-01</leafValues></_>
        <_>
          <internalNodes>
            0 -1 51 -3.7691906094551086e-02</internalNodes>
          <leafValues>
            8.7182390689849854e-01 -2.3871278762817383e-01</leafValues></_></weakClassifiers></_>
    <!-- stage 3 -->
    <_>
      <maxWeakCount>10</maxWeakCount>
      <stageThreshold>-8.3004999160766602e-01</stageThreshold>
      <weakClassifiers>
        <_>
          <internalNodes>
            0 -1 49 -1.1567447800189257e-03</internalNodes>
          <leafValues>
            3.5532996058464050e-01 -8.4337347745895386e-01</leafValues></_>
        <_>
          <internalNodes>
            0 -1 64 7.9893572255969048e-03</internalNodes>
          <leafValues>
            -5.2790659666061401e-01 5.1646679639816284e-01</leafValues></_>
        <_>
          <internalNodes>
            0 -1 25 4.0887314826250076e-03</internalNodes>
          <leafValues>
            -7.6899629831314087e-01 3.3887550234794617e-01</leafValues></_>
        <_>
          <internalNodes>
            0 -1 13 -1.1700968025252223e-03</internalNodes>
          <leafValues>
            -7.9101169109344482e-01 2.6148039102554321e-01</leafValues></_>
        <_>
          <internalNodes>
            0 -1 84 5.9864023933187127e-04</internalNodes>
          <leafValues>
            2.6849779486656189e-01 -8.9175617694854736e-01</leafValues></_>
        <_>
          <internalNodes>
            0 -1 32 -2.5666556321084499e-03</internalNodes>
          <leafValues>
            -7.8528130054473877e-01 2.3358686268329620e-01</leafValues></_>
        <_>
          <internalNodes>
            0 -1 45 -1.7080384492874146e-01</internalNodes>
          <leafValues>
            6.8671327829360962e-01 -3.8453266024589539e-01</leafValues></_>
        <_>
          <internalNodes>
            0 -1 42 -5.2856368711218238e-04</internalNodes>
          <leafValues>
            4.5070019364356995e-01 -5.9067213535308838e-01</leafValues></_>
        <_>
          <internalNodes>
            0 -1 84 -2.4034660309553146e-03</internalNodes>
          <leafValues>
            -9.3652904033660889e-01 2.3628990352153778e-01</leafValues></_>
        <_>
          <internalNodes>
            0 -1 59 1.2086667120456696e-03</internalNodes>
          <leafValues>
            1.8882416188716888e-01 -7.9119402170181274e-01</leafValues></_></weakClassifiers></_>
    <!-- stage 4 -->
    <_>
      <maxWeakCount>9</maxWeakCount>
      <stageThreshold>-1.0578445196151733e+00</stageThreshold>
      <weakClassifiers>
        <_>
          <internalNodes>
            0 -1 87 -3.5940832458436489e-04</internalNodes>
          <leafValues>
            4.5994064211845398e-01 -6.9506728649139404e-01</leafValues></_>
        <_>
          <internalNodes>
            0 -1 92 1.5557917067781091e-03</internalNodes>
          <leafValues>
            -3.6540579795837402e-01 6.9362413883209229e-01</leafValues></_>
        <_>
          <internalNodes>
            0 -1 10 -6.2068803235888481e-03</internalNodes>
          <leafValues>
            4.2126619815826416e-01 -7.2809785604476929e-01</leafValues></_>
        <_>
          <internalNodes>
            0 -1 34 -1.9686282030306756e-04</internalNodes>
          <leafValues>
            4.2241004109382629e-01 -5.0124728679656982e-01</leafValues></_>
        <_>
          <internalNodes>
            0 -1 7 -2.3168021440505981e-01</internalNodes>
          <leafValues>
            9.1563582420349121e-01 -2.6587328314781189e-01</leafValues></_>
        <_>
          <internalNodes>
            0 -1 31 -1.2645518407225609e-02</internalNodes>
          <leafValues>
            -8.8112992048263550e-01 2.7349358797073364e-01</leafValues></_>
        <_>
          <internalNodes>
            0 -1 76 -5.6953291641548276e-04</internalNodes>
          <leafValues>
            3.9593362808227539e-01 -5.9381347894668579e-01</leafValues></_>
        <_>
          <internalNodes>
            0 -1 46 -8.9727109298110008e-04</internalNodes>
          <leafValues>
            4.1689240932464600e-01 -5.5432993173599243e-01</leafValues></_>
        <_>
          <internalNodes>
            0 -1 14 -1.9631751347333193e-03</internalNodes>
          <leafValues>
            -9.9135661125183105e-01 2.0650008320808411e-01</leafValues></_></weakClassifiers></_>
    <!-- stage 5 -->
    <_>
      <maxWeakCount>9</maxWeakCount>
      <stageThreshold>-5.5724579095840454e-01</stageThreshold>
      <weakClassifiers>
        <_>
          <internalNodes>
            0 -1 15 1.5926698688417673e-03</internalNodes>
          <leafValues>
            3.2673266530036926e-01 -8.4615385532379150e-01</leafValues></_>
        <_>
          <internalNodes>
            0 -1 77 -1.4962468994781375e-03</internalNodes>
          <leafValues>
            3.8625970482826233e-01 -6.7157179117202759e-01</leafValues></_>
        <_>
          <internalNodes>
            0 -1 3 -1.6537670046091080e-02</internalNodes>
          <leafValues>
            -8.3510285615921021e-01 3.3535543084144592e-01</leafValues></_>
        <_>
          <internalNodes>
            0 -1 79 2.6148936012759805e-04</internalNodes>
          <leafValues>
            2.4125660955905914e-01 -8.1579154729843140e-01</leafValues></_>
        <_>
          <internalNodes>
            0 -1 70 -1.3437993824481964e-02</internalNodes>
          <leafValues>
            5.6384676694869995e-01 -4.1498106718063354e-01</leafValues></_>
        <_>
          <internalNodes>
            0 -1 74 2.8995444881729782e-04</internalNodes>
          <leafValues>
            -4.4072741270065308e-01 5.4163026809692383e-01</leafValues></_>
        <_>
          <internalNodes>
            0 -1 73 1.0701903700828552e-01</internalNodes>
          <leafValues>
            -2.5137400627136230e-01 9.1174858808517456e-01</leafValues></_>
        <_>
          <internalNodes>
            0 -1 52 -7.5130192562937737e-03</internalNodes>
          <leafValues>
            3.7881979346275330e-01 -6.5788286924362183e-01</leafValues></_>
        <_>
          <internalNodes>
            0 -1 20 -4.5580035075545311e-03</internalNodes>
          <leafValues>
            -9.3125736713409424e-01 2.4592946469783783e-01</leafValues></_></weakClassifiers></_>
    <!-- stage 6 -->
    <_>
      <maxWeakCount>11</maxWeakCount>
      <stageThreshold>-8.0418395996093750e-01</stageThreshold>
      <weakClassifiers>
        <_>
          <internalNodes>
            0 -1 35 -1.5617486089468002e-02</internalNodes>
          <leafValues>
            -8.1012660264968872e-01 3.1840795278549194e-01</leafValues></_>
        <_>
          <internalNodes>
            0 -1 55 -2.3154413793236017e-03</internalNodes>
          <leafValues>
            6.2608027458190918e-01 -4.1181588172912598e-01</leafValues></_>
        <_>
          <internalNodes>
            0 -1 21 1.6711032949388027e-03</internalNodes>
          <leafValues>
            -3.3635601401329041e-01 5.7768899202346802e-01</leafValues></_>
        <_>
          <internalNodes>
            0 -1 83 1.8630474805831909e-03</internalNodes>
          <leafValues>
            2.1529836952686310e-01 -9.3336611986160278e-01</leafValues></_>
        <_>
          <internalNodes>
            0 -1 54 -4.0464736521244049e-03</internalNodes>
          <leafValues>
            7.9941689968109131e-01 -2.8319779038429260e-01</leafValues></_>
        <_>
          <internalNodes>
            0 -1 4 -3.1827867031097412e-02</internalNodes>
          <leafValues>
            -8.2990425825119019e-01 2.9673552513122559e-01</leafValues></_>
        <_>
          <internalNodes>
            0 -1 60 5.0365843344479799e-04</internalNodes>
          <leafValues>
            1.9093567132949829e-01 -8.0841690301895142e-01</leafValues></_>
        <_>
          <internalNodes>
            0 -1 88 5.4189143702387810e-03</internalNodes>
          <leafValues>
            -2.9336985945701599e-01 6.3404732942581177e-01</leafValues></_>
        <_>
          <internalNodes>
            0 -1 66 8.3649577572941780e-04</internalNodes>
          <leafValues>
            2.4536949396133423e-01 -7.1890449523925781e-01</leafValues></_>
        <_>
          <internalNodes>
            0 -1 98 1.5572158736176789e-04</internalNodes>
          <leafValues>
            2.6019451022148132e-01 -7.0181345939636230e-01</leafValues></_>
        <_>
          <internalNodes>
            0 -1 27 1.1753336730180308e-04</internalNodes>
          <leafValues>
            -6.9203519821166992e-01 2.0696835219860077e-01</leafValues></_></weakClassifiers></_>
    <!-- stage 7 -->
    <_>
      <maxWeakCount>14</maxWeakCount>
      <stageThreshold>-1.1192436218261719e+00</stageThreshold>
      <weakClassifiers>
        <_>
          <internalNodes>
            0 -1 86 2.1629990078508854e-03</internalNodes>
          <leafValues>
            -4.9103942513465881e-01 4.8754447698593140e-01</leafValues></_>
        <_>
          <internalNodes>
            0 -1 18 1.0463085491210222e-03</internalNodes>
          <leafValues>
            2.2403389215469360e-01 -9.3116807937622070e-01</leafValues></_>
        <_>
          <internalNodes>
            0 -1 48 1.1763253714889288e-03</internalNodes>
          <leafValues>
            1.9793820381164551e-01 -9.3863844871520996e-01</leafValues></_>
        <_>
          <internalNodes>
            0 -1 58 -1.5843613073229790e-03</internalNodes>
          <leafValues>
            -7.8538948297500610e-01 1.9024798274040222e-01</leafValues></_>
        <_>
          <internalNodes>
            0 -1 61 -3.7419237196445465e-04</internalNodes>
          <leafValues>
            4.3342098593711853e-01 -4.2537751793861389e-01</leafValues></_>
        <_>
          <internalNodes>
            0 -1 75 1.5052325325086713e-03</internalNodes>
          <leafValues>
            2.2282032668590546e-01 -8.7741625308990479e-01</leafValues></_>
        <_>
          <internalNodes>
            0 -1 95 -2.2951127029955387e-03</internalNodes>
          <leafValues>
            4.2735546827316284e-01 -3.9601871371269226e-01</leafValues></_>
        <_>
          <internalNodes>
            0 -1 57 6.8253197241574526e-04</internalNodes>
          <leafValues>
            1.7161835730075836e-01 -8.1700247526168823e-01</leafValues></_>
        <_>
          <internalNodes>
            0 -1 2 -1.3054530427325517e-04</internalNodes>
          <leafValues>
            2.9982119798660278e-01 -5.6740641593933105e-01</leafValues></_>
        <_>
          <internalNodes>
            0 -1 47 -1.7086910083889961e-02</internalNodes>
          <leafValues>
            -7.7626740932464600e-01 1.7624638974666595e-01</leafValues></_>
        <_>
          <internalNodes>
            0 -1 50 4.2715424206107855e-04</internalNodes>
          <leafValues>
            1.7602376639842987e-01 -8.9619636535644531e-01</leafValues></_>
        <_>
          <internalNodes>
            0 -1 9 -2.5527564808726311e-02</internalNodes>
          <leafValues>
            3.9577367901802063e-01 -3.6732855439186096e-01</leafValues></_>
        <_>
          <internalNodes>
            0 -1 89 -5.2181813865900040e-02</internalNodes>
          <leafValues>
            8.5297751426696777e-01 -2.1845974028110504e-01</leafValues></_>
        <_>
          <internalNodes>
            0 -1 85 4.8949563642963767e-04</internalNodes>
          <leafValues>
            2.2046680748462677e-01 -8.6973679065704346e-01</leafValues></_></weakClassifiers></_>
    <!-- stage 8 -->
    <_>
      <maxWeakCount>12</maxWeakCount>
      <stageThreshold>-1.0521395206451416e+00</stageThreshold>
      <weakClassifiers>
        <_>
          <internalNodes>
            0 -1 62 8.8199763558804989e-04</internalNodes>
          <leafValues>
            -4.5337620377540588e-01 5.6626504659652710e-01</leafValues></_>
        <_>
          <internalNodes>
            0 -1 40 -3.0294086318463087e-03</internalNodes>
          <leafValues>
            7.7526026964187622e-01 -2.1807393431663513e-01</leafValues></_>
        <_>
          <internalNodes>
            0 -1 23 -1.9813831895589828e-02</internalNodes>
          <leafValues>
            -3.3034709095954895e-01 5.2416741847991943e-01</leafValues></_>
        <_>
          <internalNodes>
            0 -1 91 -8.6125181987881660e-03</internalNodes>
          <leafValues>
            -7.9070681333541870e-01 1.8809172511100769e-01</leafValues></_>
        <_>
          <internalNodes>
            0 -1 96 -1.5741609036922455e-02</internalNodes>
          <leafValues>
            -7.4496829509735107e-01 1.8813793361186981e-01</leafValues></_>
        <_>
          <internalNodes>
            0 -1 93 3.6012842319905758e-03</internalNodes>
          <leafValues>
            -2.8109398484230042e-01 5.5146759748458862e-01</leafValues></_>
        <_>
          <internalNodes>
            0 -1 8 -2.4518617987632751e-01</internalNodes>
          <leafValues>
            7.0273667573928833e-01 -2.2957541048526764e-01</leafValues></_>
        <_>
          <internalNodes>
            0 -1 22 -9.1237872838973999e-02</internalNodes>
          <leafValues>
            8.2502901554107666e-01 -1.8651475012302399e-01</leafValues></_>
        <_>
          <internalNodes>
            0 -1 44 -3.6857526283711195e-03</internalNodes>
          <leafValues>
            -5.7766908407211304e-01 2.8946927189826965e-01</leafValues></_>
        <_>
          <internalNodes>
            0 -1 41 1.7280911561101675e-03</internalNodes>
          <leafValues>
            -2.3238694667816162e-01 5.7871913909912109e-01</leafValues></_>
        <_>
          <internalNodes>
            0 -1 30 7.7380561269819736e-03</internalNodes>
          <leafValues>
            -2.0175683498382568e-01 8.6179453134536743e-01</leafValues></_>
        <_>
          <internalNodes>
            0 -1 90 6.6643431782722473e-03</internalNodes>
          <leafValues>
            2.7088117599487305e-01 -6.0766494274139404e-01</leafValues></_></weakClassifiers></_>
    <!-- stage 9 -->
    <_>
      <maxWeakCount>15</maxWeakCount>
      <stageThreshold>-8.3168816566467285e-01</stageThreshold>
      <weakClassifiers>
        <_>
          <internalNodes>
            0 -1 63 1.1206364724785089e-03</internalNodes>
          <leafValues>
            -5.5000001192092896e-01 5.5000001192092896e-01</leafValues></_>
        <_>
          <internalNodes>
            0 -1 72 2.7041512657888234e-04</internalNodes>
          <leafValues>
            -4.5946061611175537e-01 4.3740305304527283e-01</leafValues></_>
        <_>
          <internalNodes>
            0 -1 65 1.1639116331934929e-02</internalNodes>
          <leafValues>
            1.7784792184829712e-01 -8.5663169622421265e-01</leafValues></_>
        <_>
          <internalNodes>
            0 -1 26 -1.3919987715780735e-02</internalNodes>
          <leafValues>
            -3.1815162301063538e-01 5.6997138261795044e-01</leafValues></_>
        <_>
          <internalNodes>
            0 -1 82 -2.3562817368656397e-03</internalNodes>
          <leafValues>
            2.5651568174362183e-01 -6.5149891376495361e-01</leafValues></_>
        <_>
          <internalNodes>
            0 -1 97 6.4848857000470161e-03</internalNodes>
          <leafValues>
            1.2199367582798004e-01 -7.8690451383590698e-01</leafValues></_>
        <_>
          <internalNodes>
            0 -1 19 -6.1392989009618759e-03</internalNodes>
          <leafValues>
            -8.8032615184783936e-01 1.5927846729755402e-01</leafValues></_>
        <_>
          <internalNodes>
            0 -1 67 1.9031610572710633e-03</internalNodes>
          <leafValues>
            -2.1240806579589844e-01 8.1711935997009277e-01</leafValues></_>
        <_>
          <internalNodes>
            0 -1 43 1.3691673055291176e-02</internalNodes>
          <leafValues>
            1.9188110530376434e-01 -9.4467115402221680e-01</leafValues></_>
        <_>
          <internalNodes>
            0 -1 0 -2.6848161360248923e-04</internalNodes>
          <leafValues>
            3.8348850607872009e-01 -4.2257487773895264e-01</leafValues></_>
        <_>
          <internalNodes>
            0 -1 99 -1.0518507333472371e-03</internalNodes>
          <leafValues>
            -6.3226991891860962e-01 2.2641022503376007e-01</leafValues></_>
        <_>
          <internalNodes>
            0 -1 78 -1.6798058059066534e-03</internalNodes>
          <leafValues>
            7.4648219347000122e-01 -2.0952109992504120e-01</leafValues></_>
        <_>
          <internalNodes>
            0 -1 94 1.5192188322544098e-02</internalNodes>
          <leafValues>
            -1.5605610609054565e-01 8.0869221687316895e-01</leafValues></_>
        <_>
          <internalNodes>
            0 -1 69 9.1559123247861862e-03</internalNodes>
          <leafValues>
            2.1585203707218170e-01 -7.4536019563674927e-01</leafValues></_>
        <_>
          <internalNodes>
            0 -1 71 1.2382185377646238e-04</internalNodes>
          <leafValues>
            1.5873964130878448e-01 -6.9134795665740967e-01</leafValues></_></weakClassifiers></_></stages>
  <features>
    <_>
      <rects>
        <_>
          0 0 2 1 -1.</_>
        <_>
          1 0 1 1 2.</_></rects>
      <tilted>0</tilted></_>
    <_>
      <rects>
        <_>
          0 0 6 1 -1.</_>
        <_>
          3 0 3 1 2.</_></rects>
      <tilted>0</tilted></_>
    <_>
      <rects>
        <_>
          0 0 6 4 -1.</_>
        <_>
          0 0 3 2 2.</_>
        <_>
          3 2 3 2 2.</_></rects>
      <tilted>0</tilted></_>
    <_>
      <rects>
        <_>
          0 0 11 8 -1.</_>
        <_>
          0 4 11 4 2.</_></rects>
      <tilted>0</tilted></_>
    <_>
      <rects>
        <_>
          0 0 21 6 -1.</_>
        <_>
          0 3 21 3 2.</_></rects>
      <tilted>0</tilted></_>
    <_>
      <rects>
        <_>
          0 1 3 12 -1.</_>
        <_>
          0 5 3 4 2.</_></rects>
      <tilted>0</tilted></_>
    <_>
      <rects>
        <_>
          0 2 4 6 -1.</_>
        <_>
          0 5 4 3 2.</_></rects>
      <tilted>0</tilted></_>
    <_>
      <rects>
        <_>
          0 3 24 5 -1.</_>
        <_>
          12 3 12 5 2.</_></rects>
      <tilted>0</tilted></_>
    <_>
      <rects>
        <_>
          0 3 12 14 -1.</_>
        <_>
          0 10 12 7 2.</_></rects>
      <tilted>0</tilted></_>
    <_>
      <rects>
        <_>
          0 5 3 3 -1.</_>
        <_>
          1 5 1 3 2.</_></rects>
      <tilted>0</tilted></_>
    <_>
      <rects>
        <_>
          0 5 1 8 -1.</_>
        <_>
          0 9 1 4 2.</_></rects>
      <tilted>0</tilted></_>
    <_>
      <rects>
        <_>
          0 5 12 8 -1.</_>
        <_>
          0 5 6 4 2.</_>
        <_>
          6 9 6 4 2.</_></rects>
      <tilted>0</tilted></_>
    <_>
      <rects>
        <_>
          0 6 1 6 -1.</_>
        <_>
          0 9 1 3 2.</_></rects>
      <tilted>0</tilted></_>
    <_>
      <rects>
        <_>
          0 6 2 6 -1.</_>
        <_>
          0 6 1 3 2.</_>
        <_>
          1 9 1 3 2.</_></rects>
      <tilted>0</tilted></_>
    <_>
      <rects>
        <_>
          0 6 2 5 -1.</_>
        <_>
          1 6 1 5 2.</_></rects>
      <tilted>0</tilted></_>
    <_>
      <rects>
        <_>
          0 6 2 6 -1.</_>
        <_>
          1 6 1 6 2.</_></rects>
      <tilted>0</tilted></_>
    <_>
      <rects>
        <_>
          0 6 8 3 -1.</_>
        <_>
          4 6 4 3 2.</_></rects>
      <tilted>0</tilted></_>
    <_>
      <rects>
        <_>
          0 6 20 2 -1.</_>
        <_>
          10 6 10 2 2.</_></rects>
      <tilted>0</tilted></_>
    <_>
      <rects>
        <_>
          0 7 4 4 -1.</_>
        <_>
          2 7 2 4 2.</_></rects>
      <tilted>0</tilted></_>
    <_>
      <rects>
        <_>
          0 8 4 4 -1.</_>
        <_>
          2 8 2 4 2.</_></rects>
      <tilted>0</tilted></_>
    <_>
      <rects>
        <_>
          0 10 4 3 -1.</_>
        <_>
          2 10 2 3 2.</_></rects>
      <tilted>0</tilted></_>
    <_>
      <rects>
        <_>
          0 10 5 2 -1.</_>
        <_>
          0 11 5 1 2.</_></rects>
      <tilted>0</tilted></_>
    <_>
      <rects>
        <_>
          0 17 22 3 -1.</_>
        <_>
          11 17 11 3 2.</_></rects>
      <tilted>0</tilted></_>
    <_>
      <rects>
        <_>
          1 1 6 2 -1.</_>
        <_>
          3 1 2 2 2.</_></rects>
      <tilted>0</tilted></_>
    <_>
      <rects>
        <_>
          1 1 2 12 -1.</_>
        <_>
          1 5 2 4 2.</_></rects>
      <tilted>0</tilted></_>
    <_>
      <rects>
        <_>
          1 1 3 8 -1.</_>
        <_>
          1 5 3 4 2.</_></rects>
      <tilted>0</tilted></_>
    <_>
      <rects>
        <_>
          1 2 2 9 -1.</_>
        <_>
          1 5 2 3 2.</_></rects>
      <tilted>0</tilted></_>
    <_>
      <rects>
        <_>
          1 4 1 2 -1.</_>
        <_>
          1 5 1 1 2.</_></rects>
      <tilted>0</tilted></_>
    <_>
      <rects>
        <_>
          1 5 10 3 -1.</_>
        <_>
          6 5 5 3 2.</_></rects>
      <tilted>0</tilted></_>
    <_>
      <rects>
        <_>
          1 6 4 4 -1.</_>
        <_>
          3 6 2 4 2.</_></rects>
      <tilted>0</tilted></_>
    <_>
      <rects>
        <_>
          1 10 10 2 -1.</_>
        <_>
          1 10 5 1 2.</_>
        <_>
          6 11 5 1 2.</_></rects>
      <tilted>0</tilted></_>
    <_>
      <rects>
        <_>
          2 0 5 8 -1.</_>
        <_>
          2 4 5 4 2.</_></rects>
      <tilted>0</tilted></_>
    <_>
      <rects>
        <_>
          2 0 10 2 -1.</_>
        <_>
          2 1 10 1 2.</_></rects>
      <tilted>0</tilted></_>
    <_>
      <rects>
        <_>
          2 0 22 23 -1.</_>
        <_>
          13 0 11 23 2.</_></rects>
      <tilted>0</tilted></_>
    <_>
      <rects>
        <_>
          2 3 2 2 -1.</_>
        <_>
          2 3 1 1 2.</_>
        <_>
          3 4 1 1 2.</_></rects>
      <tilted>0</tilted></_>
    <_>
      <rects>
        <_>
          2 4 1 6 -1.</_>
        <_>
          2 6 1 2 2.</_></rects>
      <tilted>0</tilted></_>
    <_>
      <rects>
        <_>
          2 4 2 4 -1.</_>
        <_>
          3 4 1 4 2.</_></rects>
      <tilted>0</tilted></_>
    <_>
      <rects>
        <_>
          2 5 5 6 -1.</_>
        <_>
          2 8 5 3 2.</_></rects>
      <tilted>0</tilted></_>
    <_>
      <rects>
        <_>
          2 6 8 4 -1.</_>
        <_>
          2 6 4 2 2.</_>
        <_>
          6 8 4 2 2.</_></rects>
      <tilted>0</tilted></_>
    <_>
      <rects>
        <_>
          2 7 6 2 -1.</_>
        <_>
          2 8 6 1 2.</_></rects>
      <tilted>0</tilted></_>
    <_>
      <rects>
        <_>
          2 9 8 2 -1.</_>
        <_>
          2 9 4 1 2.</_>
        <_>
          6 10 4 1 2.</_></rects>
      <tilted>0</tilted></_>
    <_>
      <rects>
        <_>
          2 9 6 2 -1.</_>
        <_>
          2 10 6 1 2.</_></rects>
      <tilted>0</tilted></_>
    <_>
      <rects>
        <_>
          3 0 4 2 -1.</_>
        <_>
          5 0 2 2 2.</_></rects>
      <tilted>0</tilted></_>
    <_>
      <rects>
        <_>
          3 0 2 12 -1.</_>
        <_>
          3 6 2 6 2.</_></rects>
      <tilted>0</tilted></_>
    <_>
      <rects>
        <_>
          3 0 8 4 -1.</_>
        <_>
          3 0 4 2 2.</_>
        <_>
          7 2 4 2 2.</_></rects>
      <tilted>0</tilted></_>
    <_>
      <rects>
        <_>
          3 0 16 8 -1.</_>
        <_>
          11 0 8 8 2.</_></rects>
      <tilted>0</tilted></_>
    <_>
      <rects>
        <_>
          3 1 2 4 -1.</_>
        <_>
          3 3 2 2 2.</_></rects>
      <tilted>0</tilted></_>
    <_>
      <rects>
        <_>
          3 1 6 4 -1.</_>
        <_>
          6 1 3 4 2.</_></rects>
      <tilted>0</tilted></_>
    <_>
      <rects>
        <_>
          3 1 6 8 -1.</_>
        <_>
          6 1 3 8 2.</_></rects>
      <tilted>0</tilted></_>
    <_>
      <rects>
        <_>
          3 1 6 4 -1.</_>
        <_>
          3 3 6 2 2.</_></rects>
      <tilted>0</tilted></_>
    <_>
      <rects>
        <_>
          3 2 8 1 -1.</_>
        <_>
          7 2 4 1 2.</_></rects>
      <tilted>0</tilted></_>
    <_>
      <rects>
        <_>
          3 5 2 12 -1.</_>
        <_>
          3 11 2 6 2.</_></rects>
      <tilted>0</tilted></_>
    <_>
      <rects>
        <_>
          3 5 5 6 -1.</_>
        <_>
          3 8 5 3 2.</_></rects>
      <tilted>0</tilted></_>
    <_>
      <rects>
        <_>
          3 6 2 4 -1.</_>
        <_>
          4 6 1 4 2.</_></rects>
      <tilted>0</tilted></_>
    <_>
      <rects>
        <_>
          3 10 6 2 -1.</_>
        <_>
          3 11 6 1 2.</_></rects>
      <tilted>0</tilted></_>
    <_>
      <rects>
        <_>
          4 0 2 2 -1.</_>
        <_>
          5 0 1 2 2.</_></rects>
      <tilted>0</tilted></_>
    <_>
      <rects>
        <_>
          4 0 1 6 -1.</_>
        <_>
          4 3 1 3 2.</_></rects>
      <tilted>0</tilted></_>
    <_>
      <rects>
        <_>
          4 0 6 2 -1.</_>
        <_>
          4 0 3 1 2.</_>
        <_>
          7 1 3 1 2.</_></rects>
      <tilted>0</tilted></_>
    <_>
      <rects>
        <_>
          4 0 8 2 -1.</_>
        <_>
          4 0 4 1 2.</_>
        <_>
          8 1 4 1 2.</_></rects>
      <tilted>0</tilted></_>
    <_>
      <rects>
        <_>
          4 0 4 4 -1.</_>
        <_>
          4 2 4 2 2.</_></rects>
      <tilted>0</tilted></_>
    <_>
      <rects>
        <_>
          4 0 4 6 -1.</_>
        <_>
          4 3 4 3 2.</_></rects>
      <tilted>0</tilted></_>
    <_>
      <rects>
        <_>
          4 3 1 2 -1.</_>
        <_>
          4 4 1 1 2.</_></rects>
      <tilted>0</tilted></_>
    <_>
      <rects>
        <_>
          4 3 4 2 -1.</_>
        <_>
          6 3 2 2 2.</_></rects>
      <tilted>0</tilted></_>
    <_>
      <rects>
        <_>
          4 4 2 2 -1.</_>
        <_>
          4 5 2 1 2.</_></rects>
      <tilted>0</tilted></_>
    <_>
      <rects>
        <_>
          4 5 6 4 -1.</_>
        <_>
          4 5 3 2 2.</_>
        <_>
          7 7 3 2 2.</_></rects>
      <tilted>0</tilted></_>
    <_>
      <rects>
        <_>
          5 0 12 4 -1.</_>
        <_>
          5 0 6 2 2.</_>
        <_>
          11 2 6 2 2.</_></rects>
      <tilted>0</tilted></_>
    <_>
      <rects>
        <_>
          5 1 6 2 -1.</_>
        <_>
          5 1 3 1 2.</_>
        <_>
          8 2 3 1 2.</_></rects>
      <tilted>0</tilted></_>
    <_>
      <rects>
        <_>
          5 2 2 4 -1.</_>
        <_>
          5 2 1 2 2.</_>
        <_>
          6 4 1 2 2.</_></rects>
      <tilted>0</tilted></_>
    <_>
      <rects>
        <_>
          5 2 6 2 -1.</_>
        <_>
          7 2 2 2 2.</_></rects>
      <tilted>0</tilted></_>
    <_>
      <rects>
        <_>
          5 2 8 4 -1.</_>
        <_>
          5 2 4 2 2.</_>
        <_>
          9 4 4 2 2.</_></rects>
      <tilted>0</tilted></_>
    <_>
      <rects>
        <_>
          5 3 16 1 -1.</_>
        <_>
          13 3 8 1 2.</_></rects>
      <tilted>0</tilted></_>
    <_>
      <rects>
        <_>
          5 4 2 5 -1.</_>
        <_>
          6 4 1 5 2.</_></rects>
      <tilted>0</tilted></_>
    <_>
      <rects>
        <_>
          6 0 2 1 -1.</_>
        <_>
          7 0 1 1 2.</_></rects>
      <tilted>0</tilted></_>
    <_>
      <rects>
        <_>
          6 0 12 9 -1.</_>
        <_>
          12 0 6 9 2.</_></rects>
      <tilted>0</tilted></_>
    <_>
      <rects>
        <_>
          6 1 2 1 -1.</_>
        <_>
          7 1 1 1 2.</_></rects>
      <tilted>0</tilted></_>
    <_>
      <rects>
        <_>
          6 2 4 4 -1.</_>
        <_>
          6 4 4 2 2.</_></rects>
      <tilted>0</tilted></_>
    <_>
      <rects>
        <_>
          6 3 3 4 -1.</_>
        <_>
          6 5 3 2 2.</_></rects>
      <tilted>0</tilted></_>
    <_>
      <rects>
        <_>
          6 4 2 4 -1.</_>
        <_>
          6 6 2 2 2.</_></rects>
      <tilted>0</tilted></_>
    <_>
      <rects>
        <_>
          6 7 4 2 -1.</_>
        <_>
          6 7 2 1 2.</_>
        <_>
          8 8 2 1 2.</_></rects>
      <tilted>0</tilted></_>
    <_>
      <rects>
        <_>
          7 0 2 2 -1.</_>
        <_>
          7 1 2 1 2.</_></rects>
      <tilted>0</tilted></_>
    <_>
      <rects>
        <_>
          7 0 4 4 -1.</_>
        <_>
          9 0 2 4 2.</_></rects>
      <tilted>0</tilted></_>
    <_>
      <rects>
        <_>
          7 0 4 8 -1.</_>
        <_>
          7 0 2 4 2.</_>
        <_>
          9 4 2 4 2.</_></rects>
      <tilted>0</tilted></_>
    <_>
      <rects>
        <_>
          7 0 4 6 -1.</_>
        <_>
          7 3 4 3 2.</_></rects>
      <tilted>0</tilted></_>
    <_>
      <rects>
        <_>
          7 0 8 2 -1.</_>
        <_>
          7 1 8 1 2.</_></rects>
      <tilted>0</tilted></_>
    <_>
      <rects>
        <_>
          7 1 4 2 -1.</_>
        <_>
          7 2 4 1 2.</_></rects>
      <tilted>0</tilted></_>
    <_>
      <rects>
        <_>
          7 2 4 2 -1.</_>
        <_>
          7 3 4 1 2.</_></rects>
      <tilted>0</tilted></_>
    <_>
      <rects>
        <_>
          7 3 2 6 -1.</_>
        <_>
          7 3 1 3 2.</_>
        <_>
          8 6 1 3 2.</_></rects>
      <tilted>0</tilted></_>
    <_>
      <rects>
        <_>
          8 0 2 1 -1.</_>
        <_>
          9 0 1 1 2.</_></rects>
      <tilted>0</tilted></_>
    <_>
      <rects>
        <_>
          8 1 2 8 -1.</_>
        <_>
          8 1 1 4 2.</_>
        <_>
          9 5 1 4 2.</_></rects>
      <tilted>0</tilted></_>
    <_>
      <rects>
        <_>
          8 1 8 14 -1.</_>
        <_>
          8 1 4 7 2.</_>
        <_>
          12 8 4 7 2.</_></rects>
      <tilted>0</tilted></_>
    <_>
      <rects>
        <_>
          8 19 14 4 -1.</_>
        <_>
          8 19 7 2 2.</_>
        <_>
          15 21 7 2 2.</_></rects>
      <tilted>0</tilted></_>
    <_>
      <rects>
        <_>
          9 0 7 4 -1.</_>
        <_>
          9 2 7 2 2.</_></rects>
      <tilted>0</tilted></_>
    <_>
      <rects>
        <_>
          10 0 2 3 -1.</_>
        <_>
          11 0 1 3 2.</_></rects>
      <tilted>0</tilted></_>
    <_>
      <rects>
        <_>
          10 0 2 6 -1.</_>
        <_>
          11 0 1 6 2.</_></rects>
      <tilted>0</tilted></_>
    <_>
      <rects>
        <_>
          10 0 1 12 -1.</_>
        <_>
          10 6 1 6 2.</_></rects>
      <tilted>0</tilted></_>
    <_>
      <rects>
        <_>
          10 4 4 6 -1.</_>
        <_>
          12 4 2 6 2.</_></rects>
      <tilted>0</tilted></_>
    <_>
      <rects>
        <_>
          10 6 7 6 -1.</_>
        <_>
          10 9 7 3 2.</_></rects>
      <tilted>0</tilted></_>
    <_>
      <rects>
        <_>
          12 1 12 2 -1.</_>
        <_>
          18 1 6 2 2.</_></rects>
      <tilted>0</tilted></_>
    <_>
      <rects>
        <_>
          13 2 1 2 -1.</_>
        <_>
          13 3 1 1 2.</_></rects>
      <tilted>0</tilted></_>
    <_>
      <rects>
        <_>
          15 10 2 12 -1.</_>
        <_>
          15 10 1 6 2.</_>
        <_>
          16 16 1 6 2.</_></rects>
      <tilted>0</tilted></_></features></cascade>
</opencv_storage>
