<?xml version="1.0"?>
<opencv_storage>
<stage6>
  <maxWeakCount>11</maxWeakCount>
  <stageThreshold>-8.0418395996093750e-01</stageThreshold>
  <weakClassifiers>
    <_>
      <internalNodes>
        0 -1 29522 -1.5617486089468002e-02</internalNodes>
      <leafValues>
        -8.1012660264968872e-01 3.1840795278549194e-01</leafValues></_>
    <_>
      <internalNodes>
        0 -1 49481 -2.3154413793236017e-03</internalNodes>
      <leafValues>
        6.2608027458190918e-01 -4.1181588172912598e-01</leafValues></_>
    <_>
      <internalNodes>
        0 -1 8993 1.6711032949388027e-03</internalNodes>
      <leafValues>
        -3.3635601401329041e-01 5.7768899202346802e-01</leafValues></_>
    <_>
      <internalNodes>
        0 -1 81273 1.8630474805831909e-03</internalNodes>
      <leafValues>
        2.1529836952686310e-01 -9.3336611986160278e-01</leafValues></_>
    <_>
      <internalNodes>
        0 -1 45773 -4.0464736521244049e-03</internalNodes>
      <leafValues>
        7.9941689968109131e-01 -2.8319779038429260e-01</leafValues></_>
    <_>
      <internalNodes>
        0 -1 1028 -3.1827867031097412e-02</internalNodes>
      <leafValues>
        -8.2990425825119019e-01 2.9673552513122559e-01</leafValues></_>
    <_>
      <internalNodes>
        0 -1 49727 5.0365843344479799e-04</internalNodes>
      <leafValues>
        1.9093567132949829e-01 -8.0841690301895142e-01</leafValues></_>
    <_>
      <internalNodes>
        0 -1 90571 5.4189143702387810e-03</internalNodes>
      <leafValues>
        -2.9336985945701599e-01 6.3404732942581177e-01</leafValues></_>
    <_>
      <internalNodes>
        0 -1 61438 8.3649577572941780e-04</internalNodes>
      <leafValues>
        2.4536949396133423e-01 -7.1890449523925781e-01</leafValues></_>
    <_>
      <internalNodes>
        0 -1 128950 1.5572158736176789e-04</internalNodes>
      <leafValues>
        2.6019451022148132e-01 -7.0181345939636230e-01</leafValues></_>
    <_>
      <internalNodes>
        0 -1 17176 1.1753336730180308e-04</internalNodes>
      <leafValues>
        -6.9203519821166992e-01 2.0696835219860077e-01</leafValues></_></weakClassifiers></stage6>
</opencv_storage>
