<?xml version="1.0"?>
<opencv_storage>
<cascade>
  <stageType>BOOST</stageType>
  <featureType>HAAR</featureType>
  <height>24</height>
  <width>24</width>
  <stageParams>
    <boostType>GAB</boostType>
    <minHitRate>9.9900001287460327e-01</minHitRate>
    <maxFalseAlarm>5.0000000745058060e-02</maxFalseAlarm>
    <weightTrimRate>9.4999999999999996e-01</weightTrimRate>
    <maxDepth>1</maxDepth>
    <maxWeakCount>500</maxWeakCount></stageParams>
  <featureParams>
    <maxCatCount>0</maxCatCount>
    <featSize>1</featSize>
    <mode>BASIC</mode></featureParams>
  <stageNum>5</stageNum>
  <stages>
    <!-- stage 0 -->
    <_>
      <maxWeakCount>46</maxWeakCount>
      <stageThreshold>-1.4924652576446533e+00</stageThreshold>
      <weakClassifiers>
        <_>
          <internalNodes>
            0 -1 69 -3.9778128266334534e-03</internalNodes>
          <leafValues>
            4.9658259749412537e-01 -8.9611637592315674e-01</leafValues></_>
        <_>
          <internalNodes>
            0 -1 70 -9.2150159180164337e-03</internalNodes>
          <leafValues>
            4.4203343987464905e-01 -6.4751881361007690e-01</leafValues></_>
        <_>
          <internalNodes>
            0 -1 9 -4.1148863732814789e-02</internalNodes>
          <leafValues>
            -9.5097064971923828e-01 2.6350417733192444e-01</leafValues></_>
        <_>
          <internalNodes>
            0 -1 289 -2.2560704965144396e-03</internalNodes>
          <leafValues>
            4.0559402108192444e-01 -5.2851164340972900e-01</leafValues></_>
        <_>
          <internalNodes>
            0 -1 155 -5.4997023195028305e-02</internalNodes>
          <leafValues>
            5.3640347719192505e-01 -3.1713470816612244e-01</leafValues></_>
        <_>
          <internalNodes>
            0 -1 23 -1.2477891519665718e-02</internalNodes>
          <leafValues>
            -6.5741425752639771e-01 2.0792637765407562e-01</leafValues></_>
        <_>
          <internalNodes>
            0 -1 207 2.4021475110203028e-03</internalNodes>
          <leafValues>
            1.0651262849569321e-01 -8.0395627021789551e-01</leafValues></_>
        <_>
          <internalNodes>
            0 -1 484 -1.1885059997439384e-02</internalNodes>
          <leafValues>
            -8.1366080045700073e-01 1.1249826103448868e-01</leafValues></_>
        <_>
          <internalNodes>
            0 -1 326 1.7969575710594654e-03</internalNodes>
          <leafValues>
            -1.7371597886085510e-01 6.3802069425582886e-01</leafValues></_>
        <_>
          <internalNodes>
            0 -1 39 4.9749785102903843e-04</internalNodes>
          <leafValues>
            -3.4290295839309692e-01 2.7302160859107971e-01</leafValues></_>
        <_>
          <internalNodes>
            0 -1 387 4.8410026356577873e-03</internalNodes>
          <leafValues>
            -1.4171589910984039e-01 7.5443625450134277e-01</leafValues></_>
        <_>
          <internalNodes>
            0 -1 296 -1.0642228648066521e-02</internalNodes>
          <leafValues>
            3.6790353059768677e-01 -2.4258939921855927e-01</leafValues></_>
        <_>
          <internalNodes>
            0 -1 227 -9.3492411542683840e-04</internalNodes>
          <leafValues>
            -3.1971862912178040e-01 2.8453528881072998e-01</leafValues></_>
        <_>
          <internalNodes>
            0 -1 204 -1.8864265084266663e-01</internalNodes>
          <leafValues>
            5.8230710029602051e-01 -1.7289489507675171e-01</leafValues></_>
        <_>
          <internalNodes>
            0 -1 247 -2.5559950154274702e-03</internalNodes>
          <leafValues>
            -5.8775162696838379e-01 1.6876737773418427e-01</leafValues></_>
        <_>
          <internalNodes>
            0 -1 361 -1.9045630469918251e-03</internalNodes>
          <leafValues>
            -7.5110757350921631e-01 8.0964930355548859e-02</leafValues></_>
        <_>
          <internalNodes>
            0 -1 357 6.0211081290617585e-04</internalNodes>
          <leafValues>
            -1.7878617346286774e-01 5.0221145153045654e-01</leafValues></_>
        <_>
          <internalNodes>
            0 -1 406 1.5603983774781227e-03</internalNodes>
          <leafValues>
            -1.7316141724586487e-01 5.4411411285400391e-01</leafValues></_>
        <_>
          <internalNodes>
            0 -1 79 1.5419431729242206e-03</internalNodes>
          <leafValues>
            1.1245049536228180e-01 -7.3684823513031006e-01</leafValues></_>
        <_>
          <internalNodes>
            0 -1 79 -1.7743014032021165e-03</internalNodes>
          <leafValues>
            -6.6656690835952759e-01 1.0207390040159225e-01</leafValues></_>
        <_>
          <internalNodes>
            0 -1 106 1.2919021537527442e-03</internalNodes>
          <leafValues>
            -2.1785989403724670e-01 4.3067151308059692e-01</leafValues></_>
        <_>
          <internalNodes>
            0 -1 226 -7.0395111106336117e-03</internalNodes>
          <leafValues>
            5.7594400644302368e-01 -1.3449400663375854e-01</leafValues></_>
        <_>
          <internalNodes>
            0 -1 255 -4.7766615170985460e-04</internalNodes>
          <leafValues>
            3.1223353743553162e-01 -2.4294655025005341e-01</leafValues></_>
        <_>
          <internalNodes>
            0 -1 362 2.0457182545214891e-03</internalNodes>
          <leafValues>
            1.1306211352348328e-01 -7.5989001989364624e-01</leafValues></_>
        <_>
          <internalNodes>
            0 -1 239 -2.6904704282060266e-04</internalNodes>
          <leafValues>
            2.9983946681022644e-01 -2.2425386309623718e-01</leafValues></_>
        <_>
          <internalNodes>
            0 -1 104 -2.2504119202494621e-02</internalNodes>
          <leafValues>
            -1.0679636895656586e-01 7.6322048902511597e-01</leafValues></_>
        <_>
          <internalNodes>
            0 -1 92 4.4516017660498619e-03</internalNodes>
          <leafValues>
            -8.7130397558212280e-02 6.2876111268997192e-01</leafValues></_>
        <_>
          <internalNodes>
            0 -1 86 -1.7142649739980698e-02</internalNodes>
          <leafValues>
            4.7839632630348206e-01 -1.5643832087516785e-01</leafValues></_>
        <_>
          <internalNodes>
            0 -1 461 -6.1862281290814281e-04</internalNodes>
          <leafValues>
            -6.9359290599822998e-01 1.0791274160146713e-01</leafValues></_>
        <_>
          <internalNodes>
            0 -1 233 9.2635676264762878e-04</internalNodes>
          <leafValues>
            -1.5701733529567719e-01 4.4433882832527161e-01</leafValues></_>
        <_>
          <internalNodes>
            0 -1 78 2.4158190935850143e-03</internalNodes>
          <leafValues>
            9.5524340867996216e-02 -6.8801653385162354e-01</leafValues></_>
        <_>
          <internalNodes>
            0 -1 55 1.5479588910238817e-05</internalNodes>
          <leafValues>
            1.4689885079860687e-01 -3.9577206969261169e-01</leafValues></_>
        <_>
          <internalNodes>
            0 -1 24 2.6568049564957619e-02</internalNodes>
          <leafValues>
            -1.0658778995275497e-01 6.5178453922271729e-01</leafValues></_>
        <_>
          <internalNodes>
            0 -1 383 -1.0384967923164368e-01</internalNodes>
          <leafValues>
            6.9001936912536621e-01 -8.2298062741756439e-02</leafValues></_>
        <_>
          <internalNodes>
            0 -1 392 -1.4845315366983414e-02</internalNodes>
          <leafValues>
            5.6440365314483643e-01 -1.1374164372682571e-01</leafValues></_>
        <_>
          <internalNodes>
            0 -1 147 -1.2583512067794800e-01</internalNodes>
          <leafValues>
            -9.8318105936050415e-01 8.0643013119697571e-02</leafValues></_>
        <_>
          <internalNodes>
            0 -1 251 -2.5163434445858002e-02</internalNodes>
          <leafValues>
            -5.4666411876678467e-01 9.8762601613998413e-02</leafValues></_>
        <_>
          <internalNodes>
            0 -1 432 2.9470931738615036e-02</internalNodes>
          <leafValues>
            6.6839195787906647e-02 -7.9316866397857666e-01</leafValues></_>
        <_>
          <internalNodes>
            0 -1 447 -1.5089488029479980e-01</internalNodes>
          <leafValues>
            1.6530086100101471e-01 -3.5585343837738037e-01</leafValues></_>
        <_>
          <internalNodes>
            0 -1 267 -2.3270256351679564e-03</internalNodes>
          <leafValues>
            -7.5647048652172089e-02 9.2363876104354858e-01</leafValues></_>
        <_>
          <internalNodes>
            0 -1 123 -7.7412114478647709e-04</internalNodes>
          <leafValues>
            -7.7616554498672485e-01 9.9142290651798248e-02</leafValues></_>
        <_>
          <internalNodes>
            0 -1 328 -1.5838341787457466e-03</internalNodes>
          <leafValues>
            2.7730190753936768e-01 -2.1893349289894104e-01</leafValues></_>
        <_>
          <internalNodes>
            0 -1 342 3.5459944047033787e-03</internalNodes>
          <leafValues>
            -9.3967817723751068e-02 6.1505788564682007e-01</leafValues></_>
        <_>
          <internalNodes>
            0 -1 318 -1.5812327619642019e-03</internalNodes>
          <leafValues>
            -2.6754757761955261e-01 2.2196085751056671e-01</leafValues></_>
        <_>
          <internalNodes>
            0 -1 284 -7.1711337659507990e-04</internalNodes>
          <leafValues>
            3.9317119121551514e-01 -1.5447995066642761e-01</leafValues></_>
        <_>
          <internalNodes>
            0 -1 50 4.2527234181761742e-03</internalNodes>
          <leafValues>
            -1.7073900997638702e-01 3.1425386667251587e-01</leafValues></_></weakClassifiers></_>
    <!-- stage 1 -->
    <_>
      <maxWeakCount>73</maxWeakCount>
      <stageThreshold>-1.3182903528213501e+00</stageThreshold>
      <weakClassifiers>
        <_>
          <internalNodes>
            0 -1 308 1.0026335716247559e-02</internalNodes>
          <leafValues>
            -5.6545627117156982e-01 5.7988721132278442e-01</leafValues></_>
        <_>
          <internalNodes>
            0 -1 47 -1.5347055159509182e-03</internalNodes>
          <leafValues>
            1.9891674816608429e-01 -6.8423771858215332e-01</leafValues></_>
        <_>
          <internalNodes>
            0 -1 61 -2.1264284849166870e-01</internalNodes>
          <leafValues>
            6.3895583152770996e-01 -2.4267077445983887e-01</leafValues></_>
        <_>
          <internalNodes>
            0 -1 291 1.9697747193276882e-03</internalNodes>
          <leafValues>
            2.4118478596210480e-01 -5.8253812789916992e-01</leafValues></_>
        <_>
          <internalNodes>
            0 -1 27 -1.9877525046467781e-02</internalNodes>
          <leafValues>
            -7.5505256652832031e-01 2.0500279963016510e-01</leafValues></_>
        <_>
          <internalNodes>
            0 -1 95 1.4570110477507114e-02</internalNodes>
          <leafValues>
            -2.4685442447662354e-01 4.0519067645072937e-01</leafValues></_>
        <_>
          <internalNodes>
            0 -1 396 5.9685390442609787e-03</internalNodes>
          <leafValues>
            -1.4546312391757965e-01 6.8721914291381836e-01</leafValues></_>
        <_>
          <internalNodes>
            0 -1 250 -1.0196584463119507e+00</internalNodes>
          <leafValues>
            -3.1020376086235046e-01 3.2186305522918701e-01</leafValues></_>
        <_>
          <internalNodes>
            0 -1 407 3.7417521234601736e-03</internalNodes>
          <leafValues>
            -1.5172980725765228e-01 6.0144788026809692e-01</leafValues></_>
        <_>
          <internalNodes>
            0 -1 152 -1.6825902275741100e-03</internalNodes>
          <leafValues>
            -5.7026398181915283e-01 1.4191952347755432e-01</leafValues></_>
        <_>
          <internalNodes>
            0 -1 76 1.1212257668375969e-03</internalNodes>
          <leafValues>
            7.6620623469352722e-02 -8.2723075151443481e-01</leafValues></_>
        <_>
          <internalNodes>
            0 -1 3 3.1274114735424519e-03</internalNodes>
          <leafValues>
            -1.4683723449707031e-01 5.7170391082763672e-01</leafValues></_>
        <_>
          <internalNodes>
            0 -1 161 -6.0663744807243347e-03</internalNodes>
          <leafValues>
            -6.0158264636993408e-01 1.2745283544063568e-01</leafValues></_>
        <_>
          <internalNodes>
            0 -1 249 -3.3377956598997116e-02</internalNodes>
          <leafValues>
            3.5827010869979858e-01 -2.3197695612907410e-01</leafValues></_>
        <_>
          <internalNodes>
            0 -1 141 5.8182131033390760e-04</internalNodes>
          <leafValues>
            -1.7817521095275879e-01 3.9601379632949829e-01</leafValues></_>
        <_>
          <internalNodes>
            0 -1 153 4.2257094755768776e-03</internalNodes>
          <leafValues>
            1.1156465113162994e-01 -6.9577693939208984e-01</leafValues></_>
        <_>
          <internalNodes>
            0 -1 458 -1.2349276803433895e-03</internalNodes>
          <leafValues>
            -4.5056807994842529e-01 1.3113617897033691e-01</leafValues></_>
        <_>
          <internalNodes>
            0 -1 194 3.8776036817580462e-03</internalNodes>
          <leafValues>
            -2.7204415202140808e-01 2.2453959286212921e-01</leafValues></_>
        <_>
          <internalNodes>
            0 -1 410 -8.3126530051231384e-02</internalNodes>
          <leafValues>
            -9.4306081533432007e-01 5.4888378828763962e-02</leafValues></_>
        <_>
          <internalNodes>
            0 -1 468 -1.2867459654808044e-01</internalNodes>
          <leafValues>
            8.9534276723861694e-01 -8.4518760442733765e-02</leafValues></_>
        <_>
          <internalNodes>
            0 -1 352 1.3375239446759224e-02</internalNodes>
          <leafValues>
            -5.9872895479202271e-02 7.8480112552642822e-01</leafValues></_>
        <_>
          <internalNodes>
            0 -1 221 3.7831119261682034e-03</internalNodes>
          <leafValues>
            8.1762425601482391e-02 -9.6599888801574707e-01</leafValues></_>
        <_>
          <internalNodes>
            0 -1 87 -1.0390121489763260e-02</internalNodes>
          <leafValues>
            4.4823819398880005e-01 -1.6301771998405457e-01</leafValues></_>
        <_>
          <internalNodes>
            0 -1 192 -2.7041123248636723e-03</internalNodes>
          <leafValues>
            2.0124378800392151e-01 -2.6809918880462646e-01</leafValues></_>
        <_>
          <internalNodes>
            0 -1 350 -6.6752219572663307e-03</internalNodes>
          <leafValues>
            -6.9308978319168091e-01 7.3517635464668274e-02</leafValues></_>
        <_>
          <internalNodes>
            0 -1 415 -4.1095330379903316e-03</internalNodes>
          <leafValues>
            -8.0053746700286865e-01 5.2322424948215485e-02</leafValues></_>
        <_>
          <internalNodes>
            0 -1 165 3.7419912405312061e-03</internalNodes>
          <leafValues>
            3.7292830646038055e-02 -9.9581646919250488e-01</leafValues></_>
        <_>
          <internalNodes>
            0 -1 36 -1.5955276321619749e-03</internalNodes>
          <leafValues>
            1.3829998672008514e-01 -3.6682215332984924e-01</leafValues></_>
        <_>
          <internalNodes>
            0 -1 90 -1.4426738489419222e-03</internalNodes>
          <leafValues>
            -6.2442815303802490e-01 8.0612316727638245e-02</leafValues></_>
        <_>
          <internalNodes>
            0 -1 327 -9.4886850565671921e-03</internalNodes>
          <leafValues>
            6.8644630908966064e-01 -8.6141005158424377e-02</leafValues></_>
        <_>
          <internalNodes>
            0 -1 433 -2.3357495665550232e-02</internalNodes>
          <leafValues>
            -3.7133687734603882e-01 1.5490628778934479e-01</leafValues></_>
        <_>
          <internalNodes>
            0 -1 388 -4.6234140172600746e-03</internalNodes>
          <leafValues>
            4.7891795635223389e-01 -1.1863069981336594e-01</leafValues></_>
        <_>
          <internalNodes>
            0 -1 299 -1.3762930175289512e-03</internalNodes>
          <leafValues>
            3.1677931547164917e-01 -1.5269026160240173e-01</leafValues></_>
        <_>
          <internalNodes>
            0 -1 209 -9.5076588913798332e-03</internalNodes>
          <leafValues>
            -4.6718266606330872e-01 1.2060318887233734e-01</leafValues></_>
        <_>
          <internalNodes>
            0 -1 358 3.8048808928579092e-03</internalNodes>
          <leafValues>
            -9.3005008995532990e-02 5.6393861770629883e-01</leafValues></_>
        <_>
          <internalNodes>
            0 -1 16 2.5058761821128428e-04</internalNodes>
          <leafValues>
            1.4570558071136475e-01 -3.6309424042701721e-01</leafValues></_>
        <_>
          <internalNodes>
            0 -1 84 2.0584024488925934e-02</internalNodes>
          <leafValues>
            -7.8413061797618866e-02 6.4043611288070679e-01</leafValues></_>
        <_>
          <internalNodes>
            0 -1 53 -3.0398339033126831e-02</internalNodes>
          <leafValues>
            -1.2223608046770096e-01 4.2367428541183472e-01</leafValues></_>
        <_>
          <internalNodes>
            0 -1 232 -1.6987431794404984e-02</internalNodes>
          <leafValues>
            6.5800577402114868e-01 -7.2576418519020081e-02</leafValues></_>
        <_>
          <internalNodes>
            0 -1 477 -8.5305497050285339e-03</internalNodes>
          <leafValues>
            -5.8902233839035034e-01 9.2566095292568207e-02</leafValues></_>
        <_>
          <internalNodes>
            0 -1 427 9.8465867340564728e-03</internalNodes>
          <leafValues>
            1.0264988243579865e-01 -4.8163655400276184e-01</leafValues></_>
        <_>
          <internalNodes>
            0 -1 248 2.6184937451034784e-03</internalNodes>
          <leafValues>
            6.7514784634113312e-02 -6.1694592237472534e-01</leafValues></_>
        <_>
          <internalNodes>
            0 -1 201 -2.2700182162225246e-03</internalNodes>
          <leafValues>
            -3.8294127583503723e-01 1.3008086383342743e-01</leafValues></_>
        <_>
          <internalNodes>
            0 -1 459 -8.0126971006393433e-03</internalNodes>
          <leafValues>
            1.0031247138977051e-01 -4.3629890680313110e-01</leafValues></_>
        <_>
          <internalNodes>
            0 -1 423 2.6922605466097593e-03</internalNodes>
          <leafValues>
            1.1208996176719666e-01 -3.6339691281318665e-01</leafValues></_>
        <_>
          <internalNodes>
            0 -1 386 -2.0153634250164032e-03</internalNodes>
          <leafValues>
            3.0495789647102356e-01 -1.5133519470691681e-01</leafValues></_>
        <_>
          <internalNodes>
            0 -1 438 6.3072890043258667e-04</internalNodes>
          <leafValues>
            7.8354828059673309e-02 -6.5005683898925781e-01</leafValues></_>
        <_>
          <internalNodes>
            0 -1 103 2.4736188352108002e-03</internalNodes>
          <leafValues>
            -1.5478669106960297e-01 3.2026144862174988e-01</leafValues></_>
        <_>
          <internalNodes>
            0 -1 97 9.1042136773467064e-04</internalNodes>
          <leafValues>
            8.7528891861438751e-02 -5.5669993162155151e-01</leafValues></_>
        <_>
          <internalNodes>
            0 -1 286 3.8456972688436508e-03</internalNodes>
          <leafValues>
            -9.5387138426303864e-02 5.7538545131683350e-01</leafValues></_>
        <_>
          <internalNodes>
            0 -1 126 4.0344530716538429e-03</internalNodes>
          <leafValues>
            -6.9104932248592377e-02 5.5852782726287842e-01</leafValues></_>
        <_>
          <internalNodes>
            0 -1 100 1.9967840053141117e-03</internalNodes>
          <leafValues>
            -1.6609829664230347e-01 2.8133076429367065e-01</leafValues></_>
        <_>
          <internalNodes>
            0 -1 304 2.5614378973841667e-03</internalNodes>
          <leafValues>
            5.9612140059471130e-02 -6.7513269186019897e-01</leafValues></_>
        <_>
          <internalNodes>
            0 -1 311 -3.5817271564155817e-03</internalNodes>
          <leafValues>
            3.5339888930320740e-01 -1.3275834918022156e-01</leafValues></_>
        <_>
          <internalNodes>
            0 -1 187 5.2919751033186913e-04</internalNodes>
          <leafValues>
            -1.5365919470787048e-01 3.0740222334861755e-01</leafValues></_>
        <_>
          <internalNodes>
            0 -1 403 8.1339944154024124e-03</internalNodes>
          <leafValues>
            1.0585168749094009e-01 -4.3242153525352478e-01</leafValues></_>
        <_>
          <internalNodes>
            0 -1 266 3.1630680896341801e-03</internalNodes>
          <leafValues>
            4.7595683485269547e-02 -8.0126440525054932e-01</leafValues></_>
        <_>
          <internalNodes>
            0 -1 59 -1.3423358090221882e-02</internalNodes>
          <leafValues>
            -7.2774656116962433e-02 6.3630425930023193e-01</leafValues></_>
        <_>
          <internalNodes>
            0 -1 236 8.6356103420257568e-03</internalNodes>
          <leafValues>
            -8.5490554571151733e-02 4.2458024621009827e-01</leafValues></_>
        <_>
          <internalNodes>
            0 -1 317 -6.4829306211322546e-04</internalNodes>
          <leafValues>
            2.3350322246551514e-01 -1.7256298661231995e-01</leafValues></_>
        <_>
          <internalNodes>
            0 -1 58 9.1858446830883622e-04</internalNodes>
          <leafValues>
            1.2747161090373993e-01 -3.5527688264846802e-01</leafValues></_>
        <_>
          <internalNodes>
            0 -1 470 -4.5082449913024902e-02</internalNodes>
          <leafValues>
            8.8910502195358276e-01 -5.3293913602828979e-02</leafValues></_>
        <_>
          <internalNodes>
            0 -1 449 -1.2699932558462024e-03</internalNodes>
          <leafValues>
            -5.1262634992599487e-01 9.0143598616123199e-02</leafValues></_>
        <_>
          <internalNodes>
            0 -1 299 1.6838647425174713e-03</internalNodes>
          <leafValues>
            -9.7158357501029968e-02 4.5321545004844666e-01</leafValues></_>
        <_>
          <internalNodes>
            0 -1 105 1.0420461185276508e-03</internalNodes>
          <leafValues>
            -1.2860940396785736e-01 3.1857603788375854e-01</leafValues></_>
        <_>
          <internalNodes>
            0 -1 292 -4.0492117404937744e-03</internalNodes>
          <leafValues>
            -5.6262987852096558e-01 7.5322411954402924e-02</leafValues></_>
        <_>
          <internalNodes>
            0 -1 333 -1.7993915826082230e-03</internalNodes>
          <leafValues>
            3.1971606612205505e-01 -1.5080267190933228e-01</leafValues></_>
        <_>
          <internalNodes>
            0 -1 113 -4.8693264834582806e-03</internalNodes>
          <leafValues>
            -7.5582963228225708e-01 5.7686001062393188e-02</leafValues></_>
        <_>
          <internalNodes>
            0 -1 448 -2.0466890186071396e-02</internalNodes>
          <leafValues>
            -5.0461471080780029e-01 7.0989228785037994e-02</leafValues></_>
        <_>
          <internalNodes>
            0 -1 440 -4.7591311158612370e-04</internalNodes>
          <leafValues>
            1.6120122373104095e-01 -2.5034365057945251e-01</leafValues></_>
        <_>
          <internalNodes>
            0 -1 452 -1.1240459978580475e-02</internalNodes>
          <leafValues>
            -2.8874376416206360e-01 1.4360956847667694e-01</leafValues></_>
        <_>
          <internalNodes>
            0 -1 42 1.1253077536821365e-03</internalNodes>
          <leafValues>
            -2.8748887777328491e-01 1.3841204345226288e-01</leafValues></_>
        <_>
          <internalNodes>
            0 -1 183 -2.5466147810220718e-02</internalNodes>
          <leafValues>
            5.6616610288619995e-01 -7.7380709350109100e-02</leafValues></_></weakClassifiers></_>
    <!-- stage 2 -->
    <_>
      <maxWeakCount>109</maxWeakCount>
      <stageThreshold>-1.2592917680740356e+00</stageThreshold>
      <weakClassifiers>
        <_>
          <internalNodes>
            0 -1 157 -1.0913935257121921e-03</internalNodes>
          <leafValues>
            4.4029466807842255e-02 -8.0570447444915771e-01</leafValues></_>
        <_>
          <internalNodes>
            0 -1 83 1.0037109255790710e-02</internalNodes>
          <leafValues>
            -4.1160640120506287e-01 4.7371444106101990e-01</leafValues></_>
        <_>
          <internalNodes>
            0 -1 44 -3.0464290175586939e-03</internalNodes>
          <leafValues>
            1.8037110567092896e-01 -5.8688730001449585e-01</leafValues></_>
        <_>
          <internalNodes>
            0 -1 357 -7.3626101948320866e-04</internalNodes>
          <leafValues>
            4.0463948249816895e-01 -2.2424910962581635e-01</leafValues></_>
        <_>
          <internalNodes>
            0 -1 38 -3.6746954917907715e-01</internalNodes>
          <leafValues>
            4.0153390169143677e-01 -1.8203230202198029e-01</leafValues></_>
        <_>
          <internalNodes>
            0 -1 366 1.6258812975138426e-03</internalNodes>
          <leafValues>
            1.0163445770740509e-01 -7.1562075614929199e-01</leafValues></_>
        <_>
          <internalNodes>
            0 -1 258 3.4912658156827092e-04</internalNodes>
          <leafValues>
            -3.3747273683547974e-01 2.2113132476806641e-01</leafValues></_>
        <_>
          <internalNodes>
            0 -1 15 -3.5902775824069977e-02</internalNodes>
          <leafValues>
            -5.3106939792633057e-01 1.2395397573709488e-01</leafValues></_>
        <_>
          <internalNodes>
            0 -1 397 2.9311696998775005e-03</internalNodes>
          <leafValues>
            -1.5151712298393250e-01 4.5475724339485168e-01</leafValues></_>
        <_>
          <internalNodes>
            0 -1 334 -3.0616116710007191e-03</internalNodes>
          <leafValues>
            -5.3324115276336670e-01 1.2950932979583740e-01</leafValues></_>
        <_>
          <internalNodes>
            0 -1 273 6.4987046644091606e-03</internalNodes>
          <leafValues>
            4.7327447682619095e-02 -7.3229151964187622e-01</leafValues></_>
        <_>
          <internalNodes>
            0 -1 231 -1.1988677084445953e-02</internalNodes>
          <leafValues>
            5.5007129907608032e-01 -1.0897914320230484e-01</leafValues></_>
        <_>
          <internalNodes>
            0 -1 268 -1.1025438085198402e-02</internalNodes>
          <leafValues>
            6.9004595279693604e-01 -6.9641575217247009e-02</leafValues></_>
        <_>
          <internalNodes>
            0 -1 66 1.6241695266216993e-03</internalNodes>
          <leafValues>
            1.0317593067884445e-01 -7.1081036329269409e-01</leafValues></_>
        <_>
          <internalNodes>
            0 -1 131 -1.3189534656703472e-03</internalNodes>
          <leafValues>
            -5.7094925642013550e-01 4.7196146100759506e-02</leafValues></_>
        <_>
          <internalNodes>
            0 -1 225 1.0392003605375066e-04</internalNodes>
          <leafValues>
            1.0866915434598923e-01 -4.1523897647857666e-01</leafValues></_>
        <_>
          <internalNodes>
            0 -1 248 3.1709976028650999e-03</internalNodes>
          <leafValues>
            6.4879052340984344e-02 -7.7347540855407715e-01</leafValues></_>
        <_>
          <internalNodes>
            0 -1 286 3.3149966038763523e-03</internalNodes>
          <leafValues>
            -1.1883937567472458e-01 4.4395455718040466e-01</leafValues></_>
        <_>
          <internalNodes>
            0 -1 257 2.4764733389019966e-03</internalNodes>
          <leafValues>
            1.1338820308446884e-01 -5.1058071851730347e-01</leafValues></_>
        <_>
          <internalNodes>
            0 -1 13 3.3076584339141846e-02</internalNodes>
          <leafValues>
            3.7198815494775772e-02 -8.5523772239685059e-01</leafValues></_>
        <_>
          <internalNodes>
            0 -1 211 -2.4814883247017860e-02</internalNodes>
          <leafValues>
            -7.1822243928909302e-01 3.9899595081806183e-02</leafValues></_>
        <_>
          <internalNodes>
            0 -1 455 1.3611544854938984e-03</internalNodes>
          <leafValues>
            5.7140164077281952e-02 -5.6501692533493042e-01</leafValues></_>
        <_>
          <internalNodes>
            0 -1 1 1.5411167405545712e-03</internalNodes>
          <leafValues>
            -1.1901450157165527e-01 3.4037581086158752e-01</leafValues></_>
        <_>
          <internalNodes>
            0 -1 0 -3.8798505556769669e-04</internalNodes>
          <leafValues>
            3.9432203769683838e-01 -1.6894653439521790e-01</leafValues></_>
        <_>
          <internalNodes>
            0 -1 96 6.9627724587917328e-04</internalNodes>
          <leafValues>
            7.5630418956279755e-02 -5.4497939348220825e-01</leafValues></_>
        <_>
          <internalNodes>
            0 -1 272 1.4285244047641754e-02</internalNodes>
          <leafValues>
            -7.8051663935184479e-02 5.9653967618942261e-01</leafValues></_>
        <_>
          <internalNodes>
            0 -1 443 -1.0328371822834015e-01</internalNodes>
          <leafValues>
            -5.9469568729400635e-01 7.3462300002574921e-02</leafValues></_>
        <_>
          <internalNodes>
            0 -1 123 6.7914888495579362e-04</internalNodes>
          <leafValues>
            6.0636360198259354e-02 -6.2080264091491699e-01</leafValues></_>
        <_>
          <internalNodes>
            0 -1 454 -1.3760790228843689e-01</internalNodes>
          <leafValues>
            5.7779145240783691e-01 -7.1588583290576935e-02</leafValues></_>
        <_>
          <internalNodes>
            0 -1 473 5.4117191582918167e-02</internalNodes>
          <leafValues>
            7.5567215681076050e-02 -5.6818217039108276e-01</leafValues></_>
        <_>
          <internalNodes>
            0 -1 81 6.4126111101359129e-04</internalNodes>
          <leafValues>
            -2.2074978053569794e-01 1.8275448679924011e-01</leafValues></_>
        <_>
          <internalNodes>
            0 -1 313 -1.6423437744379044e-02</internalNodes>
          <leafValues>
            7.1791100502014160e-01 -6.1108518391847610e-02</leafValues></_>
        <_>
          <internalNodes>
            0 -1 453 2.5570178404450417e-03</internalNodes>
          <leafValues>
            1.0748448222875595e-01 -4.1005730628967285e-01</leafValues></_>
        <_>
          <internalNodes>
            0 -1 300 -2.0473478361964226e-03</internalNodes>
          <leafValues>
            1.7696058750152588e-01 -2.2860512137413025e-01</leafValues></_>
        <_>
          <internalNodes>
            0 -1 336 3.3357709180563688e-03</internalNodes>
          <leafValues>
            -9.0247511863708496e-02 5.1822185516357422e-01</leafValues></_>
        <_>
          <internalNodes>
            0 -1 18 -3.7074508145451546e-03</internalNodes>
          <leafValues>
            -3.4494441747665405e-01 1.2311135232448578e-01</leafValues></_>
        <_>
          <internalNodes>
            0 -1 347 -2.5633433833718300e-03</internalNodes>
          <leafValues>
            -4.6147355437278748e-01 8.4512099623680115e-02</leafValues></_>
        <_>
          <internalNodes>
            0 -1 246 -8.7395434093195945e-05</internalNodes>
          <leafValues>
            1.3650923967361450e-01 -2.8891974687576294e-01</leafValues></_>
        <_>
          <internalNodes>
            0 -1 320 5.2918873727321625e-02</internalNodes>
          <leafValues>
            5.9374999254941940e-02 -6.0071563720703125e-01</leafValues></_>
        <_>
          <internalNodes>
            0 -1 25 8.3045423030853271e-02</internalNodes>
          <leafValues>
            -8.7356857955455780e-02 5.6375992298126221e-01</leafValues></_>
        <_>
          <internalNodes>
            0 -1 393 -1.6982052475214005e-02</internalNodes>
          <leafValues>
            3.9361417293548584e-01 -9.1457970440387726e-02</leafValues></_>
        <_>
          <internalNodes>
            0 -1 409 2.6582693681120872e-03</internalNodes>
          <leafValues>
            -9.6672378480434418e-02 3.8317576050758362e-01</leafValues></_>
        <_>
          <internalNodes>
            0 -1 357 1.9468893879093230e-04</internalNodes>
          <leafValues>
            -1.3717521727085114e-01 3.0011865496635437e-01</leafValues></_>
        <_>
          <internalNodes>
            0 -1 56 -1.5740501694381237e-03</internalNodes>
          <leafValues>
            -4.5281356573104858e-01 8.3328820765018463e-02</leafValues></_>
        <_>
          <internalNodes>
            0 -1 75 4.5144921750761569e-04</internalNodes>
          <leafValues>
            9.5782116055488586e-02 -4.1769924759864807e-01</leafValues></_>
        <_>
          <internalNodes>
            0 -1 154 4.5367926359176636e-02</internalNodes>
          <leafValues>
            3.5001296550035477e-02 -9.3829721212387085e-01</leafValues></_>
        <_>
          <internalNodes>
            0 -1 475 4.2795337503775954e-04</internalNodes>
          <leafValues>
            5.2460119128227234e-02 -5.6106269359588623e-01</leafValues></_>
        <_>
          <internalNodes>
            0 -1 360 9.7271967679262161e-03</internalNodes>
          <leafValues>
            -7.4034444987773895e-02 5.2668917179107666e-01</leafValues></_>
        <_>
          <internalNodes>
            0 -1 116 3.1607677228748798e-03</internalNodes>
          <leafValues>
            4.2269874364137650e-02 -8.4125679731369019e-01</leafValues></_>
        <_>
          <internalNodes>
            0 -1 114 -4.7011533752083778e-03</internalNodes>
          <leafValues>
            -6.4216065406799316e-01 4.1161015629768372e-02</leafValues></_>
        <_>
          <internalNodes>
            0 -1 186 -8.7906030239537358e-04</internalNodes>
          <leafValues>
            3.7325772643089294e-01 -9.4191953539848328e-02</leafValues></_>
        <_>
          <internalNodes>
            0 -1 187 1.1946822050958872e-03</internalNodes>
          <leafValues>
            -1.0743068158626556e-01 3.0501279234886169e-01</leafValues></_>
        <_>
          <internalNodes>
            0 -1 394 -4.3881433084607124e-03</internalNodes>
          <leafValues>
            3.7368032336235046e-01 -8.0006882548332214e-02</leafValues></_>
        <_>
          <internalNodes>
            0 -1 369 -2.4720239453017712e-03</internalNodes>
          <leafValues>
            1.9305767118930817e-01 -2.0907461643218994e-01</leafValues></_>
        <_>
          <internalNodes>
            0 -1 206 -3.2869814895093441e-03</internalNodes>
          <leafValues>
            -2.0039324462413788e-01 2.0088964700698853e-01</leafValues></_>
        <_>
          <internalNodes>
            0 -1 237 -2.7815946936607361e-01</internalNodes>
          <leafValues>
            -4.0135595202445984e-01 9.9509313702583313e-02</leafValues></_>
        <_>
          <internalNodes>
            0 -1 181 -9.2354938387870789e-03</internalNodes>
          <leafValues>
            6.6935080289840698e-01 -6.4156450331211090e-02</leafValues></_>
        <_>
          <internalNodes>
            0 -1 437 -1.0802664328366518e-03</internalNodes>
          <leafValues>
            -3.9385336637496948e-01 9.6751488745212555e-02</leafValues></_>
        <_>
          <internalNodes>
            0 -1 353 -7.3522934690117836e-04</internalNodes>
          <leafValues>
            -2.2600166499614716e-01 1.4930844306945801e-01</leafValues></_>
        <_>
          <internalNodes>
            0 -1 132 1.4079142361879349e-02</internalNodes>
          <leafValues>
            -6.4028255641460419e-02 5.9420692920684814e-01</leafValues></_>
        <_>
          <internalNodes>
            0 -1 275 1.7854789271950722e-02</internalNodes>
          <leafValues>
            -5.2752934396266937e-02 5.6808173656463623e-01</leafValues></_>
        <_>
          <internalNodes>
            0 -1 164 -2.1402763668447733e-03</internalNodes>
          <leafValues>
            -6.5439122915267944e-01 6.5957143902778625e-02</leafValues></_>
        <_>
          <internalNodes>
            0 -1 93 -2.0695412531495094e-03</internalNodes>
          <leafValues>
            2.7384111285209656e-01 -1.3028906285762787e-01</leafValues></_>
        <_>
          <internalNodes>
            0 -1 158 -1.4720190316438675e-02</internalNodes>
          <leafValues>
            -4.8464298248291016e-01 7.5470618903636932e-02</leafValues></_>
        <_>
          <internalNodes>
            0 -1 469 1.0232979431748390e-02</internalNodes>
          <leafValues>
            5.0847850739955902e-02 -5.2006524801254272e-01</leafValues></_>
        <_>
          <internalNodes>
            0 -1 462 -7.0059695281088352e-04</internalNodes>
          <leafValues>
            -3.8680186867713928e-01 7.4227556586265564e-02</leafValues></_>
        <_>
          <internalNodes>
            0 -1 166 1.3967078179121017e-02</internalNodes>
          <leafValues>
            -4.3524786829948425e-02 7.6646351814270020e-01</leafValues></_>
        <_>
          <internalNodes>
            0 -1 218 -2.2325566969811916e-03</internalNodes>
          <leafValues>
            1.3366928696632385e-01 -2.7450042963027954e-01</leafValues></_>
        <_>
          <internalNodes>
            0 -1 269 -4.5123328454792500e-03</internalNodes>
          <leafValues>
            -4.0387830138206482e-01 7.8161768615245819e-02</leafValues></_>
        <_>
          <internalNodes>
            0 -1 291 -2.7708726702257991e-04</internalNodes>
          <leafValues>
            1.2789675593376160e-01 -2.4384878575801849e-01</leafValues></_>
        <_>
          <internalNodes>
            0 -1 244 2.7068004012107849e-02</internalNodes>
          <leafValues>
            3.0026810243725777e-02 -9.6906405687332153e-01</leafValues></_>
        <_>
          <internalNodes>
            0 -1 263 -1.8126416951417923e-02</internalNodes>
          <leafValues>
            -4.5738172531127930e-01 6.2296140938997269e-02</leafValues></_>
        <_>
          <internalNodes>
            0 -1 399 -3.1931367702782154e-03</internalNodes>
          <leafValues>
            -5.9566962718963623e-01 4.8898935317993164e-02</leafValues></_>
        <_>
          <internalNodes>
            0 -1 239 -1.4724652282893658e-03</internalNodes>
          <leafValues>
            4.3402680754661560e-01 -8.5599355399608612e-02</leafValues></_>
        <_>
          <internalNodes>
            0 -1 145 5.4687750525772572e-04</internalNodes>
          <leafValues>
            -1.3639922440052032e-01 2.5640338659286499e-01</leafValues></_>
        <_>
          <internalNodes>
            0 -1 280 -8.2962118089199066e-02</internalNodes>
          <leafValues>
            1.5459272265434265e-01 -2.0453044772148132e-01</leafValues></_>
        <_>
          <internalNodes>
            0 -1 182 -4.6453769318759441e-03</internalNodes>
          <leafValues>
            -6.3501156866550446e-02 5.5295926332473755e-01</leafValues></_>
        <_>
          <internalNodes>
            0 -1 118 1.3776602223515511e-02</internalNodes>
          <leafValues>
            6.5227352082729340e-02 -5.2672910690307617e-01</leafValues></_>
        <_>
          <internalNodes>
            0 -1 133 -3.3651352860033512e-03</internalNodes>
          <leafValues>
            1.6147343814373016e-01 -1.8913441896438599e-01</leafValues></_>
        <_>
          <internalNodes>
            0 -1 216 9.2215389013290405e-02</internalNodes>
          <leafValues>
            -7.2670772671699524e-02 4.2289415001869202e-01</leafValues></_>
        <_>
          <internalNodes>
            0 -1 429 -1.7532280087471008e-01</internalNodes>
          <leafValues>
            6.5352809429168701e-01 -4.3215222656726837e-02</leafValues></_>
        <_>
          <internalNodes>
            0 -1 302 -2.0311644766479731e-04</internalNodes>
          <leafValues>
            2.5929668545722961e-01 -1.1866583675146103e-01</leafValues></_>
        <_>
          <internalNodes>
            0 -1 107 5.5010775104165077e-03</internalNodes>
          <leafValues>
            -1.0474149882793427e-01 3.0003169178962708e-01</leafValues></_>
        <_>
          <internalNodes>
            0 -1 457 4.6955812722444534e-03</internalNodes>
          <leafValues>
            9.6061572432518005e-02 -3.4119632840156555e-01</leafValues></_>
        <_>
          <internalNodes>
            0 -1 234 -3.2351156696677208e-03</internalNodes>
          <leafValues>
            4.0528452396392822e-01 -7.7930986881256104e-02</leafValues></_>
        <_>
          <internalNodes>
            0 -1 159 7.8575573861598969e-03</internalNodes>
          <leafValues>
            5.4072279483079910e-02 -6.2527269124984741e-01</leafValues></_>
        <_>
          <internalNodes>
            0 -1 430 -1.6487638931721449e-03</internalNodes>
          <leafValues>
            -5.4398924112319946e-01 4.8974089324474335e-02</leafValues></_>
        <_>
          <internalNodes>
            0 -1 32 1.1349534615874290e-03</internalNodes>
          <leafValues>
            -2.5752934813499451e-01 1.1727174371480942e-01</leafValues></_>
        <_>
          <internalNodes>
            0 -1 73 -4.8817351460456848e-02</internalNodes>
          <leafValues>
            6.0972023010253906e-01 -6.3590198755264282e-02</leafValues></_>
        <_>
          <internalNodes>
            0 -1 281 -1.3624441623687744e-01</internalNodes>
          <leafValues>
            -3.6860319972038269e-01 9.0018279850482941e-02</leafValues></_>
        <_>
          <internalNodes>
            0 -1 279 -1.9208444282412529e-03</internalNodes>
          <leafValues>
            -2.0126864314079285e-01 1.4068089425563812e-01</leafValues></_>
        <_>
          <internalNodes>
            0 -1 467 -1.4280298491939902e-03</internalNodes>
          <leafValues>
            2.3104019463062286e-01 -1.3149496912956238e-01</leafValues></_>
        <_>
          <internalNodes>
            0 -1 422 -2.6301522739231586e-03</internalNodes>
          <leafValues>
            2.7630051970481873e-01 -1.1213162541389465e-01</leafValues></_>
        <_>
          <internalNodes>
            0 -1 487 6.2836343422532082e-03</internalNodes>
          <leafValues>
            7.8423224389553070e-02 -4.3350231647491455e-01</leafValues></_>
        <_>
          <internalNodes>
            0 -1 428 8.1442268565297127e-03</internalNodes>
          <leafValues>
            -9.0868309140205383e-02 3.5400360822677612e-01</leafValues></_>
        <_>
          <internalNodes>
            0 -1 421 -4.2412206530570984e-02</internalNodes>
          <leafValues>
            -4.7794255614280701e-01 7.4735775589942932e-02</leafValues></_>
        <_>
          <internalNodes>
            0 -1 368 -3.8637325633317232e-03</internalNodes>
          <leafValues>
            -5.1061940193176270e-01 5.5494394153356552e-02</leafValues></_>
        <_>
          <internalNodes>
            0 -1 65 -5.4242194164544344e-04</internalNodes>
          <leafValues>
            -2.7941596508026123e-01 9.9784314632415771e-02</leafValues></_>
        <_>
          <internalNodes>
            0 -1 173 1.1562403291463852e-02</internalNodes>
          <leafValues>
            -4.7724135220050812e-02 6.5751129388809204e-01</leafValues></_>
        <_>
          <internalNodes>
            0 -1 103 4.3796868994832039e-03</internalNodes>
          <leafValues>
            -9.4943314790725708e-02 3.0992189049720764e-01</leafValues></_>
        <_>
          <internalNodes>
            0 -1 348 4.4388384558260441e-03</internalNodes>
          <leafValues>
            7.2061315178871155e-02 -4.3794530630111694e-01</leafValues></_>
        <_>
          <internalNodes>
            0 -1 323 2.3543112911283970e-04</internalNodes>
          <leafValues>
            8.8788866996765137e-02 -3.2605352997779846e-01</leafValues></_>
        <_>
          <internalNodes>
            0 -1 2 2.8068048413842916e-03</internalNodes>
          <leafValues>
            -6.7850776016712189e-02 4.8682162165641785e-01</leafValues></_>
        <_>
          <internalNodes>
            0 -1 355 -3.6463912692852318e-05</internalNodes>
          <leafValues>
            1.7570148408412933e-01 -1.8405096232891083e-01</leafValues></_>
        <_>
          <internalNodes>
            0 -1 179 -1.8102692067623138e-01</internalNodes>
          <leafValues>
            5.9785324335098267e-01 -5.5929120630025864e-02</leafValues></_>
        <_>
          <internalNodes>
            0 -1 110 -4.5809574425220490e-02</internalNodes>
          <leafValues>
            -4.1649824380874634e-01 8.2035876810550690e-02</leafValues></_>
        <_>
          <internalNodes>
            0 -1 295 -1.5889178030192852e-03</internalNodes>
          <leafValues>
            1.3100877404212952e-01 -2.4031415581703186e-01</leafValues></_>
        <_>
          <internalNodes>
            0 -1 67 -3.6841274704784155e-03</internalNodes>
          <leafValues>
            -7.1699625253677368e-01 4.4283274561166763e-02</leafValues></_>
        <_>
          <internalNodes>
            0 -1 389 3.8379430770874023e-03</internalNodes>
          <leafValues>
            -9.3300074338912964e-02 3.5692584514617920e-01</leafValues></_></weakClassifiers></_>
    <!-- stage 3 -->
    <_>
      <maxWeakCount>139</maxWeakCount>
      <stageThreshold>-1.1740784645080566e+00</stageThreshold>
      <weakClassifiers>
        <_>
          <internalNodes>
            0 -1 278 -5.7384399697184563e-03</internalNodes>
          <leafValues>
            1.8589919805526733e-01 -6.0780316591262817e-01</leafValues></_>
        <_>
          <internalNodes>
            0 -1 256 -3.4394476097077131e-03</internalNodes>
          <leafValues>
            1.8095432221889496e-01 -5.5813765525817871e-01</leafValues></_>
        <_>
          <internalNodes>
            0 -1 198 -2.2823303006589413e-03</internalNodes>
          <leafValues>
            -5.1085555553436279e-01 1.6560499370098114e-01</leafValues></_>
        <_>
          <internalNodes>
            0 -1 326 7.8295252751559019e-04</internalNodes>
          <leafValues>
            -2.1245984733104706e-01 4.1363197565078735e-01</leafValues></_>
        <_>
          <internalNodes>
            0 -1 5 2.6134043000638485e-03</internalNodes>
          <leafValues>
            -3.6162534356117249e-01 2.1097783744335175e-01</leafValues></_>
        <_>
          <internalNodes>
            0 -1 243 -1.6080364584922791e-02</internalNodes>
          <leafValues>
            -6.6954255104064941e-01 1.1850636452436447e-01</leafValues></_>
        <_>
          <internalNodes>
            0 -1 342 3.3159083686769009e-03</internalNodes>
          <leafValues>
            -1.7400449514389038e-01 4.2458853125572205e-01</leafValues></_>
        <_>
          <internalNodes>
            0 -1 156 2.7078178245574236e-03</internalNodes>
          <leafValues>
            1.3544254004955292e-01 -4.8769643902778625e-01</leafValues></_>
        <_>
          <internalNodes>
            0 -1 288 1.5261259861290455e-02</internalNodes>
          <leafValues>
            5.1432069391012192e-02 -8.1419080495834351e-01</leafValues></_>
        <_>
          <internalNodes>
            0 -1 149 2.4420309346169233e-03</internalNodes>
          <leafValues>
            7.9772226512432098e-02 -5.8628600835800171e-01</leafValues></_>
        <_>
          <internalNodes>
            0 -1 28 2.9970872402191162e-01</internalNodes>
          <leafValues>
            4.6950377523899078e-02 -8.7234216928482056e-01</leafValues></_>
        <_>
          <internalNodes>
            0 -1 252 -1.2193532288074493e-01</internalNodes>
          <leafValues>
            -7.8450906276702881e-01 4.8202753067016602e-02</leafValues></_>
        <_>
          <internalNodes>
            0 -1 196 -6.9153755903244019e-02</internalNodes>
          <leafValues>
            -7.6823908090591431e-01 4.7945316880941391e-02</leafValues></_>
        <_>
          <internalNodes>
            0 -1 94 3.0070627108216286e-02</internalNodes>
          <leafValues>
            -8.3318784832954407e-02 6.6424506902694702e-01</leafValues></_>
        <_>
          <internalNodes>
            0 -1 265 6.9145770976319909e-04</internalNodes>
          <leafValues>
            7.2616003453731537e-02 -5.4090839624404907e-01</leafValues></_>
        <_>
          <internalNodes>
            0 -1 274 2.5797956623136997e-03</internalNodes>
          <leafValues>
            -1.2197822332382202e-01 3.4729298949241638e-01</leafValues></_>
        <_>
          <internalNodes>
            0 -1 88 -2.0605833269655704e-03</internalNodes>
          <leafValues>
            1.3853800296783447e-01 -2.7192232012748718e-01</leafValues></_>
        <_>
          <internalNodes>
            0 -1 331 -2.6698987931013107e-03</internalNodes>
          <leafValues>
            -5.2666348218917847e-01 7.2483345866203308e-02</leafValues></_>
        <_>
          <internalNodes>
            0 -1 127 -4.1879862546920776e-03</internalNodes>
          <leafValues>
            1.7372703552246094e-01 -2.2273992002010345e-01</leafValues></_>
        <_>
          <internalNodes>
            0 -1 436 -2.0900562405586243e-02</internalNodes>
          <leafValues>
            5.8833144605159760e-02 -7.2111731767654419e-01</leafValues></_>
        <_>
          <internalNodes>
            0 -1 190 1.1653562542051077e-03</internalNodes>
          <leafValues>
            -1.1142530292272568e-01 3.2914623618125916e-01</leafValues></_>
        <_>
          <internalNodes>
            0 -1 362 2.0464854314923286e-03</internalNodes>
          <leafValues>
            4.3876949697732925e-02 -7.6503098011016846e-01</leafValues></_>
        <_>
          <internalNodes>
            0 -1 419 1.0001899208873510e-03</internalNodes>
          <leafValues>
            -1.1071846634149551e-01 3.6172029376029968e-01</leafValues></_>
        <_>
          <internalNodes>
            0 -1 420 -4.6676173806190491e-03</internalNodes>
          <leafValues>
            3.5801839828491211e-01 -1.0051154345273972e-01</leafValues></_>
        <_>
          <internalNodes>
            0 -1 265 -5.0683552399277687e-03</internalNodes>
          <leafValues>
            -4.3589463829994202e-01 8.5415810346603394e-02</leafValues></_>
        <_>
          <internalNodes>
            0 -1 142 -6.9131364580243826e-04</internalNodes>
          <leafValues>
            2.5270915031433105e-01 -1.3507038354873657e-01</leafValues></_>
        <_>
          <internalNodes>
            0 -1 240 -1.3575712218880653e-03</internalNodes>
          <leafValues>
            2.8632301092147827e-01 -1.1763372272253036e-01</leafValues></_>
        <_>
          <internalNodes>
            0 -1 150 -1.6645904630422592e-02</internalNodes>
          <leafValues>
            -6.2141138315200806e-01 6.6685765981674194e-02</leafValues></_>
        <_>
          <internalNodes>
            0 -1 217 1.2955733109265566e-04</internalNodes>
          <leafValues>
            7.5734518468379974e-02 -4.1479676961898804e-01</leafValues></_>
        <_>
          <internalNodes>
            0 -1 416 5.1214168779551983e-03</internalNodes>
          <leafValues>
            5.4977100342512131e-02 -5.5637210607528687e-01</leafValues></_>
        <_>
          <internalNodes>
            0 -1 68 1.9639680162072182e-02</internalNodes>
          <leafValues>
            7.3445431888103485e-02 -3.9945295453071594e-01</leafValues></_>
        <_>
          <internalNodes>
            0 -1 52 -1.0895116254687309e-02</internalNodes>
          <leafValues>
            4.1325935721397400e-01 -8.0904126167297363e-02</leafValues></_>
        <_>
          <internalNodes>
            0 -1 52 4.9002985469996929e-03</internalNodes>
          <leafValues>
            -1.7278562486171722e-01 2.3632910847663879e-01</leafValues></_>
        <_>
          <internalNodes>
            0 -1 30 -1.6714164987206459e-02</internalNodes>
          <leafValues>
            -2.7368572354316711e-01 1.3685837388038635e-01</leafValues></_>
        <_>
          <internalNodes>
            0 -1 229 -2.0765025168657303e-02</internalNodes>
          <leafValues>
            -6.9793331623077393e-01 4.7880627214908600e-02</leafValues></_>
        <_>
          <internalNodes>
            0 -1 310 -2.8402968309819698e-03</internalNodes>
          <leafValues>
            2.2535303235054016e-01 -1.6217881441116333e-01</leafValues></_>
        <_>
          <internalNodes>
            0 -1 111 -3.5848143696784973e-01</internalNodes>
          <leafValues>
            9.1092184185981750e-02 -3.6908796429634094e-01</leafValues></_>
        <_>
          <internalNodes>
            0 -1 49 -1.1407109349966049e-01</internalNodes>
          <leafValues>
            -6.4936086535453796e-02 5.5314028263092041e-01</leafValues></_>
        <_>
          <internalNodes>
            0 -1 74 -1.9569471478462219e-03</internalNodes>
          <leafValues>
            1.6599355638027191e-01 -2.0434942841529846e-01</leafValues></_>
        <_>
          <internalNodes>
            0 -1 364 -6.8331263959407806e-02</internalNodes>
          <leafValues>
            2.2598716616630554e-01 -1.3833172619342804e-01</leafValues></_>
        <_>
          <internalNodes>
            0 -1 200 2.5243714917451143e-03</internalNodes>
          <leafValues>
            -1.7342397570610046e-01 2.1919222176074982e-01</leafValues></_>
        <_>
          <internalNodes>
            0 -1 412 2.3868722841143608e-02</internalNodes>
          <leafValues>
            4.1366014629602432e-02 -6.6404443979263306e-01</leafValues></_>
        <_>
          <internalNodes>
            0 -1 16 8.6764693260192871e-03</internalNodes>
          <leafValues>
            3.9774082601070404e-02 -6.4508384466171265e-01</leafValues></_>
        <_>
          <internalNodes>
            0 -1 482 2.1920632570981979e-02</internalNodes>
          <leafValues>
            3.0426809564232826e-02 -7.5863128900527954e-01</leafValues></_>
        <_>
          <internalNodes>
            0 -1 360 -3.4003083128482103e-03</internalNodes>
          <leafValues>
            3.1540161371231079e-01 -8.9699126780033112e-02</leafValues></_>
        <_>
          <internalNodes>
            0 -1 407 7.4479551985859871e-03</internalNodes>
          <leafValues>
            -5.6629177182912827e-02 5.0531899929046631e-01</leafValues></_>
        <_>
          <internalNodes>
            0 -1 75 -1.1723891366273165e-03</internalNodes>
          <leafValues>
            -6.4723491668701172e-01 4.7778852283954620e-02</leafValues></_>
        <_>
          <internalNodes>
            0 -1 92 -1.3377675786614418e-02</internalNodes>
          <leafValues>
            4.7661051154136658e-01 -6.7695640027523041e-02</leafValues></_>
        <_>
          <internalNodes>
            0 -1 356 7.7029420062899590e-03</internalNodes>
          <leafValues>
            4.6785440295934677e-02 -6.2771600484848022e-01</leafValues></_>
        <_>
          <internalNodes>
            0 -1 425 -2.7468796819448471e-02</internalNodes>
          <leafValues>
            -5.1127076148986816e-01 4.3926425278186798e-02</leafValues></_>
        <_>
          <internalNodes>
            0 -1 165 -2.9787546955049038e-03</internalNodes>
          <leafValues>
            -3.9389494061470032e-01 6.2185391783714294e-02</leafValues></_>
        <_>
          <internalNodes>
            0 -1 351 6.0501769185066223e-03</internalNodes>
          <leafValues>
            6.5489865839481354e-02 -4.0007862448692322e-01</leafValues></_>
        <_>
          <internalNodes>
            0 -1 370 6.5633864142000675e-04</internalNodes>
          <leafValues>
            -1.1084577441215515e-01 2.6079916954040527e-01</leafValues></_>
        <_>
          <internalNodes>
            0 -1 446 1.6500973142683506e-03</internalNodes>
          <leafValues>
            4.9636658281087875e-02 -5.2499973773956299e-01</leafValues></_>
        <_>
          <internalNodes>
            0 -1 122 -2.1641880273818970e-02</internalNodes>
          <leafValues>
            -4.9119162559509277e-01 4.5947987586259842e-02</leafValues></_>
        <_>
          <internalNodes>
            0 -1 335 -1.1218421161174774e-01</internalNodes>
          <leafValues>
            -9.3056333065032959e-01 2.2595802322030067e-02</leafValues></_>
        <_>
          <internalNodes>
            0 -1 294 -4.1996531188488007e-02</internalNodes>
          <leafValues>
            -8.6525511741638184e-01 2.0678102970123291e-02</leafValues></_>
        <_>
          <internalNodes>
            0 -1 188 1.1473465710878372e-03</internalNodes>
          <leafValues>
            -8.9620076119899750e-02 2.6856657862663269e-01</leafValues></_>
        <_>
          <internalNodes>
            0 -1 2 3.0536422855220735e-04</internalNodes>
          <leafValues>
            -1.2284554541110992e-01 1.9191543757915497e-01</leafValues></_>
        <_>
          <internalNodes>
            0 -1 344 6.3619362190365791e-03</internalNodes>
          <leafValues>
            5.2263099700212479e-02 -4.5098856091499329e-01</leafValues></_>
        <_>
          <internalNodes>
            0 -1 282 1.2549398466944695e-02</internalNodes>
          <leafValues>
            -8.6185075342655182e-02 3.6111906170845032e-01</leafValues></_>
        <_>
          <internalNodes>
            0 -1 1 3.0154497362673283e-03</internalNodes>
          <leafValues>
            -6.7535713315010071e-02 3.4955191612243652e-01</leafValues></_>
        <_>
          <internalNodes>
            0 -1 10 -9.5293596386909485e-03</internalNodes>
          <leafValues>
            -4.8912814259529114e-01 5.6152518838644028e-02</leafValues></_>
        <_>
          <internalNodes>
            0 -1 149 -2.9898537322878838e-03</internalNodes>
          <leafValues>
            -4.9949449300765991e-01 4.0377508848905563e-02</leafValues></_>
        <_>
          <internalNodes>
            0 -1 171 -1.4786013402044773e-02</internalNodes>
          <leafValues>
            1.8037614226341248e-01 -1.3225822150707245e-01</leafValues></_>
        <_>
          <internalNodes>
            0 -1 210 -8.8048103498294950e-04</internalNodes>
          <leafValues>
            -1.5821912884712219e-01 1.7184486985206604e-01</leafValues></_>
        <_>
          <internalNodes>
            0 -1 108 -5.1097036339342594e-03</internalNodes>
          <leafValues>
            2.0280565321445465e-01 -1.2815859913825989e-01</leafValues></_>
        <_>
          <internalNodes>
            0 -1 62 -2.7233260869979858e-01</internalNodes>
          <leafValues>
            -6.4292925596237183e-01 3.9301488548517227e-02</leafValues></_>
        <_>
          <internalNodes>
            0 -1 400 5.5202860385179520e-03</internalNodes>
          <leafValues>
            6.1295244842767715e-02 -3.7469181418418884e-01</leafValues></_>
        <_>
          <internalNodes>
            0 -1 338 -1.4540796655637678e-05</internalNodes>
          <leafValues>
            1.1938217282295227e-01 -2.0701391994953156e-01</leafValues></_>
        <_>
          <internalNodes>
            0 -1 293 4.0488233789801598e-03</internalNodes>
          <leafValues>
            -4.9456015229225159e-02 5.4724872112274170e-01</leafValues></_>
        <_>
          <internalNodes>
            0 -1 33 1.3782789930701256e-02</internalNodes>
          <leafValues>
            4.5429937541484833e-02 -6.1993563175201416e-01</leafValues></_>
        <_>
          <internalNodes>
            0 -1 140 -1.3222242705523968e-03</internalNodes>
          <leafValues>
            1.8851904571056366e-01 -1.3463805615901947e-01</leafValues></_>
        <_>
          <internalNodes>
            0 -1 185 5.9550711885094643e-03</internalNodes>
          <leafValues>
            -7.0324897766113281e-02 3.7187558412551880e-01</leafValues></_>
        <_>
          <internalNodes>
            0 -1 271 -1.6554076224565506e-02</internalNodes>
          <leafValues>
            -7.0455655455589294e-02 3.4026321768760681e-01</leafValues></_>
        <_>
          <internalNodes>
            0 -1 375 -7.0550046861171722e-02</internalNodes>
          <leafValues>
            1.0484076291322708e-01 -2.6318779587745667e-01</leafValues></_>
        <_>
          <internalNodes>
            0 -1 402 -3.3678213367238641e-04</internalNodes>
          <leafValues>
            1.4996089041233063e-01 -1.6861639916896820e-01</leafValues></_>
        <_>
          <internalNodes>
            0 -1 253 8.6321955313906074e-04</internalNodes>
          <leafValues>
            -8.4826014935970306e-02 2.8090363740921021e-01</leafValues></_>
        <_>
          <internalNodes>
            0 -1 54 -2.5541419163346291e-03</internalNodes>
          <leafValues>
            1.4100219309329987e-01 -1.8208268284797668e-01</leafValues></_>
        <_>
          <internalNodes>
            0 -1 222 -4.6514421701431274e-03</internalNodes>
          <leafValues>
            -3.2715216279029846e-01 7.7708594501018524e-02</leafValues></_>
        <_>
          <internalNodes>
            0 -1 174 -5.1016505807638168e-02</internalNodes>
          <leafValues>
            6.9771063327789307e-01 -4.3126400560140610e-02</leafValues></_>
        <_>
          <internalNodes>
            0 -1 303 1.9981712102890015e-03</internalNodes>
          <leafValues>
            -7.3086179792881012e-02 3.2196614146232605e-01</leafValues></_>
        <_>
          <internalNodes>
            0 -1 479 -1.6221974510699511e-03</internalNodes>
          <leafValues>
            -3.3685144782066345e-01 7.6283767819404602e-02</leafValues></_>
        <_>
          <internalNodes>
            0 -1 343 1.9101017387583852e-03</internalNodes>
          <leafValues>
            6.0783945024013519e-02 -3.6473688483238220e-01</leafValues></_>
        <_>
          <internalNodes>
            0 -1 324 5.0521520897746086e-03</internalNodes>
          <leafValues>
            -9.4851009547710419e-02 2.6929166913032532e-01</leafValues></_>
        <_>
          <internalNodes>
            0 -1 483 1.8640808761119843e-02</internalNodes>
          <leafValues>
            5.1757611334323883e-02 -5.4407769441604614e-01</leafValues></_>
        <_>
          <internalNodes>
            0 -1 472 -7.0283841341733932e-03</internalNodes>
          <leafValues>
            3.7736159563064575e-01 -7.0799395442008972e-02</leafValues></_>
        <_>
          <internalNodes>
            0 -1 442 -4.5576922595500946e-02</internalNodes>
          <leafValues>
            -6.6029918193817139e-01 4.1498221457004547e-02</leafValues></_>
        <_>
          <internalNodes>
            0 -1 144 1.9832204561680555e-03</internalNodes>
          <leafValues>
            -9.1203227639198303e-02 2.8669378161430359e-01</leafValues></_>
        <_>
          <internalNodes>
            0 -1 262 4.1771885007619858e-03</internalNodes>
          <leafValues>
            2.3899784311652184e-02 -9.7727137804031372e-01</leafValues></_>
        <_>
          <internalNodes>
            0 -1 20 -3.2879780977964401e-02</internalNodes>
          <leafValues>
            1.7731616273522377e-02 -8.9773190021514893e-01</leafValues></_>
        <_>
          <internalNodes>
            0 -1 109 -3.3204425126314163e-02</internalNodes>
          <leafValues>
            -5.8082826435565948e-02 4.8927217721939087e-01</leafValues></_>
        <_>
          <internalNodes>
            0 -1 134 -1.0337658226490021e-02</internalNodes>
          <leafValues>
            7.8620001673698425e-02 -3.3801084756851196e-01</leafValues></_>
        <_>
          <internalNodes>
            0 -1 363 -2.2786548361182213e-03</internalNodes>
          <leafValues>
            -4.7320979833602905e-01 4.8364404588937759e-02</leafValues></_>
        <_>
          <internalNodes>
            0 -1 391 2.2806259803473949e-03</internalNodes>
          <leafValues>
            6.3767649233341217e-02 -3.8454753160476685e-01</leafValues></_>
        <_>
          <internalNodes>
            0 -1 395 2.1019864361733198e-03</internalNodes>
          <leafValues>
            -9.8399162292480469e-02 2.8112229704856873e-01</leafValues></_>
        <_>
          <internalNodes>
            0 -1 388 -3.5971906036138535e-03</internalNodes>
          <leafValues>
            3.1636205315589905e-01 -9.7143322229385376e-02</leafValues></_>
        <_>
          <internalNodes>
            0 -1 270 -2.1231984719634056e-03</internalNodes>
          <leafValues>
            1.4046473801136017e-01 -1.7746314406394958e-01</leafValues></_>
        <_>
          <internalNodes>
            0 -1 272 -5.1204594783484936e-03</internalNodes>
          <leafValues>
            3.8810437917709351e-01 -7.5926765799522400e-02</leafValues></_>
        <_>
          <internalNodes>
            0 -1 214 -1.6667589079588652e-03</internalNodes>
          <leafValues>
            -4.2654249072074890e-01 6.7175872623920441e-02</leafValues></_>
        <_>
          <internalNodes>
            0 -1 379 -2.7307925745844841e-02</internalNodes>
          <leafValues>
            -5.9855556488037109e-01 3.5762242972850800e-02</leafValues></_>
        <_>
          <internalNodes>
            0 -1 398 4.9555306322872639e-03</internalNodes>
          <leafValues>
            5.4830800741910934e-02 -4.3231078982353210e-01</leafValues></_>
        <_>
          <internalNodes>
            0 -1 464 -5.2179535850882530e-03</internalNodes>
          <leafValues>
            -5.9735774993896484e-01 3.6366872489452362e-02</leafValues></_>
        <_>
          <internalNodes>
            0 -1 26 1.1644771695137024e-01</internalNodes>
          <leafValues>
            2.0416913554072380e-02 -8.9994108676910400e-01</leafValues></_>
        <_>
          <internalNodes>
            0 -1 321 -2.6793594588525593e-04</internalNodes>
          <leafValues>
            -1.4380183815956116e-01 1.5310026705265045e-01</leafValues></_>
        <_>
          <internalNodes>
            0 -1 121 -1.7758969217538834e-02</internalNodes>
          <leafValues>
            1.8319125473499298e-01 -1.3254325091838837e-01</leafValues></_>
        <_>
          <internalNodes>
            0 -1 238 -1.7756422981619835e-02</internalNodes>
          <leafValues>
            -6.0184490680694580e-01 4.2106773704290390e-02</leafValues></_>
        <_>
          <internalNodes>
            0 -1 176 1.5660107135772705e-02</internalNodes>
          <leafValues>
            -8.4270074963569641e-02 2.8656014800071716e-01</leafValues></_>
        <_>
          <internalNodes>
            0 -1 401 -7.1601464878767729e-04</internalNodes>
          <leafValues>
            -5.2063107490539551e-01 4.6035047620534897e-02</leafValues></_>
        <_>
          <internalNodes>
            0 -1 431 -3.7044947966933250e-03</internalNodes>
          <leafValues>
            2.5512093305587769e-01 -9.4764098525047302e-02</leafValues></_>
        <_>
          <internalNodes>
            0 -1 339 -6.3532488420605659e-03</internalNodes>
          <leafValues>
            3.2425653189420700e-02 -7.4645084142684937e-01</leafValues></_>
        <_>
          <internalNodes>
            0 -1 37 -9.5470454543828964e-03</internalNodes>
          <leafValues>
            -3.4369966387748718e-01 6.3929073512554169e-02</leafValues></_>
        <_>
          <internalNodes>
            0 -1 480 3.0512981116771698e-02</internalNodes>
          <leafValues>
            4.2671073228120804e-02 -5.1858872175216675e-01</leafValues></_>
        <_>
          <internalNodes>
            0 -1 101 1.6695819795131683e-03</internalNodes>
          <leafValues>
            -1.1309271305799484e-01 2.2512350976467133e-01</leafValues></_>
        <_>
          <internalNodes>
            0 -1 51 -7.1008852683007717e-04</internalNodes>
          <leafValues>
            3.3772280812263489e-01 -6.8510837852954865e-02</leafValues></_>
        <_>
          <internalNodes>
            0 -1 304 2.6210416108369827e-03</internalNodes>
          <leafValues>
            4.0483575314283371e-02 -6.4761918783187866e-01</leafValues></_>
        <_>
          <internalNodes>
            0 -1 31 -5.2786298096179962e-02</internalNodes>
          <leafValues>
            -5.2253749221563339e-02 5.0422471761703491e-01</leafValues></_>
        <_>
          <internalNodes>
            0 -1 290 -4.4835307635366917e-03</internalNodes>
          <leafValues>
            1.9011417031288147e-01 -1.5112148225307465e-01</leafValues></_>
        <_>
          <internalNodes>
            0 -1 170 4.4734338298439980e-03</internalNodes>
          <leafValues>
            -6.7618623375892639e-02 3.8990902900695801e-01</leafValues></_>
        <_>
          <internalNodes>
            0 -1 17 -1.7403926700353622e-02</internalNodes>
          <leafValues>
            -5.3104925155639648e-01 5.2858926355838776e-02</leafValues></_>
        <_>
          <internalNodes>
            0 -1 208 -4.0155887836590409e-04</internalNodes>
          <leafValues>
            2.5956684350967407e-01 -9.9689610302448273e-02</leafValues></_>
        <_>
          <internalNodes>
            0 -1 220 3.1447093933820724e-03</internalNodes>
          <leafValues>
            2.7695370838046074e-02 -9.3744325637817383e-01</leafValues></_>
        <_>
          <internalNodes>
            0 -1 451 -2.3552650236524642e-04</internalNodes>
          <leafValues>
            -3.3110594749450684e-01 6.2762662768363953e-02</leafValues></_>
        <_>
          <internalNodes>
            0 -1 474 9.8835436801891774e-05</internalNodes>
          <leafValues>
            -1.0953011363744736e-01 2.1365699172019958e-01</leafValues></_>
        <_>
          <internalNodes>
            0 -1 123 -8.0656842328608036e-04</internalNodes>
          <leafValues>
            -6.1616480350494385e-01 3.8831144571304321e-02</leafValues></_>
        <_>
          <internalNodes>
            0 -1 258 1.6002689953893423e-03</internalNodes>
          <leafValues>
            -9.1884434223175049e-02 2.8030440211296082e-01</leafValues></_>
        <_>
          <internalNodes>
            0 -1 136 -3.3967215567827225e-03</internalNodes>
          <leafValues>
            1.9977495074272156e-01 -1.1969849467277527e-01</leafValues></_>
        <_>
          <internalNodes>
            0 -1 287 1.7483310075476766e-03</internalNodes>
          <leafValues>
            -7.9990871250629425e-02 2.8875222802162170e-01</leafValues></_>
        <_>
          <internalNodes>
            0 -1 298 2.5411421665921807e-04</internalNodes>
          <leafValues>
            -1.2376361340284348e-01 1.9339764118194580e-01</leafValues></_>
        <_>
          <internalNodes>
            0 -1 337 -8.9610181748867035e-03</internalNodes>
          <leafValues>
            -4.5265525579452515e-01 6.6780731081962585e-02</leafValues></_>
        <_>
          <internalNodes>
            0 -1 199 -3.2816901803016663e-02</internalNodes>
          <leafValues>
            -4.3969613313674927e-01 5.1168370991945267e-02</leafValues></_>
        <_>
          <internalNodes>
            0 -1 215 -3.8932003080844879e-02</internalNodes>
          <leafValues>
            6.1247164011001587e-01 -4.4169127941131592e-02</leafValues></_>
        <_>
          <internalNodes>
            0 -1 75 -3.7015808629803360e-04</internalNodes>
          <leafValues>
            -3.0798685550689697e-01 8.8049903512001038e-02</leafValues></_>
        <_>
          <internalNodes>
            0 -1 242 4.7375680878758430e-03</internalNodes>
          <leafValues>
            2.2585604339838028e-02 -8.3243882656097412e-01</leafValues></_>
        <_>
          <internalNodes>
            0 -1 316 -8.8161779567599297e-03</internalNodes>
          <leafValues>
            -3.4534737467765808e-01 5.0614677369594574e-02</leafValues></_>
        <_>
          <internalNodes>
            0 -1 230 -2.1614823490381241e-03</internalNodes>
          <leafValues>
            3.7612932920455933e-01 -6.1364565044641495e-02</leafValues></_>
        <_>
          <internalNodes>
            0 -1 277 -3.7918679881840944e-03</internalNodes>
          <leafValues>
            -4.7986078262329102e-01 5.8079272508621216e-02</leafValues></_>
        <_>
          <internalNodes>
            0 -1 138 -1.1310579720884562e-03</internalNodes>
          <leafValues>
            -3.8070341944694519e-01 5.1290638744831085e-02</leafValues></_>
        <_>
          <internalNodes>
            0 -1 175 3.9650909602642059e-03</internalNodes>
          <leafValues>
            -8.8265813887119293e-02 2.4934250116348267e-01</leafValues></_></weakClassifiers></_>
    <!-- stage 4 -->
    <_>
      <maxWeakCount>174</maxWeakCount>
      <stageThreshold>-1.1255214214324951e+00</stageThreshold>
      <weakClassifiers>
        <_>
          <internalNodes>
            0 -1 372 4.5226886868476868e-03</internalNodes>
          <leafValues>
            -4.9364107847213745e-01 3.4462150931358337e-01</leafValues></_>
        <_>
          <internalNodes>
            0 -1 35 -5.3949174471199512e-03</internalNodes>
          <leafValues>
            1.4902803301811218e-01 -5.4175871610641479e-01</leafValues></_>
        <_>
          <internalNodes>
            0 -1 151 -5.8265042025595903e-04</internalNodes>
          <leafValues>
            1.6645832359790802e-01 -5.5750209093093872e-01</leafValues></_>
        <_>
          <internalNodes>
            0 -1 19 -1.1087499558925629e-02</internalNodes>
          <leafValues>
            -6.1887878179550171e-01 9.6732929348945618e-02</leafValues></_>
        <_>
          <internalNodes>
            0 -1 197 -4.6740699326619506e-04</internalNodes>
          <leafValues>
            1.8254199624061584e-01 -3.6440345644950867e-01</leafValues></_>
        <_>
          <internalNodes>
            0 -1 285 8.0288987373933196e-04</internalNodes>
          <leafValues>
            -1.2632414698600769e-01 4.0630170702934265e-01</leafValues></_>
        <_>
          <internalNodes>
            0 -1 193 5.6980005465447903e-03</internalNodes>
          <leafValues>
            8.2313820719718933e-02 -4.5376622676849365e-01</leafValues></_>
        <_>
          <internalNodes>
            0 -1 191 -1.0213434696197510e-02</internalNodes>
          <leafValues>
            -5.3551542758941650e-01 7.9410150647163391e-02</leafValues></_>
        <_>
          <internalNodes>
            0 -1 325 5.5333506315946579e-04</internalNodes>
          <leafValues>
            -1.2435244768857956e-01 3.0554062128067017e-01</leafValues></_>
        <_>
          <internalNodes>
            0 -1 80 9.3964010011404753e-04</internalNodes>
          <leafValues>
            -2.2665262222290039e-01 1.9998036324977875e-01</leafValues></_>
        <_>
          <internalNodes>
            0 -1 329 3.1185573898255825e-03</internalNodes>
          <leafValues>
            5.4190419614315033e-02 -7.1844160556793213e-01</leafValues></_>
        <_>
          <internalNodes>
            0 -1 77 2.0156120881438255e-03</internalNodes>
          <leafValues>
            2.9508313164114952e-02 -9.0483772754669189e-01</leafValues></_>
        <_>
          <internalNodes>
            0 -1 346 -4.9068834632635117e-03</internalNodes>
          <leafValues>
            3.1378072500228882e-01 -1.4810837805271149e-01</leafValues></_>
        <_>
          <internalNodes>
            0 -1 231 2.3126978427171707e-02</internalNodes>
          <leafValues>
            -5.7984054088592529e-02 5.2823746204376221e-01</leafValues></_>
        <_>
          <internalNodes>
            0 -1 245 -1.8857924733310938e-03</internalNodes>
          <leafValues>
            -5.3063309192657471e-01 6.9407381117343903e-02</leafValues></_>
        <_>
          <internalNodes>
            0 -1 305 4.0047047659754753e-03</internalNodes>
          <leafValues>
            -1.4564615488052368e-01 2.5466862320899963e-01</leafValues></_>
        <_>
          <internalNodes>
            0 -1 212 -3.3192217350006104e-02</internalNodes>
          <leafValues>
            2.3307323455810547e-01 -2.1476072072982788e-01</leafValues></_>
        <_>
          <internalNodes>
            0 -1 97 -1.3034677831456065e-03</internalNodes>
          <leafValues>
            -5.9636932611465454e-01 6.2436755746603012e-02</leafValues></_>
        <_>
          <internalNodes>
            0 -1 34 1.8700584769248962e-03</internalNodes>
          <leafValues>
            8.5877582430839539e-02 -3.3910217881202698e-01</leafValues></_>
        <_>
          <internalNodes>
            0 -1 189 1.1675739660859108e-03</internalNodes>
          <leafValues>
            -1.2297735363245010e-01 2.8147026896476746e-01</leafValues></_>
        <_>
          <internalNodes>
            0 -1 340 -1.6724885208532214e-03</internalNodes>
          <leafValues>
            -4.1006973385810852e-01 6.8942159414291382e-02</leafValues></_>
        <_>
          <internalNodes>
            0 -1 89 -1.6261416021734476e-03</internalNodes>
          <leafValues>
            1.1509831249713898e-01 -2.4612392485141754e-01</leafValues></_>
        <_>
          <internalNodes>
            0 -1 82 4.6554557047784328e-03</internalNodes>
          <leafValues>
            -9.4413757324218750e-02 4.2681905627250671e-01</leafValues></_>
        <_>
          <internalNodes>
            0 -1 91 -2.9852504376322031e-03</internalNodes>
          <leafValues>
            2.1596843004226685e-01 -1.4630158245563507e-01</leafValues></_>
        <_>
          <internalNodes>
            0 -1 172 -4.5028798282146454e-02</internalNodes>
          <leafValues>
            -9.2950326204299927e-01 3.0368473380804062e-02</leafValues></_>
        <_>
          <internalNodes>
            0 -1 137 1.5073542017489672e-03</internalNodes>
          <leafValues>
            -9.5338821411132813e-02 3.1747320294380188e-01</leafValues></_>
        <_>
          <internalNodes>
            0 -1 261 8.8420808315277100e-03</internalNodes>
          <leafValues>
            5.0539758056402206e-02 -5.7610863447189331e-01</leafValues></_>
        <_>
          <internalNodes>
            0 -1 450 -2.0865261554718018e-02</internalNodes>
          <leafValues>
            1.1691329628229141e-01 -2.2536069154739380e-01</leafValues></_>
        <_>
          <internalNodes>
            0 -1 4 9.7244174685329199e-04</internalNodes>
          <leafValues>
            -1.2604203820228577e-01 2.1948595345020294e-01</leafValues></_>
        <_>
          <internalNodes>
            0 -1 1 -4.1015085298568010e-04</internalNodes>
          <leafValues>
            2.0319037139415741e-01 -1.2012935429811478e-01</leafValues></_>
        <_>
          <internalNodes>
            0 -1 195 1.5461113071069121e-03</internalNodes>
          <leafValues>
            8.1891678273677826e-02 -3.4768408536911011e-01</leafValues></_>
        <_>
          <internalNodes>
            0 -1 445 -1.8672975897789001e-01</internalNodes>
          <leafValues>
            7.5115340948104858e-01 -4.1469547897577286e-02</leafValues></_>
        <_>
          <internalNodes>
            0 -1 301 4.2294293642044067e-02</internalNodes>
          <leafValues>
            -8.9330151677131653e-02 2.6875007152557373e-01</leafValues></_>
        <_>
          <internalNodes>
            0 -1 203 2.1201968193054199e-02</internalNodes>
          <leafValues>
            -8.6248427629470825e-02 3.7329405546188354e-01</leafValues></_>
        <_>
          <internalNodes>
            0 -1 413 3.1389698386192322e-02</internalNodes>
          <leafValues>
            6.4321510493755341e-02 -5.3668391704559326e-01</leafValues></_>
        <_>
          <internalNodes>
            0 -1 128 -3.0134940519928932e-02</internalNodes>
          <leafValues>
            4.0076440572738647e-01 -6.5166585147380829e-02</leafValues></_>
        <_>
          <internalNodes>
            0 -1 330 1.6850291285663843e-03</internalNodes>
          <leafValues>
            9.4575598835945129e-02 -2.5509032607078552e-01</leafValues></_>
        <_>
          <internalNodes>
            0 -1 359 1.7654155381023884e-03</internalNodes>
          <leafValues>
            -8.3099618554115295e-02 3.0737516283988953e-01</leafValues></_>
        <_>
          <internalNodes>
            0 -1 404 4.5537215191870928e-04</internalNodes>
          <leafValues>
            -1.2001087516546249e-01 1.9517061114311218e-01</leafValues></_>
        <_>
          <internalNodes>
            0 -1 21 -4.6600131317973137e-03</internalNodes>
          <leafValues>
            -4.8047709465026855e-01 4.6881016343832016e-02</leafValues></_>
        <_>
          <internalNodes>
            0 -1 381 -6.0738414525985718e-02</internalNodes>
          <leafValues>
            4.0827149152755737e-01 -6.4625501632690430e-02</leafValues></_>
        <_>
          <internalNodes>
            0 -1 205 -1.5188759425655007e-03</internalNodes>
          <leafValues>
            3.0571484565734863e-01 -7.7818877995014191e-02</leafValues></_>
        <_>
          <internalNodes>
            0 -1 408 6.9153429940342903e-03</internalNodes>
          <leafValues>
            -5.9890836477279663e-02 4.2901116609573364e-01</leafValues></_>
        <_>
          <internalNodes>
            0 -1 115 1.5089965891093016e-03</internalNodes>
          <leafValues>
            5.5343009531497955e-02 -4.7077897191047668e-01</leafValues></_>
        <_>
          <internalNodes>
            0 -1 19 -2.4039789568632841e-03</internalNodes>
          <leafValues>
            -2.3112289607524872e-01 9.2190302908420563e-02</leafValues></_>
        <_>
          <internalNodes>
            0 -1 29 1.0704629868268967e-01</internalNodes>
          <leafValues>
            6.8928174674510956e-02 -3.1698036193847656e-01</leafValues></_>
        <_>
          <internalNodes>
            0 -1 265 1.3296460383571684e-04</internalNodes>
          <leafValues>
            6.4380742609500885e-02 -3.3020350337028503e-01</leafValues></_>
        <_>
          <internalNodes>
            0 -1 85 -5.1298392936587334e-03</internalNodes>
          <leafValues>
            2.8774696588516235e-01 -9.0114474296569824e-02</leafValues></_>
        <_>
          <internalNodes>
            0 -1 106 1.4078172389417887e-03</internalNodes>
          <leafValues>
            -1.3460756838321686e-01 1.6939234733581543e-01</leafValues></_>
        <_>
          <internalNodes>
            0 -1 46 -9.2567466199398041e-03</internalNodes>
          <leafValues>
            -5.8525294065475464e-02 3.9869567751884460e-01</leafValues></_>
        <_>
          <internalNodes>
            0 -1 486 1.8601049669086933e-03</internalNodes>
          <leafValues>
            -7.3471233248710632e-02 3.0675885081291199e-01</leafValues></_>
        <_>
          <internalNodes>
            0 -1 99 2.1366963628679514e-03</internalNodes>
          <leafValues>
            3.8700919598340988e-02 -6.1487501859664917e-01</leafValues></_>
        <_>
          <internalNodes>
            0 -1 315 1.3287304900586605e-03</internalNodes>
          <leafValues>
            -1.2209021300077438e-01 2.3170135915279388e-01</leafValues></_>
        <_>
          <internalNodes>
            0 -1 332 -7.0361811667680740e-03</internalNodes>
          <leafValues>
            1.7165480554103851e-01 -1.5460731089115143e-01</leafValues></_>
        <_>
          <internalNodes>
            0 -1 377 -4.8433253541588783e-03</internalNodes>
          <leafValues>
            -3.4361451864242554e-01 6.6750735044479370e-02</leafValues></_>
        <_>
          <internalNodes>
            0 -1 213 -5.1419772207736969e-02</internalNodes>
          <leafValues>
            2.0559003576636314e-02 -8.3778095245361328e-01</leafValues></_>
        <_>
          <internalNodes>
            0 -1 319 -1.4469588175415993e-02</internalNodes>
          <leafValues>
            -2.8957360982894897e-01 7.6763808727264404e-02</leafValues></_>
        <_>
          <internalNodes>
            0 -1 63 5.9754913672804832e-04</internalNodes>
          <leafValues>
            5.0901658833026886e-02 -3.8497182726860046e-01</leafValues></_>
        <_>
          <internalNodes>
            0 -1 43 9.1946208849549294e-03</internalNodes>
          <leafValues>
            -4.4153064489364624e-02 5.0722128152847290e-01</leafValues></_>
        <_>
          <internalNodes>
            0 -1 276 -1.2485956773161888e-02</internalNodes>
          <leafValues>
            -3.4222337603569031e-01 6.3051797449588776e-02</leafValues></_>
        <_>
          <internalNodes>
            0 -1 66 -2.0689894445240498e-03</internalNodes>
          <leafValues>
            -4.1784483194351196e-01 4.6227186918258667e-02</leafValues></_>
        <_>
          <internalNodes>
            0 -1 41 2.7338871732354164e-03</internalNodes>
          <leafValues>
            -9.0166136622428894e-02 2.4481187760829926e-01</leafValues></_>
        <_>
          <internalNodes>
            0 -1 115 -2.3715742863714695e-03</internalNodes>
          <leafValues>
            -6.6103774309158325e-01 3.3050306141376495e-02</leafValues></_>
        <_>
          <internalNodes>
            0 -1 283 8.7110670283436775e-03</internalNodes>
          <leafValues>
            4.0913391858339310e-02 -4.4495236873626709e-01</leafValues></_>
        <_>
          <internalNodes>
            0 -1 184 -1.2842217460274696e-02</internalNodes>
          <leafValues>
            5.6246715784072876e-01 -4.1892487555742264e-02</leafValues></_>
        <_>
          <internalNodes>
            0 -1 382 -2.4618315696716309e-01</internalNodes>
          <leafValues>
            -8.4862911701202393e-01 2.7754332870244980e-02</leafValues></_>
        <_>
          <internalNodes>
            0 -1 235 1.3613118790090084e-03</internalNodes>
          <leafValues>
            -1.1465319991111755e-01 1.7609262466430664e-01</leafValues></_>
        <_>
          <internalNodes>
            0 -1 64 5.0743040628731251e-04</internalNodes>
          <leafValues>
            6.1003938317298889e-02 -3.6968752741813660e-01</leafValues></_>
        <_>
          <internalNodes>
            0 -1 307 8.7162470445036888e-03</internalNodes>
          <leafValues>
            2.3304944857954979e-02 -8.2634478807449341e-01</leafValues></_>
        <_>
          <internalNodes>
            0 -1 441 -3.5160012543201447e-02</internalNodes>
          <leafValues>
            -5.4098641872406006e-01 3.1231323257088661e-02</leafValues></_>
        <_>
          <internalNodes>
            0 -1 124 6.7051090300083160e-03</internalNodes>
          <leafValues>
            -4.9216087907552719e-02 4.3070694804191589e-01</leafValues></_>
        <_>
          <internalNodes>
            0 -1 117 5.7263486087322235e-03</internalNodes>
          <leafValues>
            5.4673768579959869e-02 -3.6291286349296570e-01</leafValues></_>
        <_>
          <internalNodes>
            0 -1 120 3.3973450772464275e-03</internalNodes>
          <leafValues>
            -5.6882727891206741e-02 4.8710337281227112e-01</leafValues></_>
        <_>
          <internalNodes>
            0 -1 456 1.7621945589780807e-02</internalNodes>
          <leafValues>
            3.1549509614706039e-02 -6.7702770233154297e-01</leafValues></_>
        <_>
          <internalNodes>
            0 -1 119 -5.4541777353733778e-04</internalNodes>
          <leafValues>
            1.6142362356185913e-01 -1.2355409562587738e-01</leafValues></_>
        <_>
          <internalNodes>
            0 -1 177 6.8858498707413673e-03</internalNodes>
          <leafValues>
            -4.9998406320810318e-02 3.8617736101150513e-01</leafValues></_>
        <_>
          <internalNodes>
            0 -1 178 -1.1078510433435440e-02</internalNodes>
          <leafValues>
            4.9240162968635559e-01 -4.5547273010015488e-02</leafValues></_>
        <_>
          <internalNodes>
            0 -1 130 -1.9559706561267376e-03</internalNodes>
          <leafValues>
            -5.5688029527664185e-01 4.4407963752746582e-02</leafValues></_>
        <_>
          <internalNodes>
            0 -1 373 -1.5285572037100792e-02</internalNodes>
          <leafValues>
            -9.7716677188873291e-01 1.4446256682276726e-02</leafValues></_>
        <_>
          <internalNodes>
            0 -1 387 -3.4585080575197935e-03</internalNodes>
          <leafValues>
            1.8158498406410217e-01 -1.0852878540754318e-01</leafValues></_>
        <_>
          <internalNodes>
            0 -1 385 -9.5887412317097187e-04</internalNodes>
          <leafValues>
            -5.2564936876296997e-01 4.6551652252674103e-02</leafValues></_>
        <_>
          <internalNodes>
            0 -1 223 5.4776365868747234e-03</internalNodes>
          <leafValues>
            1.2165794521570206e-01 -1.6224080324172974e-01</leafValues></_>
        <_>
          <internalNodes>
            0 -1 219 -7.7764131128787994e-04</internalNodes>
          <leafValues>
            1.0733734071254730e-01 -1.8219366669654846e-01</leafValues></_>
        <_>
          <internalNodes>
            0 -1 71 -2.2194266319274902e-02</internalNodes>
          <leafValues>
            7.2945916652679443e-01 -3.2135870307683945e-02</leafValues></_>
        <_>
          <internalNodes>
            0 -1 37 -1.3559088110923767e-02</internalNodes>
          <leafValues>
            -4.1179218888282776e-01 6.0413122177124023e-02</leafValues></_>
        <_>
          <internalNodes>
            0 -1 374 2.1495182067155838e-02</internalNodes>
          <leafValues>
            4.5879516750574112e-02 -4.6226492524147034e-01</leafValues></_>
        <_>
          <internalNodes>
            0 -1 180 -1.2199401855468750e-02</internalNodes>
          <leafValues>
            -3.9688155055046082e-01 4.3607056140899658e-02</leafValues></_>
        <_>
          <internalNodes>
            0 -1 112 -1.6800772398710251e-02</internalNodes>
          <leafValues>
            2.2217111289501190e-01 -8.6241178214550018e-02</leafValues></_>
        <_>
          <internalNodes>
            0 -1 12 -1.5524378977715969e-02</internalNodes>
          <leafValues>
            -3.5703504085540771e-01 5.6697666645050049e-02</leafValues></_>
        <_>
          <internalNodes>
            0 -1 146 1.9168024882674217e-03</internalNodes>
          <leafValues>
            -9.1038465499877930e-02 2.9430004954338074e-01</leafValues></_>
        <_>
          <internalNodes>
            0 -1 14 1.0500660166144371e-02</internalNodes>
          <leafValues>
            5.8701530098915100e-02 -3.6608767509460449e-01</leafValues></_>
        <_>
          <internalNodes>
            0 -1 168 1.2796083465218544e-02</internalNodes>
          <leafValues>
            -4.7413233667612076e-02 5.7550060749053955e-01</leafValues></_>
        <_>
          <internalNodes>
            0 -1 102 -1.6531407833099365e-02</internalNodes>
          <leafValues>
            -5.5356466770172119e-01 4.0656585246324539e-02</leafValues></_>
        <_>
          <internalNodes>
            0 -1 211 1.9558933563530445e-03</internalNodes>
          <leafValues>
            6.3679188489913940e-02 -2.8378930687904358e-01</leafValues></_>
        <_>
          <internalNodes>
            0 -1 45 3.0125547200441360e-02</internalNodes>
          <leafValues>
            -4.5171521604061127e-02 4.4394260644912720e-01</leafValues></_>
        <_>
          <internalNodes>
            0 -1 380 -1.4455777127295732e-03</internalNodes>
          <leafValues>
            2.9933614656329155e-02 -6.8115925788879395e-01</leafValues></_>
        <_>
          <internalNodes>
            0 -1 365 -3.0497973784804344e-03</internalNodes>
          <leafValues>
            -1.5804387629032135e-01 1.2381126731634140e-01</leafValues></_>
        <_>
          <internalNodes>
            0 -1 141 3.1736883101984859e-04</internalNodes>
          <leafValues>
            -1.1397132277488708e-01 1.8446752429008484e-01</leafValues></_>
        <_>
          <internalNodes>
            0 -1 125 1.1443571420386434e-03</internalNodes>
          <leafValues>
            2.4924458935856819e-02 -7.6422977447509766e-01</leafValues></_>
        <_>
          <internalNodes>
            0 -1 143 8.5702829528599977e-04</internalNodes>
          <leafValues>
            -8.5630349814891815e-02 2.3231914639472961e-01</leafValues></_>
        <_>
          <internalNodes>
            0 -1 48 1.5568660455755889e-04</internalNodes>
          <leafValues>
            1.0332559049129486e-01 -1.9702346622943878e-01</leafValues></_>
        <_>
          <internalNodes>
            0 -1 96 -1.0210520122200251e-03</internalNodes>
          <leafValues>
            -5.7644194364547729e-01 3.0318219214677811e-02</leafValues></_>
        <_>
          <internalNodes>
            0 -1 60 9.0377628803253174e-03</internalNodes>
          <leafValues>
            -5.2479274570941925e-02 3.7258782982826233e-01</leafValues></_>
        <_>
          <internalNodes>
            0 -1 148 3.6059920676052570e-03</internalNodes>
          <leafValues>
            5.0991341471672058e-02 -3.7755477428436279e-01</leafValues></_>
        <_>
          <internalNodes>
            0 -1 240 4.7539788647554815e-04</internalNodes>
          <leafValues>
            -1.2237739562988281e-01 2.4460059404373169e-01</leafValues></_>
        <_>
          <internalNodes>
            0 -1 239 -1.0311347432434559e-03</internalNodes>
          <leafValues>
            2.6371094584465027e-01 -8.6666934192180634e-02</leafValues></_>
        <_>
          <internalNodes>
            0 -1 465 -9.6579489763826132e-04</internalNodes>
          <leafValues>
            -3.4678718447685242e-01 6.5662011504173279e-02</leafValues></_>
        <_>
          <internalNodes>
            0 -1 8 -1.9446136429905891e-03</internalNodes>
          <leafValues>
            -2.2620810568332672e-01 8.5329592227935791e-02</leafValues></_>
        <_>
          <internalNodes>
            0 -1 463 -5.5952714756131172e-03</internalNodes>
          <leafValues>
            3.7153881788253784e-01 -5.2886098623275757e-02</leafValues></_>
        <_>
          <internalNodes>
            0 -1 209 7.4753183871507645e-03</internalNodes>
          <leafValues>
            3.0030673369765282e-02 -6.4545297622680664e-01</leafValues></_>
        <_>
          <internalNodes>
            0 -1 189 -9.2763674911111593e-04</internalNodes>
          <leafValues>
            1.8128098547458649e-01 -1.0254232585430145e-01</leafValues></_>
        <_>
          <internalNodes>
            0 -1 405 -5.3260114509612322e-04</internalNodes>
          <leafValues>
            -3.3342111110687256e-01 5.4039191454648972e-02</leafValues></_>
        <_>
          <internalNodes>
            0 -1 444 2.6094254106283188e-02</internalNodes>
          <leafValues>
            -4.6887110918760300e-02 3.7293753027915955e-01</leafValues></_>
        <_>
          <internalNodes>
            0 -1 426 2.2342178970575333e-02</internalNodes>
          <leafValues>
            3.4413270652294159e-02 -5.8748227357864380e-01</leafValues></_>
        <_>
          <internalNodes>
            0 -1 7 2.2165685892105103e-02</internalNodes>
          <leafValues>
            2.1316146478056908e-02 -7.0677822828292847e-01</leafValues></_>
        <_>
          <internalNodes>
            0 -1 135 -5.8116000145673752e-03</internalNodes>
          <leafValues>
            2.8255164623260498e-01 -6.5748795866966248e-02</leafValues></_>
        <_>
          <internalNodes>
            0 -1 417 6.4263334497809410e-03</internalNodes>
          <leafValues>
            2.7604062110185623e-02 -6.4613771438598633e-01</leafValues></_>
        <_>
          <internalNodes>
            0 -1 40 -1.5049232169985771e-02</internalNodes>
          <leafValues>
            -2.4228146672248840e-01 6.7749425768852234e-02</leafValues></_>
        <_>
          <internalNodes>
            0 -1 333 -9.1741653159260750e-03</internalNodes>
          <leafValues>
            5.0418138504028320e-01 -4.2981721460819244e-02</leafValues></_>
        <_>
          <internalNodes>
            0 -1 160 1.0340705048292875e-03</internalNodes>
          <leafValues>
            -2.1711762249469757e-01 8.5221812129020691e-02</leafValues></_>
        <_>
          <internalNodes>
            0 -1 384 9.4627420185133815e-04</internalNodes>
          <leafValues>
            -6.6285312175750732e-02 2.7607187628746033e-01</leafValues></_>
        <_>
          <internalNodes>
            0 -1 485 -1.8529530614614487e-02</internalNodes>
          <leafValues>
            -7.5501084327697754e-02 2.6459386944770813e-01</leafValues></_>
        <_>
          <internalNodes>
            0 -1 476 -3.2043857499957085e-03</internalNodes>
          <leafValues>
            4.0495160967111588e-02 -5.0678437948226929e-01</leafValues></_>
        <_>
          <internalNodes>
            0 -1 460 1.0144652333110571e-03</internalNodes>
          <leafValues>
            4.4863644987344742e-02 -3.7005841732025146e-01</leafValues></_>
        <_>
          <internalNodes>
            0 -1 439 5.7496358640491962e-03</internalNodes>
          <leafValues>
            -1.0239915549755096e-01 1.6435976326465607e-01</leafValues></_>
        <_>
          <internalNodes>
            0 -1 478 9.9048726260662079e-03</internalNodes>
          <leafValues>
            3.7162125110626221e-02 -4.7002884745597839e-01</leafValues></_>
        <_>
          <internalNodes>
            0 -1 309 -1.7010229639708996e-03</internalNodes>
          <leafValues>
            -2.3705285787582397e-01 7.0717662572860718e-02</leafValues></_>
        <_>
          <internalNodes>
            0 -1 1 -5.3578261286020279e-03</internalNodes>
          <leafValues>
            5.2708941698074341e-01 -3.9041165262460709e-02</leafValues></_>
        <_>
          <internalNodes>
            0 -1 297 -2.4548918008804321e-03</internalNodes>
          <leafValues>
            -3.8861671090126038e-01 5.2161246538162231e-02</leafValues></_>
        <_>
          <internalNodes>
            0 -1 163 -3.1196097843348980e-03</internalNodes>
          <leafValues>
            2.6753956079483032e-01 -7.8904107213020325e-02</leafValues></_>
        <_>
          <internalNodes>
            0 -1 202 -1.6498255729675293e-01</internalNodes>
          <leafValues>
            -3.9626386016607285e-02 4.0767368674278259e-01</leafValues></_>
        <_>
          <internalNodes>
            0 -1 390 -8.0965328961610794e-03</internalNodes>
          <leafValues>
            2.1819275617599487e-01 -9.0272702276706696e-02</leafValues></_>
        <_>
          <internalNodes>
