<?xml version="1.0"?>
<opencv_storage>
<stage6>
  <maxWeakCount>110</maxWeakCount>
  <stageThreshold>-6.6702651977539063e-01</stageThreshold>
  <weakClassifiers>
    <_>
      <internalNodes>
        0 -1 52891 8.6205396801233292e-03</internalNodes>
      <leafValues>
        5.5113092064857483e-02 7.4703931808471680e-01</leafValues></_>
    <_>
      <internalNodes>
        0 -1 26050 -4.6787183964625001e-04</internalNodes>
      <leafValues>
        2.9033350944519043e-01 -4.1466924548149109e-01</leafValues></_>
    <_>
      <internalNodes>
        0 -1 411 -4.6407384797930717e-03</internalNodes>
      <leafValues>
        -5.7292240858078003e-01 1.2970687448978424e-01</leafValues></_>
    <_>
      <internalNodes>
        0 -1 25985 -1.4852059539407492e-03</internalNodes>
      <leafValues>
        1.5455345809459686e-01 -4.4075429439544678e-01</leafValues></_>
    <_>
      <internalNodes>
        0 -1 26085 -9.1501744464039803e-04</internalNodes>
      <leafValues>
        -3.0018922686576843e-01 2.4631954729557037e-01</leafValues></_>
    <_>
      <internalNodes>
        0 -1 60436 7.5972761260345578e-04</internalNodes>
      <leafValues>
        -1.6026280820369720e-01 4.2668622732162476e-01</leafValues></_>
    <_>
      <internalNodes>
        0 -1 63644 -3.5333361010998487e-03</internalNodes>
      <leafValues>
        3.7172853946685791e-01 -1.6651268303394318e-01</leafValues></_>
    <_>
      <internalNodes>
        0 -1 13573 -2.6400359347462654e-02</internalNodes>
      <leafValues>
        -5.0412100553512573e-01 1.3668525218963623e-01</leafValues></_>
    <_>
      <internalNodes>
        0 -1 60687 7.7416113344952464e-04</internalNodes>
      <leafValues>
        1.2933732569217682e-01 -4.2650967836380005e-01</leafValues></_>
    <_>
      <internalNodes>
        0 -1 13632 -5.8224040549248457e-04</internalNodes>
      <leafValues>
        1.5112209320068359e-01 -3.8769152760505676e-01</leafValues></_>
    <_>
      <internalNodes>
        0 -1 6771 -2.9156105592846870e-03</internalNodes>
      <leafValues>
        2.6908439397811890e-01 -2.1056041121482849e-01</leafValues></_>
    <_>
      <internalNodes>
        0 -1 31236 -5.2422760054469109e-03</internalNodes>
      <leafValues>
        3.1897678971290588e-01 -1.5295022726058960e-01</leafValues></_>
    <_>
      <internalNodes>
        0 -1 81063 -2.9654958844184875e-01</internalNodes>
      <leafValues>
        1.5698896348476410e-01 -2.7297830581665039e-01</leafValues></_>
    <_>
      <internalNodes>
        0 -1 51809 -1.2939793989062309e-02</internalNodes>
      <leafValues>
        2.5317728519439697e-01 -1.6062708199024200e-01</leafValues></_>
    <_>
      <internalNodes>
        0 -1 26532 2.1734690293669701e-02</internalNodes>
      <leafValues>
        -8.3667315542697906e-02 4.4451969861984253e-01</leafValues></_>
    <_>
      <internalNodes>
        0 -1 41558 -9.9562313407659531e-03</internalNodes>
      <leafValues>
        5.9531807899475098e-01 -5.6896060705184937e-02</leafValues></_>
    <_>
      <internalNodes>
        0 -1 3148 -1.3938045594841242e-03</internalNodes>
      <leafValues>
        1.1402889341115952e-01 -3.7122693657875061e-01</leafValues></_>
    <_>
      <internalNodes>
        0 -1 13636 -1.6862947959452868e-03</internalNodes>
      <leafValues>
        -4.3331822752952576e-01 8.5881151258945465e-02</leafValues></_>
    <_>
      <internalNodes>
        0 -1 49476 4.7616698429919779e-04</internalNodes>
      <leafValues>
        -1.4587575197219849e-01 3.3138167858123779e-01</leafValues></_>
    <_>
      <internalNodes>
        0 -1 41503 6.3155719544738531e-04</internalNodes>
      <leafValues>
        6.7164510488510132e-02 -5.4411983489990234e-01</leafValues></_>
    <_>
      <internalNodes>
        0 -1 6665 -1.8026205943897367e-03</internalNodes>
      <leafValues>
        -7.8265643119812012e-01 4.5316971838474274e-02</leafValues></_>
    <_>
      <internalNodes>
        0 -1 13397 -6.6954770591109991e-04</internalNodes>
      <leafValues>
        2.6016464829444885e-01 -1.4516983926296234e-01</leafValues></_>
    <_>
      <internalNodes>
        0 -1 1199 -1.6074355691671371e-02</internalNodes>
      <leafValues>
        -5.4269260168075562e-01 7.2865322232246399e-02</leafValues></_>
    <_>
      <internalNodes>
        0 -1 24481 -9.7989030182361603e-03</internalNodes>
      <leafValues>
        2.5893262028694153e-01 -1.4698429405689240e-01</leafValues></_>
    <_>
      <internalNodes>
        0 -1 49591 1.4121546410024166e-02</internalNodes>
      <leafValues>
        5.4331064224243164e-02 -5.9348696470260620e-01</leafValues></_>
    <_>
      <internalNodes>
        0 -1 70716 4.6448427019640803e-04</internalNodes>
      <leafValues>
        -1.0830661654472351e-01 3.2035142183303833e-01</leafValues></_>
    <_>
      <internalNodes>
        0 -1 80859 -7.0107309147715569e-03</internalNodes>
      <leafValues>
        3.0426123738288879e-01 -1.2775117158889771e-01</leafValues></_>
    <_>
      <internalNodes>
        0 -1 1267 -1.3050049543380737e-01</internalNodes>
      <leafValues>
        -9.6326255798339844e-01 3.0824406072497368e-02</leafValues></_>
    <_>
      <internalNodes>
        0 -1 66085 -8.8801160454750061e-03</internalNodes>
      <leafValues>
        -4.7583946585655212e-01 5.0375454127788544e-02</leafValues></_>
    <_>
      <internalNodes>
        0 -1 25804 2.9415212338790298e-04</internalNodes>
      <leafValues>
        -1.3679666817188263e-01 2.2107788920402527e-01</leafValues></_>
    <_>
      <internalNodes>
        0 -1 25814 -2.1082013845443726e-03</internalNodes>
      <leafValues>
        3.2648381590843201e-01 -9.3315556645393372e-02</leafValues></_>
    <_>
      <internalNodes>
        0 -1 12241 -2.2250860929489136e-03</internalNodes>
      <leafValues>
        -7.0023930072784424e-01 4.6444207429885864e-02</leafValues></_>
    <_>
      <internalNodes>
        0 -1 151863 -3.9146997733041644e-04</internalNodes>
      <leafValues>
        2.8881511092185974e-01 -1.0665226727724075e-01</leafValues></_>
    <_>
      <internalNodes>
        0 -1 151739 4.6809948980808258e-04</internalNodes>
      <leafValues>
        -1.0352573543787003e-01 2.9415917396545410e-01</leafValues></_>
    <_>
      <internalNodes>
        0 -1 82890 3.2909791916608810e-03</internalNodes>
      <leafValues>
        -7.7551759779453278e-02 3.5252577066421509e-01</leafValues></_>
    <_>
      <internalNodes>
        0 -1 40747 7.0197526365518570e-03</internalNodes>
      <leafValues>
        -7.2921156883239746e-02 3.9589649438858032e-01</leafValues></_>
    <_>
      <internalNodes>
        0 -1 13572 -2.9509566724300385e-02</internalNodes>
      <leafValues>
        -5.1876085996627808e-01 7.1235291659832001e-02</leafValues></_>
    <_>
      <internalNodes>
        0 -1 5015 1.2925668619573116e-02</internalNodes>
      <leafValues>
        5.2897475659847260e-02 -5.0567841529846191e-01</leafValues></_>
    <_>
      <internalNodes>
        0 -1 21086 -3.6611224059015512e-03</internalNodes>
      <leafValues>
        2.7753341197967529e-01 -1.0844212770462036e-01</leafValues></_>
    <_>
      <internalNodes>
        0 -1 87620 -4.4425502419471741e-03</internalNodes>
      <leafValues>
        -8.5020101070404053e-01 3.5501770675182343e-02</leafValues></_>
    <_>
      <internalNodes>
        0 -1 1259 1.0200134478509426e-02</internalNodes>
      <leafValues>
        4.3952886015176773e-02 -5.9157937765121460e-01</leafValues></_>
    <_>
      <internalNodes>
        0 -1 37614 -2.7491970104165375e-04</internalNodes>
      <leafValues>
        -1.6478058695793152e-01 1.8133366107940674e-01</leafValues></_>
    <_>
      <internalNodes>
        0 -1 2207 1.2672411976382136e-03</internalNodes>
      <leafValues>
        -2.5873887538909912e-01 1.0842094570398331e-01</leafValues></_>
    <_>
      <internalNodes>
        0 -1 31092 -2.0895037800073624e-02</internalNodes>
      <leafValues>
        -7.2814142704010010e-01 4.0060058236122131e-02</leafValues></_>
    <_>
      <internalNodes>
        0 -1 13032 -1.0838322341442108e-02</internalNodes>
      <leafValues>
        4.9112430214881897e-01 -6.8778008222579956e-02</leafValues></_>
    <_>
      <internalNodes>
        0 -1 146919 -2.5379016995429993e-02</internalNodes>
      <leafValues>
        -7.3188209533691406e-01 4.1829690337181091e-02</leafValues></_>
    <_>
      <internalNodes>
        0 -1 55546 -3.7908293306827545e-03</internalNodes>
      <leafValues>
        4.4990563392639160e-01 -6.4087107777595520e-02</leafValues></_>
    <_>
      <internalNodes>
        0 -1 5842 1.5584188513457775e-03</internalNodes>
      <leafValues>
        4.9333911389112473e-02 -6.7443156242370605e-01</leafValues></_>
    <_>
      <internalNodes>
        0 -1 13398 4.9431668594479561e-04</internalNodes>
      <leafValues>
        -1.5504600107669830e-01 1.9025543332099915e-01</leafValues></_>
    <_>
      <internalNodes>
        0 -1 2348 -7.0388359017670155e-04</internalNodes>
      <leafValues>
        2.6372748613357544e-01 -1.0545731335878372e-01</leafValues></_>
    <_>
      <internalNodes>
        0 -1 162313 -1.7570436466485262e-03</internalNodes>
      <leafValues>
        -4.3507140874862671e-01 6.2848977744579315e-02</leafValues></_>
    <_>
      <internalNodes>
        0 -1 5004 -3.6089187487959862e-03</internalNodes>
      <leafValues>
        -6.6926079988479614e-01 4.0052656084299088e-02</leafValues></_>
    <_>
      <internalNodes>
        0 -1 27740 4.6057772124186158e-04</internalNodes>
      <leafValues>
        -1.2156853079795837e-01 2.2239466011524200e-01</leafValues></_>
    <_>
      <internalNodes>
        0 -1 4984 2.3278192384168506e-04</internalNodes>
      <leafValues>
        1.0615172237157822e-01 -2.7820497751235962e-01</leafValues></_>
    <_>
      <internalNodes>
        0 -1 12731 1.1933347210288048e-02</internalNodes>
      <leafValues>
        -5.6341286748647690e-02 5.1146125793457031e-01</leafValues></_>
    <_>
      <internalNodes>
        0 -1 154753 3.4284211695194244e-02</internalNodes>
      <leafValues>
        5.5051550269126892e-02 -6.6651189327239990e-01</leafValues></_>
    <_>
      <internalNodes>
        0 -1 31354 -1.8982544541358948e-02</internalNodes>
      <leafValues>
        2.9878620058298111e-02 -7.3183310031890869e-01</leafValues></_>
    <_>
      <internalNodes>
        0 -1 15369 -1.6843111952766776e-03</internalNodes>
      <leafValues>
        4.6285927295684814e-01 -6.0261365026235580e-02</leafValues></_>
    <_>
      <internalNodes>
        0 -1 51038 -3.8987849839031696e-03</internalNodes>
      <leafValues>
        -3.6645743250846863e-01 7.0947632193565369e-02</leafValues></_>
    <_>
      <internalNodes>
        0 -1 73883 3.9544396102428436e-02</internalNodes>
      <leafValues>
        2.5596687570214272e-02 -8.9619660377502441e-01</leafValues></_>
    <_>
      <internalNodes>
        0 -1 106 2.2237550467252731e-02</internalNodes>
      <leafValues>
        2.6078192517161369e-02 -6.8609547615051270e-01</leafValues></_>
    <_>
      <internalNodes>
        0 -1 14035 -2.0830535888671875e-01</internalNodes>
      <leafValues>
        8.6751836538314819e-01 -3.4869536757469177e-02</leafValues></_>
    <_>
      <internalNodes>
        0 -1 80841 1.1989386985078454e-03</internalNodes>
      <leafValues>
        5.4509248584508896e-02 -5.7256573438644409e-01</leafValues></_>
    <_>
      <internalNodes>
        0 -1 159732 -5.3863397624809295e-05</internalNodes>
      <leafValues>
        1.9154703617095947e-01 -1.2712937593460083e-01</leafValues></_>
    <_>
      <internalNodes>
        0 -1 1342 2.8466514777392149e-03</internalNodes>
      <leafValues>
        2.5638611987233162e-02 -1.</leafValues></_>
    <_>
      <internalNodes>
        0 -1 11884 -1.1358999181538820e-03</internalNodes>
      <leafValues>
        -7.8671211004257202e-01 2.1992586553096771e-02</leafValues></_>
    <_>
      <internalNodes>
        0 -1 25442 -1.3744359603151679e-04</internalNodes>
      <leafValues>
        2.2010627388954163e-01 -1.1665776371955872e-01</leafValues></_>
    <_>
      <internalNodes>
        0 -1 33952 4.2849625460803509e-03</internalNodes>
      <leafValues>
        -7.4152857065200806e-02 3.5920748114585876e-01</leafValues></_>
    <_>
      <internalNodes>
        0 -1 37213 2.5152734015136957e-03</internalNodes>
      <leafValues>
        -6.8840704858303070e-02 3.6327886581420898e-01</leafValues></_>
    <_>
      <internalNodes>
        0 -1 52078 8.8680172339081764e-03</internalNodes>
      <leafValues>
        6.0216974467039108e-02 -4.7145786881446838e-01</leafValues></_>
    <_>
      <internalNodes>
        0 -1 61683 8.2254577428102493e-03</internalNodes>
      <leafValues>
        -1.5984135866165161e-01 1.5742363035678864e-01</leafValues></_>
    <_>
      <internalNodes>
        0 -1 20261 3.9277001633308828e-04</internalNodes>
      <leafValues>
        -1.3328266143798828e-01 2.0144705474376678e-01</leafValues></_>
    <_>
      <internalNodes>
        0 -1 5033 -3.1228151172399521e-02</internalNodes>
      <leafValues>
        -5.7160031050443649e-02 5.8742892742156982e-01</leafValues></_>
    <_>
      <internalNodes>
        0 -1 42649 -1.5653854608535767e-01</internalNodes>
      <leafValues>
        1.5663765370845795e-01 -2.0552931725978851e-01</leafValues></_>
    <_>
      <internalNodes>
        0 -1 10045 -9.5035642385482788e-02</internalNodes>
      <leafValues>
        -3.1882086396217346e-01 9.0617172420024872e-02</leafValues></_>
    <_>
      <internalNodes>
        0 -1 160280 -1.1034414172172546e-02</internalNodes>
      <leafValues>
        1.6861476004123688e-01 -1.7396186292171478e-01</leafValues></_>
    <_>
      <internalNodes>
        0 -1 162139 -2.2209724411368370e-03</internalNodes>
      <leafValues>
        -6.8511441349983215e-02 3.9422509074211121e-01</leafValues></_>
    <_>
      <internalNodes>
        0 -1 7477 -1.4600347727537155e-02</internalNodes>
      <leafValues>
        -5.5045700073242188e-01 5.1316443830728531e-02</leafValues></_>
    <_>
      <internalNodes>
        0 -1 6825 -1.4551028609275818e-02</internalNodes>
      <leafValues>
        5.1056748628616333e-01 -6.0591217130422592e-02</leafValues></_>
    <_>
      <internalNodes>
        0 -1 5838 7.6553691178560257e-04</internalNodes>
      <leafValues>
        -8.0258786678314209e-02 3.5556259751319885e-01</leafValues></_>
    <_>
      <internalNodes>
        0 -1 16440 3.3744038082659245e-03</internalNodes>
      <leafValues>
        -1.5198275446891785e-01 2.0330773293972015e-01</leafValues></_>
    <_>
      <internalNodes>
        0 -1 11522 7.1007721126079559e-03</internalNodes>
      <leafValues>
        3.9729200303554535e-02 -6.7865419387817383e-01</leafValues></_>
    <_>
      <internalNodes>
        0 -1 72321 8.9026981731876731e-04</internalNodes>
      <leafValues>
        -1.5388301014900208e-01 1.9267922639846802e-01</leafValues></_>
    <_>
      <internalNodes>
        0 -1 8136 1.0983587708324194e-03</internalNodes>
      <leafValues>
        3.9729688316583633e-02 -6.9028955698013306e-01</leafValues></_>
    <_>
      <internalNodes>
        0 -1 72326 -4.3044043704867363e-03</internalNodes>
      <leafValues>
        4.6937090158462524e-01 -6.3909433782100677e-02</leafValues></_>
    <_>
      <internalNodes>
        0 -1 40113 -1.7420649528503418e-02</internalNodes>
      <leafValues>
        -4.2981684207916260e-01 8.0673910677433014e-02</leafValues></_>
    <_>
      <internalNodes>
        0 -1 66283 7.5308681698516011e-04</internalNodes>
      <leafValues>
        1.2857849895954132e-01 -2.2469888627529144e-01</leafValues></_>
    <_>
      <internalNodes>
        0 -1 62221 -2.0143199712038040e-02</internalNodes>
      <leafValues>
        -4.8410439491271973e-01 5.1964301615953445e-02</leafValues></_>
    <_>
      <internalNodes>
        0 -1 81514 -1.4174383832141757e-03</internalNodes>
      <leafValues>
        2.4107924103736877e-01 -1.1799521744251251e-01</leafValues></_>
    <_>
      <internalNodes>
        0 -1 571 -1.9828425720334053e-03</internalNodes>
      <leafValues>
        -2.6377350091934204e-01 1.2006473541259766e-01</leafValues></_>
    <_>
      <internalNodes>
        0 -1 21665 4.8838648945093155e-03</internalNodes>
      <leafValues>
        -9.0840600430965424e-02 2.8214693069458008e-01</leafValues></_>
    <_>
      <internalNodes>
        0 -1 92028 3.0212579295039177e-03</internalNodes>
      <leafValues>
        6.1344768851995468e-02 -4.3760526180267334e-01</leafValues></_>
    <_>
      <internalNodes>
        0 -1 143279 -1.2940755113959312e-03</internalNodes>
      <leafValues>
        1.9027695059776306e-01 -1.3447417318820953e-01</leafValues></_>
    <_>
      <internalNodes>
        0 -1 130018 -1.6548573039472103e-03</internalNodes>
      <leafValues>
        1.6693775355815887e-01 -1.6325692832469940e-01</leafValues></_>
    <_>
      <internalNodes>
        0 -1 13872 -1.7662983387708664e-02</internalNodes>
      <leafValues>
        2.4041976034641266e-01 -1.0367918759584427e-01</leafValues></_>
    <_>
      <internalNodes>
        0 -1 186 -1.7328703776001930e-02</internalNodes>
      <leafValues>
        -1.9362726807594299e-01 1.6427406668663025e-01</leafValues></_>
    <_>
      <internalNodes>
        0 -1 89824 7.0760451490059495e-04</internalNodes>
      <leafValues>
        -1.2175777554512024e-01 2.4564842879772186e-01</leafValues></_>
    <_>
      <internalNodes>
        0 -1 95733 -1.3749595731496811e-02</internalNodes>
      <leafValues>
        -4.9135541915893555e-01 5.7385955005884171e-02</leafValues></_>
    <_>
      <internalNodes>
        0 -1 83553 1.1683342978358269e-02</internalNodes>
      <leafValues>
        2.9102267697453499e-02 -7.5938683748245239e-01</leafValues></_>
    <_>
      <internalNodes>
        0 -1 12016 -7.5700954766944051e-04</internalNodes>
      <leafValues>
        -1.7990110814571381e-01 1.4950124919414520e-01</leafValues></_>
    <_>
      <internalNodes>
        0 -1 13474 -2.8808275237679482e-03</internalNodes>
      <leafValues>
        3.3146753907203674e-02 -8.1120532751083374e-01</leafValues></_>
    <_>
      <internalNodes>
        0 -1 48482 -7.9142354661598802e-04</internalNodes>
      <leafValues>
        3.3472388982772827e-01 -7.8358806669712067e-02</leafValues></_>
    <_>
      <internalNodes>
        0 -1 49427 1.2441778555512428e-02</internalNodes>
      <leafValues>
        2.9648125171661377e-02 -8.5408180952072144e-01</leafValues></_>
    <_>
      <internalNodes>
        0 -1 9472 -1.4354953542351723e-02</internalNodes>
      <leafValues>
        7.8948730230331421e-01 -3.6268275231122971e-02</leafValues></_>
    <_>
      <internalNodes>
        0 -1 20265 -1.3191278558224440e-03</internalNodes>
      <leafValues>
        -4.8971810936927795e-01 5.8299478143453598e-02</leafValues></_>
    <_>
      <internalNodes>
        0 -1 18819 6.4384768484160304e-04</internalNodes>
      <leafValues>
        7.5243867933750153e-02 -3.1691381335258484e-01</leafValues></_>
    <_>
      <internalNodes>
        0 -1 27821 2.8632576577365398e-03</internalNodes>
      <leafValues>
        -6.4771041274070740e-02 3.9325150847434998e-01</leafValues></_>
    <_>
      <internalNodes>
        0 -1 27821 -3.1154640018939972e-03</internalNodes>
      <leafValues>
        1.8332812190055847e-01 -1.6594526171684265e-01</leafValues></_>
    <_>
      <internalNodes>
        0 -1 40694 4.1143097914755344e-03</internalNodes>
      <leafValues>
        2.5131484493613243e-02 -9.8998427391052246e-01</leafValues></_>
    <_>
      <internalNodes>
        0 -1 17317 -1.1743158102035522e-02</internalNodes>
      <leafValues>
        -1.8113006651401520e-01 1.4883646368980408e-01</leafValues></_></weakClassifiers></stage6>
</opencv_storage>
