<?xml version="1.0"?>
<opencv_storage>
<stage5>
  <maxWeakCount>152</maxWeakCount>
  <stageThreshold>-1.2536146640777588e+00</stageThreshold>
  <weakClassifiers>
    <_>
      <internalNodes>
        0 -1 73074 4.3183742091059685e-03</internalNodes>
      <leafValues>
        -5.0425130128860474e-01 3.7893700599670410e-01</leafValues></_>
    <_>
      <internalNodes>
        0 -1 14646 -6.4701627707108855e-05</internalNodes>
      <leafValues>
        1.0427375882863998e-01 -5.6016170978546143e-01</leafValues></_>
    <_>
      <internalNodes>
        0 -1 1343 -1.7474521882832050e-03</internalNodes>
      <leafValues>
        9.9553383886814117e-02 -5.7204163074493408e-01</leafValues></_>
    <_>
      <internalNodes>
        0 -1 39082 -1.1427761055529118e-03</internalNodes>
      <leafValues>
        -5.6587421894073486e-01 1.0420455783605576e-01</leafValues></_>
    <_>
      <internalNodes>
        0 -1 43052 2.3404075764119625e-03</internalNodes>
      <leafValues>
        -1.3498681783676147e-01 3.9114245772361755e-01</leafValues></_>
    <_>
      <internalNodes>
        0 -1 60441 1.0577875655144453e-03</internalNodes>
      <leafValues>
        -1.6999432444572449e-01 3.8085186481475830e-01</leafValues></_>
    <_>
      <internalNodes>
        0 -1 571 -1.4919617213308811e-02</internalNodes>
      <leafValues>
        -6.5987229347229004e-01 6.9721080362796783e-02</leafValues></_>
    <_>
      <internalNodes>
        0 -1 26814 -1.6076476313173771e-03</internalNodes>
      <leafValues>
        4.3401837348937988e-01 -1.0252604633569717e-01</leafValues></_>
    <_>
      <internalNodes>
        0 -1 52060 1.4557491522282362e-04</internalNodes>
      <leafValues>
        8.8104419410228729e-02 -4.6677646040916443e-01</leafValues></_>
    <_>
      <internalNodes>
        0 -1 13636 -2.5908374227583408e-03</internalNodes>
      <leafValues>
        -5.9294778108596802e-01 7.1724891662597656e-02</leafValues></_>
    <_>
      <internalNodes>
        0 -1 71558 -5.2984505891799927e-03</internalNodes>
      <leafValues>
        5.1038217544555664e-01 -7.6950021088123322e-02</leafValues></_>
    <_>
      <internalNodes>
        0 -1 89824 3.9961270522326231e-04</internalNodes>
      <leafValues>
        -1.6385400295257568e-01 2.3513363301753998e-01</leafValues></_>
    <_>
      <internalNodes>
        0 -1 550 -2.5484660267829895e-01</internalNodes>
      <leafValues>
        2.7910947799682617e-01 -1.2047617882490158e-01</leafValues></_>
    <_>
      <internalNodes>
        0 -1 13556 2.3262975737452507e-03</internalNodes>
      <leafValues>
        6.2640503048896790e-02 -4.5287305116653442e-01</leafValues></_>
    <_>
      <internalNodes>
        0 -1 49486 3.1855641864240170e-03</internalNodes>
      <leafValues>
        -9.0954340994358063e-02 3.6001479625701904e-01</leafValues></_>
    <_>
      <internalNodes>
        0 -1 1259 -3.7381849251687527e-03</internalNodes>
      <leafValues>
        -2.8982418775558472e-01 1.1873518675565720e-01</leafValues></_>
    <_>
      <internalNodes>
        0 -1 70716 6.0616433620452881e-04</internalNodes>
      <leafValues>
        -1.1111729592084885e-01 3.3413502573966980e-01</leafValues></_>
    <_>
      <internalNodes>
        0 -1 8137 7.5582833960652351e-04</internalNodes>
      <leafValues>
        -1.4480467140674591e-01 2.0484466850757599e-01</leafValues></_>
    <_>
      <internalNodes>
        0 -1 60685 -3.9766672998666763e-03</internalNodes>
      <leafValues>
        -3.9660388231277466e-01 7.0896312594413757e-02</leafValues></_>
    <_>
      <internalNodes>
        0 -1 39028 -2.9457481577992439e-02</internalNodes>
      <leafValues>
        -6.9227749109268188e-01 3.6058761179447174e-02</leafValues></_>
    <_>
      <internalNodes>
        0 -1 50389 3.2390998676419258e-03</internalNodes>
      <leafValues>
        -6.9886572659015656e-02 4.4526916742324829e-01</leafValues></_>
    <_>
      <internalNodes>
        0 -1 4988 7.9647533129900694e-04</internalNodes>
      <leafValues>
        4.9319423735141754e-02 -5.4087597131729126e-01</leafValues></_>
    <_>
      <internalNodes>
        0 -1 114753 -3.2750993967056274e-02</internalNodes>
      <leafValues>
        -4.0941116213798523e-01 5.8392092585563660e-02</leafValues></_>
    <_>
      <internalNodes>
        0 -1 62079 1.2265768600627780e-03</internalNodes>
      <leafValues>
        -1.0337170213460922e-01 2.4074833095073700e-01</leafValues></_>
    <_>
      <internalNodes>
        0 -1 49957 1.0841788025572896e-03</internalNodes>
      <leafValues>
        7.5551941990852356e-02 -3.4496295452117920e-01</leafValues></_>
    <_>
      <internalNodes>
        0 -1 19686 2.4987999349832535e-02</internalNodes>
      <leafValues>
        -4.6390540897846222e-02 6.0648000240325928e-01</leafValues></_>
    <_>
      <internalNodes>
        0 -1 134940 -2.5320515036582947e-01</internalNodes>
      <leafValues>
        8.1896263360977173e-01 -2.4454914033412933e-02</leafValues></_>
    <_>
      <internalNodes>
        0 -1 1269 2.7736814226955175e-03</internalNodes>
      <leafValues>
        8.5926555097103119e-02 -3.1437763571739197e-01</leafValues></_>
    <_>
      <internalNodes>
        0 -1 60677 -1.3446807861328125e-03</internalNodes>
      <leafValues>
        -3.1410089135169983e-01 6.8745039403438568e-02</leafValues></_>
    <_>
      <internalNodes>
        0 -1 31062 1.0398837039247155e-03</internalNodes>
      <leafValues>
        9.3764312565326691e-02 -2.5692737102508545e-01</leafValues></_>
    <_>
      <internalNodes>
        0 -1 19474 -7.3238573968410492e-02</internalNodes>
      <leafValues>
        2.2034043073654175e-01 -1.2190805375576019e-01</leafValues></_>
    <_>
      <internalNodes>
        0 -1 26808 9.9151884205639362e-04</internalNodes>
      <leafValues>
        -7.8146450221538544e-02 3.0445396900177002e-01</leafValues></_>
    <_>
      <internalNodes>
        0 -1 82923 1.3161348178982735e-02</internalNodes>
      <leafValues>
        3.4210093319416046e-02 -7.6118612289428711e-01</leafValues></_>
    <_>
      <internalNodes>
        0 -1 25814 -2.4874901864677668e-03</internalNodes>
      <leafValues>
        2.9296892881393433e-01 -8.6989253759384155e-02</leafValues></_>
    <_>
      <internalNodes>
        0 -1 5858 6.7854346707463264e-04</internalNodes>
      <leafValues>
        -1.6431438922882080e-01 1.4498017728328705e-01</leafValues></_>
    <_>
      <internalNodes>
        0 -1 41509 -2.3517828434705734e-02</internalNodes>
      <leafValues>
        4.5856821537017822e-01 -5.3498193621635437e-02</leafValues></_>
    <_>
      <internalNodes>
        0 -1 33845 4.1618640534579754e-04</internalNodes>
      <leafValues>
        -1.2864984571933746e-01 1.9925072789192200e-01</leafValues></_>
    <_>
      <internalNodes>
        0 -1 18205 1.6212051734328270e-02</internalNodes>
      <leafValues>
        -3.9427068084478378e-02 5.9783476591110229e-01</leafValues></_>
    <_>
      <internalNodes>
        0 -1 25720 2.1777930669486523e-03</internalNodes>
      <leafValues>
        -4.6513602137565613e-02 4.3849080801010132e-01</leafValues></_>
    <_>
      <internalNodes>
        0 -1 718 -1.8030139803886414e-01</internalNodes>
      <leafValues>
        -4.4403921812772751e-02 5.1964634656906128e-01</leafValues></_>
    <_>
      <internalNodes>
        0 -1 61028 -6.4988736994564533e-03</internalNodes>
      <leafValues>
        1.8638351559638977e-01 -1.6405437886714935e-01</leafValues></_>
    <_>
      <internalNodes>
        0 -1 18799 1.8691798322834074e-04</internalNodes>
      <leafValues>
        7.3207162320613861e-02 -3.5595431923866272e-01</leafValues></_>
    <_>
      <internalNodes>
        0 -1 26532 2.1187774837017059e-02</internalNodes>
      <leafValues>
        -7.2845391929149628e-02 3.1928670406341553e-01</leafValues></_>
    <_>
      <internalNodes>
        0 -1 52056 -2.2242884151637554e-03</internalNodes>
      <leafValues>
        1.4099717140197754e-01 -1.7753760516643524e-01</leafValues></_>
    <_>
      <internalNodes>
        0 -1 47851 -1.7090274021029472e-02</internalNodes>
      <leafValues>
        1.1831153929233551e-01 -2.3356054723262787e-01</leafValues></_>
    <_>
      <internalNodes>
        0 -1 6832 -3.8307730108499527e-02</internalNodes>
      <leafValues>
        -1.1383429169654846e-01 1.9790348410606384e-01</leafValues></_>
    <_>
      <internalNodes>
        0 -1 8136 8.8821043027564883e-04</internalNodes>
      <leafValues>
        3.5459276288747787e-02 -6.1588561534881592e-01</leafValues></_>
    <_>
      <internalNodes>
        0 -1 114760 -6.9474145770072937e-02</internalNodes>
      <leafValues>
        4.0061143040657043e-01 -5.5381588637828827e-02</leafValues></_>
    <_>
      <internalNodes>
        0 -1 121348 -4.9215619219467044e-04</internalNodes>
      <leafValues>
        -3.8796970248222351e-01 5.7762090116739273e-02</leafValues></_>
    <_>
      <internalNodes>
        0 -1 45128 -2.8005242347717285e-03</internalNodes>
      <leafValues>
        1.6367778182029724e-01 -1.3580395281314850e-01</leafValues></_>
    <_>
      <internalNodes>
        0 -1 63544 -3.5735940933227539e-01</internalNodes>
      <leafValues>
        7.1149729192256927e-02 -3.2201957702636719e-01</leafValues></_>
    <_>
      <internalNodes>
        0 -1 62079 -1.9046062370762229e-03</internalNodes>
      <leafValues>
        2.2344627976417542e-01 -1.0094565153121948e-01</leafValues></_>
    <_>
      <internalNodes>
        0 -1 13722 3.1356945633888245e-02</internalNodes>
      <leafValues>
        2.7570268139243126e-02 -7.6263874769210815e-01</leafValues></_>
    <_>
      <internalNodes>
        0 -1 39905 -1.4603142626583576e-02</internalNodes>
      <leafValues>
        -2.9995965957641602e-01 6.8005092442035675e-02</leafValues></_>
    <_>
      <internalNodes>
        0 -1 72321 1.6745120519772172e-03</internalNodes>
      <leafValues>
        -1.0480026900768280e-01 1.9543369114398956e-01</leafValues></_>
    <_>
      <internalNodes>
        0 -1 42325 -2.1416365634649992e-03</internalNodes>
      <leafValues>
        3.2865369319915771e-01 -7.2494134306907654e-02</leafValues></_>
    <_>
      <internalNodes>
        0 -1 161734 -1.4795251190662384e-02</internalNodes>
      <leafValues>
        -6.5017394721508026e-02 3.3706626296043396e-01</leafValues></_>
    <_>
      <internalNodes>
        0 -1 51237 -3.9183017797768116e-03</internalNodes>
      <leafValues>
        -3.8221889734268188e-01 6.0261897742748260e-02</leafValues></_>
    <_>
      <internalNodes>
        0 -1 161997 7.9695489257574081e-03</internalNodes>
      <leafValues>
        4.6504810452461243e-02 -4.1703209280967712e-01</leafValues></_>
    <_>
      <internalNodes>
        0 -1 158606 2.2883784025907516e-02</internalNodes>
      <leafValues>
        2.9922386631369591e-02 -6.5144711732864380e-01</leafValues></_>
    <_>
      <internalNodes>
        0 -1 1640 -2.4274759925901890e-03</internalNodes>
      <leafValues>
        -2.2263267636299133e-01 8.1782497465610504e-02</leafValues></_>
    <_>
      <internalNodes>
        0 -1 60687 -8.2909216871485114e-05</internalNodes>
      <leafValues>
        1.1324442178010941e-01 -2.2953312098979950e-01</leafValues></_>
    <_>
      <internalNodes>
        0 -1 80771 3.3482415601611137e-03</internalNodes>
      <leafValues>
        -8.5309661924839020e-02 2.9526492953300476e-01</leafValues></_>
    <_>
      <internalNodes>
        0 -1 23623 -1.2215825263410807e-03</internalNodes>
      <leafValues>
        -7.5423741340637207e-01 2.9666494578123093e-02</leafValues></_>
    <_>
      <internalNodes>
        0 -1 42330 -5.6991847231984138e-03</internalNodes>
      <leafValues>
        3.6033174395561218e-01 -6.3379473984241486e-02</leafValues></_>
    <_>
      <internalNodes>
        0 -1 9494 -9.1768261045217514e-03</internalNodes>
      <leafValues>
        -3.1874325871467590e-01 7.0570394396781921e-02</leafValues></_>
    <_>
      <internalNodes>
        0 -1 53213 6.1009363271296024e-03</internalNodes>
      <leafValues>
        4.1663598269224167e-02 -5.0360429286956787e-01</leafValues></_>
    <_>
      <internalNodes>
        0 -1 126716 2.6084361597895622e-02</internalNodes>
      <leafValues>
        2.7501838281750679e-02 -6.8955546617507935e-01</leafValues></_>
    <_>
      <internalNodes>
        0 -1 16369 3.8696923293173313e-03</internalNodes>
      <leafValues>
        -4.6264249831438065e-02 4.8995596170425415e-01</leafValues></_>
    <_>
      <internalNodes>
        0 -1 70880 -1.0921506909653544e-03</internalNodes>
      <leafValues>
        -2.9884526133537292e-01 7.5126051902770996e-02</leafValues></_>
    <_>
      <internalNodes>
        0 -1 61402 -5.6392952799797058e-02</internalNodes>
      <leafValues>
        -9.6733248233795166e-01 1.8433086574077606e-02</leafValues></_>
    <_>
      <internalNodes>
        0 -1 30366 4.6176533214747906e-03</internalNodes>
      <leafValues>
        1.3394107110798359e-02 -9.4532728195190430e-01</leafValues></_>
    <_>
      <internalNodes>
        0 -1 6731 1.0297761764377356e-03</internalNodes>
      <leafValues>
        -1.8082031607627869e-01 9.8802253603935242e-02</leafValues></_>
    <_>
      <internalNodes>
        0 -1 40036 -1.5233388170599937e-02</internalNodes>
      <leafValues>
        1.6675069928169250e-01 -1.2998220324516296e-01</leafValues></_>
    <_>
      <internalNodes>
        0 -1 2222 -2.8749924153089523e-02</internalNodes>
      <leafValues>
        -2.8194543719291687e-01 7.9537704586982727e-02</leafValues></_>
    <_>
      <internalNodes>
        0 -1 6078 -3.1170122325420380e-02</internalNodes>
      <leafValues>
        2.9667440056800842e-01 -7.3923274874687195e-02</leafValues></_>
    <_>
      <internalNodes>
        0 -1 6833 -2.6849001646041870e-02</internalNodes>
      <leafValues>
        -7.0481203496456146e-02 3.2222062349319458e-01</leafValues></_>
    <_>
      <internalNodes>
        0 -1 6343 -1.8857292830944061e-02</internalNodes>
      <leafValues>
        1.4041763544082642e-01 -1.5517175197601318e-01</leafValues></_>
    <_>
      <internalNodes>
        0 -1 8805 -4.8619675636291504e-01</internalNodes>
      <leafValues>
        7.4798591434955597e-02 -2.8779417276382446e-01</leafValues></_>
    <_>
      <internalNodes>
        0 -1 10564 7.1215484058484435e-04</internalNodes>
      <leafValues>
        3.6086846143007278e-02 -4.7282502055168152e-01</leafValues></_>
    <_>
      <internalNodes>
        0 -1 37980 -1.4031750615686178e-03</internalNodes>
      <leafValues>
        2.7905911207199097e-01 -7.5705423951148987e-02</leafValues></_>
    <_>
      <internalNodes>
        0 -1 28671 -1.8377697560936213e-03</internalNodes>
      <leafValues>
        -4.0434414148330688e-01 4.7318782657384872e-02</leafValues></_>
    <_>
      <internalNodes>
        0 -1 13411 1.8369636964052916e-03</internalNodes>
      <leafValues>
        -8.2237750291824341e-02 2.3954644799232483e-01</leafValues></_>
    <_>
      <internalNodes>
        0 -1 1004 -5.9245154261589050e-03</internalNodes>
      <leafValues>
        -3.6149725317955017e-01 5.9969957917928696e-02</leafValues></_>
    <_>
      <internalNodes>
        0 -1 104310 -3.2568410038948059e-02</internalNodes>
      <leafValues>
        -4.8359748721122742e-01 4.1474413126707077e-02</leafValues></_>
    <_>
      <internalNodes>
        0 -1 886 4.5526055619120598e-03</internalNodes>
      <leafValues>
        6.5353028476238251e-02 -2.7035465836524963e-01</leafValues></_>
    <_>
      <internalNodes>
        0 -1 15365 1.4528713654726744e-04</internalNodes>
      <leafValues>
        -1.0574556142091751e-01 1.7586445808410645e-01</leafValues></_>
    <_>
      <internalNodes>
        0 -1 78338 -6.0652598738670349e-02</internalNodes>
      <leafValues>
        3.5980501770973206e-01 -5.5583983659744263e-02</leafValues></_>
    <_>
      <internalNodes>
        0 -1 112575 7.3474161326885223e-03</internalNodes>
      <leafValues>
        4.4558346271514893e-02 -4.8519346117973328e-01</leafValues></_>
    <_>
      <internalNodes>
        0 -1 266 2.8470616787672043e-02</internalNodes>
      <leafValues>
        3.9739929139614105e-02 -4.8034697771072388e-01</leafValues></_>
    <_>
      <internalNodes>
        0 -1 1194 9.6839740872383118e-03</internalNodes>
      <leafValues>
        3.5441063344478607e-02 -4.9012285470962524e-01</leafValues></_>
    <_>
      <internalNodes>
        0 -1 155227 -1.2073467223672196e-04</internalNodes>
      <leafValues>
        1.8277831375598907e-01 -9.9543854594230652e-02</leafValues></_>
    <_>
      <internalNodes>
        0 -1 411 -1.0880452464334667e-04</internalNodes>
      <leafValues>
        -2.1424581110477448e-01 8.1772245466709137e-02</leafValues></_>
    <_>
      <internalNodes>
        0 -1 17107 -3.1976131722331047e-03</internalNodes>
      <leafValues>
        2.6147669553756714e-01 -7.6584964990615845e-02</leafValues></_>
    <_>
      <internalNodes>
        0 -1 52320 -3.5322569310665131e-03</internalNodes>
      <leafValues>
        -3.1809958815574646e-01 6.0901571065187454e-02</leafValues></_>
    <_>
      <internalNodes>
        0 -1 62221 -1.9444536417722702e-02</internalNodes>
      <leafValues>
        -4.3041530251502991e-01 4.1187252849340439e-02</leafValues></_>
    <_>
      <internalNodes>
        0 -1 38563 8.0233588814735413e-02</internalNodes>
      <leafValues>
        -8.5131697356700897e-02 2.7280965447425842e-01</leafValues></_>
    <_>
      <internalNodes>
        0 -1 181 -1.5054342336952686e-02</internalNodes>
      <leafValues>
        -2.2164459526538849e-01 9.9017806351184845e-02</leafValues></_>
    <_>
      <internalNodes>
        0 -1 5838 5.3006391972303391e-03</internalNodes>
      <leafValues>
        -4.7597587108612061e-02 4.5353293418884277e-01</leafValues></_>
    <_>
      <internalNodes>
        0 -1 37993 -7.3796538636088371e-03</internalNodes>
      <leafValues>
        -6.0693059116601944e-02 3.1003308296203613e-01</leafValues></_>
    <_>
      <internalNodes>
        0 -1 82890 2.3049400188028812e-03</internalNodes>
      <leafValues>
        -8.0172844231128693e-02 2.5315257906913757e-01</leafValues></_>
    <_>
      <internalNodes>
        0 -1 98662 -3.3617368899285793e-03</internalNodes>
      <leafValues>
        2.9620397090911865e-01 -6.8879127502441406e-02</leafValues></_>
    <_>
      <internalNodes>
        0 -1 320 5.8147292584180832e-03</internalNodes>
      <leafValues>
        4.7100432217121124e-02 -4.7777846455574036e-01</leafValues></_>
    <_>
      <internalNodes>
        0 -1 25029 2.3573823273181915e-03</internalNodes>
      <leafValues>
        2.8856094926595688e-02 -5.5373650789260864e-01</leafValues></_>
    <_>
      <internalNodes>
        0 -1 127835 -7.5403833761811256e-04</internalNodes>
      <leafValues>
        -1.9122713804244995e-01 9.3644477427005768e-02</leafValues></_>
    <_>
      <internalNodes>
        0 -1 8284 6.9184554740786552e-03</internalNodes>
      <leafValues>
        -7.7022723853588104e-02 2.5234743952751160e-01</leafValues></_>
    <_>
      <internalNodes>
        0 -1 9208 -2.3893127217888832e-02</internalNodes>
      <leafValues>
        -3.3463305234909058e-01 6.4590379595756531e-02</leafValues></_>
    <_>
      <internalNodes>
        0 -1 6021 -2.2451658733189106e-03</internalNodes>
      <leafValues>
        2.2153185307979584e-01 -9.3943089246749878e-02</leafValues></_>
    <_>
      <internalNodes>
        0 -1 55488 -8.8147241622209549e-03</internalNodes>
      <leafValues>
        -3.5363525152206421e-01 5.6831564754247665e-02</leafValues></_>
    <_>
      <internalNodes>
        0 -1 52841 -1.0545928962528706e-02</internalNodes>
      <leafValues>
        -8.4481686353683472e-01 1.8902692943811417e-02</leafValues></_>
    <_>
      <internalNodes>
        0 -1 103121 1.2643150985240936e-03</internalNodes>
      <leafValues>
        7.6829344034194946e-02 -2.3127855360507965e-01</leafValues></_>
    <_>
      <internalNodes>
        0 -1 38076 -2.4133950471878052e-02</internalNodes>
      <leafValues>
        -7.0751857757568359e-01 2.4192666634917259e-02</leafValues></_>
    <_>
      <internalNodes>
        0 -1 107503 -2.3196456022560596e-03</internalNodes>
      <leafValues>
        2.4575559794902802e-01 -7.8785553574562073e-02</leafValues></_>
    <_>
      <internalNodes>
        0 -1 10 -5.8603119105100632e-03</internalNodes>
      <leafValues>
        4.2470201849937439e-01 -4.1416391730308533e-02</leafValues></_>
    <_>
      <internalNodes>
        0 -1 91034 3.6182720214128494e-03</internalNodes>
      <leafValues>
        5.7216528803110123e-02 -3.0690786242485046e-01</leafValues></_>
    <_>
      <internalNodes>
        0 -1 52841 1.5593001153320074e-03</internalNodes>
      <leafValues>
        4.8487611114978790e-02 -3.5998028516769409e-01</leafValues></_>
    <_>
      <internalNodes>
        0 -1 15520 9.8332874476909637e-03</internalNodes>
      <leafValues>
        -3.9078980684280396e-02 5.4707831144332886e-01</leafValues></_>
    <_>
      <internalNodes>
        0 -1 12900 -3.5129107534885406e-02</internalNodes>
      <leafValues>
        4.7317245602607727e-01 -3.4880448132753372e-02</leafValues></_>
    <_>
      <internalNodes>
        0 -1 39816 -6.6259584855288267e-04</internalNodes>
      <leafValues>
        1.2761643528938293e-01 -1.6096827387809753e-01</leafValues></_>
    <_>
      <internalNodes>
        0 -1 85 1.6213832423090935e-03</internalNodes>
      <leafValues>
        -1.0233663022518158e-01 1.7827521264553070e-01</leafValues></_>
    <_>
      <internalNodes>
        0 -1 80764 1.0412628762423992e-03</internalNodes>
      <leafValues>
        3.7168409675359726e-02 -4.8423483967781067e-01</leafValues></_>
    <_>
      <internalNodes>
        0 -1 66761 -6.6206429619342089e-04</internalNodes>
      <leafValues>
        -1.4504669606685638e-01 1.3101828098297119e-01</leafValues></_>
    <_>
      <internalNodes>
        0 -1 91929 2.3868603631854057e-02</internalNodes>
      <leafValues>
        3.2103642821311951e-02 -6.2575155496597290e-01</leafValues></_>
    <_>
      <internalNodes>
        0 -1 73917 -1.8322335090488195e-03</internalNodes>
      <leafValues>
        1.4280033111572266e-01 -1.2382265925407410e-01</leafValues></_>
    <_>
      <internalNodes>
        0 -1 90571 8.2705654203891754e-03</internalNodes>
      <leafValues>
        -4.2059842497110367e-02 4.6380031108856201e-01</leafValues></_>
    <_>
      <internalNodes>
        0 -1 53018 -4.2323814705014229e-03</internalNodes>
      <leafValues>
        -3.9901182055473328e-01 4.8014000058174133e-02</leafValues></_>
    <_>
      <internalNodes>
        0 -1 83 -3.9301328361034393e-03</internalNodes>
      <leafValues>
        1.7262659966945648e-02 -8.7623882293701172e-01</leafValues></_>
    <_>
      <internalNodes>
        0 -1 13554 -4.4813826680183411e-02</internalNodes>
      <leafValues>
        -7.2886389493942261e-01 1.8441669642925262e-02</leafValues></_>
    <_>
      <internalNodes>
        0 -1 154023 -4.5941816642880440e-03</internalNodes>
      <leafValues>
        -3.7388223409652710e-01 4.1210886090993881e-02</leafValues></_>
    <_>
      <internalNodes>
        0 -1 39827 1.6762149753049016e-03</internalNodes>
      <leafValues>
        3.3887650817632675e-02 -4.9799346923828125e-01</leafValues></_>
    <_>
      <internalNodes>
        0 -1 90561 -6.2621850520372391e-03</internalNodes>
      <leafValues>
        6.6878908872604370e-01 -2.9955578967928886e-02</leafValues></_>
    <_>
      <internalNodes>
        0 -1 52129 -1.5073730610311031e-03</internalNodes>
      <leafValues>
        1.0028102993965149e-01 -1.7847882211208344e-01</leafValues></_>
    <_>
      <internalNodes>
        0 -1 4307 1.4135904610157013e-02</internalNodes>
      <leafValues>
        1.2905229628086090e-01 -1.5700499713420868e-01</leafValues></_>
    <_>
      <internalNodes>
        0 -1 4352 -3.1933937221765518e-02</internalNodes>
      <leafValues>
        -5.7923000305891037e-02 3.4956926107406616e-01</leafValues></_>
    <_>
      <internalNodes>
        0 -1 17185 -7.7387943747453392e-05</internalNodes>
      <leafValues>
        1.0009331256151199e-01 -1.9893327355384827e-01</leafValues></_>
    <_>
      <internalNodes>
        0 -1 13406 5.1928020548075438e-04</internalNodes>
      <leafValues>
        -1.2105984985828400e-01 1.8905185163021088e-01</leafValues></_>
    <_>
      <internalNodes>
        0 -1 22254 3.1923244241625071e-03</internalNodes>
      <leafValues>
        -1.0314324498176575e-01 2.0273067057132721e-01</leafValues></_>
    <_>
      <internalNodes>
        0 -1 28704 -8.2925871014595032e-02</internalNodes>
      <leafValues>
        1.1366991698741913e-01 -1.8672282993793488e-01</leafValues></_>
    <_>
      <internalNodes>
        0 -1 128015 -2.7539983391761780e-02</internalNodes>
      <leafValues>
        -9.7991175949573517e-02 2.3143126070499420e-01</leafValues></_>
    <_>
      <internalNodes>
        0 -1 128205 -1.1235419660806656e-02</internalNodes>
      <leafValues>
        4.0348595380783081e-01 -4.6400293707847595e-02</leafValues></_>
    <_>
      <internalNodes>
        0 -1 13392 2.9184104641899467e-04</internalNodes>
      <leafValues>
        -1.0474564880132675e-01 1.7370948195457458e-01</leafValues></_>
    <_>
      <internalNodes>
        0 -1 80764 -9.9537242203950882e-04</internalNodes>
      <leafValues>
        -4.6280041337013245e-01 3.6622527986764908e-02</leafValues></_>
    <_>
      <internalNodes>
        0 -1 81518 -2.0398539490997791e-03</internalNodes>
      <leafValues>
        1.7389492690563202e-01 -1.0964059829711914e-01</leafValues></_>
    <_>
      <internalNodes>
        0 -1 82881 1.1800542706623673e-03</internalNodes>
      <leafValues>
        -7.7283635735511780e-02 3.0017194151878357e-01</leafValues></_>
    <_>
      <internalNodes>
        0 -1 95192 -6.4703170210123062e-04</internalNodes>
      <leafValues>
        -4.3567574024200439e-01 4.1061673313379288e-02</leafValues></_>
    <_>
      <internalNodes>
        0 -1 2494 -7.4954319279640913e-04</internalNodes>
      <leafValues>
        1.8946404755115509e-01 -9.8207511007785797e-02</leafValues></_>
    <_>
      <internalNodes>
        0 -1 6670 -2.8677876107394695e-03</internalNodes>
      <leafValues>
        -8.0879837274551392e-01 2.1987706422805786e-02</leafValues></_>
    <_>
      <internalNodes>
        0 -1 13300 1.0577084030956030e-03</internalNodes>
      <leafValues>
        -7.3720112442970276e-02 2.6711490750312805e-01</leafValues></_>
    <_>
      <internalNodes>
        0 -1 80112 -2.3107246961444616e-03</internalNodes>
      <leafValues>
        -6.6605937480926514e-01 2.8880970552563667e-02</leafValues></_>
    <_>
      <internalNodes>
        0 -1 89704 2.1793775260448456e-02</internalNodes>
      <leafValues>
        -3.9845746010541916e-02 4.6620637178421021e-01</leafValues></_>
    <_>
      <internalNodes>
        0 -1 74015 6.1730027198791504e-02</internalNodes>
      <leafValues>
        3.4997750073671341e-02 -5.2732455730438232e-01</leafValues></_>
    <_>
      <internalNodes>
        0 -1 106691 1.7884224653244019e-03</internalNodes>
      <leafValues>
        4.4623225927352905e-02 -3.5251209139823914e-01</leafValues></_></weakClassifiers></stage5>
</opencv_storage>
