<?xml version="1.0"?>
<opencv_storage>
<stage3>
  <maxWeakCount>100</maxWeakCount>
  <stageThreshold>-1.7890396118164063e+00</stageThreshold>
  <weakClassifiers>
    <_>
      <internalNodes>
        0 -1 18146 1.0451950132846832e-02</internalNodes>
      <leafValues>
        -6.4362424612045288e-01 1.9413730502128601e-01</leafValues></_>
    <_>
      <internalNodes>
        0 -1 26044 -1.9565946422517300e-03</internalNodes>
      <leafValues>
        2.2343975305557251e-01 -5.7125186920166016e-01</leafValues></_>
    <_>
      <internalNodes>
        0 -1 19681 6.2356847338378429e-03</internalNodes>
      <leafValues>
        -1.9901353120803833e-01 5.4045945405960083e-01</leafValues></_>
    <_>
      <internalNodes>
        0 -1 26210 -1.7857197963166982e-04</internalNodes>
      <leafValues>
        1.8079684674739838e-01 -4.0983480215072632e-01</leafValues></_>
    <_>
      <internalNodes>
        0 -1 25985 -3.1030800193548203e-02</internalNodes>
      <leafValues>
        -5.8670365810394287e-01 1.4465917646884918e-01</leafValues></_>
    <_>
      <internalNodes>
        0 -1 60436 7.6641608029603958e-04</internalNodes>
      <leafValues>
        -1.6039861738681793e-01 4.5529693365097046e-01</leafValues></_>
    <_>
      <internalNodes>
        0 -1 25985 -1.4956369996070862e-03</internalNodes>
      <leafValues>
        1.5005415678024292e-01 -3.8249245285987854e-01</leafValues></_>
    <_>
      <internalNodes>
        0 -1 571 -5.1333447918295860e-03</internalNodes>
      <leafValues>
        -4.2572757601737976e-01 1.4058053493499756e-01</leafValues></_>
    <_>
      <internalNodes>
        0 -1 89824 6.9570553023368120e-04</internalNodes>
      <leafValues>
        -1.7601704597473145e-01 3.4834530949592590e-01</leafValues></_>
    <_>
      <internalNodes>
        0 -1 41503 7.1019155438989401e-04</internalNodes>
      <leafValues>
        8.5026197135448456e-02 -6.2915396690368652e-01</leafValues></_>
    <_>
      <internalNodes>
        0 -1 28741 -1.3401403091847897e-02</internalNodes>
      <leafValues>
        -5.0028693675994873e-01 1.0029026120901108e-01</leafValues></_>
    <_>
      <internalNodes>
        0 -1 11656 -3.7335332483053207e-02</internalNodes>
      <leafValues>
        3.2483720779418945e-01 -1.8967954814434052e-01</leafValues></_>
    <_>
      <internalNodes>
        0 -1 828 1.4767640829086304e-01</internalNodes>
      <leafValues>
        -8.9191965758800507e-02 5.8383291959762573e-01</leafValues></_>
    <_>
      <internalNodes>
        0 -1 89843 6.9154808297753334e-03</internalNodes>
      <leafValues>
        -6.7828759551048279e-02 5.7410240173339844e-01</leafValues></_>
    <_>
      <internalNodes>
        0 -1 131125 -1.3924613595008850e-01</internalNodes>
      <leafValues>
        6.8592125177383423e-01 -6.3506580889225006e-02</leafValues></_>
    <_>
      <internalNodes>
        0 -1 106810 -1.4401779044419527e-03</internalNodes>
      <leafValues>
        3.7667888402938843e-01 -1.4186625182628632e-01</leafValues></_>
    <_>
      <internalNodes>
        0 -1 80841 1.2160080950707197e-03</internalNodes>
      <leafValues>
        7.5669571757316589e-02 -7.0036906003952026e-01</leafValues></_>
    <_>
      <internalNodes>
        0 -1 74533 -7.0501938462257385e-02</internalNodes>
      <leafValues>
        -4.5646283030509949e-01 9.5217205584049225e-02</leafValues></_>
    <_>
      <internalNodes>
        0 -1 62850 4.3167890980839729e-03</internalNodes>
      <leafValues>
        -9.9295414984226227e-02 5.3590154647827148e-01</leafValues></_>
    <_>
      <internalNodes>
        0 -1 62850 -5.0430214032530785e-03</internalNodes>
      <leafValues>
        6.3345265388488770e-01 -6.3855759799480438e-02</leafValues></_>
    <_>
      <internalNodes>
        0 -1 5841 -1.9613481126725674e-03</internalNodes>
      <leafValues>
        -7.6214236021041870e-01 7.1388609707355499e-02</leafValues></_>
    <_>
      <internalNodes>
        0 -1 1489 3.3686980605125427e-02</internalNodes>
      <leafValues>
        2.9435828328132629e-02 -8.3036595582962036e-01</leafValues></_>
    <_>
      <internalNodes>
        0 -1 37985 5.2836618851870298e-04</internalNodes>
      <leafValues>
        -1.4787693321704865e-01 2.8940898180007935e-01</leafValues></_>
    <_>
      <internalNodes>
        0 -1 185 2.0303119526943192e-05</internalNodes>
      <leafValues>
        1.4457130432128906e-01 -3.4599110484123230e-01</leafValues></_>
    <_>
      <internalNodes>
        0 -1 81001 -2.0597288385033607e-03</internalNodes>
      <leafValues>
        -5.0740981101989746e-01 6.9013662636280060e-02</leafValues></_>
    <_>
      <internalNodes>
        0 -1 37994 1.9054728327319026e-03</internalNodes>
      <leafValues>
        -1.1236647516489029e-01 3.8474044203758240e-01</leafValues></_>
    <_>
      <internalNodes>
        0 -1 245 -1.7398271709680557e-02</internalNodes>
      <leafValues>
        -5.8469247817993164e-01 7.4222907423973083e-02</leafValues></_>
    <_>
      <internalNodes>
        0 -1 7515 4.4995089992880821e-03</internalNodes>
      <leafValues>
        -1.2164080142974854e-01 3.4750571846961975e-01</leafValues></_>
    <_>
      <internalNodes>
        0 -1 901 2.9505637288093567e-01</internalNodes>
      <leafValues>
        5.4002229124307632e-02 -7.5220942497253418e-01</leafValues></_>
    <_>
      <internalNodes>
        0 -1 124935 2.6407022960484028e-03</internalNodes>
      <leafValues>
        8.7623372673988342e-02 -4.6131622791290283e-01</leafValues></_>
    <_>
      <internalNodes>
        0 -1 2141 -3.7299210671335459e-03</internalNodes>
      <leafValues>
        -7.1153447031974792e-02 5.5870199203491211e-01</leafValues></_>
    <_>
      <internalNodes>
        0 -1 5 -5.0800514873117208e-04</internalNodes>
      <leafValues>
        2.8808811306953430e-01 -1.3420028984546661e-01</leafValues></_>
    <_>
      <internalNodes>
        0 -1 4100 -4.3883430771529675e-03</internalNodes>
      <leafValues>
        -7.6566016674041748e-01 5.3192228078842163e-02</leafValues></_>
    <_>
      <internalNodes>
        0 -1 41553 2.1801604889333248e-03</internalNodes>
      <leafValues>
        -1.0471825301647186e-01 3.9152297377586365e-01</leafValues></_>
    <_>
      <internalNodes>
        0 -1 3348 -4.2730011045932770e-03</internalNodes>
      <leafValues>
        1.9671387970447540e-01 -1.9674187898635864e-01</leafValues></_>
    <_>
      <internalNodes>
        0 -1 89805 5.5994773283600807e-03</internalNodes>
      <leafValues>
        6.9005824625492096e-02 -5.3635197877883911e-01</leafValues></_>
    <_>
      <internalNodes>
        0 -1 26898 7.4503356590867043e-03</internalNodes>
      <leafValues>
        6.1639972031116486e-02 -5.7671183347702026e-01</leafValues></_>
    <_>
      <internalNodes>
        0 -1 72118 -4.3980006128549576e-02</internalNodes>
      <leafValues>
        2.2196720540523529e-01 -1.7221006751060486e-01</leafValues></_>
    <_>
      <internalNodes>
        0 -1 579 -6.6995613276958466e-02</internalNodes>
      <leafValues>
        -7.0273786783218384e-01 5.0212822854518890e-02</leafValues></_>
    <_>
      <internalNodes>
        0 -1 10 9.7201915923506021e-04</internalNodes>
      <leafValues>
        -1.4558921754360199e-01 2.4255609512329102e-01</leafValues></_>
    <_>
      <internalNodes>
        0 -1 6834 2.2601379081606865e-02</internalNodes>
      <leafValues>
        -5.7990077883005142e-02 5.4078310728073120e-01</leafValues></_>
    <_>
      <internalNodes>
        0 -1 31238 8.8135600090026855e-03</internalNodes>
      <leafValues>
        -1.3630899786949158e-01 2.6505374908447266e-01</leafValues></_>
    <_>
      <internalNodes>
        0 -1 105117 1.3698518741875887e-03</internalNodes>
      <leafValues>
        5.9490490704774857e-02 -5.6837493181228638e-01</leafValues></_>
    <_>
      <internalNodes>
        0 -1 5009 2.7901548892259598e-03</internalNodes>
      <leafValues>
        3.5338964313268661e-02 -7.9886752367019653e-01</leafValues></_>
    <_>
      <internalNodes>
        0 -1 70960 -3.0654701404273510e-03</internalNodes>
      <leafValues>
        -6.4517372846603394e-01 3.9890918880701065e-02</leafValues></_>
    <_>
      <internalNodes>
        0 -1 98672 -4.9579450860619545e-03</internalNodes>
      <leafValues>
        3.9829233288764954e-01 -8.7810203433036804e-02</leafValues></_>
    <_>
      <internalNodes>
        0 -1 38112 2.6913680136203766e-02</internalNodes>
      <leafValues>
        3.6841690540313721e-02 -9.5741969347000122e-01</leafValues></_>
    <_>
      <internalNodes>
        0 -1 2190 -5.1048018038272858e-02</internalNodes>
      <leafValues>
        -5.7494070380926132e-02 6.4972764253616333e-01</leafValues></_>
    <_>
      <internalNodes>
        0 -1 15427 -1.1158801615238190e-01</internalNodes>
      <leafValues>
        1.6580863296985626e-01 -2.2531627118587494e-01</leafValues></_>
    <_>
      <internalNodes>
        0 -1 20938 -1.4554848894476891e-02</internalNodes>
      <leafValues>
        -9.1830033063888550e-01 3.4639045596122742e-02</leafValues></_>
    <_>
      <internalNodes>
        0 -1 8289 3.0067920684814453e-02</internalNodes>
      <leafValues>
        -6.0909766703844070e-02 6.4246773719787598e-01</leafValues></_>
    <_>
      <internalNodes>
        0 -1 107674 1.5990920364856720e-02</internalNodes>
      <leafValues>
        8.0553300678730011e-02 -4.5242828130722046e-01</leafValues></_>
    <_>
      <internalNodes>
        0 -1 25043 1.6477275639772415e-02</internalNodes>
      <leafValues>
        -5.4144240915775299e-02 6.3710278272628784e-01</leafValues></_>
    <_>
      <internalNodes>
        0 -1 46231 2.9400928178802133e-04</internalNodes>
      <leafValues>
        -1.4293742179870605e-01 2.3084773123264313e-01</leafValues></_>
    <_>
      <internalNodes>
        0 -1 13378 -1.3739399146288633e-03</internalNodes>
      <leafValues>
        2.2797523438930511e-01 -1.5588845312595367e-01</leafValues></_>
    <_>
      <internalNodes>
        0 -1 42305 -1.1455680942162871e-03</internalNodes>
      <leafValues>
        -1.8349257111549377e-01 1.6940359771251678e-01</leafValues></_>
    <_>
      <internalNodes>
        0 -1 8294 -4.1754813864827156e-03</internalNodes>
      <leafValues>
        2.3467481136322021e-01 -1.3795953989028931e-01</leafValues></_>
    <_>
      <internalNodes>
        0 -1 49727 -1.8262309022247791e-03</internalNodes>
      <leafValues>
        1.4561346173286438e-01 -2.0468845963478088e-01</leafValues></_>
    <_>
      <internalNodes>
        0 -1 10593 6.8145487457513809e-03</internalNodes>
      <leafValues>
        -6.2277290970087051e-02 5.1234996318817139e-01</leafValues></_>
    <_>
      <internalNodes>
        0 -1 8137 1.1774969752877951e-03</internalNodes>
      <leafValues>
        -1.1435411870479584e-01 2.5357827544212341e-01</leafValues></_>
    <_>
      <internalNodes>
        0 -1 58548 -4.2613269761204720e-03</internalNodes>
      <leafValues>
        -6.1550819873809814e-01 5.6222654879093170e-02</leafValues></_>
    <_>
      <internalNodes>
        0 -1 51384 -8.0933198332786560e-03</internalNodes>
      <leafValues>
        1.5973035991191864e-01 -1.9812104105949402e-01</leafValues></_>
    <_>
      <internalNodes>
        0 -1 49488 -2.0819146186113358e-02</internalNodes>
      <leafValues>
        -1.8170258402824402e-01 1.9885677099227905e-01</leafValues></_>
    <_>
      <internalNodes>
        0 -1 244 -6.2961257062852383e-03</internalNodes>
      <leafValues>
        -8.2958871126174927e-01 3.7996672093868256e-02</leafValues></_>
    <_>
      <internalNodes>
        0 -1 25809 1.0396589059382677e-03</internalNodes>
      <leafValues>
        -1.1620388925075531e-01 2.7969023585319519e-01</leafValues></_>
    <_>
      <internalNodes>
        0 -1 50494 -4.2961381375789642e-02</internalNodes>
      <leafValues>
        -9.3283230066299438e-01 3.4497875720262527e-02</leafValues></_>
    <_>
      <internalNodes>
        0 -1 103323 -2.5115422904491425e-03</internalNodes>
      <leafValues>
        -4.4286441802978516e-01 6.1198424547910690e-02</leafValues></_>
    <_>
      <internalNodes>
        0 -1 6021 -9.2446990311145782e-03</internalNodes>
      <leafValues>
        3.6490067839622498e-01 -9.0470716357231140e-02</leafValues></_>
    <_>
      <internalNodes>
        0 -1 8201 -1.1613572947680950e-02</internalNodes>
      <leafValues>
        -4.8883649706840515e-01 7.2848968207836151e-02</leafValues></_>
    <_>
      <internalNodes>
        0 -1 3840 -1.3476492464542389e-01</internalNodes>
      <leafValues>
        3.1697082519531250e-01 -1.1155994236469269e-01</leafValues></_>
    <_>
      <internalNodes>
        0 -1 83556 3.4889469388872385e-03</internalNodes>
      <leafValues>
        9.8159007728099823e-02 -3.6748194694519043e-01</leafValues></_>
    <_>
      <internalNodes>
        0 -1 81527 -4.1752234101295471e-03</internalNodes>
      <leafValues>
        3.9012581110000610e-01 -1.0010077804327011e-01</leafValues></_>
    <_>
      <internalNodes>
        0 -1 3345 4.4432627037167549e-03</internalNodes>
      <leafValues>
        -1.6850689053535461e-01 2.4081903696060181e-01</leafValues></_>
    <_>
      <internalNodes>
        0 -1 106 2.2157479077577591e-02</internalNodes>
      <leafValues>
        3.9364721626043320e-02 -7.9616010189056396e-01</leafValues></_>
    <_>
      <internalNodes>
        0 -1 5898 5.3613055497407913e-03</internalNodes>
      <leafValues>
        -8.2767836749553680e-02 4.2225071787834167e-01</leafValues></_>
    <_>
      <internalNodes>
        0 -1 80780 -2.7419300749897957e-03</internalNodes>
      <leafValues>
        2.3130011558532715e-01 -1.4337870478630066e-01</leafValues></_>
    <_>
      <internalNodes>
        0 -1 71848 3.4216577187180519e-03</internalNodes>
      <leafValues>
        8.0785311758518219e-02 -4.2619055509567261e-01</leafValues></_>
    <_>
      <internalNodes>
        0 -1 48536 -2.6066903024911880e-02</internalNodes>
      <leafValues>
        5.6938117742538452e-01 -6.9507665932178497e-02</leafValues></_>
    <_>
      <internalNodes>
        0 -1 50380 3.5189610207453370e-04</internalNodes>
      <leafValues>
        -1.2186514586210251e-01 2.8400775790214539e-01</leafValues></_>
    <_>
      <internalNodes>
        0 -1 69237 -7.8999920515343547e-04</internalNodes>
      <leafValues>
        1.7211343348026276e-01 -1.7611552774906158e-01</leafValues></_>
    <_>
      <internalNodes>
        0 -1 4989 -1.0220739059150219e-03</internalNodes>
      <leafValues>
        -4.0947389602661133e-01 7.5845643877983093e-02</leafValues></_>
    <_>
      <internalNodes>
        0 -1 4989 4.2082625441253185e-04</internalNodes>
      <leafValues>
        8.5033513605594635e-02 -3.6980408430099487e-01</leafValues></_>
    <_>
      <internalNodes>
        0 -1 42330 1.8844092264771461e-02</internalNodes>
      <leafValues>
        -4.4490233063697815e-02 7.1960812807083130e-01</leafValues></_>
    <_>
      <internalNodes>
        0 -1 129919 -3.4069814719259739e-03</internalNodes>
      <leafValues>
        -6.4147102832794189e-01 4.8980217427015305e-02</leafValues></_>
    <_>
      <internalNodes>
        0 -1 1988 -2.5053909048438072e-02</internalNodes>
      <leafValues>
        -4.0161502361297607e-01 6.0250237584114075e-02</leafValues></_>
    <_>
      <internalNodes>
        0 -1 62079 3.2901614904403687e-03</internalNodes>
      <leafValues>
        -6.6439576447010040e-02 4.6575510501861572e-01</leafValues></_>
    <_>
      <internalNodes>
        0 -1 11884 7.3985941708087921e-04</internalNodes>
      <leafValues>
        5.7096339762210846e-02 -5.9218162298202515e-01</leafValues></_>
    <_>
      <internalNodes>
        0 -1 50380 -1.6668232856318355e-03</internalNodes>
      <leafValues>
        4.1383817791938782e-01 -7.9979419708251953e-02</leafValues></_>
    <_>
      <internalNodes>
        0 -1 104150 4.6540610492229462e-03</internalNodes>
      <leafValues>
        6.6496439278125763e-02 -4.8009809851646423e-01</leafValues></_>
    <_>
      <internalNodes>
        0 -1 40712 4.8924740403890610e-03</internalNodes>
      <leafValues>
        2.9095299541950226e-02 -8.5562294721603394e-01</leafValues></_>
    <_>
      <internalNodes>
        0 -1 14515 -1.9396023824810982e-02</internalNodes>
      <leafValues>
        -7.1004253625869751e-01 3.0908990651369095e-02</leafValues></_>
    <_>
      <internalNodes>
        0 -1 62861 6.0920283431187272e-05</internalNodes>
      <leafValues>
        1.1442794650793076e-01 -2.4789839982986450e-01</leafValues></_>
    <_>
      <internalNodes>
        0 -1 155537 -1.2737796641886234e-02</internalNodes>
      <leafValues>
        3.7834307551383972e-01 -7.2758741676807404e-02</leafValues></_>
    <_>
      <internalNodes>
        0 -1 7792 -5.6735843420028687e-02</internalNodes>
      <leafValues>
        -5.2060365676879883e-02 4.7940978407859802e-01</leafValues></_>
    <_>
      <internalNodes>
        0 -1 13192 -3.4704711288213730e-03</internalNodes>
      <leafValues>
        3.3630260825157166e-01 -8.8077798485755920e-02</leafValues></_>
    <_>
      <internalNodes>
        0 -1 68653 -1.4762740465812385e-04</internalNodes>
      <leafValues>
        1.6497696936130524e-01 -1.5814079344272614e-01</leafValues></_>
    <_>
      <internalNodes>
        0 -1 49640 -7.2699412703514099e-04</internalNodes>
      <leafValues>
        -2.7822238206863403e-01 9.6267856657505035e-02</leafValues></_>
    <_>
      <internalNodes>
        0 -1 13397 1.6746537294238806e-03</internalNodes>
      <leafValues>
        -9.1012105345726013e-02 3.0291163921356201e-01</leafValues></_>
    <_>
      <internalNodes>
        0 -1 13406 5.9599906671792269e-04</internalNodes>
      <leafValues>
        -1.3926766812801361e-01 2.6946505904197693e-01</leafValues></_>
    <_>
      <internalNodes>
        0 -1 159935 1.2210091575980186e-02</internalNodes>
      <leafValues>
        6.5607197582721710e-02 -4.7042730450630188e-01</leafValues></_></weakClassifiers></stage3>
</opencv_storage>
