<?xml version="1.0"?>
<opencv_storage>
<stage3>
  <maxWeakCount>24</maxWeakCount>
  <stageThreshold>-1.0095682144165039e+00</stageThreshold>
  <weakClassifiers>
    <_>
      <internalNodes>
        0 -1 3222 -67108865 -1755582296 -742665764 -137408308
        -1153695761 -1086682744 2134071807 -8397329</internalNodes>
      <leafValues>
        -6.9246119260787964e-01 3.9018088579177856e-01</leafValues></_>
    <_>
      <internalNodes>
        0 -1 1380 -1042 -20457505 -67120952 -218973478 -202246908
        1418190858 -104861312 -134479873</internalNodes>
      <leafValues>
        -5.8943438529968262e-01 4.0946921706199646e-01</leafValues></_>
    <_>
      <internalNodes>
        0 -1 1029 -1283459149 -1156907080 -745146915 -10751249
        -1147535361 -1349785174 95419901 530574847</internalNodes>
      <leafValues>
        -5.8121484518051147e-01 4.1035947203636169e-01</leafValues></_>
    <_>
      <internalNodes>
        0 -1 4785 -553652342 -1347696086 -45623008 -269754397 -637535353
        203022942 -673196047 -673465345</internalNodes>
      <leafValues>
        -4.5201727747917175e-01 4.5494136214256287e-01</leafValues></_>
    <_>
      <internalNodes>
        0 -1 794 -151234308 -6473227 -1333772163 -68394971 -101785040
        -63992789 -336766839 -99409</internalNodes>
      <leafValues>
        -7.3990786075592041e-01 2.8304761648178101e-01</leafValues></_>
    <_>
      <internalNodes>
        0 -1 140 -630391960 -1417117233 -735590386 -446185458
        -1358218385 -12069941 985137151 -495455929</internalNodes>
      <leafValues>
        -4.5189201831817627e-01 3.7770509719848633e-01</leafValues></_>
    <_>
      <internalNodes>
        0 -1 762 -72155267 -604050785 -74137873 -551074929 -293224593
        -826282261 -1211123851 -676595074</internalNodes>
      <leafValues>
        -4.3602433800697327e-01 4.2843797802925110e-01</leafValues></_>
    <_>
      <internalNodes>
        0 -1 3773 2080324603 -1366597878 -1844188912 -5616033 -5457978
        34269933 435146936 -1646280705</internalNodes>
      <leafValues>
        -4.1900283098220825e-01 4.1542613506317139e-01</leafValues></_>
    <_>
      <internalNodes>
        0 -1 65 -34264136 2128445301 -178539555 1065031507 -206684767
        971713098 -1176522050 2146693591</internalNodes>
      <leafValues>
        -4.7235634922981262e-01 3.4664475917816162e-01</leafValues></_>
    <_>
      <internalNodes>
        0 -1 2081 -2622148 -6586896 341842288 1071278517 154856394
        993190352 521865663 -1347682881</internalNodes>
      <leafValues>
        -4.5953968167304993e-01 3.3069983124732971e-01</leafValues></_>
    <_>
      <internalNodes>
        0 -1 347 -556278249 -88641668 -134217867 1925149559 -536870981
        -1614828610 -176703175 -671459781</internalNodes>
      <leafValues>
        -3.1941783428192139e-01 5.0883990526199341e-01</leafValues></_>
    <_>
      <internalNodes>
        0 -1 1318 -134678688 618386578 -1801285566 -429952002 -684764347
        856856715 -1211112601 -1507902805</internalNodes>
      <leafValues>
        -3.9211046695709229e-01 3.9971452951431274e-01</leafValues></_>
    <_>
      <internalNodes>
        0 -1 4434 1061153698 -270282680 -581710352 -29501673 -1953517330
        252682250 -205446153 -941637889</internalNodes>
      <leafValues>
        -4.5411705970764160e-01 3.3086764812469482e-01</leafValues></_>
    <_>
      <internalNodes>
        0 -1 2669 -67397665 -609007016 -187711400 -1626443942
        -1155860996 352501808 453416445 1060884475</internalNodes>
      <leafValues>
        -4.0566459298133850e-01 3.8652518391609192e-01</leafValues></_>
    <_>
      <internalNodes>
        0 -1 555 -8601785 -1249918985 -526539 -1301838297 937420630
        -3934370 -168303612 -135283701</internalNodes>
      <leafValues>
        -3.7327933311462402e-01 4.1789126396179199e-01</leafValues></_>
    <_>
      <internalNodes>
        0 -1 334 1062387584 -1122655576 -620653570 -1248378434 974839416
        -1366587231 230424061 228122076</internalNodes>
      <leafValues>
        -7.1618467569351196e-01 2.1629908680915833e-01</leafValues></_>
    <_>
      <internalNodes>
        0 -1 3257 -203692100 1947855770 -91243213 1374190968 895939688
        -1593544225 132932460 -1059719781</internalNodes>
      <leafValues>
        -4.2972829937934875e-01 3.6182600259780884e-01</leafValues></_>
    <_>
      <internalNodes>
        0 -1 1383 -69247235 -204738371 -771536763 -473406755 1511612857
        -1163182019 -1140057707 -67469457</internalNodes>
      <leafValues>
        -4.8261782526969910e-01 3.3689603209495544e-01</leafValues></_>
    <_>
      <internalNodes>
        0 -1 6100 -2114545 -67150102 -1460732382 -394335125 -1207968420
        912088949 360533756 -252855297</internalNodes>
      <leafValues>
        -3.2230654358863831e-01 4.6501976251602173e-01</leafValues></_>
    <_>
      <internalNodes>
        0 -1 593 -293812148 -287521395 -1039411000 -1227902863
        2122740292 1921478827 -5266681 652161647</internalNodes>
      <leafValues>
        -4.7542351484298706e-01 3.2905769348144531e-01</leafValues></_>
    <_>
      <internalNodes>
        0 -1 2178 755660656 -14740848 1235062481 -39888939 -1739953943
        -1985242706 16979196 -1934689603</internalNodes>
      <leafValues>
        -4.8889252543449402e-01 3.2151883840560913e-01</leafValues></_>
    <_>
      <internalNodes>
        0 -1 153 -69431691 -489512617 553861373 1229023242 1033753893
        -79055962 798352391 2077359811</internalNodes>
      <leafValues>
        -4.3224585056304932e-01 3.6725425720214844e-01</leafValues></_>
    <_>
      <internalNodes>
        0 -1 3436 -502827222 -490412604 -721055102 2010624127 -13960310
        -893128501 -610733581 1406303160</internalNodes>
      <leafValues>
        -5.4249680042266846e-01 2.8696009516716003e-01</leafValues></_>
    <_>
      <internalNodes>
        0 -1 376 872430550 -612347440 293679614 -606252578 -1727553809
        -99843879 -1151624198 800719036</internalNodes>
      <leafValues>
        -7.0007038116455078e-01 1.9118855893611908e-01</leafValues></_></weakClassifiers></stage3>
</opencv_storage>
