<?xml version="1.0"?>
<opencv_storage>
<stage5>
  <maxWeakCount>32</maxWeakCount>
  <stageThreshold>-6.5530467033386230e-01</stageThreshold>
  <weakClassifiers>
    <_>
      <internalNodes>
        0 -1 4326 -33554497 -1078285510 2110979496 -262727 859504639
        1060306942 1561812447 -136314881</internalNodes>
      <leafValues>
        -4.0167570114135742e-01 5.5404484272003174e-01</leafValues></_>
    <_>
      <internalNodes>
        0 -1 72 -480793291 -35710089 1381317463 507475999 -1202144449
        -117761029 1870626427 1866410559</internalNodes>
      <leafValues>
        -5.7036387920379639e-01 3.7298730015754700e-01</leafValues></_>
    <_>
      <internalNodes>
        0 -1 1029 -1786781773 -1660297065 -654188644 -576224929 -5242881
        -1349876822 220790269 487517694</internalNodes>
      <leafValues>
        -5.6829023361206055e-01 2.9599747061729431e-01</leafValues></_>
    <_>
      <internalNodes>
        0 -1 753 -1941317357 -640741924 -1923545341 520408536
        -1131934823 -774058577 -1547386111 -260191196</internalNodes>
      <leafValues>
        -5.9002929925918579e-01 2.7936145663261414e-01</leafValues></_>
    <_>
      <internalNodes>
        0 -1 2025 -1 -536871061 -12588232 2142190447 -1086836487
        1429263800 1059003647 -33558529</internalNodes>
      <leafValues>
        -3.1750649213790894e-01 5.3658485412597656e-01</leafValues></_>
    <_>
      <internalNodes>
        0 -1 393 1715371556 1920469364 1265028695 1451130613 -227665513
        1060809634 1463957479 1462838483</internalNodes>
      <leafValues>
        -6.1424523591995239e-01 2.2318586707115173e-01</leafValues></_>
    <_>
      <internalNodes>
        0 -1 64 -36196736 -557895201 -62879076 -225289710 1351290121
        393553951 -389697842 -1506546513</internalNodes>
      <leafValues>
        -3.7090116739273071e-01 3.4919509291648865e-01</leafValues></_>
    <_>
      <internalNodes>
        0 -1 810 -1906941563 -489271285 -679387001 -1566408573
        -1431044825 -97283793 155221625 -607035632</internalNodes>
      <leafValues>
        -5.3646951913833618e-01 2.3656959831714630e-01</leafValues></_>
    <_>
      <internalNodes>
        0 -1 176 806355248 1073312153 353458653 -1804503149 -603971284
        -91537401 -2132750388 -172070227</internalNodes>
      <leafValues>
        -6.3838744163513184e-01 2.0184072852134705e-01</leafValues></_>
    <_>
      <internalNodes>
        0 -1 728 -756031994 -325615621 -1099309074 -830488666 -437000361
        1626701693 -37765305 -135286817</internalNodes>
      <leafValues>
        -3.0997341871261597e-01 4.4795158505439758e-01</leafValues></_>
    <_>
      <internalNodes>
        0 -1 461 1008212228 -1130547051 -248629809 -44297729 1055650019
        -1074095942 449737959 481096677</internalNodes>
      <leafValues>
        -4.9101346731185913e-01 2.9799970984458923e-01</leafValues></_>
    <_>
      <internalNodes>
        0 -1 1824 -1176177076 -275719908 -1323408216 1457172690
        -509393840 1727337012 -483930200 579998695</internalNodes>
      <leafValues>
        -5.4144722223281860e-01 2.2492061555385590e-01</leafValues></_>
    <_>
      <internalNodes>
        0 -1 737 -134365508 -537182353 -9065862 1069235002 2134215914
        2146663928 -1355511554 -8668229</internalNodes>
      <leafValues>
        -3.2112574577331543e-01 4.1463619470596313e-01</leafValues></_>
    <_>
      <internalNodes>
        0 -1 3773 860863467 -2037438710 -1752724288 -141372729
        1343012807 160076433 1368342996 -1714441521</internalNodes>
      <leafValues>
        -4.4344079494476318e-01 3.1145277619361877e-01</leafValues></_>
    <_>
      <internalNodes>
        0 -1 2179 -1816080639 -223737511 -1576846855 -743448115
        -1574313879 -376796935 120720827 1061837261</internalNodes>
      <leafValues>
        -6.8999117612838745e-01 1.8200330436229706e-01</leafValues></_>
    <_>
      <internalNodes>
        0 -1 344 1709968508 251688588 1218707485 1085265677 1359985008
        1051324043 -142119955 1356054350</internalNodes>
      <leafValues>
        -5.1971846818923950e-01 2.1663488447666168e-01</leafValues></_>
    <_>
      <internalNodes>
        0 -1 238 626635571 343244991 277270013 38314079 1803041277
        -920616743 22683901 431106495</internalNodes>
      <leafValues>
        -3.8254904747009277e-01 3.3128577470779419e-01</leafValues></_>
    <_>
      <internalNodes>
        0 -1 1297 -218341440 1224656162 -771325732 -1432558453
        1938008901 302716074 -117054933 -1291866610</internalNodes>
      <leafValues>
        -3.3996653556823730e-01 3.8241827487945557e-01</leafValues></_>
    <_>
      <internalNodes>
        0 -1 1492 -1856668879 -585236196 -742358894 136479813 -856446326
        -1735898999 -628315509 278716764</internalNodes>
      <leafValues>
        -4.1931334137916565e-01 3.0801436305046082e-01</leafValues></_>
    <_>
      <internalNodes>
        0 -1 5247 -606870055 -336413126 1475628084 -269108160 1328033589
        376651612 419387741 -354422818</internalNodes>
      <leafValues>
        -3.1886866688728333e-01 4.4162678718566895e-01</leafValues></_>
    <_>
      <internalNodes>
        0 -1 617 -212561048 -563816485 -2138950072 -1500539917
        1644270083 1384448137 -1245057261 -1244192233</internalNodes>
      <leafValues>
        -3.5611459612846375e-01 3.5733887553215027e-01</leafValues></_>
    <_>
      <internalNodes>
        0 -1 785 -1470784757 -1969483513 936285051 -284358377
        -2013060813 -1296463785 -1474820095 -740176159</internalNodes>
      <leafValues>
        -5.3477096557617188e-01 2.3968969285488129e-01</leafValues></_>
    <_>
      <internalNodes>
        0 -1 376 892354039 -1685733370 293703771 -385033931 952275359
        -1411784703 -1414029601 756681628</internalNodes>
      <leafValues>
        -6.5013295412063599e-01 1.8773449957370758e-01</leafValues></_>
    <_>
      <internalNodes>
        0 -1 4823 919450362 1423090959 -990770531 -1600538879 -476396704
        1424148760 1132842629 1153750818</internalNodes>
      <leafValues>
        -4.5068103075027466e-01 2.7556151151657104e-01</leafValues></_>
    <_>
      <internalNodes>
        0 -1 2800 -1995806816 -309345641 -887502496 -252750375
        -913925518 151224590 1173164467 -1884552452</internalNodes>
      <leafValues>
        -4.9467775225639343e-01 2.6902928948402405e-01</leafValues></_>
    <_>
      <internalNodes>
        0 -1 2324 2144722495 984750266 2055864079 -1576939840 -808556384
        -1423916470 -1327762103 -958609740</internalNodes>
      <leafValues>
        -3.6746573448181152e-01 3.3980610966682434e-01</leafValues></_>
    <_>
      <internalNodes>
        0 -1 2839 575543052 1370589365 -279718893 1425894288 -1724399172
        -239386430 -520267906 64344597</internalNodes>
      <leafValues>
        -4.2707318067550659e-01 2.9711115360260010e-01</leafValues></_>
    <_>
      <internalNodes>
        0 -1 137 -166275674 -230239742 -1044192865 -1465761758
        -2100421601 -1475194344 527523693 2034977905</internalNodes>
      <leafValues>
        -5.9336405992507935e-01 2.0648775994777679e-01</leafValues></_>
    <_>
      <internalNodes>
        0 -1 5 -134873441 2113896337 -1342228785 396960621 -1073891875
        939333615 -1073858562 -267449</internalNodes>
      <leafValues>
        -2.1832796931266785e-01 6.5419286489486694e-01</leafValues></_>
    <_>
      <internalNodes>
        0 -1 3905 -2096089286 -1702189672 1396916496 -45727740 724795867
        -1090353104 254067161 2131464438</internalNodes>
      <leafValues>
        -4.8413079977035522e-01 2.7762514352798462e-01</leafValues></_>
    <_>
      <internalNodes>
        0 -1 663 1601157451 -623142797 1032010167 -913155426 1244705584
        2123032730 -1041784049 580854362</internalNodes>
      <leafValues>
        -3.8199797272682190e-01 3.5099983215332031e-01</leafValues></_>
    <_>
      <internalNodes>
        0 -1 1258 -1000527730 1220812933 -1856565268 1760193262
        1624090445 1552074817 -2315464 -1261131586</internalNodes>
      <leafValues>
        -4.2288899421691895e-01 3.2206213474273682e-01</leafValues></_></weakClassifiers></stage5>
</opencv_storage>
