<?xml version="1.0"?>
<opencv_storage>
<stage2>
  <maxWeakCount>19</maxWeakCount>
  <stageThreshold>-8.5964375734329224e-01</stageThreshold>
  <weakClassifiers>
    <_>
      <internalNodes>
        0 -1 2233 -2061 -111168373 294101971 -6350965 -469762098
        1334829706 -237510157 1398782939</internalNodes>
      <leafValues>
        -7.5182992219924927e-01 5.2214962244033813e-01</leafValues></_>
    <_>
      <internalNodes>
        0 -1 65 -134271184 -237028491 -1871664123 534460751 -230547151
        851448371 -1680629765 -5</internalNodes>
      <leafValues>
        -6.3039982318878174e-01 4.9784070253372192e-01</leafValues></_>
    <_>
      <internalNodes>
        0 -1 3820 -1048594 -273678421 -96 -557125 -671088685 1157103615
        -184551438 -134217729</internalNodes>
      <leafValues>
        -5.0680494308471680e-01 5.7366681098937988e-01</leafValues></_>
    <_>
      <internalNodes>
        0 -1 1583 1495542016 -616730312 704799189 -710983291 -1094391364
        -343234340 -1649504003 -13896</internalNodes>
      <leafValues>
        -6.6920101642608643e-01 3.8652470707893372e-01</leafValues></_>
    <_>
      <internalNodes>
        0 -1 4785 -540017782 -1349782678 -2092444384 -276613728
        -195117081 162376358 -235941419 -704906257</internalNodes>
      <leafValues>
        -4.5751518011093140e-01 5.2487874031066895e-01</leafValues></_>
    <_>
      <internalNodes>
        0 -1 3772 -488820241 -895553302 -2004227840 -325351298
        -209464476 1099251883 -1042029582 -235080713</internalNodes>
      <leafValues>
        -5.4591256380081177e-01 3.8111674785614014e-01</leafValues></_>
    <_>
      <internalNodes>
        0 -1 2352 -749341306 -778979669 -736783104 899410225 1223623271
        -1192115493 2103469061 893371767</internalNodes>
      <leafValues>
        -5.4226982593536377e-01 3.8038402795791626e-01</leafValues></_>
    <_>
      <internalNodes>
        0 -1 426 934616346 -1472621696 655488337 -1082960945 -638854721
        -1367270613 1944497599 -1953530913</internalNodes>
      <leafValues>
        -4.4044473767280579e-01 4.7529295086860657e-01</leafValues></_>
    <_>
      <internalNodes>
        0 -1 2035 -1420296649 -1732192060 1000079289 -140818677
        -1975117575 -1314176967 989912253 -100765955</internalNodes>
      <leafValues>
        -5.3114694356918335e-01 4.1248691082000732e-01</leafValues></_>
    <_>
      <internalNodes>
        0 -1 2716 -1210340438 -1498431061 -1877978208 -624799350
        -1320455681 76251387 903664084 1418157759</internalNodes>
      <leafValues>
        -6.3504713773727417e-01 3.2439813017845154e-01</leafValues></_>
    <_>
      <internalNodes>
        0 -1 571 -688916697 919069139 -733014706 -40769289 -1591339193
        -1828325973 1768048448 1387382017</internalNodes>
      <leafValues>
        -4.5982238650321960e-01 4.2005318403244019e-01</leafValues></_>
    <_>
      <internalNodes>
        0 -1 341 -489527547 -1207903897 -519994939 1544242187
        -1189150278 -1212575703 -577503813 792338809</internalNodes>
      <leafValues>
        -5.0284880399703979e-01 4.0123066306114197e-01</leafValues></_>
    <_>
      <internalNodes>
        0 -1 2050 -479993369 226996997 -503244917 -6524679 -70526524
        -1936875273 -1822331179 -1671957969</internalNodes>
      <leafValues>
        -4.8816588521003723e-01 4.2097520828247070e-01</leafValues></_>
    <_>
      <internalNodes>
        0 -1 17 -941678093 -1075959941 1439977779 1447446786 -1899380821
        1069849868 1288163635 -1820366275</internalNodes>
      <leafValues>
        -5.6976503133773804e-01 3.5532131791114807e-01</leafValues></_>
    <_>
      <internalNodes>
        0 -1 3904 196020075 -1425485432 -1055789613 -572786303
        -1789207601 -1918202973 -1048407866 -1662011173</internalNodes>
      <leafValues>
        -4.7198575735092163e-01 4.1332343220710754e-01</leafValues></_>
    <_>
      <internalNodes>
        0 -1 128 -229299936 -817946251 1074150523 946471691 -1021255303
        1655343161 1212774655 1518291183</internalNodes>
      <leafValues>
        -6.7314904928207397e-01 2.9537653923034668e-01</leafValues></_>
    <_>
      <internalNodes>
        0 -1 4797 -238031185 -907546714 49352192 536309416 861452170
        1629499385 1923171406 -168824961</internalNodes>
      <leafValues>
        -3.3092516660690308e-01 6.1103689670562744e-01</leafValues></_>
    <_>
      <internalNodes>
        0 -1 8 1944057316 -1546762877 399723194 -1606233714 1635984339
        -2147450197 2113540547 -955516013</internalNodes>
      <leafValues>
        -4.7917124629020691e-01 4.1374921798706055e-01</leafValues></_>
    <_>
      <internalNodes>
        0 -1 793 -84563180 283104625 -1073699820 982327763 -502519108
        1222115362 723598227 -1678845313</internalNodes>
      <leafValues>
        -4.8485878109931946e-01 3.8806092739105225e-01</leafValues></_></weakClassifiers></stage2>
</opencv_storage>
