<?xml version="1.0"?>
<opencv_storage>
<stage6>
  <maxWeakCount>151</maxWeakCount>
  <stageThreshold>-9.6427881717681885e-01</stageThreshold>
  <weakClassifiers>
    <_>
      <internalNodes>
        0 -1 63578 3.2066465355455875e-03</internalNodes>
      <leafValues>
        -2.4630858004093170e-01 4.9462828040122986e-01</leafValues></_>
    <_>
      <internalNodes>
        0 -1 38229 -2.7264673262834549e-03</internalNodes>
      <leafValues>
        -5.9461218118667603e-01 1.4708353579044342e-01</leafValues></_>
    <_>
      <internalNodes>
        0 -1 38144 2.1476091351360083e-03</internalNodes>
      <leafValues>
        1.3619126379489899e-01 -6.2305861711502075e-01</leafValues></_>
    <_>
      <internalNodes>
        0 -1 30647 -6.3445535488426685e-04</internalNodes>
      <leafValues>
        1.0818199813365936e-01 -4.2431342601776123e-01</leafValues></_>
    <_>
      <internalNodes>
        0 -1 13977 -1.9784528762102127e-02</internalNodes>
      <leafValues>
        -2.5558924674987793e-01 2.3535011708736420e-01</leafValues></_>
    <_>
      <internalNodes>
        0 -1 82215 6.7948279902338982e-03</internalNodes>
      <leafValues>
        -1.2793222069740295e-01 5.0909548997879028e-01</leafValues></_>
    <_>
      <internalNodes>
        0 -1 98677 -4.6638995409011841e-03</internalNodes>
      <leafValues>
        4.3779993057250977e-01 -1.1236398667097092e-01</leafValues></_>
    <_>
      <internalNodes>
        0 -1 30356 -3.6589449155144393e-04</internalNodes>
      <leafValues>
        1.3173680007457733e-01 -3.1263846158981323e-01</leafValues></_>
    <_>
      <internalNodes>
        0 -1 1640 -1.3334145769476891e-03</internalNodes>
      <leafValues>
        -2.7664446830749512e-01 1.2633024156093597e-01</leafValues></_>
    <_>
      <internalNodes>
        0 -1 175 -1.1124181561172009e-02</internalNodes>
      <leafValues>
        -4.0580299496650696e-01 8.4534883499145508e-02</leafValues></_>
    <_>
      <internalNodes>
        0 -1 180 3.0972282402217388e-03</internalNodes>
      <leafValues>
        8.6409904062747955e-02 -3.9423143863677979e-01</leafValues></_>
    <_>
      <internalNodes>
        0 -1 41558 -1.1828311719000340e-02</internalNodes>
      <leafValues>
        6.3419824838638306e-01 -6.0689821839332581e-02</leafValues></_>
    <_>
      <internalNodes>
        0 -1 52118 5.2238535135984421e-03</internalNodes>
      <leafValues>
        -1.2702186405658722e-01 2.9467156529426575e-01</leafValues></_>
    <_>
      <internalNodes>
        0 -1 61862 -6.5064184367656708e-02</internalNodes>
      <leafValues>
        2.2326137125492096e-01 -1.5775054693222046e-01</leafValues></_>
    <_>
      <internalNodes>
        0 -1 2110 2.4074814282357693e-03</internalNodes>
      <leafValues>
        9.8188646137714386e-02 -3.6116161942481995e-01</leafValues></_>
    <_>
      <internalNodes>
        0 -1 12343 -1.1334190145134926e-02</internalNodes>
      <leafValues>
        6.0801619291305542e-01 -6.1294585466384888e-02</leafValues></_>
    <_>
      <internalNodes>
        0 -1 44345 -5.9353822143748403e-04</internalNodes>
      <leafValues>
        -2.8119364380836487e-01 1.1955080926418304e-01</leafValues></_>
    <_>
      <internalNodes>
        0 -1 61510 -2.1120118908584118e-03</internalNodes>
      <leafValues>
        -3.7943243980407715e-01 6.8448178470134735e-02</leafValues></_>
    <_>
      <internalNodes>
        0 -1 40832 -1.4329107478260994e-02</internalNodes>
      <leafValues>
        1.7774802446365356e-01 -1.7800144851207733e-01</leafValues></_>
    <_>
      <internalNodes>
        0 -1 10 2.6973695494234562e-03</internalNodes>
      <leafValues>
        -8.7969839572906494e-02 3.3951532840728760e-01</leafValues></_>
    <_>
      <internalNodes>
        0 -1 116948 -8.8097989559173584e-02</internalNodes>
      <leafValues>
        1.0296011716127396e-01 -3.3958345651626587e-01</leafValues></_>
    <_>
      <internalNodes>
        0 -1 27033 -1.0556759312748909e-02</internalNodes>
      <leafValues>
        -4.8076277971267700e-01 7.2250969707965851e-02</leafValues></_>
    <_>
      <internalNodes>
        0 -1 140769 -1.8143026391044259e-03</internalNodes>
      <leafValues>
        -5.9931349754333496e-01 4.3534506112337112e-02</leafValues></_>
    <_>
      <internalNodes>
        0 -1 5 -5.5970705579966307e-04</internalNodes>
      <leafValues>
        2.1471528708934784e-01 -1.2615445256233215e-01</leafValues></_>
    <_>
      <internalNodes>
        0 -1 25731 3.3285515382885933e-03</internalNodes>
      <leafValues>
        4.5026611536741257e-02 -5.1843494176864624e-01</leafValues></_>
    <_>
      <internalNodes>
        0 -1 26814 -1.3695366214960814e-03</internalNodes>
      <leafValues>
        3.3434450626373291e-01 -8.3465933799743652e-02</leafValues></_>
    <_>
      <internalNodes>
        0 -1 40684 7.8406662214547396e-04</internalNodes>
      <leafValues>
        4.5460432767868042e-02 -5.6205195188522339e-01</leafValues></_>
    <_>
      <internalNodes>
        0 -1 114753 -3.3597808331251144e-02</internalNodes>
      <leafValues>
        -4.0463078022003174e-01 5.6888487190008163e-02</leafValues></_>
    <_>
      <internalNodes>
        0 -1 107145 3.1969189643859863e-02</internalNodes>
      <leafValues>
        6.8082444369792938e-02 -4.1612431406974792e-01</leafValues></_>
    <_>
      <internalNodes>
        0 -1 82210 1.4281524345278740e-03</internalNodes>
      <leafValues>
        -1.3071872293949127e-01 2.0619983971118927e-01</leafValues></_>
    <_>
      <internalNodes>
        0 -1 43051 -1.7169786151498556e-03</internalNodes>
      <leafValues>
        3.4568348526954651e-01 -8.0363474786281586e-02</leafValues></_>
    <_>
      <internalNodes>
        0 -1 6665 1.3256741221994162e-03</internalNodes>
      <leafValues>
        4.4387254863977432e-02 -7.0051890611648560e-01</leafValues></_>
    <_>
      <internalNodes>
        0 -1 571 -1.1218911036849022e-02</internalNodes>
      <leafValues>
        -4.7804728150367737e-01 5.1484763622283936e-02</leafValues></_>
    <_>
      <internalNodes>
        0 -1 87595 7.9195462167263031e-03</internalNodes>
      <leafValues>
        6.1125818639993668e-02 -3.9696925878524780e-01</leafValues></_>
    <_>
      <internalNodes>
        0 -1 5010 2.2628912702202797e-03</internalNodes>
      <leafValues>
        -1.4134319126605988e-01 1.7944973707199097e-01</leafValues></_>
    <_>
      <internalNodes>
        0 -1 774 -1.8775343894958496e-01</internalNodes>
      <leafValues>
        -4.2946349829435349e-02 6.1143893003463745e-01</leafValues></_>
    <_>
      <internalNodes>
        0 -1 13872 -1.7658092081546783e-02</internalNodes>
      <leafValues>
        2.4299679696559906e-01 -1.0713033378124237e-01</leafValues></_>
    <_>
      <internalNodes>
        0 -1 81588 1.5902235172688961e-03</internalNodes>
      <leafValues>
        -1.2260043621063232e-01 1.8717445433139801e-01</leafValues></_>
    <_>
      <internalNodes>
        0 -1 12910 -1.2704122811555862e-02</internalNodes>
      <leafValues>
        5.5746674537658691e-01 -4.3030448257923126e-02</leafValues></_>
    <_>
      <internalNodes>
        0 -1 133504 -5.3946431726217270e-03</internalNodes>
      <leafValues>
        -2.6030933856964111e-01 9.3984656035900116e-02</leafValues></_>
    <_>
      <internalNodes>
        0 -1 161997 7.9745110124349594e-03</internalNodes>
      <leafValues>
        5.2511621266603470e-02 -4.3925413489341736e-01</leafValues></_>
    <_>
      <internalNodes>
        0 -1 10599 3.3938812557607889e-03</internalNodes>
      <leafValues>
        2.4577068164944649e-02 -8.1643289327621460e-01</leafValues></_>
    <_>
      <internalNodes>
        0 -1 52118 -1.6154604032635689e-02</internalNodes>
      <leafValues>
        6.2810742855072021e-01 -4.0498647838830948e-02</leafValues></_>
    <_>
      <internalNodes>
        0 -1 4806 -2.7285766601562500e-01</internalNodes>
      <leafValues>
        -5.7558977603912354e-01 4.2212914675474167e-02</leafValues></_>
    <_>
      <internalNodes>
        0 -1 84160 7.8243892639875412e-03</internalNodes>
      <leafValues>
        3.3916901797056198e-02 -5.2359843254089355e-01</leafValues></_>
    <_>
      <internalNodes>
        0 -1 17200 5.9885834343731403e-04</internalNodes>
      <leafValues>
        6.5392017364501953e-02 -2.9563361406326294e-01</leafValues></_>
    <_>
      <internalNodes>
        0 -1 134940 -2.4778047204017639e-01</internalNodes>
      <leafValues>
        8.4635031223297119e-01 -3.1803015619516373e-02</leafValues></_>
    <_>
      <internalNodes>
        0 -1 15 8.9602265506982803e-04</internalNodes>
      <leafValues>
        -1.0126128047704697e-01 2.0243726670742035e-01</leafValues></_>
    <_>
      <internalNodes>
        0 -1 13552 -6.6025392152369022e-03</internalNodes>
      <leafValues>
        -4.5848912000656128e-01 4.9588512629270554e-02</leafValues></_>
    <_>
      <internalNodes>
        0 -1 37994 2.0165282767266035e-03</internalNodes>
      <leafValues>
        -8.4109291434288025e-02 3.1084030866622925e-01</leafValues></_>
    <_>
      <internalNodes>
        0 -1 52055 -1.2374256039038301e-04</internalNodes>
      <leafValues>
        7.7589683234691620e-02 -2.9765886068344116e-01</leafValues></_>
    <_>
      <internalNodes>
        0 -1 60450 2.1546378266066313e-03</internalNodes>
      <leafValues>
        -9.1920696198940277e-02 2.9006227850914001e-01</leafValues></_>
    <_>
      <internalNodes>
        0 -1 39941 -7.6812040060758591e-03</internalNodes>
      <leafValues>
        -1.5421913564205170e-01 1.5783955156803131e-01</leafValues></_>
    <_>
      <internalNodes>
        0 -1 62861 8.2124111941084266e-04</internalNodes>
      <leafValues>
        8.6972028017044067e-02 -3.1968268752098083e-01</leafValues></_>
    <_>
      <internalNodes>
        0 -1 5184 -5.2560959011316299e-03</internalNodes>
      <leafValues>
        3.0633610486984253e-01 -8.5688717663288116e-02</leafValues></_>
    <_>
      <internalNodes>
        0 -1 53018 -4.1766399517655373e-03</internalNodes>
      <leafValues>
        -4.3803295493125916e-01 6.2603682279586792e-02</leafValues></_>
    <_>
      <internalNodes>
        0 -1 40744 4.8096477985382080e-03</internalNodes>
      <leafValues>
        -9.3831852078437805e-02 2.7888765931129456e-01</leafValues></_>
    <_>
      <internalNodes>
        0 -1 6664 -6.0254440177232027e-04</internalNodes>
      <leafValues>
        -4.6178439259529114e-01 5.1282893866300583e-02</leafValues></_>
    <_>
      <internalNodes>
        0 -1 25146 -1.2932986952364445e-02</internalNodes>
      <leafValues>
        5.1079350709915161e-01 -4.7556407749652863e-02</leafValues></_>
    <_>
      <internalNodes>
        0 -1 60685 -3.4585730172693729e-03</internalNodes>
      <leafValues>
        -3.2192927598953247e-01 7.2201415896415710e-02</leafValues></_>
    <_>
      <internalNodes>
        0 -1 89923 -1.0803069919347763e-02</internalNodes>
      <leafValues>
        2.6230338215827942e-01 -8.6864858865737915e-02</leafValues></_>
    <_>
      <internalNodes>
        0 -1 38563 8.0215908586978912e-02</internalNodes>
      <leafValues>
        -8.8572673499584198e-02 2.7948802709579468e-01</leafValues></_>
    <_>
      <internalNodes>
        0 -1 13300 5.1362661179155111e-04</internalNodes>
      <leafValues>
        -9.6794232726097107e-02 2.4659244716167450e-01</leafValues></_>
    <_>
      <internalNodes>
        0 -1 107221 1.8322315812110901e-01</internalNodes>
      <leafValues>
        -3.7981692701578140e-02 5.8668982982635498e-01</leafValues></_>
    <_>
      <internalNodes>
        0 -1 94695 3.0042701400816441e-03</internalNodes>
      <leafValues>
        7.7743709087371826e-02 -2.8746044635772705e-01</leafValues></_>
    <_>
      <internalNodes>
        0 -1 13372 -1.5399215044453740e-04</internalNodes>
      <leafValues>
        2.1472936868667603e-01 -9.2957600951194763e-02</leafValues></_>
    <_>
      <internalNodes>
        0 -1 51234 -1.3880155980587006e-02</internalNodes>
      <leafValues>
        -4.2148926854133606e-01 4.7806482762098312e-02</leafValues></_>
    <_>
      <internalNodes>
        0 -1 29591 -5.2455952391028404e-03</internalNodes>
      <leafValues>
        1.0048872232437134e-01 -2.2146643698215485e-01</leafValues></_>
    <_>
      <internalNodes>
        0 -1 41550 -1.6014593420550227e-03</internalNodes>
      <leafValues>
        2.6363208889961243e-01 -9.0519838035106659e-02</leafValues></_>
    <_>
      <internalNodes>
        0 -1 13180 -6.5076455939561129e-04</internalNodes>
      <leafValues>
        -4.2131561040878296e-01 5.0858221948146820e-02</leafValues></_>
    <_>
      <internalNodes>
        0 -1 56159 -1.4393480494618416e-02</internalNodes>
      <leafValues>
        5.1775451749563217e-02 -4.3728512525558472e-01</leafValues></_>
    <_>
      <internalNodes>
        0 -1 13951 -1.1678395271301270e+00</internalNodes>
      <leafValues>
        -2.0901954174041748e-01 1.1964906752109528e-01</leafValues></_>
    <_>
      <internalNodes>
        0 -1 12681 7.6450094580650330e-02</internalNodes>
      <leafValues>
        -2.8048662468791008e-02 7.2540897130966187e-01</leafValues></_>
    <_>
      <internalNodes>
        0 -1 125082 1.0277479887008667e-02</internalNodes>
      <leafValues>
        5.8689717203378677e-02 -3.6482110619544983e-01</leafValues></_>
    <_>
      <internalNodes>
        0 -1 49730 4.2196072638034821e-02</internalNodes>
      <leafValues>
        2.3688107728958130e-02 -8.0339920520782471e-01</leafValues></_>
    <_>
      <internalNodes>
        0 -1 74417 -3.2978096604347229e-01</internalNodes>
      <leafValues>
        5.7392507791519165e-02 -3.3172935247421265e-01</leafValues></_>
    <_>
      <internalNodes>
        0 -1 49490 1.9487894605845213e-03</internalNodes>
      <leafValues>
        -8.3716325461864471e-02 2.6915496587753296e-01</leafValues></_>
    <_>
      <internalNodes>
        0 -1 60687 -4.6006930642761290e-04</internalNodes>
      <leafValues>
        1.1161455512046814e-01 -2.0799738168716431e-01</leafValues></_>
    <_>
      <internalNodes>
        0 -1 25980 -1.8630232661962509e-02</internalNodes>
      <leafValues>
        -4.7782099246978760e-01 4.4797845184803009e-02</leafValues></_>
    <_>
      <internalNodes>
        0 -1 62079 4.6430528163909912e-03</internalNodes>
      <leafValues>
        -5.9841848909854889e-02 4.7893366217613220e-01</leafValues></_>
    <_>
      <internalNodes>
        0 -1 109658 8.5154920816421509e-03</internalNodes>
      <leafValues>
        2.9926456511020660e-02 -7.7965563535690308e-01</leafValues></_>
    <_>
      <internalNodes>
        0 -1 152813 2.3580275475978851e-02</internalNodes>
      <leafValues>
        -3.9948530495166779e-02 5.7848453521728516e-01</leafValues></_>
    <_>
      <internalNodes>
        0 -1 23623 -1.2231084983795881e-03</internalNodes>
      <leafValues>
        -8.0964362621307373e-01 3.0888788402080536e-02</leafValues></_>
    <_>
      <internalNodes>
        0 -1 89853 -9.2920418828725815e-03</internalNodes>
      <leafValues>
        2.7923947572708130e-01 -7.4124380946159363e-02</leafValues></_>
    <_>
      <internalNodes>
        0 -1 122129 -2.5182541459798813e-02</internalNodes>
      <leafValues>
        -6.9316782057285309e-02 3.3620977401733398e-01</leafValues></_>
    <_>
      <internalNodes>
        0 -1 155619 -1.4954770449548960e-04</internalNodes>
      <leafValues>
        1.7242676019668579e-01 -1.2095516175031662e-01</leafValues></_>
    <_>
      <internalNodes>
        0 -1 38461 2.1782144904136658e-03</internalNodes>
      <leafValues>
        3.9778850972652435e-02 -4.9178999662399292e-01</leafValues></_>
    <_>
      <internalNodes>
        0 -1 61446 -1.9113369286060333e-02</internalNodes>
      <leafValues>
        2.5435589253902435e-02 -7.0772027969360352e-01</leafValues></_>
    <_>
      <internalNodes>
        0 -1 20591 -4.9363385885953903e-02</internalNodes>
      <leafValues>
        -6.0454044491052628e-02 3.6155185103416443e-01</leafValues></_>
    <_>
      <internalNodes>
        0 -1 76274 -1.4469830784946680e-03</internalNodes>
      <leafValues>
        3.6721251904964447e-02 -7.3581582307815552e-01</leafValues></_>
    <_>
      <internalNodes>
        0 -1 64679 7.4712997302412987e-03</internalNodes>
      <leafValues>
        2.6636280119419098e-02 -6.3160949945449829e-01</leafValues></_>
    <_>
      <internalNodes>
        0 -1 20313 -1.1723036732291803e-04</internalNodes>
      <leafValues>
        -1.8571645021438599e-01 1.1437101662158966e-01</leafValues></_>
    <_>
      <internalNodes>
        0 -1 53567 -2.5556718464940786e-03</internalNodes>
      <leafValues>
        1.7844812572002411e-01 -1.4744707942008972e-01</leafValues></_>
    <_>
      <internalNodes>
        0 -1 5243 1.5600451268255711e-02</internalNodes>
      <leafValues>
        -8.0142028629779816e-02 4.1135355830192566e-01</leafValues></_>
    <_>
      <internalNodes>
        0 -1 8333 3.5031181760132313e-03</internalNodes>
      <leafValues>
        -1.1821553856134415e-01 1.8482677638530731e-01</leafValues></_>
    <_>
      <internalNodes>
        0 -1 9578 -1.4517777599394321e-02</internalNodes>
      <leafValues>
        -2.9062274098396301e-01 8.2272104918956757e-02</leafValues></_>
    <_>
      <internalNodes>
        0 -1 38961 -2.8070162981748581e-02</internalNodes>
      <leafValues>
        -7.1227081120014191e-02 3.2646358013153076e-01</leafValues></_>
    <_>
      <internalNodes>
        0 -1 42649 -1.5720713138580322e-01</internalNodes>
      <leafValues>
        1.1774383485317230e-01 -2.0683375000953674e-01</leafValues></_>
    <_>
      <internalNodes>
        0 -1 46211 4.1410750709474087e-03</internalNodes>
      <leafValues>
        4.7017622739076614e-02 -4.3875998258590698e-01</leafValues></_>
    <_>
      <internalNodes>
        0 -1 105673 2.1645724773406982e-03</internalNodes>
      <leafValues>
        3.2790988683700562e-02 -5.5184763669967651e-01</leafValues></_>
    <_>
      <internalNodes>
        0 -1 97098 -5.3329182264860719e-05</internalNodes>
      <leafValues>
        1.5562665462493896e-01 -1.3462094962596893e-01</leafValues></_>
    <_>
      <internalNodes>
        0 -1 19507 -2.1513700485229492e-02</internalNodes>
      <leafValues>
        -4.3776845932006836e-01 4.5853205025196075e-02</leafValues></_>
    <_>
      <internalNodes>
        0 -1 37985 -1.3705537421628833e-03</internalNodes>
      <leafValues>
        2.1652476489543915e-01 -9.2319257557392120e-02</leafValues></_>
    <_>
      <internalNodes>
        0 -1 41503 2.2501777857542038e-03</internalNodes>
      <leafValues>
        2.3843737319111824e-02 -7.8663086891174316e-01</leafValues></_>
    <_>
      <internalNodes>
        0 -1 71558 -7.5480584055185318e-03</internalNodes>
      <leafValues>
        5.6746321916580200e-01 -3.9160635322332382e-02</leafValues></_>
    <_>
      <internalNodes>
        0 -1 37015 -1.1181861918885261e-04</internalNodes>
      <leafValues>
        -1.3449662923812866e-01 1.4004530012607574e-01</leafValues></_>
    <_>
      <internalNodes>
        0 -1 25984 2.6140432804822922e-02</internalNodes>
      <leafValues>
        2.3204065859317780e-02 -7.9513931274414063e-01</leafValues></_>
    <_>
      <internalNodes>
        0 -1 71041 -3.3673375844955444e-02</internalNodes>
      <leafValues>
        3.9756366610527039e-01 -5.3562052547931671e-02</leafValues></_>
    <_>
      <internalNodes>
        0 -1 14256 -1.4506323263049126e-02</internalNodes>
      <leafValues>
        -8.2518100738525391e-01 2.7357127517461777e-02</leafValues></_>
    <_>
      <internalNodes>
        0 -1 73069 2.5405053747817874e-04</internalNodes>
      <leafValues>
        -1.3676300644874573e-01 1.5032055974006653e-01</leafValues></_>
    <_>
      <internalNodes>
        0 -1 12639 -5.9257550165057182e-03</internalNodes>
      <leafValues>
        -1.8661805987358093e-01 1.1095215380191803e-01</leafValues></_>
    <_>
      <internalNodes>
        0 -1 82247 -1.8729418516159058e-02</internalNodes>
      <leafValues>
        -6.3887774944305420e-01 3.1119063496589661e-02</leafValues></_>
    <_>
      <internalNodes>
        0 -1 42330 2.2858379408717155e-02</internalNodes>
      <leafValues>
        -3.5648725926876068e-02 6.2939631938934326e-01</leafValues></_>
    <_>
      <internalNodes>
        0 -1 2222 -2.8762262314558029e-02</internalNodes>
      <leafValues>
        -2.8127804398536682e-01 9.2155471444129944e-02</leafValues></_>
    <_>
      <internalNodes>
        0 -1 6630 -1.9312822259962559e-03</internalNodes>
      <leafValues>
        9.5897600054740906e-02 -2.1295492351055145e-01</leafValues></_>
    <_>
      <internalNodes>
        0 -1 3345 -8.4129991009831429e-03</internalNodes>
      <leafValues>
        3.0978018045425415e-01 -7.3398329317569733e-02</leafValues></_>
    <_>
      <internalNodes>
        0 -1 79087 -5.2301377058029175e-02</internalNodes>
      <leafValues>
        4.0259110927581787e-01 -5.0052519887685776e-02</leafValues></_>
    <_>
      <internalNodes>
        0 -1 2141 -4.0331631898880005e-03</internalNodes>
      <leafValues>
        -5.1370717585086823e-02 3.9304190874099731e-01</leafValues></_>
    <_>
      <internalNodes>
        0 -1 36349 8.2066114991903305e-03</internalNodes>
      <leafValues>
        7.6507613062858582e-02 -2.8848931193351746e-01</leafValues></_>
    <_>
      <internalNodes>
        0 -1 13378 -1.0003428906202316e-03</internalNodes>
      <leafValues>
        1.6105262935161591e-01 -1.3126341998577118e-01</leafValues></_>
    <_>
      <internalNodes>
        0 -1 21547 -5.1477983593940735e-02</internalNodes>
      <leafValues>
        -3.4396719187498093e-02 5.8451777696609497e-01</leafValues></_>
    <_>
      <internalNodes>
        0 -1 104517 -1.1361806094646454e-01</internalNodes>
      <leafValues>
        6.3582338392734528e-02 -3.7786835432052612e-01</leafValues></_>
    <_>
      <internalNodes>
        0 -1 25804 -9.0487359557300806e-04</internalNodes>
      <leafValues>
        2.8694128990173340e-01 -6.8509489297866821e-02</leafValues></_>
    <_>
      <internalNodes>
        0 -1 1199 9.7482567070983350e-05</internalNodes>
      <leafValues>
        9.7040489315986633e-02 -2.0035403966903687e-01</leafValues></_>
    <_>
      <internalNodes>
        0 -1 13462 2.6971092447638512e-03</internalNodes>
      <leafValues>
        -8.3858586847782135e-02 2.5341823697090149e-01</leafValues></_>
    <_>
      <internalNodes>
        0 -1 63768 3.2024064566940069e-03</internalNodes>
      <leafValues>
        5.3313869982957840e-02 -3.7813213467597961e-01</leafValues></_>
    <_>
      <internalNodes>
        0 -1 60508 -1.7065959982573986e-03</internalNodes>
      <leafValues>
        -1.3663065433502197e-01 1.4022128283977509e-01</leafValues></_>
    <_>
      <internalNodes>
        0 -1 123393 -5.7463890698272735e-05</internalNodes>
      <leafValues>
        1.6344919800758362e-01 -1.2233898043632507e-01</leafValues></_>
    <_>
      <internalNodes>
        0 -1 142490 -1.4755266020074487e-03</internalNodes>
      <leafValues>
        -3.6931720376014709e-01 5.2585020661354065e-02</leafValues></_>
    <_>
      <internalNodes>
        0 -1 25804 2.2557438351213932e-03</internalNodes>
      <leafValues>
        -4.7285180538892746e-02 3.9082920551300049e-01</leafValues></_>
    <_>
      <internalNodes>
        0 -1 161 5.1613310351967812e-03</internalNodes>
      <leafValues>
        2.5452693924307823e-02 -9.1837489604949951e-01</leafValues></_>
    <_>
      <internalNodes>
        0 -1 148042 -3.6309778806753457e-04</internalNodes>
      <leafValues>
        1.6864745318889618e-01 -1.1115855723619461e-01</leafValues></_>
    <_>
      <internalNodes>
        0 -1 9383 -1.5698809176683426e-02</internalNodes>
      <leafValues>
        2.2521318495273590e-01 -7.8811950981616974e-02</leafValues></_>
    <_>
      <internalNodes>
        0 -1 161 -1.6031099949032068e-03</internalNodes>
      <leafValues>
        -2.8915792703628540e-01 7.1692675352096558e-02</leafValues></_>
    <_>
      <internalNodes>
        0 -1 67630 -4.4442210346460342e-02</internalNodes>
      <leafValues>
        -4.0440940856933594e-01 4.2516995221376419e-02</leafValues></_>
    <_>
      <internalNodes>
        0 -1 28672 -3.0756409978494048e-04</internalNodes>
      <leafValues>
        7.3675468564033508e-02 -2.4566437304019928e-01</leafValues></_>
    <_>
      <internalNodes>
        0 -1 27837 -9.8854191601276398e-03</internalNodes>
      <leafValues>
        -1.9457179307937622e-01 1.0629391670227051e-01</leafValues></_>
    <_>
      <internalNodes>
        0 -1 13401 8.6284824647009373e-04</internalNodes>
      <leafValues>
        -8.3146043121814728e-02 2.4271574616432190e-01</leafValues></_>
    <_>
      <internalNodes>
        0 -1 13397 1.6691361088305712e-03</internalNodes>
      <leafValues>
        -8.2782946527004242e-02 2.4136269092559814e-01</leafValues></_>
    <_>
      <internalNodes>
        0 -1 115 9.9599398672580719e-03</internalNodes>
      <leafValues>
        4.5668296515941620e-02 -4.4726619124412537e-01</leafValues></_>
    <_>
      <internalNodes>
        0 -1 52962 3.2566629350185394e-02</internalNodes>
      <leafValues>
        -4.8688169568777084e-02 4.5109260082244873e-01</leafValues></_>
    <_>
      <internalNodes>
        0 -1 73805 5.0553088076412678e-03</internalNodes>
      <leafValues>
        5.6938163936138153e-02 -3.6264026165008545e-01</leafValues></_>
    <_>
      <internalNodes>
        0 -1 65168 8.4254145622253418e-03</internalNodes>
      <leafValues>
        -9.3557141721248627e-02 2.1736449003219604e-01</leafValues></_>
    <_>
      <internalNodes>
        0 -1 13716 -2.4852794595062733e-03</internalNodes>
      <leafValues>
        -3.9741754531860352e-01 5.3869452327489853e-02</leafValues></_>
    <_>
      <internalNodes>
        0 -1 115515 2.8268077585380524e-05</internalNodes>
      <leafValues>
        -1.2909980118274689e-01 1.4946180582046509e-01</leafValues></_>
    <_>
      <internalNodes>
        0 -1 92551 1.0257354006171227e-02</internalNodes>
      <leafValues>
        3.2158032059669495e-02 -6.8457251787185669e-01</leafValues></_>
    <_>
      <internalNodes>
        0 -1 2209 -6.4984697382897139e-04</internalNodes>
      <leafValues>
        1.9161468371748924e-02 -8.1462436914443970e-01</leafValues></_>
    <_>
      <internalNodes>
        0 -1 42511 -7.2145829908549786e-03</internalNodes>
      <leafValues>
        -5.6660670042037964e-01 2.6545738801360130e-02</leafValues></_>
    <_>
      <internalNodes>
        0 -1 62924 -2.8859029989689589e-03</internalNodes>
      <leafValues>
        2.4309548735618591e-01 -1.0661397874355316e-01</leafValues></_>
    <_>
      <internalNodes>
        0 -1 87620 -4.4543538242578506e-03</internalNodes>
      <leafValues>
        -7.8726041316986084e-01 2.6185100898146629e-02</leafValues></_>
    <_>
      <internalNodes>
        0 -1 73776 -6.0660124290734529e-04</internalNodes>
      <leafValues>
        1.7445081472396851e-01 -1.1251925677061081e-01</leafValues></_></weakClassifiers></stage6>
</opencv_storage>
