<?xml version="1.0"?>
<opencv_storage>
<cascade>
  <stageType>BOOST</stageType>
  <featureType>LBP</featureType>
  <height>24</height>
  <width>24</width>
  <stageParams>
    <boostType>GAB</boostType>
    <minHitRate>9.9900001287460327e-01</minHitRate>
    <maxFalseAlarm>5.0000000745058060e-02</maxFalseAlarm>
    <weightTrimRate>9.4999999999999996e-01</weightTrimRate>
    <maxDepth>1</maxDepth>
    <maxWeakCount>100</maxWeakCount></stageParams>
  <featureParams>
    <maxCatCount>256</maxCatCount>
    <featSize>1</featSize></featureParams>
  <stageNum>10</stageNum>
  <stages>
    <!-- stage 0 -->
    <_>
      <maxWeakCount>12</maxWeakCount>
      <stageThreshold>-7.5786697864532471e-01</stageThreshold>
      <weakClassifiers>
        <_>
          <internalNodes>
            0 -1 18 -41946831 -134267073 2004824369 -8388813 -167792351
            -1145094273 -248024813 -209715393</internalNodes>
          <leafValues>
            -7.8365385532379150e-01 8.5164529085159302e-01</leafValues></_>
        <_>
          <internalNodes>
            0 -1 69 -638650116 -606250287 -788522963 -171108028
            -637218500 -184893433 -32230451 -33281</internalNodes>
          <leafValues>
            -7.1428191661834717e-01 6.8774098157882690e-01</leafValues></_>
        <_>
          <internalNodes>
            0 -1 151 -2566 -810811398 -1049184 -273942543 -14952997
            252428258 1434162481 -4194305</internalNodes>
          <leafValues>
            -5.4063051939010620e-01 7.8695350885391235e-01</leafValues></_>
        <_>
          <internalNodes>
            0 -1 38 1041840945 -1196851071 -716841507 -136318572
            -1987339781 -1423211841 141150461 163256568</internalNodes>
          <leafValues>
            -7.2084081172943115e-01 5.2296859025955200e-01</leafValues></_>
        <_>
          <internalNodes>
            0 -1 21 -25172478 -1979580158 -1069297377 328692383
            -1442078174 135923718 3150595 1666691651</internalNodes>
          <leafValues>
            -6.7249572277069092e-01 5.1331084966659546e-01</leafValues></_>
        <_>
          <internalNodes>
            0 -1 99 2065699088 -1660664304 -556923719 -134282624
            -369068819 -528318408 -1331771204 -277016</internalNodes>
          <leafValues>
            -7.0089149475097656e-01 5.2410155534744263e-01</leafValues></_>
        <_>
          <internalNodes>
            0 -1 176 -32849 -881872913 -17891738 -956367061 -402688731
            100104191 -201853131 -150994945</internalNodes>
          <leafValues>
            -6.0122185945510864e-01 6.1294627189636230e-01</leafValues></_>
        <_>
          <internalNodes>
            0 -1 63 -541092043 -116809657 -1073458735 -749513829
            -922335181 849332232 1091834201 1878972927</internalNodes>
          <leafValues>
            -6.3653182983398438e-01 5.5700224637985229e-01</leafValues></_>
        <_>
          <internalNodes>
            0 -1 141 -145997158 -776224433 -536788732 1344360963
            142827522 -1323022336 -939269598 2004329003</internalNodes>
          <leafValues>
            -5.9651190042495728e-01 5.7717871665954590e-01</leafValues></_>
        <_>
          <internalNodes>
            0 -1 112 -606112273 -336396225 -1026461237 2132230233
            1644284499 21168130 688371121 1071382335</internalNodes>
          <leafValues>
            -6.2281554937362671e-01 5.7343459129333496e-01</leafValues></_>
        <_>
          <internalNodes>
            0 -1 74 -78580651 -782896807 -1878792944 -678438681
            698993913 -1852579542 428360141 1595628445</internalNodes>
          <leafValues>
            -6.7620092630386353e-01 5.1046341657638550e-01</leafValues></_>
        <_>
          <internalNodes>
            0 -1 109 -674143538 -438583222 -1059694448 -187150196
            -1065106915 84609266 -1845319168 -204735781</internalNodes>
          <leafValues>
            -6.7154580354690552e-01 4.9404817819595337e-01</leafValues></_></weakClassifiers></_>
    <!-- stage 1 -->
    <_>
      <maxWeakCount>14</maxWeakCount>
      <stageThreshold>-7.9943835735321045e-01</stageThreshold>
      <weakClassifiers>
        <_>
          <internalNodes>
            0 -1 15 -205316 -254476 -1074209288 -207915 -221700 -106627
            -35652097 -1</internalNodes>
          <leafValues>
            -6.9261479377746582e-01 7.4486255645751953e-01</leafValues></_>
        <_>
          <internalNodes>
            0 -1 153 -22 -273678424 -224 -5243005 -33562701 86966079
            -671091278 -135268625</internalNodes>
          <leafValues>
            -5.8543115854263306e-01 7.1927988529205322e-01</leafValues></_>
        <_>
          <internalNodes>
            0 -1 39 2146680080 -1599390176 -49167 -294913 -82005
            -1884344438 -704793093 -1987317845</internalNodes>
          <leafValues>
            -5.2762651443481445e-01 6.5504384040832520e-01</leafValues></_>
        <_>
          <internalNodes>
            0 -1 142 -2028292176 -1820212351 -2147232431 -169913962
            -1560030287 210404057 279172261 -572551963</internalNodes>
          <leafValues>
            -6.1060041189193726e-01 5.2379411458969116e-01</leafValues></_>
        <_>
          <internalNodes>
            0 -1 10 -202384909 -572537345 420565555 2004781078
            -1936515398 -1144487270 -774380765 1496314909</internalNodes>
          <leafValues>
            -6.5521544218063354e-01 4.7781747579574585e-01</leafValues></_>
        <_>
          <internalNodes>
            0 -1 171 -612015358 -1924430643 1364317058 -243494765
            -2138524698 13140711 -1046486107 -1749306449</internalNodes>
          <leafValues>
            -5.5922424793243408e-01 5.3413540124893188e-01</leafValues></_>
        <_>
          <internalNodes>
            0 -1 64 -1641040621 852720073 -1794943511 1596793035
            -1363281089 -1280079159 139418429 1005548332</internalNodes>
          <leafValues>
            -6.6866624355316162e-01 4.2001456022262573e-01</leafValues></_>
        <_>
          <internalNodes>
            0 -1 4 -127935563 1569075215 4115 723063819 18515097
            411566606 604240059 1059945663</internalNodes>
          <leafValues>
            -5.9453952312469482e-01 4.3803110718727112e-01</leafValues></_>
        <_>
          <internalNodes>
            0 -1 115 -783076030 -2021212155 1493309941 -19949027
            -937916160 -2002894069 -220005935 454027931</internalNodes>
          <leafValues>
            -6.9628053903579712e-01 3.6578977108001709e-01</leafValues></_>
        <_>
          <internalNodes>
            0 -1 45 209715632 -239763244 -794811521 -171011695
            -103568441 713074818 -1434350933 -1238629563</internalNodes>
          <leafValues>
            -6.8297052383422852e-01 3.8920247554779053e-01</leafValues></_>
        <_>
          <internalNodes>
            0 -1 0 -124 -533004501 -335647198 -231538774 -34128124
            1081573189 -444602706 -478150658</internalNodes>
          <leafValues>
            -4.7333249449729919e-01 5.4942059516906738e-01</leafValues></_>
        <_>
          <internalNodes>
            0 -1 98 -1723281024 -102514045 -798473739 -47897893
            -1333198944 -1400633304 285481112 524679305</internalNodes>
          <leafValues>
            -8.1936532258987427e-01 3.4615594148635864e-01</leafValues></_>
        <_>
          <internalNodes>
            0 -1 77 -356126200 805314896 -1878846474 24201510
            -1329073659 -68425565 -748164185 1942874743</internalNodes>
          <leafValues>
            -5.9875100851058960e-01 4.4265919923782349e-01</leafValues></_>
        <_>
          <internalNodes>
            0 -1 5 -1887484500 -616102572 1091567669 -384089711
            -2012874720 -1288830295 1782737211 1042602475</internalNodes>
          <leafValues>
            -7.3758137226104736e-01 3.4595409035682678e-01</leafValues></_></weakClassifiers></_>
    <!-- stage 2 -->
    <_>
      <maxWeakCount>16</maxWeakCount>
      <stageThreshold>-5.6293690204620361e-01</stageThreshold>
      <weakClassifiers>
        <_>
          <internalNodes>
            0 -1 166 -68157462 -1347715158 -4640 -273678452 1609561543
            68157439 1442665936 1442838015</internalNodes>
          <leafValues>
            -6.6481226682662964e-01 7.0986360311508179e-01</leafValues></_>
        <_>
          <internalNodes>
            0 -1 120 1868038099 -10764261 -1811209389 -1116012021
            -225920374 1326418122 -1058807565 1465639631</internalNodes>
          <leafValues>
            -6.0899859666824341e-01 5.5884122848510742e-01</leafValues></_>
        <_>
          <internalNodes>
            0 -1 88 -201329716 2126946631 -754940344 -797801462
            -712256192 1107693576 -1916104316 -136581649</internalNodes>
          <leafValues>
            -5.4208540916442871e-01 5.3309404850006104e-01</leafValues></_>
        <_>
          <internalNodes>
            0 -1 113 -9339079 -1086620304 2133924144 1065303376
            2142828539 1060306416 523458715 -4514373</internalNodes>
          <leafValues>
            -4.6035650372505188e-01 5.7292115688323975e-01</leafValues></_>
        <_>
          <internalNodes>
            0 -1 32 -136929504 814756640 -1877765759 388702593
            -137889883 -1179962701 -183430621 1731459699</internalNodes>
          <leafValues>
            -6.1802643537521362e-01 3.9311832189559937e-01</leafValues></_>
        <_>
          <internalNodes>
            0 -1 165 -1478672914 -1045511798 -2134685246 -958850993
            -620711613 43915562 -779361806 -134286401</internalNodes>
          <leafValues>
            -5.4399555921554565e-01 4.8158249258995056e-01</leafValues></_>
        <_>
          <internalNodes>
            0 -1 146 -1693483459 -1736212336 1896256177 -560230189
            -2012759319 -1465745214 1235658233 -561100611</internalNodes>
          <leafValues>
            -5.4847830533981323e-01 4.4735205173492432e-01</leafValues></_>
        <_>
          <internalNodes>
            0 -1 183 1064304553 -1448083672 -4281696 -742546573
            1476343247 1309142863 -168306698 -2013282369</internalNodes>
          <leafValues>
            -4.8282253742218018e-01 5.0643903017044067e-01</leafValues></_>
        <_>
          <internalNodes>
            0 -1 58 -1510007555 856642201 536907776 911282241
            -1562206152 -1068412285 -1335836536 -15733813</internalNodes>
          <leafValues>
            -4.9432849884033203e-01 4.9736127257347107e-01</leafValues></_>
        <_>
          <internalNodes>
            0 -1 22 -148983360 -899540070 -1690138307 -342641893
            -619973736 1362012347 1626038885 -918852695</internalNodes>
          <leafValues>
            -6.3073688745498657e-01 4.2847028374671936e-01</leafValues></_>
        <_>
          <internalNodes>
            0 -1 62 -683046001 -640206338 -872395469 -549032104
            -1060352552 -911619907 -1291029728 -765724584</internalNodes>
          <leafValues>
            -5.6649482250213623e-01 4.3178203701972961e-01</leafValues></_>
        <_>
          <internalNodes>
            0 -1 72 -1295581231 -1638203119 1074074887 554113807
            -1067522630 -337473375 1393545391 -1894912849</internalNodes>
          <leafValues>
            -4.9039223790168762e-01 4.8516350984573364e-01</leafValues></_>
        <_>
          <internalNodes>
            0 -1 81 -839582556 -926558725 -1991963386 -1322102237
            -233772890 1126649867 1912828416 -143662589</internalNodes>
          <leafValues>
            -5.0177258253097534e-01 5.0211238861083984e-01</leafValues></_>
        <_>
          <internalNodes>
            0 -1 181 -723946578 -1887420261 -1001834366 1573421188
            -1298443849 18581633 -1811304266 -220334130</internalNodes>
          <leafValues>
            -4.8601913452148438e-01 5.2670347690582275e-01</leafValues></_>
        <_>
          <internalNodes>
            0 -1 67 -254501912 -222146193 -1996304378 -1571147718
            -805103576 1644253290 -1030971192 -1214899282</internalNodes>
          <leafValues>
            -5.4167985916137695e-01 4.7164201736450195e-01</leafValues></_>
        <_>
          <internalNodes>
            0 -1 73 -1843920955 1263001975 539455805 -116325561
            -1284986821 -2100641653 -928794484 -1953797822</internalNodes>
          <leafValues>
            -4.4276356697082520e-01 5.2500224113464355e-01</leafValues></_></weakClassifiers></_>
    <!-- stage 3 -->
    <_>
      <maxWeakCount>20</maxWeakCount>
      <stageThreshold>-5.6879544258117676e-01</stageThreshold>
      <weakClassifiers>
        <_>
          <internalNodes>
            0 -1 150 -22 -827392018 -290459712 -991232030 -134742029
            96468991 -134219790 -671088641</internalNodes>
          <leafValues>
            -4.6158224344253540e-01 7.3318064212799072e-01</leafValues></_>
        <_>
          <internalNodes>
            0 -1 19 -543451651 -73680705 -633333251 -1679573253
            -643311127 -1464874773 424302921 -575673457</internalNodes>
          <leafValues>
            -6.2047952413558960e-01 5.6841534376144409e-01</leafValues></_>
        <_>
          <internalNodes>
            0 -1 177 -5514582 -1901170774 -8016 -273940568 -952633345
            92536263 1427494384 -738460161</internalNodes>
          <leafValues>
            -4.9673965573310852e-01 5.4455971717834473e-01</leafValues></_>
        <_>
          <internalNodes>
            0 -1 158 -5382237 -1347420253 -4112 -4227141 -813826338
            -1886391361 1442829813 -538978309</internalNodes>
          <leafValues>
            -4.3966901302337646e-01 5.4135668277740479e-01</leafValues></_>
        <_>
          <internalNodes>
            0 -1 36 -1501413617 -1877966578 -712391733 1569525763
            -1206936646 -1147424736 1033625023 532361531</internalNodes>
          <leafValues>
            -5.5960232019424438e-01 4.3445032835006714e-01</leafValues></_>
        <_>
          <internalNodes>
            0 -1 99 1562732864 2030796946 268595393 -678477577 856390061
            -1901428600 185373165 -68233064</internalNodes>
          <leafValues>
            -6.7081183195114136e-01 3.0429852008819580e-01</leafValues></_>
        <_>
          <internalNodes>
            0 -1 66 -136711921 -1366553265 297750877 -384878270
            -1072627677 -1329594337 -893384703 -1006662755</internalNodes>
          <leafValues>
            -5.7298195362091064e-01 3.9422020316123962e-01</leafValues></_>
        <_>
          <internalNodes>
            0 -1 111 -493684937 -2044525911 60244893 -1416945131
            -1761467429 -1312388608 991962751 -726730679</internalNodes>
          <leafValues>
            -5.0219196081161499e-01 4.1574567556381226e-01</leafValues></_>
        <_>
          <internalNodes>
            0 -1 79 453093297 -1753049838 319895989 -437186489 521126651
            -1467770642 -1450538499 1595919999</internalNodes>
          <leafValues>
            -4.5083561539649963e-01 4.7185426950454712e-01</leafValues></_>
        <_>
          <internalNodes>
            0 -1 130 -1078247450 -80511048 -1059792 -292586062
            2134507002 890372091 532288979 -1889611782</internalNodes>
          <leafValues>
            -4.5181897282600403e-01 5.1253032684326172e-01</leafValues></_>
        <_>
          <internalNodes>
            0 -1 107 -69745810 -116998013 -1861762846 -622951730
            -2091703550 1073905922 1904995032 -707006038</internalNodes>
          <leafValues>
            -4.8525115847587585e-01 4.4765552878379822e-01</leafValues></_>
        <_>
          <internalNodes>
            0 -1 70 -1311249999 -593083693 -1050443725 757989937
            -1739675470 -48264262 677274027 255851483</internalNodes>
          <leafValues>
            -5.1722657680511475e-01 4.1126617789268494e-01</leafValues></_>
        <_>
          <internalNodes>
            0 -1 179 -373294997 -1439813976 603382208 -1912607923
            1716902312 -1543602374 292887645 -943367233</internalNodes>
          <leafValues>
            -3.9431354403495789e-01 5.5151957273483276e-01</leafValues></_>
        <_>
          <internalNodes>
            0 -1 139 -791642185 118665712 1663371773 -159147385
            -969954144 -1962243686 1091158465 252704987</internalNodes>
          <leafValues>
            -5.7943850755691528e-01 4.1293129324913025e-01</leafValues></_>
        <_>
          <internalNodes>
            0 -1 140 -715157627 964723350 1363742760 -1788755135
            -1005722332 -1147027277 -2059335628 -1285833071</internalNodes>
          <leafValues>
            -4.8387059569358826e-01 4.3689638376235962e-01</leafValues></_>
        <_>
          <internalNodes>
            0 -1 1 -88185 2122268661 -1103984086 1069170675 -1342297457
            931086111 1061011391 -268566529</internalNodes>
          <leafValues>
            -3.6267721652984619e-01 5.4844778776168823e-01</leafValues></_>
        <_>
          <internalNodes>
            0 -1 149 -464614847 2115963805 143146649 243343312
            -184475257 1159209131 1254879191 -2023560335</internalNodes>
          <leafValues>
            -4.9496713280677795e-01 4.4757544994354248e-01</leafValues></_>
        <_>
          <internalNodes>
            0 -1 172 -1751104910 -1786666560 8636701 -976305211
            570635006 -1097887557 453445117 -551560998</internalNodes>
          <leafValues>
            -4.7500267624855042e-01 4.7668609023094177e-01</leafValues></_>
        <_>
          <internalNodes>
            0 -1 41 612374641 961773784 1342212565 -1114144489
            -1605780552 -251099926 648481483 -1078248800</internalNodes>
          <leafValues>
            -6.0004520416259766e-01 3.7539324164390564e-01</leafValues></_>
        <_>
          <internalNodes>
            0 -1 92 -586170405 -138080049 54827379 1172267036
            -1220114957 -772993829 568775505 -471930434</internalNodes>
          <leafValues>
            -4.9676215648651123e-01 4.3484950065612793e-01</leafValues></_></weakClassifiers></_>
    <!-- stage 4 -->
    <_>
      <maxWeakCount>20</maxWeakCount>
      <stageThreshold>-6.9854736328125000e-01</stageThreshold>
      <weakClassifiers>
        <_>
          <internalNodes>
            0 -1 18 -33557199 -65665 -3801 -8388745 -11501 -67141761
            -1308626157 -75497602</internalNodes>
          <leafValues>
            -5.4765290021896362e-01 6.5556710958480835e-01</leafValues></_>
        <_>
          <internalNodes>
            0 -1 152 -67108873 -1140852488 -1073783556 -167817900
            -1145372738 926588336 523263487 -8921601</internalNodes>
          <leafValues>
            -4.4112202525138855e-01 6.6179686784744263e-01</leafValues></_>
        <_>
          <internalNodes>
            0 -1 14 -50668 -235048091 -1315929811 895693303 -139779455
            1753939985 -1330400357 -271989</internalNodes>
          <leafValues>
            -5.1184177398681641e-01 4.7550359368324280e-01</leafValues></_>
        <_>
          <internalNodes>
            0 -1 186 -67247446 -2108735345 40962 1657717195 -72631449
            1099554961 -91624777 -671351061</internalNodes>
          <leafValues>
            -5.2526080608367920e-01 4.3120881915092468e-01</leafValues></_>
        <_>
          <internalNodes>
            0 -1 35 836613520 -1171150848 -754880044 -874817276
            -1156920647 -1423297919 218847741 165355000</internalNodes>
          <leafValues>
            -7.6365810632705688e-01 2.7855923771858215e-01</leafValues></_>
        <_>
          <internalNodes>
            0 -1 44 -84157641 855442187 1407703835 -2143396892
            1688446727 321126674 -71173262 811004791</internalNodes>
          <leafValues>
            -4.9614396691322327e-01 4.4694843888282776e-01</leafValues></_>
        <_>
          <internalNodes>
            0 -1 136 -1154286731 -216805160 -1022638759 -1579857447
            -1291590712 973308032 251893935 1062064584</internalNodes>
          <leafValues>
            -6.2833130359649658e-01 3.3150538802146912e-01</leafValues></_>
        <_>
          <internalNodes>
            0 -1 11 -1141047390 -556020909 -1191711695 -714435801
            -1550320087 -3480341 -708665007 394973957</internalNodes>
          <leafValues>
            -6.1010688543319702e-01 3.1479576230049133e-01</leafValues></_>
        <_>
          <internalNodes>
            0 -1 196 -915669329 1113974335 -622801106 -1977025297
            -1908455936 1459060314 -1241529052 -1268779145</internalNodes>
          <leafValues>
            -3.7106671929359436e-01 5.9068250656127930e-01</leafValues></_>
        <_>
          <internalNodes>
            0 -1 56 -82 -260640922 -269557014 -257757525 -268477075
            1146189653 -134221571 -147079185</internalNodes>
          <leafValues>
            -3.9450201392173767e-01 5.5032372474670410e-01</leafValues></_>
        <_>
          <internalNodes>
            0 -1 119 438587936 -1534230512 1249956693 990151372
            -1977439259 -1971092856 -1693629975 -1145114391</internalNodes>
          <leafValues>
            -6.4176839590072632e-01 3.1332921981811523e-01</leafValues></_>
        <_>
          <internalNodes>
            0 -1 176 -78038097 -2083941723 1074798978 -419770053
            -238034827 19579010 -99409167 871955390</internalNodes>
          <leafValues>
            -6.7678153514862061e-01 2.7804416418075562e-01</leafValues></_>
        <_>
          <internalNodes>
            0 -1 49 -1201681557 887084135 -819375133 2086987634
            926008325 1897202007 -505966330 -707300845</internalNodes>
          <leafValues>
            -4.7980865836143494e-01 4.1743081808090210e-01</leafValues></_>
        <_>
          <internalNodes>
            0 -1 10 -1000676065 -1144175378 1292202583 2070955045
            -2100451175 736266846 -2048912583 -1319220656</internalNodes>
          <leafValues>
            -4.3617627024650574e-01 4.7275194525718689e-01</leafValues></_>
        <_>
          <internalNodes>
            0 -1 126 928685360 -1844698990 -1094302703 1484837777
            -1471935881 -1551351637 596221976 -1849855345</internalNodes>
          <leafValues>
            -5.2848076820373535e-01 3.7734949588775635e-01</leafValues></_>
        <_>
          <internalNodes>
            0 -1 12 -101792349 577697358 -800135845 -959193027
            -1443982893 -549807146 27463681 1174173799</internalNodes>
          <leafValues>
            -5.8416181802749634e-01 3.2553613185882568e-01</leafValues></_>
        <_>
          <internalNodes>
            0 -1 133 -33931265 -80510992 -4743724 2058190320 -1087193094
            1058045938 389961151 -541336321</internalNodes>
          <leafValues>
            -3.7151169776916504e-01 5.6889897584915161e-01</leafValues></_>
        <_>
          <internalNodes>
            0 -1 162 1710504418 -1920925534 -1312743216 -624850727
            -1693238358 42500098 1101648305 -573841157</internalNodes>
          <leafValues>
            -5.3929853439331055e-01 3.7432897090911865e-01</leafValues></_>
        <_>
          <internalNodes>
            0 -1 124 1229178217 912913885 288445189 810868161
            -1864381790 814835730 -1362894576 -742864790</internalNodes>
          <leafValues>
            -4.4958764314651489e-01 4.4065207242965698e-01</leafValues></_>
        <_>
          <internalNodes>
            0 -1 159 1964569170 -239353584 4849 -184481519 -1820150918
            555360384 453171627 1061214671</internalNodes>
          <leafValues>
            -4.5181453227996826e-01 4.5087441802024841e-01</leafValues></_></weakClassifiers></_>
    <!-- stage 5 -->
    <_>
      <maxWeakCount>24</maxWeakCount>
      <stageThreshold>-5.3544569015502930e-01</stageThreshold>
      <weakClassifiers>
        <_>
          <internalNodes>
            0 -1 89 -41475 -62403 -537059844 -174595 -536912403
            -1073787851 -1079091715 -32769</internalNodes>
          <leafValues>
            -4.1889250278472900e-01 6.4414536952972412e-01</leafValues></_>
        <_>
          <internalNodes>
            0 -1 154 -738215010 -476869696 -1869622864 -138719031
            -2010645541 136547035 1494209021 1608501471</internalNodes>
          <leafValues>
            -5.5759650468826294e-01 4.4662532210350037e-01</leafValues></_>
        <_>
          <internalNodes>
            0 -1 117 488914192 -71608175 1283789041 -539016763
            -1635070225 -1978825558 352194729 -1901075970</internalNodes>
          <leafValues>
            -5.4129427671432495e-01 3.8597452640533447e-01</leafValues></_>
        <_>
          <internalNodes>
            0 -1 103 2126363802 -1153810518 -205 -67452937 -12582978
            -1886490742 -723520007 -573636865</internalNodes>
          <leafValues>
            -4.0260133147239685e-01 5.2080905437469482e-01</leafValues></_>
        <_>
          <internalNodes>
            0 -1 76 -707420869 -1334747821 18633099 -650067903 -34104446
            -1952714869 -118753007 -773925686</internalNodes>
          <leafValues>
            -4.4829061627388000e-01 4.3948602676391602e-01</leafValues></_>
        <_>
          <internalNodes>
            0 -1 25 1314418620 -2113372127 -1068253106 -994049790
            -2147272402 -877100361 612625407 1727508551</internalNodes>
          <leafValues>
            -5.4711693525314331e-01 3.3019354939460754e-01</leafValues></_>
        <_>
          <internalNodes>
            0 -1 88 -134221906 -33554449 -17826176 -220004678 -2490988
            1348728319 -973603640 -171984901</internalNodes>
          <leafValues>
            -3.7855288386344910e-01 4.9173191189765930e-01</leafValues></_>
        <_>
          <internalNodes>
            0 -1 106 -369150153 1860030663 294693652 -187595705
            1335485251 1351303219 -120346595 1196148814</internalNodes>
          <leafValues>
            -4.4368085265159607e-01 4.0114775300025940e-01</leafValues></_>
        <_>
          <internalNodes>
            0 -1 31 -180266635 -1038966673 17292249 -376487267
            1648865136 -1473566515 -1657816583 -1650619911</internalNodes>
          <leafValues>
            -4.6350926160812378e-01 4.1125226020812988e-01</leafValues></_>
        <_>
          <internalNodes>
            0 -1 94 -340267016 -1087340738 -16779614 -4539853
            -1778893343 121077623 1434320092 -571474949</internalNodes>
          <leafValues>
            -3.2113054394721985e-01 5.4539519548416138e-01</leafValues></_>
        <_>
          <internalNodes>
            0 -1 148 2000789010 -524023806 894521488 -1328282474
            -1950352898 -896093688 1130419059 1460992651</internalNodes>
          <leafValues>
            -5.4525250196456909e-01 3.2008045911788940e-01</leafValues></_>
        <_>
          <internalNodes>
            0 -1 116 -514381911 -1999470186 -787609394 -213512017
            -85472768 -708094857 -157719744 -1280029989</internalNodes>
          <leafValues>
            -4.7993415594100952e-01 3.6020120978355408e-01</leafValues></_>
        <_>
          <internalNodes>
            0 -1 37 872428020 -1827848047 -201248678 -2024746277
            -2138454065 -1132287989 -1148141893 750520508</internalNodes>
          <leafValues>
            -7.7821236848831177e-01 2.2410443425178528e-01</leafValues></_>
        <_>
          <internalNodes>
            0 -1 178 -925911409 979018248 -1874644203 -170208451
            906601947 1041377344 403134557 -179509890</internalNodes>
          <leafValues>
            -4.3037512898445129e-01 4.2418584227561951e-01</leafValues></_>
        <_>
          <internalNodes>
            0 -1 188 -944402675 -227017105 -1212916397 -98473015
            -1350794208 -824027267 -185761924 -606240777</internalNodes>
          <leafValues>
            -3.4792402386665344e-01 5.1613783836364746e-01</leafValues></_>
        <_>
          <internalNodes>
            0 -1 0 -37748946 -97517649 -268472824 -253575441 -318824571
            1078427469 -268446018 -203431971</internalNodes>
          <leafValues>
            -3.5577511787414551e-01 4.8949593305587769e-01</leafValues></_>
        <_>
          <internalNodes>
            0 -1 48 1987384399 -456322417 -1055865142 1913844270
            1090904581 537274121 -366743136 39877295</internalNodes>
          <leafValues>
            -4.7697174549102783e-01 3.6339694261550903e-01</leafValues></_>
        <_>
          <internalNodes>
            0 -1 129 292979710 -1618509672 944890146 -230030801
            -357953039 1151991872 -108267280 1403639994</internalNodes>
          <leafValues>
            -5.1235938072204590e-01 3.5259443521499634e-01</leafValues></_>
        <_>
          <internalNodes>
            0 -1 132 -959731205 -1321746654 391544701 -1654002247
            -944789754 -2033551880 -1942961054 -2082476861</internalNodes>
          <leafValues>
            -3.3254954218864441e-01 5.3507959842681885e-01</leafValues></_>
        <_>
          <internalNodes>
            0 -1 84 -355093475 1946807219 -1064203146 1199540250
            -1325234330 -1574666109 709726298 84100039</internalNodes>
          <leafValues>
            -4.3927842378616333e-01 4.1093981266021729e-01</leafValues></_>
        <_>
          <internalNodes>
            0 -1 135 -1759529837 1804313227 -775698960 503363817
            -1203723538 -1735726056 1695248629 -1007109128</internalNodes>
          <leafValues>
            -4.7109836339950562e-01 3.8698670268058777e-01</leafValues></_>
        <_>
          <internalNodes>
            0 -1 61 -473018995 -228081499 -2080278687 -448594763
            -1559574348 -1431597984 -335327927 -75563533</internalNodes>
          <leafValues>
            -5.0512236356735229e-01 3.3928430080413818e-01</leafValues></_>
        <_>
          <internalNodes>
            0 -1 169 -71013487 -1762005063 -755277934 -791680525
            2137963515 -1190940918 2004794843 -822427685</internalNodes>
          <leafValues>
            -2.9051539301872253e-01 6.0897612571716309e-01</leafValues></_>
        <_>
          <internalNodes>
            0 -1 20 1116664236 -632610149 -385654040 -366732790 36063676
            924903437 911954301 2133997873</internalNodes>
          <leafValues>
            -7.2680497169494629e-01 2.4745067954063416e-01</leafValues></_></weakClassifiers></_>
    <!-- stage 6 -->
    <_>
      <maxWeakCount>24</maxWeakCount>
      <stageThreshold>-4.0121880173683167e-01</stageThreshold>
      <weakClassifiers>
        <_>
          <internalNodes>
            0 -1 16 -9061067 -13156749 1064646967 1060993855 -8700101
            -1082179781 2138521407 1061109567</internalNodes>
          <leafValues>
            -4.6850109100341797e-01 6.1953991651535034e-01</leafValues></_>
        <_>
          <internalNodes>
            0 -1 108 -131073 -4489222 -1086379208 -541115485 -1087131399
            489742322 1060313343 2139070459</internalNodes>
          <leafValues>
            -4.2440852522850037e-01 5.4430782794952393e-01</leafValues></_>
        <_>
          <internalNodes>
            0 -1 101 -2112706755 -204142829 -1065301925 -2025521152
            -1112492102 -1179415910 186305018 2134626810</internalNodes>
          <leafValues>
            -5.0091081857681274e-01 4.1260200738906860e-01</leafValues></_>
        <_>
          <internalNodes>
            0 -1 71 -587278969 -526024077 -1065069937 -1522319214
            -895896793 -32141305 97270075 -604802303</internalNodes>
          <leafValues>
            -4.4595006108283997e-01 3.9399355649948120e-01</leafValues></_>
        <_>
          <internalNodes>
            0 -1 131 -268435481 -67707660 2138168568 -832176 -1086865928
            -63906352 2138070491 -21594145</internalNodes>
          <leafValues>
            -3.6770167946815491e-01 4.6589261293411255e-01</leafValues></_>
        <_>
          <internalNodes>
            0 -1 34 1145448519 2130706175 -16908321 -263297 -1224736921
            -1073741825 -268783793 -422072537</internalNodes>
          <leafValues>
            -3.8312074542045593e-01 4.5193979144096375e-01</leafValues></_>
        <_>
          <internalNodes>
            0 -1 27 873476368 1062880415 297899485 483615199 -754962004
            -143507431 -1580094579 -1215661297</internalNodes>
          <leafValues>
            -5.9231734275817871e-01 2.9051661491394043e-01</leafValues></_>
        <_>
          <internalNodes>
            0 -1 13 -135296 -625524865 -1073747050 -165495046 -1094385
            1467825943 -318904658 -134488577</internalNodes>
          <leafValues>
            -3.5541337728500366e-01 4.9044951796531677e-01</leafValues></_>
        <_>
          <internalNodes>
            0 -1 137 1825000762 1085653268 459296179 -261076388
            -2126980968 -1249607359 1162113132 -1893837989</internalNodes>
          <leafValues>
            -3.8689804077148438e-01 4.0047568082809448e-01</leafValues></_>
        <_>
          <internalNodes>
            0 -1 78 845067263 -178863585 1677721999 -582971079
            -1264520213 -721329275 -1149047877 -1145154115</internalNodes>
          <leafValues>
            -4.4603002071380615e-01 3.5226270556449890e-01</leafValues></_>
        <_>
          <internalNodes>
            0 -1 189 -673381118 596022679 1426702594 -269927144
            -1056634074 1884956800 1174483552 1211069370</internalNodes>
          <leafValues>
            -5.3333574533462524e-01 3.1561708450317383e-01</leafValues></_>
        <_>
          <internalNodes>
            0 -1 40 -1605771196 -1287810759 992160554 -2136612346
            438694720 1397346480 1083390277 1718051617</internalNodes>
          <leafValues>
            -6.3626003265380859e-01 2.5826486945152283e-01</leafValues></_>
        <_>
          <internalNodes>
            0 -1 97 291369265 -586104772 -872360750 -142338931
            -364850807 -652197684 -293583989 2022458026</internalNodes>
          <leafValues>
            -4.3620941042900085e-01 3.7948396801948547e-01</leafValues></_>
        <_>
          <internalNodes>
            0 -1 55 1648729348 1179894867 -2130476724 -321662325
            -511482861 1761648640 -376718783 -1362131251</internalNodes>
          <leafValues>
            -4.2565321922302246e-01 3.8041695952415466e-01</leafValues></_>
        <_>
          <internalNodes>
            0 -1 7 -486539393 -67158019 16670519 -1140899971 -1074020555
            -1140949537 916340599 -139053737</internalNodes>
          <leafValues>
            -2.9142284393310547e-01 5.3461062908172607e-01</leafValues></_>
        <_>
          <internalNodes>
            0 -1 161 -22303305 -408142019 2011848579 -201586843
            154317936 -1592721444 -852183324 -248561911</internalNodes>
          <leafValues>
            -3.6098426580429077e-01 4.3939274549484253e-01</leafValues></_>
        <_>
          <internalNodes>
            0 -1 110 -1073791521 -33923 -746589221 2147434367 -33063
            -153125096 -1294617893 -549011617</internalNodes>
          <leafValues>
            -2.5554853677749634e-01 5.9007722139358521e-01</leafValues></_>
        <_>
          <internalNodes>
            0 -1 128 -1065376150 1174077367 -149525 -488670401
            -696664531 1912430576 -374981155 -922367921</internalNodes>
          <leafValues>
            -3.3178716897964478e-01 4.7038906812667847e-01</leafValues></_>
        <_>
          <internalNodes>
            0 -1 24 -518586883 -805244731 203878609 -106728869
            -116834227 -1308485395 599870203 1940156196</internalNodes>
          <leafValues>
            -5.2612197399139404e-01 3.0486783385276794e-01</leafValues></_>
        <_>
          <internalNodes>
            0 -1 195 -324281233 -729956459 -273027130 1114959527
            -1937969179 -142737649 -1368022138 -1147148897</internalNodes>
          <leafValues>
            -2.7176207304000854e-01 6.1227339506149292e-01</leafValues></_>
        <_>
          <internalNodes>
            0 -1 105 -1011088116 2098242352 419438263 -1728019066
            1100812917 -128955328 -1408980364 607156550</internalNodes>
          <leafValues>
            -6.8382072448730469e-01 2.5783663988113403e-01</leafValues></_>
        <_>
          <internalNodes>
            0 -1 182 -2142687836 1819958223 -2021126032 -855682612
            1079613642 -2121463543 -1970678077 -1309708145</internalNodes>
          <leafValues>
            -4.9938485026359558e-01 3.2050293684005737e-01</leafValues></_>
        <_>
          <internalNodes>
            0 -1 170 2019222857 1645649978 -1375565028 1531249608
            548050999 997950208 385890586 843020880</internalNodes>
          <leafValues>
            -5.0770479440689087e-01 3.2860624790191650e-01</leafValues></_>
        <_>
          <internalNodes>
            0 -1 86 -287772948 1853435874 -1124090135 -47894674
            -136478937 1995800054 -9076824 -263754982</internalNodes>
          <leafValues>
            -3.9681932330131531e-01 4.0955734252929688e-01</leafValues></_></weakClassifiers></_>
    <!-- stage 7 -->
    <_>
      <maxWeakCount>28</maxWeakCount>
      <stageThreshold>-4.8860844969749451e-01</stageThreshold>
      <weakClassifiers>
        <_>
          <internalNodes>
            0 -1 121 1979710114 -268505170 -201328653 -1 2147475370
            -1882259572 -168299017 1465909211</internalNodes>
          <leafValues>
            -4.8344370722770691e-01 5.7743692398071289e-01</leafValues></_>
        <_>
          <internalNodes>
            0 -1 57 -131073 -536920065 -9064774 867384251 -684817
            1073184248 -13326102 -17409</internalNodes>
          <leafValues>
            -3.1563091278076172e-01 6.3688409328460693e-01</leafValues></_>
        <_>
          <internalNodes>
            0 -1 167 -671090305 -1145422040 -519 -266895 -1223245825
            992214968 1999637789 -2359297</internalNodes>
          <leafValues>
            -3.3666232228279114e-01 4.8423567414283752e-01</leafValues></_>
        <_>
          <internalNodes>
            0 -1 42 345511684 -1246228304 1226495165 -107441701
            -1282547777 -1079850335 685680811 1063215291</internalNodes>
          <leafValues>
            -5.1385045051574707e-01 3.1050759553909302e-01</leafValues></_>
        <_>
          <internalNodes>
            0 -1 29 -490278938 -900071121 1342309395 -2147385293
            -1565869121 -24175121 165649839 -34274272</internalNodes>
          <leafValues>
            -4.4019934535026550e-01 3.3654475212097168e-01</leafValues></_>
        <_>
          <internalNodes>
            0 -1 87 -73007771 -1358971433 -17301972 -353501201
            -138428859 1440218494 -1074544777 -1495325046</internalNodes>
          <leafValues>
            -3.5152354836463928e-01 4.1316005587577820e-01</leafValues></_>
        <_>
          <internalNodes>
            0 -1 90 -115969 -71336265 -80479245 1596767231 -721957
            -2135097541 -403050021 -214041670</internalNodes>
          <leafValues>
            -3.0764368176460266e-01 5.0531661510467529e-01</leafValues></_>
        <_>
          <internalNodes>
            0 -1 59 -85051905 1107693600 8704 633538712 -1316586596
            571803784 1539784709 -1099247</internalNodes>
          <leafValues>
            -4.7903427481651306e-01 3.2564613223075867e-01</leafValues></_>
        <_>
          <internalNodes>
            0 -1 174 -1714390149 -87366120 8930520 -539494564
            -1282766346 -1156448102 55036143 2112347620</internalNodes>
          <leafValues>
            -4.3173155188560486e-01 3.1927078962326050e-01</leafValues></_>
        <_>
          <internalNodes>
            0 -1 93 1753426597 178275717 -536722888 -610512690
            -299369166 2120674463 -1058856379 -1346318166</internalNodes>
          <leafValues>
            -4.7071677446365356e-01 3.1032672524452209e-01</leafValues></_>
        <_>
          <internalNodes>
            0 -1 95 -1476709539 2019500048 1141031181 474943497
            -761252644 1680018144 1009660893 -1712674129</internalNodes>
          <leafValues>
            -4.1378703713417053e-01 3.4328836202621460e-01</leafValues></_>
        <_>
          <internalNodes>
            0 -1 144 -1696404161 -54806337 -33587459 -229181961
            -1078218824 1991686936 800257225 -980511430</internalNodes>
          <leafValues>
            -3.4431701898574829e-01 4.2901667952537537e-01</leafValues></_>
        <_>
          <internalNodes>
            0 -1 83 -2143941628 -99224825 -1014582401 -921564329
            -1467245599 -1160862589 541780658 831529031</internalNodes>
          <leafValues>
            -5.6801587343215942e-01 2.5082337856292725e-01</leafValues></_>
        <_>
          <internalNodes>
            0 -1 53 2010434240 -1398242605 345079820 -1369443702
            1354953553 1080098948 1774428770 863976834</internalNodes>
          <leafValues>
            -4.9447682499885559e-01 2.7551501989364624e-01</leafValues></_>
        <_>
          <internalNodes>
            0 -1 0 1892143684 -1027423609 1418215530 -1564438070
            -123498482 1109723648 -580679560 -730085141</internalNodes>
          <leafValues>
            -4.3498584628105164e-01 3.3139508962631226e-01</leafValues></_>
        <_>
          <internalNodes>
            0 -1 50 1256482916 1213028381 59232448 1997312786 1686202407
            1896875417 -1666737217 864496058</internalNodes>
          <leafValues>
            -5.0795096158981323e-01 2.6567479968070984e-01</leafValues></_>
        <_>
          <internalNodes>
            0 -1 28 -1043684171 -742774525 536873395 -1659764466
            -1282792921 -1902540630 -1876719035 -1835029999</internalNodes>
          <leafValues>
            -5.3317284584045410e-01 2.6662245392799377e-01</leafValues></_>
        <_>
          <internalNodes>
            0 -1 160 1639557512 1466983225 -408953200 1975071344
            -524429871 -202508420 -2046963874 -1209600393</internalNodes>
          <leafValues>
            -3.6591452360153198e-01 3.8758784532546997e-01</leafValues></_>
        <_>
          <internalNodes>
            0 -1 163 -520359583 -1139177057 1476610478 -2139039785
            -913684334 -1038547214 273079694 1318630148</internalNodes>
          <leafValues>
            -3.9960208535194397e-01 3.4754878282546997e-01</leafValues></_>
        <_>
          <internalNodes>
            0 -1 138 -1420251728 -765493056 1417789960 -410554207
            873179984 11247752 506091582 389306513</internalNodes>
          <leafValues>
            -8.4799355268478394e-01 1.6955986618995667e-01</leafValues></_>
        <_>
          <internalNodes>
            0 -1 180 -145551609 -476606061 -1245132019 -799615122
            1518531173 1134676901 -1199379205 1222503355</internalNodes>
          <leafValues>
            -3.8328808546066284e-01 3.8981071114540100e-01</leafValues></_>
        <_>
          <internalNodes>
            0 -1 151 -766553605 -509919214 1124432844 496477720
            -846871569 169934976 1221378497 1070198491</internalNodes>
          <leafValues>
            -4.3019208312034607e-01 3.2065668702125549e-01</leafValues></_>
        <_>
          <internalNodes>
            0 -1 75 336081968 -741461945 -2130476935 -687570936
            470302908 -91750255 2059110957 -290453268</internalNodes>
          <leafValues>
            -6.9562470912933350e-01 1.9443081319332123e-01</leafValues></_>
        <_>
          <internalNodes>
            0 -1 147 1474228029 -124569014 -519520225 666011283
            -1684342662 -259798520 -1048172149 1140162828</internalNodes>
          <leafValues>
            -3.8522729277610779e-01 3.4399411082267761e-01</leafValues></_>
        <_>
          <internalNodes>
            0 -1 191 -73994727 -695468751 1258188603 -530483464
            -176697497 32735088 933145873 -640760930</internalNodes>
          <leafValues>
            -3.0352300405502319e-01 4.4879564642906189e-01</leafValues></_>
        <_>
          <internalNodes>
            0 -1 14 -645422728 1347907605 -1824422849 297800019
            -1067046608 -1585424119 -1299733509 2074738167</internalNodes>
          <leafValues>
            -4.3364289402961731e-01 3.1517556309700012e-01</leafValues></_>
        <_>
          <internalNodes>
            0 -1 175 1967729194 -2122085598 -1203664496 -790772093
            -1678663301 142704810 1099673847 385995215</internalNodes>
          <leafValues>
            -5.4537707567214966e-01 2.5841414928436279e-01</leafValues></_>
        <_>
          <internalNodes>
            0 -1 60 -2133011972 -774618923 138416403 1433994003
            -1872754679 -1598406647 410540162 136474139</internalNodes>
          <leafValues>
            -5.4172539710998535e-01 2.4936012923717499e-01</leafValues></_></weakClassifiers></_>
    <!-- stage 8 -->
    <_>
      <maxWeakCount>29</maxWeakCount>
      <stageThreshold>-5.6049454212188721e-01</stageThreshold>
      <weakClassifiers>
        <_>
          <internalNodes>
            0 -1 3 -2561 -17101423 -1079506976 -1076292671 1408179240
            32052580 -58291 -1098173</internalNodes>
          <leafValues>
            -1.1220715194940567e-01 7.1813988685607910e-01</leafValues></_>
        <_>
          <internalNodes>
            0 -1 187 -682115190 226681474 -720512768 -271855166
            -790365793 168634974 -104073019 -724370449</internalNodes>
          <leafValues>
            -4.2299547791481018e-01 4.2533478140830994e-01</leafValues></_>
        <_>
          <internalNodes>
            0 -1 9 -609308674 -1 -1166344193 -134348801 -1985310721
            -1077969153 580927263 -228067769</internalNodes>
          <leafValues>
            -3.6030769348144531e-01 4.5197370648384094e-01</leafValues></_>
        <_>
          <internalNodes>
            0 -1 130 -16793601 -71663686 -1319560 1877998944 -1082591746
            1159460659 522100701 2105405435</internalNodes>
          <leafValues>
            -3.7493139505386353e-01 4.2598509788513184e-01</leafValues></_>
        <_>
          <internalNodes>
            0 -1 17 -790151708 -480959091 -1567593939 -1844917533
            -1071021747 -1432201301 -529700089 -357680369</internalNodes>
          <leafValues>
            -6.0580146312713623e-01 1.9629691541194916e-01</leafValues></_>
        <_>
          <internalNodes>
            0 -1 38 437858586 503890816 -116351267 -109014640
            -1198935045 -1104428926 422078968 161360120</internalNodes>
          <leafValues>
            -6.7118370532989502e-01 1.9024977087974548e-01</leafValues></_>
        <_>
          <internalNodes>
            0 -1 114 -2129128005 -409859980 113580242 -697300971
            -251128960 -1023410041 328987584 -786830960</internalNodes>
          <leafValues>
            -4.7402614355087280e-01 2.6442897319793701e-01</leafValues></_>
        <_>
          <internalNodes>
            0 -1 23 2035682613 756191317 1237581938 370280603 1749683453
            -375322406 -325785142 815822518</internalNodes>
          <leafValues>
            -5.0071865320205688e-01 2.3791764676570892e-01</leafValues></_>
        <_>
          <internalNodes>
            0 -1 102 1159179055 -220905147 16794328 -780040053
            -402708598 -2095081782 -605459088 -799288256</internalNodes>
          <leafValues>
            -3.9553752541542053e-01 3.0561161041259766e-01</leafValues></_>
        <_>
          <internalNodes>
            0 -1 65 -478959672 1052130026 -13 -1141407745 1332845351
            -103309449 118808331 -1415577729</internalNodes>
          <leafValues>
            -3.3770036697387695e-01 4.2139250040054321e-01</leafValues></_>
        <_>
          <internalNodes>
            0 -1 168 -1319749158 -1291144824 822545160 -86527848
            -593267718 186839707 1498366401 1038953868</internalNodes>
          <leafValues>
            -5.7249575853347778e-01 2.2429080307483673e-01</leafValues></_>
        <_>
          <internalNodes>
            0 -1 85 2082857679 1727233907 1723613103 -251826195
            -148383929 930984575 -16787640 -406739953</internalNodes>
          <leafValues>
            -2.7134180068969727e-01 4.9873057007789612e-01</leafValues></_>
        <_>
          <internalNodes>
            0 -1 2 -364114756 -786142303 134496320 1393106949 277156532
            -1010367484 1182962573 -951369</internalNodes>
          <leafValues>
            -6.2902998924255371e-01 2.1017982065677643e-01</leafValues></_>
        <_>
          <internalNodes>
            0 -1 113 182571516 -790658620 1332584 1095239105 268495528
            170560208 1713539 786407929</internalNodes>
          <leafValues>
            -4.7478547692298889e-01 2.7091622352600098e-01</leafValues></_>
        <_>
          <internalNodes>
            0 -1 54 1415009609 2050724371 -970763993 -658573158
            -1006296208 2009825498 -164519137 1669813014</internalNodes>
          <leafValues>
            -4.3644115328788757e-01 2.9010105133056641e-01</leafValues></_>
        <_>
          <internalNodes>
            0 -1 192 -511727605 -354521089 2147364430 -434156068
            -1619712500 610459397 1201655759 -53204023</internalNodes>
          <leafValues>
            -3.2688710093498230e-01 3.8347390294075012e-01</leafValues></_>
        <_>
          <internalNodes>
            0 -1 43 1077175814 -398981173 287525315 -1073948209
            -1986147891 -92045266 1619290765 600883527</internalNodes>
          <leafValues>
            -4.8146075010299683e-01 2.8093424439430237e-01</leafValues></_>
        <_>
          <internalNodes>
            0 -1 68 -489246820 -564181431 163894 2082017671 -659810162
            1757560928 587440794 -562568501</internalNodes>
          <leafValues>
            -3.5350668430328369e-01 3.6700826883316040e-01</leafValues></_>
        <_>
          <internalNodes>
            0 -1 104 -2133006022 2059047571 -1416911464 997606190
            26577967 -1382383296 1233799535 -976176298</internalNodes>
          <leafValues>
            -3.9478102326393127e-01 3.5078835487365723e-01</leafValues></_>
        <_>
          <internalNodes>
            0 -1 156 1267487673 -1583496822 1485430240 619628757
            -1337373762 228098189 1709830278 -2014680100</internalNodes>
          <leafValues>
            -4.4673946499824524e-01 3.0149069428443909e-01</leafValues></_>
        <_>
          <internalNodes>
            0 -1 134 -1076815653 -49016555 1099752274 1204553820
            -209135037 -1341847447 -359931000 -478270739</internalNodes>
          <leafValues>
            -3.4248104691505432e-01 3.6681175231933594e-01</leafValues></_>
        <_>
          <internalNodes>
            0 -1 197 -1814061410 999772453 1409351680 1083843021
            -1714931452 1358020872 343454324 850129484</internalNodes>
          <leafValues>
            -4.0385147929191589e-01 3.2941794395446777e-01</leafValues></_>
        <_>
          <internalNodes>
            0 -1 185 -841731155 -1053650965 -420012482 -310936207
            1625366692 367902693 -1904245544 -207361114</internalNodes>
          <leafValues>
            -3.0957946181297302e-01 4.0731251239776611e-01</leafValues></_>
        <_>
          <internalNodes>
            0 -1 33 4894972 324272431 268456467 -783957995 -225867767
            -1849564498 145193 1071391068</internalNodes>
          <leafValues>
            -7.1511870622634888e-01 1.8152585625648499e-01</leafValues></_>
        <_>
          <internalNodes>
            0 -1 80 1737108028 1149816922 150997051 1115717830
            1616253893 2066907523 -744593943 115565669</internalNodes>
          <leafValues>
            -5.9047293663024902e-01 2.2266207635402679e-01</leafValues></_>
        <_>
          <internalNodes>
            0 -1 82 2142753599 -285245725 -402686221 -9212045
            -1073758820 -594608241 -1284001800 -945840166</internalNodes>
          <leafValues>
            -2.9737463593482971e-01 4.5394665002822876e-01</leafValues></_>
        <_>
          <internalNodes>
            0 -1 193 280111438 1491043137 269602890 -196185708
            1624187200 -389485038 1671290060 -1250822720</internalNodes>
          <leafValues>
            -4.4361093640327454e-01 2.9863241314888000e-01</leafValues></_>
        <_>
          <internalNodes>
            0 -1 1 -26367270 -8421377 783485566 985333491 -269081670
            2139045727 -1090654338 -151126017</internalNodes>
          <leafValues>
            -3.2106199860572815e-01 4.1671073436737061e-01</leafValues></_>
        <_>
          <internalNodes>
            0 -1 127 1612343923 2003168862 1878473719 -340884930
            1903353721 2094462964 2105466826 1412331003</internalNodes>
          <leafValues>
            -3.3042424917221069e-01 3.9474049210548401e-01</leafValues></_></weakClassifiers></_>
    <!-- stage 9 -->
    <_>
      <maxWeakCount>29</maxWeakCount>
      <stageThreshold>-5.1533138751983643e-01</stageThreshold>
      <weakClassifiers>
        <_>
          <internalNodes>
            0 -1 157 -16778241 -469762116 -4612 -515 -1633976325
            1060174768 252435707 2134891995</internalNodes>
          <leafValues>
            -1.6417910158634186e-01 6.5899777412414551e-01</leafValues></_>
        <_>
          <internalNodes>
            0 -1 88 -723783256 -23391777 671623684 -227368934 -654087680
            1736802441 -2002013940 -168313957</internalNodes>
          <leafValues>
            -4.6553823351860046e-01 4.2033711075782776e-01</leafValues></_>
        <_>
          <internalNodes>
            0 -1 131 -268435457 -67900172 2138267124 997412316 -13582856
            1043389680 2138103290 -8978562</internalNodes>
          <leafValues>
            -3.4768101572990417e-01 4.1744893789291382e-01</leafValues></_>
        <_>
          <internalNodes>
            0 -1 100 1213104691 -461618872 1081687 -1291845310
            -1968399705 -2004188664 1101062641 1082718282</internalNodes>
          <leafValues>
            -6.3088428974151611e-01 2.0850697159767151e-01</leafValues></_>
        <_>
          <internalNodes>
            0 -1 8 -20671042 -268075005 -199866285 -1014939581
            -1902581801 -1978965760 537619179 -210797753</internalNodes>
          <leafValues>
            -3.5045602917671204e-01 3.8583397865295410e-01</leafValues></_>
        <_>
          <internalNodes>
            0 -1 190 -141492428 -1793400638 1082938376 -138162062
            -889068699 34209880 285313609 -1059328978</internalNodes>
          <leafValues>
            -3.9422076940536499e-01 3.4050107002258301e-01</leafValues></_>
        <_>
          <internalNodes>
            0 -1 57 -1042840668 -1336585577 -1877938176 134875540
            -1862204677 1889345546 2286 2002774411</internalNodes>
          <leafValues>
            -4.3471857905387878e-01 2.9829037189483643e-01</leafValues></_>
        <_>
          <internalNodes>
            0 -1 26 -1022085725 1258688823 27849927 254249239
            -1333282583 2069602795 -1574802943 -213708093</internalNodes>
          <leafValues>
            -3.7534165382385254e-01 3.3078420162200928e-01</leafValues></_>
        <_>
          <internalNodes>
            0 -1 52 -665021524 -259783991 4427786 -2004111287 269595138
            1224773643 -651603456 885461814</internalNodes>
          <leafValues>
            -4.9215391278266907e-01 2.6267659664154053e-01</leafValues></_>
        <_>
          <internalNodes>
            0 -1 6 -1294322692 -1870567539 805372369 -2121398109
            757485965 136456344 690123028 1590565121</internalNodes>
          <leafValues>
            -6.8390887975692749e-01 1.9749306142330170e-01</leafValues></_>
        <_>
          <internalNodes>
            0 -1 46 910414830 1448219442 -788298898 -581004777
            1112261472 2089320458 1393858994 1956839809</internalNodes>
          <leafValues>
            -4.5456212759017944e-01 2.6286000013351440e-01</leafValues></_>
        <_>
          <internalNodes>
            0 -1 96 796244917 -1346437185 1495134267 924581887 -26149
            -893485131 -552249125 -618725416</internalNodes>
          <leafValues>
            -2.8663951158523560e-01 4.4800826907157898e-01</leafValues></_>
        <_>
          <internalNodes>
            0 -1 194 1502938624 949708827 -1601650392 -99041268
            -1551244800 -167559157 1524811808 -2019497206</internalNodes>
          <leafValues>
            -4.1998693346977234e-01 3.1670209765434265e-01</leafValues></_>
        <_>
          <internalNodes>
            0 -1 103 -1820223199 -1539309484 269550611 -733740928
            -192810777 -1953533823 1428796661 1325633966</internalNodes>
          <leafValues>
            -4.9882772564888000e-01 2.6560989022254944e-01</leafValues></_>
        <_>
          <internalNodes>
            0 -1 123 227012173 928452012 -817799896 -43498095 358302152
            196395584 1494115610 226476043</internalNodes>
          <leafValues>
            -3.7485280632972717e-01 3.8791531324386597e-01</leafValues></_>
        <_>
          <internalNodes>
            0 -1 47 1650221284 2070956043 -1325395837 -325303793
            327278657 838901890 -825404408 1691664520</internalNodes>
          <leafValues>
            -4.7937315702438354e-01 2.8952461481094360e-01</leafValues></_>
        <_>
          <internalNodes>
            0 -1 184 1360785680 -1547448128 -2145920863 -589455085
            822321227 92569611 1342407857 275626602</internalNodes>
          <leafValues>
            -5.6615179777145386e-01 2.1880468726158142e-01</leafValues></_>
        <_>
          <internalNodes>
            0 -1 173 1932035080 -1403756180 822346324 1652816676
            404684098 1036394664 304234512 353589319</internalNodes>
          <leafValues>
            -5.8889979124069214e-01 2.1875964105129242e-01</leafValues></_>
        <_>
          <internalNodes>
            0 -1 155 -2010251237 427407631 -1207992452 -336513719
            -1145307278 -1213202514 355342687 -759793942</internalNodes>
          <leafValues>
            -3.1765919923782349e-01 4.2815253138542175e-01</leafValues></_>
        <_>
          <internalNodes>
            0 -1 118 -1110221672 1549385017 2147016612 1601994509
            1609808114 -168921154 917911234 1932112327</internalNodes>
          <leafValues>
            -3.5354530811309814e-01 3.9242985844612122e-01</leafValues></_>
        <_>
          <internalNodes>
            0 -1 56 1910474188 1506066585 -1862089714 -799502206
            -536149695 33720576 -1693857620 -248026197</internalNodes>
          <leafValues>
            -4.1549754142761230e-01 3.2065257430076599e-01</leafValues></_>
        <_>
          <internalNodes>
            0 -1 125 -1618962152 -1123385076 -738181053 -393412272
            690262502 -1333551104 235841566 523733452</internalNodes>
          <leafValues>
            -5.6872957944869995e-01 2.3751190304756165e-01</leafValues></_>
        <_>
          <internalNodes>
            0 -1 145 1290358778 1227467448 1874107413 963929475
            468168922 -239635163 1876702908 -881207835</internalNodes>
          <leafValues>
            -3.3212918043136597e-01 3.9858308434486389e-01</leafValues></_>
        <_>
          <internalNodes>
            0 -1 164 -784004844 1695925337 -922680888 -1195091556
            -254074108 549751938 -373163336 -1178787244</internalNodes>
          <leafValues>
            -4.2135772109031677e-01 3.1074610352516174e-01</leafValues></_>
        <_>
          <internalNodes>
            0 -1 143 25887002 -291831339 -939523789 -863436452
            1863006218 -880107380 -1501003118 123242650</internalNodes>
          <leafValues>
            -5.9542614221572876e-01 2.3162665963172913e-01</leafValues></_>
        <_>
          <internalNodes>
            0 -1 91 -1023739979 -1610530071 50482857 -1566965690
            -1574014339 -2143154143 671088705 -360166871</internalNodes>
          <leafValues>
            -5.6006199121475220e-01 2.3281753063201904e-01</leafValues></_>
        <_>
          <internalNodes>
            0 -1 30 1241175000 576266949 -1056224739 1230856979
            -1153278571 -418768740 -1491806109 -625885220</internalNodes>
          <leafValues>
            -3.6252993345260620e-01 3.8891592621803284e-01</leafValues></_>
        <_>
          <internalNodes>
            0 -1 122 -177609123 -201326905 -1145097647 1929129196
            -572662422 -216137742 838625022 1818029261</internalNodes>
          <leafValues>
            -2.5864630937576294e-01 5.0786215066909790e-01</leafValues></_>
        <_>
          <internalNodes>
            0 -1 51 -1066223346 507838543 -770618970 496979982 4543119
            2003075202 -69174488 -470725773</internalNodes>
          <leafValues>
            -3.6201304197311401e-01 3.6847943067550659e-01</leafValues></_></weakClassifiers></_></stages>
  <features>
    <_>
      <rect>
        0 0 1 1</rect></_>
    <_>
      <rect>
        0 0 1 2</rect></_>
    <_>
      <rect>
        0 0 1 4</rect></_>
    <_>
      <rect>
        0 0 1 5</rect></_>
    <_>
      <rect>
        0 0 2 2</rect></_>
    <_>
      <rect>
        0 0 2 3</rect></_>
    <_>
      <rect>
        0 0 2 5</rect></_>
    <_>
      <rect>
        0 0 2 6</rect></_>
    <_>
      <rect>
        0 0 2 7</rect></_>
    <_>
      <rect>
        0 0 2 8</rect></_>
    <_>
      <rect>
        0 0 3 2</rect></_>
    <_>
      <rect>
        0 0 4 3</rect></_>
    <_>
      <rect>
        0 0 7 4</rect></_>
    <_>
      <rect>
        0 1 1 1</rect></_>
    <_>
      <rect>
        0 1 1 2</rect></_>
    <_>
      <rect>
        0 1 1 3</rect></_>
    <_>
      <rect>
        0 1 2 2</rect></_>
    <_>
      <rect>
        0 1 2 3</rect></_>
    <_>
      <rect>
        0 1 3 2</rect></_>
    <_>
      <rect>
        0 1 3 3</rect></_>
    <_>
      <rect>
        0 1 3 4</rect></_>
    <_>
      <rect>
        0 1 5 6</rect></_>
    <_>
      <rect>
        0 1 6 3</rect></_>
    <_>
      <rect>
        0 2 2 1</rect></_>
    <_>
      <rect>
        0 2 2 3</rect></_>
    <_>
      <rect>
        0 2 3 7</rect></_>
    <_>
      <rect>
        0 2 7 3</rect></_>
    <_>
      <rect>
        0 3 1 1</rect></_>
    <_>
      <rect>
        0 3 4 2</rect></_>
    <_>
      <rect>
        0 4 3 4</rect></_>
    <_>
      <rect>
        0 4 7 6</rect></_>
    <_>
      <rect>
        0 5 2 1</rect></_>
    <_>
      <rect>
        0 5 4 5</rect></_>
    <_>
      <rect>
        0 6 1 1</rect></_>
    <_>
      <rect>
        0 6 1 4</rect></_>
    <_>
      <rect>
        0 6 2 1</rect></_>
    <_>
      <rect>
        0 6 3 2</rect></_>
    <_>
      <rect>
        0 7 1 1</rect></_>
    <_>
      <rect>
        0 7 2 1</rect></_>
    <_>
      <rect>
        0 7 3 1</rect></_>
    <_>
      <rect>
        0 7 5 5</rect></_>
    <_>
      <rect>
        0 8 1 1</rect></_>
    <_>
      <rect>
        0 8 2 1</rect></_>
    <_>
      <rect>
        0 8 2 3</rect></_>
    <_>
      <rect>
        0 8 7 4</rect></_>
    <_>
      <rect>
        0 9 1 1</rect></_>
    <_>
      <rect>
        0 9 3 2</rect></_>
    <_>
      <rect>
        0 10 2 4</rect></_>
    <_>
      <rect>
        0 12 2 3</rect></_>
    <_>
      <rect>
        0 12 8 4</rect></_>
    <_>
      <rect>
        0 13 2 2</rect></_>
    <_>
      <rect>
        0 13 4 3</rect></_>
    <_>
      <rect>
        0 14 1 2</rect></_>
    <_>
      <rect>
        0 15 1 2</rect></_>
    <_>
      <rect>
        0 15 8 3</rect></_>
    <_>
      <rect>
        0 21 1 1</rect></_>
    <_>
      <rect>
        1 0 1 1</rect></_>
    <_>
      <rect>
        1 0 1 2</rect></_>
    <_>
      <rect>
        1 0 1 3</rect></_>
    <_>
      <rect>
        1 0 1 5</rect></_>
    <_>
      <rect>
        1 0 2 2</rect></_>
    <_>
      <rect>
        1 0 2 3</rect></_>
    <_>
      <rect>
        1 0 3 2</rect></_>
    <_>
      <rect>
        1 0 3 4</rect></_>
    <_>
      <rect>
        1 0 3 5</rect></_>
    <_>
      <rect>
        1 0 5 6</rect></_>
    <_>
      <rect>
        1 0 7 2</rect></_>
    <_>
      <rect>
        1 1 1 1</rect></_>
    <_>
      <rect>
        1 1 1 2</rect></_>
    <_>
      <rect>
        1 1 1 3</rect></_>
    <_>
      <rect>
        1 1 2 2</rect></_>
    <_>
      <rect>
        1 1 3 5</rect></_>
    <_>
      <rect>
        1 2 2 2</rect></_>
    <_>
      <rect>
        1 2 4 3</rect></_>
    <_>
      <rect>
        1 3 2 2</rect></_>
    <_>
      <rect>
        1 4 1 1</rect></_>
    <_>
      <rect>
        1 5 4 2</rect></_>
    <_>
      <rect>
        1 5 4 6</rect></_>
    <_>
      <rect>
        1 6 1 1</rect></_>
    <_>
      <rect>
        1 6 2 1</rect></_>
    <_>
      <rect>
        1 6 3 5</rect></_>
    <_>
      <rect>
        1 6 7 6</rect></_>
    <_>
      <rect>
        1 7 3 1</rect></_>
    <_>
      <rect>
        1 8 2 2</rect></_>
    <_>
      <rect>
        1 9 4 2</rect></_>
    <_>
      <rect>
        1 11 2 4</rect></_>
    <_>
      <rect>
        1 13 2 3</rect></_>
    <_>
      <rect>
        1 17 1 2</rect></_>
    <_>
      <rect>
        2 0 1 1</rect></_>
    <_>
      <rect>
        2 0 1 4</rect></_>
    <_>
      <rect>
        2 0 2 2</rect></_>
    <_>
      <rect>
        2 0 2 4</rect></_>
    <_>
      <rect>
        2 0 3 2</rect></_>
    <_>
      <rect>
        2 0 4 4</rect></_>
    <_>
      <rect>
        2 1 1 1</rect></_>
    <_>
      <rect>
        2 1 1 2</rect></_>
    <_>
      <rect>
        2 1 2 2</rect></_>
    <_>
      <rect>
        2 2 2 1</rect></_>
    <_>
      <rect>
        2 3 2 2</rect></_>
    <_>
      <rect>
        2 4 1 1</rect></_>
    <_>
      <rect>
        2 4 2 1</rect></_>
    <_>
      <rect>
        2 5 2 2</rect></_>
    <_>
      <rect>
        2 5 3 2</rect></_>
    <_>
      <rect>
        2 6 2 1</rect></_>
    <_>
      <rect>
        2 6 3 3</rect></_>
    <_>
      <rect>
        2 8 2 4</rect></_>
    <_>
      <rect>
        2 12 7 4</rect></_>
    <_>
      <rect>
        3 0 1 1</rect></_>
    <_>
      <rect>
        3 0 1 2</rect></_>
    <_>
      <rect>
        3 0 2 1</rect></_>
    <_>
      <rect>
        3 0 2 2</rect></_>
    <_>
      <rect>
        3 0 2 5</rect></_>
    <_>
      <rect>
        3 0 4 2</rect></_>
    <_>
      <rect>
        3 1 1 2</rect></_>
    <_>
      <rect>
        3 1 2 1</rect></_>
    <_>
      <rect>
        3 2 3 2</rect></_>
    <_>
      <rect>
        3 2 4 3</rect></_>
    <_>
      <rect>
        3 3 1 1</rect></_>
    <_>
      <rect>
        3 3 5 7</rect></_>
    <_>
      <rect>
        3 4 1 1</rect></_>
    <_>
      <rect>
        3 4 2 1</rect></_>
    <_>
      <rect>
        3 5 2 1</rect></_>
    <_>
      <rect>
        3 5 7 3</rect></_>
    <_>
      <rect>
        3 6 4 2</rect></_>
    <_>
      <rect>
        3 6 7 3</rect></_>
    <_>
      <rect>
        3 7 1 1</rect></_>
    <_>
      <rect>
        3 8 2 1</rect></_>
    <_>
      <rect>
        3 11 3 4</rect></_>
    <_>
      <rect>
        3 15 4 3</rect></_>
    <_>
      <rect>
        4 0 1 1</rect></_>
    <_>
      <rect>
        4 0 1 2</rect></_>
    <_>
      <rect>
        4 0 1 3</rect></_>
    <_>
      <rect>
        4 0 5 8</rect></_>
    <_>
      <rect>
        4 1 1 2</rect></_>
    <_>
      <rect>
        4 1 2 1</rect></_>
    <_>
      <rect>
        4 2 1 1</rect></_>
    <_>
      <rect>
        4 2 1 2</rect></_>
    <_>
      <rect>
        4 2 5 5</rect></_>
    <_>
      <rect>
        4 3 1 2</rect></_>
    <_>
      <rect>
        4 3 2 2</rect></_>
    <_>
      <rect>
        4 3 6 4</rect></_>
    <_>
      <rect>
        4 3 6 6</rect></_>
    <_>
      <rect>
        4 4 1 1</rect></_>
    <_>
      <rect>
        4 4 2 1</rect></_>
    <_>
      <rect>
        4 4 2 3</rect></_>
    <_>
      <rect>
        4 4 5 4</rect></_>
    <_>
      <rect>
        4 5 1 1</rect></_>
    <_>
      <rect>
        4 5 2 4</rect></_>
    <_>
      <rect>
        4 6 2 1</rect></_>
    <_>
      <rect>
        4 16 5 2</rect></_>
    <_>
      <rect>
        5 0 1 1</rect></_>
    <_>
      <rect>
        5 0 1 2</rect></_>
    <_>
      <rect>
        5 0 1 3</rect></_>
    <_>
      <rect>
        5 1 1 1</rect></_>
    <_>
      <rect>
        5 1 1 2</rect></_>
    <_>
      <rect>
        5 1 3 7</rect></_>
    <_>
      <rect>
        5 2 1 1</rect></_>
    <_>
      <rect>
        5 2 1 2</rect></_>
    <_>
      <rect>
        5 3 1 1</rect></_>
    <_>
      <rect>
        5 3 1 2</rect></_>
    <_>
      <rect>
        5 3 5 4</rect></_>
    <_>
      <rect>
        5 3 6 6</rect></_>
    <_>
      <rect>
        5 4 1 1</rect></_>
    <_>
      <rect>
        5 6 3 6</rect></_>
    <_>
      <rect>
        5 13 2 2</rect></_>
    <_>
      <rect>
        6 0 1 1</rect></_>
    <_>
      <rect>
        6 0 1 2</rect></_>
    <_>
      <rect>
        6 0 1 3</rect></_>
    <_>
      <rect>
        6 1 1 2</rect></_>
    <_>
      <rect>
        6 1 2 3</rect></_>
    <_>
      <rect>
        6 1 2 5</rect></_>
    <_>
      <rect>
        6 2 1 1</rect></_>
    <_>
      <rect>
        6 2 1 2</rect></_>
    <_>
      <rect>
        6 2 3 3</rect></_>
    <_>
      <rect>
        6 3 1 2</rect></_>
    <_>
      <rect>
        6 4 1 1</rect></_>
    <_>
      <rect>
        7 0 1 1</rect></_>
    <_>
      <rect>
        7 0 1 2</rect></_>
    <_>
      <rect>
        7 0 1 3</rect></_>
    <_>
      <rect>
        7 0 2 5</rect></_>
    <_>
      <rect>
        7 0 5 3</rect></_>
    <_>
      <rect>
        7 1 1 1</rect></_>
    <_>
      <rect>
        7 1 2 2</rect></_>
    <_>
      <rect>
        7 3 1 1</rect></_>
    <_>
      <rect>
        7 4 1 1</rect></_>
    <_>
      <rect>
        7 4 3 6</rect></_>
    <_>
      <rect>
        8 0 1 1</rect></_>
    <_>
      <rect>
        8 0 1 2</rect></_>
    <_>
      <rect>
        8 0 5 4</rect></_>
    <_>
      <rect>
        9 0 1 2</rect></_>
    <_>
      <rect>
        9 0 1 3</rect></_>
    <_>
      <rect>
        9 8 5 5</rect></_>
    <_>
      <rect>
        10 0 2 4</rect></_>
    <_>
      <rect>
        11 4 3 3</rect></_>
    <_>
      <rect>
        13 0 3 6</rect></_>
    <_>
      <rect>
        14 3 3 5</rect></_>
    <_>
      <rect>
        15 11 2 4</rect></_>
    <_>
      <rect>
        17 1 2 4</rect></_></features></cascade>
</opencv_storage>
