<?xml version="1.0"?>
<opencv_storage>
<stage6>
  <maxWeakCount>24</maxWeakCount>
  <stageThreshold>-4.0121880173683167e-01</stageThreshold>
  <weakClassifiers>
    <_>
      <internalNodes>
        0 -1 72 -9061067 -13156749 1064646967 1060993855 -8700101
        -1082179781 2138521407 1061109567</internalNodes>
      <leafValues>
        -4.6850109100341797e-01 6.1953991651535034e-01</leafValues></_>
    <_>
      <internalNodes>
        0 -1 2025 -131073 -4489222 -1086379208 -541115485 -1087131399
        489742322 1060313343 2139070459</internalNodes>
      <leafValues>
        -4.2440852522850037e-01 5.4430782794952393e-01</leafValues></_>
    <_>
      <internalNodes>
        0 -1 1632 -2112706755 -204142829 -1065301925 -2025521152
        -1112492102 -1179415910 186305018 2134626810</internalNodes>
      <leafValues>
        -5.0091081857681274e-01 4.1260200738906860e-01</leafValues></_>
    <_>
      <internalNodes>
        0 -1 810 -587278969 -526024077 -1065069937 -1522319214
        -895896793 -32141305 97270075 -604802303</internalNodes>
      <leafValues>
        -4.4595006108283997e-01 3.9399355649948120e-01</leafValues></_>
    <_>
      <internalNodes>
        0 -1 2670 -268435481 -67707660 2138168568 -832176 -1086865928
        -63906352 2138070491 -21594145</internalNodes>
      <leafValues>
        -3.6770167946815491e-01 4.6589261293411255e-01</leafValues></_>
    <_>
      <internalNodes>
        0 -1 331 1145448519 2130706175 -16908321 -263297 -1224736921
        -1073741825 -268783793 -422072537</internalNodes>
      <leafValues>
        -3.8312074542045593e-01 4.5193979144096375e-01</leafValues></_>
    <_>
      <internalNodes>
        0 -1 176 873476368 1062880415 297899485 483615199 -754962004
        -143507431 -1580094579 -1215661297</internalNodes>
      <leafValues>
        -5.9231734275817871e-01 2.9051661491394043e-01</leafValues></_>
    <_>
      <internalNodes>
        0 -1 64 -135296 -625524865 -1073747050 -165495046 -1094385
        1467825943 -318904658 -134488577</internalNodes>
      <leafValues>
        -3.5541337728500366e-01 4.9044951796531677e-01</leafValues></_>
    <_>
      <internalNodes>
        0 -1 2790 1825000762 1085653268 459296179 -261076388 -2126980968
        -1249607359 1162113132 -1893837989</internalNodes>
      <leafValues>
        -3.8689804077148438e-01 4.0047568082809448e-01</leafValues></_>
    <_>
      <internalNodes>
        0 -1 1023 845067263 -178863585 1677721999 -582971079 -1264520213
        -721329275 -1149047877 -1145154115</internalNodes>
      <leafValues>
        -4.4603002071380615e-01 3.5226270556449890e-01</leafValues></_>
    <_>
      <internalNodes>
        0 -1 5245 -673381118 596022679 1426702594 -269927144 -1056634074
        1884956800 1174483552 1211069370</internalNodes>
      <leafValues>
        -5.3333574533462524e-01 3.1561708450317383e-01</leafValues></_>
    <_>
      <internalNodes>
        0 -1 400 -1605771196 -1287810759 992160554 -2136612346 438694720
        1397346480 1083390277 1718051617</internalNodes>
      <leafValues>
        -6.3626003265380859e-01 2.5826486945152283e-01</leafValues></_>
    <_>
      <internalNodes>
        0 -1 1492 291369265 -586104772 -872360750 -142338931 -364850807
        -652197684 -293583989 2022458026</internalNodes>
      <leafValues>
        -4.3620941042900085e-01 3.7948396801948547e-01</leafValues></_>
    <_>
      <internalNodes>
        0 -1 728 1648729348 1179894867 -2130476724 -321662325 -511482861
        1761648640 -376718783 -1362131251</internalNodes>
      <leafValues>
        -4.2565321922302246e-01 3.8041695952415466e-01</leafValues></_>
    <_>
      <internalNodes>
        0 -1 13 -486539393 -67158019 16670519 -1140899971 -1074020555
        -1140949537 916340599 -139053737</internalNodes>
      <leafValues>
        -2.9142284393310547e-01 5.3461062908172607e-01</leafValues></_>
    <_>
      <internalNodes>
        0 -1 3392 -22303305 -408142019 2011848579 -201586843 154317936
        -1592721444 -852183324 -248561911</internalNodes>
      <leafValues>
        -3.6098426580429077e-01 4.3939274549484253e-01</leafValues></_>
    <_>
      <internalNodes>
        0 -1 2033 -1073791521 -33923 -746589221 2147434367 -33063
        -153125096 -1294617893 -549011617</internalNodes>
      <leafValues>
        -2.5554853677749634e-01 5.9007722139358521e-01</leafValues></_>
    <_>
      <internalNodes>
        0 -1 2595 -1065376150 1174077367 -149525 -488670401 -696664531
        1912430576 -374981155 -922367921</internalNodes>
      <leafValues>
        -3.3178716897964478e-01 4.7038906812667847e-01</leafValues></_>
    <_>
      <internalNodes>
        0 -1 129 -518586883 -805244731 203878609 -106728869 -116834227
        -1308485395 599870203 1940156196</internalNodes>
      <leafValues>
        -5.2612197399139404e-01 3.0486783385276794e-01</leafValues></_>
    <_>
      <internalNodes>
        0 -1 7168 -324281233 -729956459 -273027130 1114959527
        -1937969179 -142737649 -1368022138 -1147148897</internalNodes>
      <leafValues>
        -2.7176207304000854e-01 6.1227339506149292e-01</leafValues></_>
    <_>
      <internalNodes>
        0 -1 1752 -1011088116 2098242352 419438263 -1728019066
        1100812917 -128955328 -1408980364 607156550</internalNodes>
      <leafValues>
        -6.8382072448730469e-01 2.5783663988113403e-01</leafValues></_>
    <_>
      <internalNodes>
        0 -1 4372 -2142687836 1819958223 -2021126032 -855682612
        1079613642 -2121463543 -1970678077 -1309708145</internalNodes>
      <leafValues>
        -4.9938485026359558e-01 3.2050293684005737e-01</leafValues></_>
    <_>
      <internalNodes>
        0 -1 3831 2019222857 1645649978 -1375565028 1531249608 548050999
        997950208 385890586 843020880</internalNodes>
      <leafValues>
        -5.0770479440689087e-01 3.2860624790191650e-01</leafValues></_>
    <_>
      <internalNodes>
        0 -1 1259 -287772948 1853435874 -1124090135 -47894674 -136478937
        1995800054 -9076824 -263754982</internalNodes>
      <leafValues>
        -3.9681932330131531e-01 4.0955734252929688e-01</leafValues></_></weakClassifiers></stage6>
</opencv_storage>
