<?xml version="1.0"?>
<opencv_storage>
<stage7>
  <maxWeakCount>28</maxWeakCount>
  <stageThreshold>-4.8860844969749451e-01</stageThreshold>
  <weakClassifiers>
    <_>
      <internalNodes>
        0 -1 2275 1979710114 -268505170 -201328653 -1 2147475370
        -1882259572 -168299017 1465909211</internalNodes>
      <leafValues>
        -4.8344370722770691e-01 5.7743692398071289e-01</leafValues></_>
    <_>
      <internalNodes>
        0 -1 737 -131073 -536920065 -9064774 867384251 -684817
        1073184248 -13326102 -17409</internalNodes>
      <leafValues>
        -3.1563091278076172e-01 6.3688409328460693e-01</leafValues></_>
    <_>
      <internalNodes>
        0 -1 3774 -671090305 -1145422040 -519 -266895 -1223245825
        992214968 1999637789 -2359297</internalNodes>
      <leafValues>
        -3.3666232228279114e-01 4.8423567414283752e-01</leafValues></_>
    <_>
      <internalNodes>
        0 -1 421 345511684 -1246228304 1226495165 -107441701 -1282547777
        -1079850335 685680811 1063215291</internalNodes>
      <leafValues>
        -5.1385045051574707e-01 3.1050759553909302e-01</leafValues></_>
    <_>
      <internalNodes>
        0 -1 247 -490278938 -900071121 1342309395 -2147385293
        -1565869121 -24175121 165649839 -34274272</internalNodes>
      <leafValues>
        -4.4019934535026550e-01 3.3654475212097168e-01</leafValues></_>
    <_>
      <internalNodes>
        0 -1 1332 -73007771 -1358971433 -17301972 -353501201 -138428859
        1440218494 -1074544777 -1495325046</internalNodes>
      <leafValues>
        -3.5152354836463928e-01 4.1316005587577820e-01</leafValues></_>
    <_>
      <internalNodes>
        0 -1 1389 -115969 -71336265 -80479245 1596767231 -721957
        -2135097541 -403050021 -214041670</internalNodes>
      <leafValues>
        -3.0764368176460266e-01 5.0531661510467529e-01</leafValues></_>
    <_>
      <internalNodes>
        0 -1 740 -85051905 1107693600 8704 633538712 -1316586596
        571803784 1539784709 -1099247</internalNodes>
      <leafValues>
        -4.7903427481651306e-01 3.2564613223075867e-01</leafValues></_>
    <_>
      <internalNodes>
        0 -1 3905 -1714390149 -87366120 8930520 -539494564 -1282766346
        -1156448102 55036143 2112347620</internalNodes>
      <leafValues>
        -4.3173155188560486e-01 3.1927078962326050e-01</leafValues></_>
    <_>
      <internalNodes>
        0 -1 1407 1753426597 178275717 -536722888 -610512690 -299369166
        2120674463 -1058856379 -1346318166</internalNodes>
      <leafValues>
        -4.7071677446365356e-01 3.1032672524452209e-01</leafValues></_>
    <_>
      <internalNodes>
        0 -1 1437 -1476709539 2019500048 1141031181 474943497 -761252644
        1680018144 1009660893 -1712674129</internalNodes>
      <leafValues>
        -4.1378703713417053e-01 3.4328836202621460e-01</leafValues></_>
    <_>
      <internalNodes>
        0 -1 2850 -1696404161 -54806337 -33587459 -229181961 -1078218824
        1991686936 800257225 -980511430</internalNodes>
      <leafValues>
        -3.4431701898574829e-01 4.2901667952537537e-01</leafValues></_>
    <_>
      <internalNodes>
        0 -1 1106 -2143941628 -99224825 -1014582401 -921564329
        -1467245599 -1160862589 541780658 831529031</internalNodes>
      <leafValues>
        -5.6801587343215942e-01 2.5082337856292725e-01</leafValues></_>
    <_>
      <internalNodes>
        0 -1 641 2010434240 -1398242605 345079820 -1369443702 1354953553
        1080098948 1774428770 863976834</internalNodes>
      <leafValues>
        -4.9447682499885559e-01 2.7551501989364624e-01</leafValues></_>
    <_>
      <internalNodes>
        0 -1 0 1892143684 -1027423609 1418215530 -1564438070 -123498482
        1109723648 -580679560 -730085141</internalNodes>
      <leafValues>
        -4.3498584628105164e-01 3.3139508962631226e-01</leafValues></_>
    <_>
      <internalNodes>
        0 -1 596 1256482916 1213028381 59232448 1997312786 1686202407
        1896875417 -1666737217 864496058</internalNodes>
      <leafValues>
        -5.0795096158981323e-01 2.6567479968070984e-01</leafValues></_>
    <_>
      <internalNodes>
        0 -1 198 -1043684171 -742774525 536873395 -1659764466
        -1282792921 -1902540630 -1876719035 -1835029999</internalNodes>
      <leafValues>
        -5.3317284584045410e-01 2.6662245392799377e-01</leafValues></_>
    <_>
      <internalNodes>
        0 -1 3383 1639557512 1466983225 -408953200 1975071344 -524429871
        -202508420 -2046963874 -1209600393</internalNodes>
      <leafValues>
        -3.6591452360153198e-01 3.8758784532546997e-01</leafValues></_>
    <_>
      <internalNodes>
        0 -1 3483 -520359583 -1139177057 1476610478 -2139039785
        -913684334 -1038547214 273079694 1318630148</internalNodes>
      <leafValues>
        -3.9960208535194397e-01 3.4754878282546997e-01</leafValues></_>
    <_>
      <internalNodes>
        0 -1 2801 -1420251728 -765493056 1417789960 -410554207 873179984
        11247752 506091582 389306513</internalNodes>
      <leafValues>
        -8.4799355268478394e-01 1.6955986618995667e-01</leafValues></_>
    <_>
      <internalNodes>
        0 -1 4358 -145551609 -476606061 -1245132019 -799615122
        1518531173 1134676901 -1199379205 1222503355</internalNodes>
      <leafValues>
        -3.8328808546066284e-01 3.8981071114540100e-01</leafValues></_>
    <_>
      <internalNodes>
        0 -1 3221 -766553605 -509919214 1124432844 496477720 -846871569
        169934976 1221378497 1070198491</internalNodes>
      <leafValues>
        -4.3019208312034607e-01 3.2065668702125549e-01</leafValues></_>
    <_>
      <internalNodes>
        0 -1 939 336081968 -741461945 -2130476935 -687570936 470302908
        -91750255 2059110957 -290453268</internalNodes>
      <leafValues>
        -6.9562470912933350e-01 1.9443081319332123e-01</leafValues></_>
    <_>
      <internalNodes>
        0 -1 2887 1474228029 -124569014 -519520225 666011283 -1684342662
        -259798520 -1048172149 1140162828</internalNodes>
      <leafValues>
        -3.8522729277610779e-01 3.4399411082267761e-01</leafValues></_>
    <_>
      <internalNodes>
        0 -1 5528 -73994727 -695468751 1258188603 -530483464 -176697497
        32735088 933145873 -640760930</internalNodes>
      <leafValues>
        -3.0352300405502319e-01 4.4879564642906189e-01</leafValues></_>
    <_>
      <internalNodes>
        0 -1 65 -645422728 1347907605 -1824422849 297800019 -1067046608
        -1585424119 -1299733509 2074738167</internalNodes>
      <leafValues>
        -4.3364289402961731e-01 3.1517556309700012e-01</leafValues></_>
    <_>
      <internalNodes>
        0 -1 3946 1967729194 -2122085598 -1203664496 -790772093
        -1678663301 142704810 1099673847 385995215</internalNodes>
      <leafValues>
        -5.4537707567214966e-01 2.5841414928436279e-01</leafValues></_>
    <_>
      <internalNodes>
        0 -1 745 -2133011972 -774618923 138416403 1433994003 -1872754679
        -1598406647 410540162 136474139</internalNodes>
      <leafValues>
        -5.4172539710998535e-01 2.4936012923717499e-01</leafValues></_></weakClassifiers></stage7>
</opencv_storage>
