<?xml version="1.0"?>
<opencv_storage>
<cascade>
  <stageType>BOOST</stageType>
  <featureType>LBP</featureType>
  <height>24</height>
  <width>24</width>
  <stageParams>
    <boostType>GAB</boostType>
    <minHitRate>9.9900001287460327e-01</minHitRate>
    <maxFalseAlarm>5.0000000745058060e-02</maxFalseAlarm>
    <weightTrimRate>9.4999999999999996e-01</weightTrimRate>
    <maxDepth>1</maxDepth>
    <maxWeakCount>100</maxWeakCount></stageParams>
  <featureParams>
    <maxCatCount>256</maxCatCount>
    <featSize>1</featSize></featureParams>
  <stageNum>10</stageNum>
  <stages>
    <!-- stage 0 -->
    <_>
      <maxWeakCount>14</maxWeakCount>
      <stageThreshold>-1.0663223266601563e+00</stageThreshold>
      <weakClassifiers>
        <_>
          <internalNodes>
            0 -1 22 -41946831 -172026081 2136944913 -12583149 -239361997
            -74762225 -1323568877 -75498689</internalNodes>
          <leafValues>
            -8.4933173656463623e-01 7.5404530763626099e-01</leafValues></_>
        <_>
          <internalNodes>
            0 -1 20 -8964 -11708196 -620736227 -8436259 -15741703
            -5547863 1581218235 -42657</internalNodes>
          <leafValues>
            -7.5692862272262573e-01 5.9101271629333496e-01</leafValues></_>
        <_>
          <internalNodes>
            0 -1 185 -1181714 -854617969 -427312960 -426855990
            -533728729 1150060057 -201592686 -134217729</internalNodes>
          <leafValues>
            -6.6406476497650146e-01 6.2095671892166138e-01</leafValues></_>
        <_>
          <internalNodes>
            0 -1 215 -311377 1265614831 -285278618 -419496149 -134220505
            108001271 -201853483 -134217729</internalNodes>
          <leafValues>
            -5.4334485530853271e-01 6.4792799949645996e-01</leafValues></_>
        <_>
          <internalNodes>
            0 -1 37 -705892016 -2952195 -779495939 -706741921 -583339587
            -1648647941 285236633 366935389</internalNodes>
          <leafValues>
            -8.4001231193542480e-01 4.1747659444808960e-01</leafValues></_>
        <_>
          <internalNodes>
            0 -1 41 -872108244 402698715 -721205482 -208727921 722180385
            -1831077725 -1164788989 1534589783</internalNodes>
          <leafValues>
            -6.6814422607421875e-01 4.7151479125022888e-01</leafValues></_>
        <_>
          <internalNodes>
            0 -1 102 -1104086017 -1002772 -790627841 -52456163
            -1425362183 -70549247 -1412199427 -1078061876</internalNodes>
          <leafValues>
            -6.1355209350585938e-01 5.2482104301452637e-01</leafValues></_>
        <_>
          <internalNodes>
            0 -1 140 -1612711953 -270384962 -775855653 1801388509
            1136907522 56066178 541537587 670819251</internalNodes>
          <leafValues>
            -7.5906378030776978e-01 4.5482364296913147e-01</leafValues></_>
        <_>
          <internalNodes>
            0 -1 45 -8667335 1031770399 -720773675 -11013633 -1687175238
            -1155823702 -1658873415 521911579</internalNodes>
          <leafValues>
            -5.9984207153320313e-01 5.3147846460342407e-01</leafValues></_>
        <_>
          <internalNodes>
            0 -1 192 1072511363 -1970699126 -243017232 -1074400296
            -1198900317 -1953529833 160153765 -541351426</internalNodes>
          <leafValues>
            -4.9929630756378174e-01 5.9806102514266968e-01</leafValues></_>
        <_>
          <internalNodes>
            0 -1 7 -8454219 -683731193 1795164435 -1692728273
            -2094030159 -99745221 554163131 994049839</internalNodes>
          <leafValues>
            -5.6811273097991943e-01 5.4168385267257690e-01</leafValues></_>
        <_>
          <internalNodes>
            0 -1 0 -184549600 -218447889 -268538138 -1305297238
            -33596156 541065037 -411050258 -134283810</internalNodes>
          <leafValues>
            -4.7399881482124329e-01 6.4858317375183105e-01</leafValues></_>
        <_>
          <internalNodes>
            0 -1 27 -8394829 -1401781234 1644318741 -497585769 999006756
            -1524399790 1795281153 1651980551</internalNodes>
          <leafValues>
            -6.8099170923233032e-01 4.7974848747253418e-01</leafValues></_>
        <_>
          <internalNodes>
            0 -1 92 -11243472 -14787849 1226377489 1062679921 -133199447
            -66574078 -1623693143 523187498</internalNodes>
          <leafValues>
            -7.3481976985931396e-01 4.0889245271682739e-01</leafValues></_></weakClassifiers></_>
    <!-- stage 1 -->
    <_>
      <maxWeakCount>17</maxWeakCount>
      <stageThreshold>-8.6093246936798096e-01</stageThreshold>
      <weakClassifiers>
        <_>
          <internalNodes>
            0 -1 186 -2054 -542377046 -269487712 -5507144 -551816197
            118210506 1207948784 -2565</internalNodes>
          <leafValues>
            -6.7630702257156372e-01 7.1445357799530029e-01</leafValues></_>
        <_>
          <internalNodes>
            0 -1 18 -214564 -2158135 1376307448 -10724459 -5471508
            -243138047 -70521873 -16385</internalNodes>
          <leafValues>
            -7.7608102560043335e-01 4.8190483450889587e-01</leafValues></_>
        <_>
          <internalNodes>
            0 -1 191 -4718669 -1347420253 -4111 -4194369 -1912733697
            227537855 1442305463 -536873025</internalNodes>
          <leafValues>
            -5.0390714406967163e-01 6.3788586854934692e-01</leafValues></_>
        <_>
          <internalNodes>
            0 -1 47 934920177 -1080196688 -585509889 -572567137
            1066139389 -1148482640 159119869 500899324</internalNodes>
          <leafValues>
            -6.8878817558288574e-01 4.3004429340362549e-01</leafValues></_>
        <_>
          <internalNodes>
            0 -1 135 -533046 -995131453 -16777494 -622067718 -2055211760
            1078327167 -671239944 -775963165</internalNodes>
          <leafValues>
            -5.1028716564178467e-01 5.5249607563018799e-01</leafValues></_>
        <_>
          <internalNodes>
            0 -1 87 -1074287870 176813711 2005826041 -73935985
            -1162678496 199385791 -667457451 528153471</internalNodes>
          <leafValues>
            -7.0934998989105225e-01 3.6937168240547180e-01</leafValues></_>
        <_>
          <internalNodes>
            0 -1 183 -37563614 1859027148 -184298032 1594707422
            -62739542 -1886674422 -140578117 -140842065</internalNodes>
          <leafValues>
            -4.8630765080451965e-01 5.2760362625122070e-01</leafValues></_>
        <_>
          <internalNodes>
            0 -1 150 857366320 -1122123392 -741739819 -1078683685
            -1734104094 -1987608438 -784412164 -1140926039</internalNodes>
          <leafValues>
            -5.5850660800933838e-01 4.7686758637428284e-01</leafValues></_>
        <_>
          <internalNodes>
            0 -1 203 -544455862 -946982709 1400985986 -145910797
            -1453755561 246206607 -1600326731 -1917174801</internalNodes>
          <leafValues>
            -6.0393774509429932e-01 4.0560698509216309e-01</leafValues></_>
        <_>
          <internalNodes>
            0 -1 25 -576932384 -824550466 -781588070 -818242565
            -557106480 1428869535 1099371541 -948311373</internalNodes>
          <leafValues>
            -7.0322781801223755e-01 3.3418291807174683e-01</leafValues></_>
        <_>
          <internalNodes>
            0 -1 43 1906112288 638587136 -939302625 -880590811
            1869314981 866802611 -114966545 1672740375</internalNodes>
          <leafValues>
            -6.2823736667633057e-01 3.6745819449424744e-01</leafValues></_>
        <_>
          <internalNodes>
            0 -1 216 -1343574 -1968537690 2130698400 -5505112
            -1753844509 84016471 -1778428432 -608962561</internalNodes>
          <leafValues>
            -4.3988543748855591e-01 5.1442313194274902e-01</leafValues></_>
        <_>
          <internalNodes>
            0 -1 120 -273760335 -614285115 -585944871 2146552400
            -1079257608 -1180556880 1325946973 -461447351</internalNodes>
          <leafValues>
            -6.1689811944961548e-01 3.7466335296630859e-01</leafValues></_>
        <_>
          <internalNodes>
            0 -1 76 -1017250463 1599986079 2068673350 -21017865
            -244424431 1969208571 -242638585 -879791273</internalNodes>
          <leafValues>
            -5.1453047990798950e-01 4.4916430115699768e-01</leafValues></_>
        <_>
          <internalNodes>
            0 -1 56 574365464 -1131894143 -772746851 -136607484
            -1582580741 -1347689798 432126461 262989048</internalNodes>
          <leafValues>
            -7.0349329710006714e-01 3.4749570488929749e-01</leafValues></_>
        <_>
          <internalNodes>
            0 -1 80 -71303194 -665949994 -260013974 -491071350
            -376743604 1346506787 -1549143656 -207983436</internalNodes>
          <leafValues>
            -5.1915478706359863e-01 4.4595724344253540e-01</leafValues></_>
        <_>
          <internalNodes>
            0 -1 138 -1144014423 -1256234692 1230848274 961304831
            -221547896 -766630358 650223891 -1759593669</internalNodes>
          <leafValues>
            -5.7531154155731201e-01 3.9081019163131714e-01</leafValues></_></weakClassifiers></_>
    <!-- stage 2 -->
    <_>
      <maxWeakCount>19</maxWeakCount>
      <stageThreshold>-8.5964375734329224e-01</stageThreshold>
      <weakClassifiers>
        <_>
          <internalNodes>
            0 -1 151 -2061 -111168373 294101971 -6350965 -469762098
            1334829706 -237510157 1398782939</internalNodes>
          <leafValues>
            -7.5182992219924927e-01 5.2214962244033813e-01</leafValues></_>
        <_>
          <internalNodes>
            0 -1 17 -134271184 -237028491 -1871664123 534460751
            -230547151 851448371 -1680629765 -5</internalNodes>
          <leafValues>
            -6.3039982318878174e-01 4.9784070253372192e-01</leafValues></_>
        <_>
          <internalNodes>
            0 -1 201 -1048594 -273678421 -96 -557125 -671088685
            1157103615 -184551438 -134217729</internalNodes>
          <leafValues>
            -5.0680494308471680e-01 5.7366681098937988e-01</leafValues></_>
        <_>
          <internalNodes>
            0 -1 128 1495542016 -616730312 704799189 -710983291
            -1094391364 -343234340 -1649504003 -13896</internalNodes>
          <leafValues>
            -6.6920101642608643e-01 3.8652470707893372e-01</leafValues></_>
        <_>
          <internalNodes>
            0 -1 226 -540017782 -1349782678 -2092444384 -276613728
            -195117081 162376358 -235941419 -704906257</internalNodes>
          <leafValues>
            -4.5751518011093140e-01 5.2487874031066895e-01</leafValues></_>
        <_>
          <internalNodes>
            0 -1 196 -488820241 -895553302 -2004227840 -325351298
            -209464476 1099251883 -1042029582 -235080713</internalNodes>
          <leafValues>
            -5.4591256380081177e-01 3.8111674785614014e-01</leafValues></_>
        <_>
          <internalNodes>
            0 -1 161 -749341306 -778979669 -736783104 899410225
            1223623271 -1192115493 2103469061 893371767</internalNodes>
          <leafValues>
            -5.4226982593536377e-01 3.8038402795791626e-01</leafValues></_>
        <_>
          <internalNodes>
            0 -1 60 934616346 -1472621696 655488337 -1082960945
            -638854721 -1367270613 1944497599 -1953530913</internalNodes>
          <leafValues>
            -4.4044473767280579e-01 4.7529295086860657e-01</leafValues></_>
        <_>
          <internalNodes>
            0 -1 139 -1420296649 -1732192060 1000079289 -140818677
            -1975117575 -1314176967 989912253 -100765955</internalNodes>
          <leafValues>
            -5.3114694356918335e-01 4.1248691082000732e-01</leafValues></_>
        <_>
          <internalNodes>
            0 -1 170 -1210340438 -1498431061 -1877978208 -624799350
            -1320455681 76251387 903664084 1418157759</internalNodes>
          <leafValues>
            -6.3504713773727417e-01 3.2439813017845154e-01</leafValues></_>
        <_>
          <internalNodes>
            0 -1 69 -688916697 919069139 -733014706 -40769289
            -1591339193 -1828325973 1768048448 1387382017</internalNodes>
          <leafValues>
            -4.5982238650321960e-01 4.2005318403244019e-01</leafValues></_>
        <_>
          <internalNodes>
            0 -1 49 -489527547 -1207903897 -519994939 1544242187
            -1189150278 -1212575703 -577503813 792338809</internalNodes>
          <leafValues>
            -5.0284880399703979e-01 4.0123066306114197e-01</leafValues></_>
        <_>
          <internalNodes>
            0 -1 141 -479993369 226996997 -503244917 -6524679 -70526524
            -1936875273 -1822331179 -1671957969</internalNodes>
          <leafValues>
            -4.8816588521003723e-01 4.2097520828247070e-01</leafValues></_>
        <_>
          <internalNodes>
            0 -1 10 -941678093 -1075959941 1439977779 1447446786
            -1899380821 1069849868 1288163635 -1820366275</internalNodes>
          <leafValues>
            -5.6976503133773804e-01 3.5532131791114807e-01</leafValues></_>
        <_>
          <internalNodes>
            0 -1 207 196020075 -1425485432 -1055789613 -572786303
            -1789207601 -1918202973 -1048407866 -1662011173</internalNodes>
          <leafValues>
            -4.7198575735092163e-01 4.1332343220710754e-01</leafValues></_>
        <_>
          <internalNodes>
            0 -1 29 -229299936 -817946251 1074150523 946471691
            -1021255303 1655343161 1212774655 1518291183</internalNodes>
          <leafValues>
            -6.7314904928207397e-01 2.9537653923034668e-01</leafValues></_>
        <_>
          <internalNodes>
            0 -1 228 -238031185 -907546714 49352192 536309416 861452170
            1629499385 1923171406 -168824961</internalNodes>
          <leafValues>
            -3.3092516660690308e-01 6.1103689670562744e-01</leafValues></_>
        <_>
          <internalNodes>
            0 -1 6 1944057316 -1546762877 399723194 -1606233714
            1635984339 -2147450197 2113540547 -955516013</internalNodes>
          <leafValues>
            -4.7917124629020691e-01 4.1374921798706055e-01</leafValues></_>
        <_>
          <internalNodes>
            0 -1 91 -84563180 283104625 -1073699820 982327763 -502519108
            1222115362 723598227 -1678845313</internalNodes>
          <leafValues>
            -4.8485878109931946e-01 3.8806092739105225e-01</leafValues></_></weakClassifiers></_>
    <!-- stage 3 -->
    <_>
      <maxWeakCount>21</maxWeakCount>
      <stageThreshold>-5.3304690122604370e-01</stageThreshold>
      <weakClassifiers>
        <_>
          <internalNodes>
            0 -1 187 -67108865 -1140860680 -41732 -41732 -1078804482
            -1086677572 2133941727 -8430241</internalNodes>
          <leafValues>
            -5.4634791612625122e-01 6.3585782051086426e-01</leafValues></_>
        <_>
          <internalNodes>
            0 -1 42 -214698081 -539234957 -529304867 -778472617
            -1258816069 -1891910741 -572564207 -547357929</internalNodes>
          <leafValues>
            -5.2904939651489258e-01 5.5852752923965454e-01</leafValues></_>
        <_>
          <internalNodes>
            0 -1 114 -3149842 -20472353 -652300568 -227354406 -28592128
            1392722067 -41682552 -134218785</internalNodes>
          <leafValues>
            -5.1240211725234985e-01 5.4838323593139648e-01</leafValues></_>
        <_>
          <internalNodes>
            0 -1 85 -273687315 -77865611 -419404463 -294191179
            -1552287504 -14448528 1331382491 -1087119369</internalNodes>
          <leafValues>
            -5.3840684890747070e-01 4.3421787023544312e-01</leafValues></_>
        <_>
          <internalNodes>
            0 -1 149 -1343312077 -143781 1449087794 -171583265 -23581942
            -836835190 -410586214 399498940</internalNodes>
          <leafValues>
            -5.5434364080429077e-01 3.5846483707427979e-01</leafValues></_>
        <_>
          <internalNodes>
            0 -1 88 -357044425 -1091260510 -1207959553 -1547862018
            1045953315 -146849998 665097473 -9117997</internalNodes>
          <leafValues>
            -4.2380866408348083e-01 4.7340458631515503e-01</leafValues></_>
        <_>
          <internalNodes>
            0 -1 131 -1162703041 -1162028752 -67755 1298136435
            -1078198278 -1091502152 791936955 -571212294</internalNodes>
          <leafValues>
            -3.5015028715133667e-01 5.7689279317855835e-01</leafValues></_>
        <_>
          <internalNodes>
            0 -1 12 -994124402 -395160865 1594086207 -1125752814
            373202483 1834422199 238247743 -1141418635</internalNodes>
          <leafValues>
            -5.2289521694183350e-01 3.7482225894927979e-01</leafValues></_>
        <_>
          <internalNodes>
            0 -1 90 -539058296 -557166370 -1862221300 1917989370
            2014511104 1090977867 156102728 -15526914</internalNodes>
          <leafValues>
            -4.6475067734718323e-01 3.8595956563949585e-01</leafValues></_>
        <_>
          <internalNodes>
            0 -1 121 -1902798913 -2267179 -1706779301 1474239948
            -1160793711 -879883188 -204087040 862645130</internalNodes>
          <leafValues>
            -5.6736004352569580e-01 3.2849454879760742e-01</leafValues></_>
        <_>
          <internalNodes>
            0 -1 220 1060483752 -902836064 -535629776 -8396065
            1072642223 17465346 -746523674 -939534145</internalNodes>
          <leafValues>
            -5.1480799913406372e-01 3.4184283018112183e-01</leafValues></_>
        <_>
          <internalNodes>
            0 -1 38 -805343339 -610603073 571056983 -795630917
            -1081412809 -1893203798 -248831783 -763630895</internalNodes>
          <leafValues>
            -4.9025538563728333e-01 3.9927774667739868e-01</leafValues></_>
        <_>
          <internalNodes>
            0 -1 100 1362444340 -114155176 276955517 -1742748787
            541690404 -1197539124 711076008 405735644</internalNodes>
          <leafValues>
            -7.0091825723648071e-01 2.7011638879776001e-01</leafValues></_>
        <_>
          <internalNodes>
            0 -1 113 1625292320 -723015377 -1312303345 1053806458
            -682695835 1358150815 2003643969 -457745609</internalNodes>
          <leafValues>
            -5.6396871805191040e-01 3.3131802082061768e-01</leafValues></_>
        <_>
          <internalNodes>
            0 -1 167 -538989970 -1969307511 -1862221654 -1025460037
            -345320874 1078849576 -1315963397 -692061446</internalNodes>
          <leafValues>
            -4.1626977920532227e-01 4.4339063763618469e-01</leafValues></_>
        <_>
          <internalNodes>
            0 -1 229 2130127621 -1906969139 21006080 -1299305036
            1290427519 41378386 -209712818 -1526763781</internalNodes>
          <leafValues>
            -4.3062281608581543e-01 4.0659677982330322e-01</leafValues></_>
        <_>
          <internalNodes>
            0 -1 51 1775402805 1389539126 -380672194 -1325085790
            1482410528 -397563390 -278459866 104250374</internalNodes>
          <leafValues>
            -5.3891456127166748e-01 3.2641372084617615e-01</leafValues></_>
        <_>
          <internalNodes>
            0 -1 171 -33832963 -88932552 -4211216 -139852 -13582341
            -1080295948 1597756863 -1103110657</internalNodes>
          <leafValues>
            -3.6238929629325867e-01 5.4331922531127930e-01</leafValues></_>
        <_>
          <internalNodes>
            0 -1 177 -982562927 364511167 -470091479 854190963
            -1847743036 -994782210 -1208114036 -1558184231</internalNodes>
          <leafValues>
            -3.3071634173393250e-01 5.1913809776306152e-01</leafValues></_>
        <_>
          <internalNodes>
            0 -1 71 -412308188 -430387185 640648 750503333 1799664144
            33620736 -289021081 786371119</internalNodes>
          <leafValues>
            -5.4584658145904541e-01 3.3531543612480164e-01</leafValues></_>
        <_>
          <internalNodes>
            0 -1 39 286135076 -1713815536 -1759862595 -621719463
            -1333720484 -1464713052 -251106629 -541583172</internalNodes>
          <leafValues>
            -6.4066195487976074e-01 2.6963302493095398e-01</leafValues></_></weakClassifiers></_>
    <!-- stage 4 -->
    <_>
      <maxWeakCount>28</maxWeakCount>
      <stageThreshold>-8.7476497888565063e-01</stageThreshold>
      <weakClassifiers>
        <_>
          <internalNodes>
            0 -1 155 -136850758 -269598258 -784297037 -680459809 -148562
            -1953842806 -238030337 1465909247</internalNodes>
          <leafValues>
            -5.9772294759750366e-01 4.9244397878646851e-01</leafValues></_>
        <_>
          <internalNodes>
            0 -1 169 -294653057 -67977092 -1020964612 -69247784
            -436153912 -132071280 2064669183 -34321</internalNodes>
          <leafValues>
            -4.7772735357284546e-01 4.7004368901252747e-01</leafValues></_>
        <_>
          <internalNodes>
            0 -1 1 -16800837 -49153 -1368159686 1052393203 -268492149
            1065303839 -1098993729 -1</internalNodes>
          <leafValues>
            -4.0303182601928711e-01 5.3310036659240723e-01</leafValues></_>
        <_>
          <internalNodes>
            0 -1 147 456160529 -6296144 341381297 -73436007 -1580578049
            -1953519174 25924093 -1883255298</internalNodes>
          <leafValues>
            -4.4147977232933044e-01 4.0597417950630188e-01</leafValues></_>
        <_>
          <internalNodes>
            0 -1 157 -1078330567 -4587728 -295043 -32975 800849919
            -1079181315 469630457 -67379780</internalNodes>
          <leafValues>
            -3.8191920518875122e-01 4.6753555536270142e-01</leafValues></_>
        <_>
          <internalNodes>
            0 -1 57 972660504 -1181670342 1359051697 -209753891
            -86389846 -1448374134 -707807000 -578031206</internalNodes>
          <leafValues>
            -4.7358408570289612e-01 3.7640470266342163e-01</leafValues></_>
        <_>
          <internalNodes>
            0 -1 23 -90250431 726273018 -505525509 2067384531 -218117829
            859781642 -668108207 2138306674</internalNodes>
          <leafValues>
            -5.5886459350585938e-01 3.0521419644355774e-01</leafValues></_>
        <_>
          <internalNodes>
            0 -1 34 -922177628 -1817910013 -1038811058 -2046754675
            -1440041681 -1689789594 723484447 1457853763</internalNodes>
          <leafValues>
            -5.5332165956497192e-01 2.6694688200950623e-01</leafValues></_>
        <_>
          <internalNodes>
            0 -1 115 -1048833 2147385336 -9129864 2050698042 -12861953
            1060272058 1060255898 -4210753</internalNodes>
          <leafValues>
            -3.4684941172599792e-01 4.6033892035484314e-01</leafValues></_>
        <_>
          <internalNodes>
            0 -1 235 2079820590 1313702349 -733722238 -286474033
            -774931643 327193242 -310267871 -157877522</internalNodes>
          <leafValues>
            -4.8728933930397034e-01 3.3366698026657104e-01</leafValues></_>
        <_>
          <internalNodes>
            0 -1 78 -101785620 -966291003 1440207076 869791727
            1939818045 1940324375 720892813 -2016725058</internalNodes>
          <leafValues>
            -4.1734018921852112e-01 3.7043341994285583e-01</leafValues></_>
        <_>
          <internalNodes>
            0 -1 30 -74243 -238337 -565763 -11010081 -4203171 -4235787
            1073470423 -1220657761</internalNodes>
          <leafValues>
            -3.3951693773269653e-01 4.2705851793289185e-01</leafValues></_>
        <_>
          <internalNodes>
            0 -1 154 -1645351525 -156368905 -85992767 -187368475
            -2050164712 -1245843043 23002694 -421663526</internalNodes>
          <leafValues>
            -3.4518709778785706e-01 4.3221136927604675e-01</leafValues></_>
        <_>
          <internalNodes>
            0 -1 123 -413745548 2036283432 1351715637 838805519
            -1660212070 1579892890 505593719 -545346881</internalNodes>
          <leafValues>
            -4.2048564553260803e-01 3.4856867790222168e-01</leafValues></_>
        <_>
          <internalNodes>
            0 -1 168 -1090568209 -88899784 -1313480 -22315535 2134504828
            1461450552 521821660 -541131265</internalNodes>
          <leafValues>
            -3.2571282982826233e-01 4.5387652516365051e-01</leafValues></_>
        <_>
          <internalNodes>
            0 -1 205 1618332712 1783462397 1932203600 -748832403
            -1158939703 -1126215671 849171760 1440175704</internalNodes>
          <leafValues>
            -5.2371031045913696e-01 2.7865740656852722e-01</leafValues></_>
        <_>
          <internalNodes>
            0 -1 11 -895279956 -213163012 -366848579 -1430281479
            1529781485 -357915956 185073757 2071506409</internalNodes>
          <leafValues>
            -7.2944557666778564e-01 1.9822300970554352e-01</leafValues></_>
        <_>
          <internalNodes>
            0 -1 48 1193305154 1375502685 247110 1749541279 -125603442
            -914255465 1068481062 1959247367</internalNodes>
          <leafValues>
            -5.0340199470520020e-01 2.7716439962387085e-01</leafValues></_>
        <_>
          <internalNodes>
            0 -1 46 400046461 1364492941 -1786261225 -560867891
            -1868244067 -1316912998 953920429 243145932</internalNodes>
          <leafValues>
            -6.4833945035934448e-01 2.1403054893016815e-01</leafValues></_>
        <_>
          <internalNodes>
            0 -1 119 -1921152801 -1644314405 1293540083 1495057295
            -2067662701 -2145875933 -1715223782 1543817947</internalNodes>
          <leafValues>
            -3.8368141651153564e-01 3.8434058427810669e-01</leafValues></_>
        <_>
          <internalNodes>
            0 -1 230 -134268580 2097480530 -1920899576 -1059374292
            -2101186524 -521076551 -1838587136 -959268374</internalNodes>
          <leafValues>
            -4.4472941756248474e-01 3.4730723500251770e-01</leafValues></_>
        <_>
          <internalNodes>
            0 -1 142 289821994 -2017316593 1359186154 -139837029
            -1597835944 512565 -1584798500 -724321293</internalNodes>
          <leafValues>
            -3.8243472576141357e-01 3.8018977642059326e-01</leafValues></_>
        <_>
          <internalNodes>
            0 -1 0 -336075004 -1696890677 -803520446 560893983
            -1562684860 1078403074 -110632274 -1812268035</internalNodes>
          <leafValues>
            -4.2941841483116150e-01 3.3765164017677307e-01</leafValues></_>
        <_>
          <internalNodes>
            0 -1 144 523067205 -1887127653 -768799399 1051397199
            -870467759 1255968411 -527961279 285714973</internalNodes>
          <leafValues>
            -8.0792587995529175e-01 1.7283026874065399e-01</leafValues></_>
        <_>
          <internalNodes>
            0 -1 62 -358377190 -230665397 1963743494 -758209590
            1128265492 -479598492 1671531340 854783339</internalNodes>
          <leafValues>
            -4.9157434701919556e-01 2.8579246997833252e-01</leafValues></_>
        <_>
          <internalNodes>
            0 -1 198 -404948651 -1871570120 1224888413 -886077360
            -1853185858 975364580 1578174856 -537167682</internalNodes>
          <leafValues>
            -4.0332889556884766e-01 3.6621525883674622e-01</leafValues></_>
        <_>
          <internalNodes>
            0 -1 82 -101040131 105067785 16777476 -1832775336
            -1551439911 838934528 736516516 -38323407</internalNodes>
          <leafValues>
            -5.8110219240188599e-01 2.5015124678611755e-01</leafValues></_>
        <_>
          <internalNodes>
            0 -1 98 -1981904868 -2104032919 -1827945491 -1043438700
            -1281183022 1458733197 17950050 -467969129</internalNodes>
          <leafValues>
            -4.6967801451683044e-01 3.2163411378860474e-01</leafValues></_></weakClassifiers></_>
    <!-- stage 5 -->
    <_>
      <maxWeakCount>32</maxWeakCount>
      <stageThreshold>-6.5530467033386230e-01</stageThreshold>
      <weakClassifiers>
        <_>
          <internalNodes>
            0 -1 217 -33554497 -1078285510 2110979496 -262727 859504639
            1060306942 1561812447 -136314881</internalNodes>
          <leafValues>
            -4.0167570114135742e-01 5.5404484272003174e-01</leafValues></_>
        <_>
          <internalNodes>
            0 -1 19 -480793291 -35710089 1381317463 507475999
            -1202144449 -117761029 1870626427 1866410559</internalNodes>
          <leafValues>
            -5.7036387920379639e-01 3.7298730015754700e-01</leafValues></_>
        <_>
          <internalNodes>
            0 -1 103 -1786781773 -1660297065 -654188644 -576224929
            -5242881 -1349876822 220790269 487517694</internalNodes>
          <leafValues>
            -5.6829023361206055e-01 2.9599747061729431e-01</leafValues></_>
        <_>
          <internalNodes>
            0 -1 86 -1941317357 -640741924 -1923545341 520408536
            -1131934823 -774058577 -1547386111 -260191196</internalNodes>
          <leafValues>
            -5.9002929925918579e-01 2.7936145663261414e-01</leafValues></_>
        <_>
          <internalNodes>
            0 -1 136 -1 -536871061 -12588232 2142190447 -1086836487
            1429263800 1059003647 -33558529</internalNodes>
          <leafValues>
            -3.1750649213790894e-01 5.3658485412597656e-01</leafValues></_>
        <_>
          <internalNodes>
            0 -1 58 1715371556 1920469364 1265028695 1451130613
            -227665513 1060809634 1463957479 1462838483</internalNodes>
          <leafValues>
            -6.1424523591995239e-01 2.2318586707115173e-01</leafValues></_>
        <_>
          <internalNodes>
            0 -1 16 -36196736 -557895201 -62879076 -225289710 1351290121
            393553951 -389697842 -1506546513</internalNodes>
          <leafValues>
            -3.7090116739273071e-01 3.4919509291648865e-01</leafValues></_>
        <_>
          <internalNodes>
            0 -1 95 -1906941563 -489271285 -679387001 -1566408573
            -1431044825 -97283793 155221625 -607035632</internalNodes>
          <leafValues>
            -5.3646951913833618e-01 2.3656959831714630e-01</leafValues></_>
        <_>
          <internalNodes>
            0 -1 35 806355248 1073312153 353458653 -1804503149
            -603971284 -91537401 -2132750388 -172070227</internalNodes>
          <leafValues>
            -6.3838744163513184e-01 2.0184072852134705e-01</leafValues></_>
        <_>
          <internalNodes>
            0 -1 79 -756031994 -325615621 -1099309074 -830488666
            -437000361 1626701693 -37765305 -135286817</internalNodes>
          <leafValues>
            -3.0997341871261597e-01 4.4795158505439758e-01</leafValues></_>
        <_>
          <internalNodes>
            0 -1 64 1008212228 -1130547051 -248629809 -44297729
            1055650019 -1074095942 449737959 481096677</internalNodes>
          <leafValues>
            -4.9101346731185913e-01 2.9799970984458923e-01</leafValues></_>
        <_>
          <internalNodes>
            0 -1 132 -1176177076 -275719908 -1323408216 1457172690
            -509393840 1727337012 -483930200 579998695</internalNodes>
          <leafValues>
            -5.4144722223281860e-01 2.2492061555385590e-01</leafValues></_>
        <_>
          <internalNodes>
            0 -1 81 -134365508 -537182353 -9065862 1069235002 2134215914
            2146663928 -1355511554 -8668229</internalNodes>
          <leafValues>
            -3.2112574577331543e-01 4.1463619470596313e-01</leafValues></_>
        <_>
          <internalNodes>
            0 -1 197 860863467 -2037438710 -1752724288 -141372729
            1343012807 160076433 1368342996 -1714441521</internalNodes>
          <leafValues>
            -4.4344079494476318e-01 3.1145277619361877e-01</leafValues></_>
        <_>
          <internalNodes>
            0 -1 148 -1816080639 -223737511 -1576846855 -743448115
            -1574313879 -376796935 120720827 1061837261</internalNodes>
          <leafValues>
            -6.8999117612838745e-01 1.8200330436229706e-01</leafValues></_>
        <_>
          <internalNodes>
            0 -1 50 1709968508 251688588 1218707485 1085265677
            1359985008 1051324043 -142119955 1356054350</internalNodes>
          <leafValues>
            -5.1971846818923950e-01 2.1663488447666168e-01</leafValues></_>
        <_>
          <internalNodes>
            0 -1 40 626635571 343244991 277270013 38314079 1803041277
            -920616743 22683901 431106495</internalNodes>
          <leafValues>
            -3.8254904747009277e-01 3.3128577470779419e-01</leafValues></_>
        <_>
          <internalNodes>
            0 -1 111 -218341440 1224656162 -771325732 -1432558453
            1938008901 302716074 -117054933 -1291866610</internalNodes>
          <leafValues>
            -3.3996653556823730e-01 3.8241827487945557e-01</leafValues></_>
        <_>
          <internalNodes>
            0 -1 125 -1856668879 -585236196 -742358894 136479813
            -856446326 -1735898999 -628315509 278716764</internalNodes>
          <leafValues>
            -4.1931334137916565e-01 3.0801436305046082e-01</leafValues></_>
        <_>
          <internalNodes>
            0 -1 237 -606870055 -336413126 1475628084 -269108160
            1328033589 376651612 419387741 -354422818</internalNodes>
          <leafValues>
            -3.1886866688728333e-01 4.4162678718566895e-01</leafValues></_>
        <_>
          <internalNodes>
            0 -1 74 -212561048 -563816485 -2138950072 -1500539917
            1644270083 1384448137 -1245057261 -1244192233</internalNodes>
          <leafValues>
            -3.5611459612846375e-01 3.5733887553215027e-01</leafValues></_>
        <_>
          <internalNodes>
            0 -1 89 -1470784757 -1969483513 936285051 -284358377
            -2013060813 -1296463785 -1474820095 -740176159</internalNodes>
          <leafValues>
            -5.3477096557617188e-01 2.3968969285488129e-01</leafValues></_>
        <_>
          <internalNodes>
            0 -1 55 892354039 -1685733370 293703771 -385033931 952275359
            -1411784703 -1414029601 756681628</internalNodes>
          <leafValues>
            -6.5013295412063599e-01 1.8773449957370758e-01</leafValues></_>
        <_>
          <internalNodes>
            0 -1 231 919450362 1423090959 -990770531 -1600538879
            -476396704 1424148760 1132842629 1153750818</internalNodes>
          <leafValues>
            -4.5068103075027466e-01 2.7556151151657104e-01</leafValues></_>
        <_>
          <internalNodes>
            0 -1 175 -1995806816 -309345641 -887502496 -252750375
            -913925518 151224590 1173164467 -1884552452</internalNodes>
          <leafValues>
            -4.9467775225639343e-01 2.6902928948402405e-01</leafValues></_>
        <_>
          <internalNodes>
            0 -1 159 2144722495 984750266 2055864079 -1576939840
            -808556384 -1423916470 -1327762103 -958609740</internalNodes>
          <leafValues>
            -3.6746573448181152e-01 3.3980610966682434e-01</leafValues></_>
        <_>
          <internalNodes>
            0 -1 178 575543052 1370589365 -279718893 1425894288
            -1724399172 -239386430 -520267906 64344597</internalNodes>
          <leafValues>
            -4.2707318067550659e-01 2.9711115360260010e-01</leafValues></_>
        <_>
          <internalNodes>
            0 -1 33 -166275674 -230239742 -1044192865 -1465761758
            -2100421601 -1475194344 527523693 2034977905</internalNodes>
          <leafValues>
            -5.9336405992507935e-01 2.0648775994777679e-01</leafValues></_>
        <_>
          <internalNodes>
            0 -1 5 -134873441 2113896337 -1342228785 396960621
            -1073891875 939333615 -1073858562 -267449</internalNodes>
          <leafValues>
            -2.1832796931266785e-01 6.5419286489486694e-01</leafValues></_>
        <_>
          <internalNodes>
            0 -1 208 -2096089286 -1702189672 1396916496 -45727740
            724795867 -1090353104 254067161 2131464438</internalNodes>
          <leafValues>
            -4.8413079977035522e-01 2.7762514352798462e-01</leafValues></_>
        <_>
          <internalNodes>
            0 -1 76 1601157451 -623142797 1032010167 -913155426
            1244705584 2123032730 -1041784049 580854362</internalNodes>
          <leafValues>
            -3.8199797272682190e-01 3.5099983215332031e-01</leafValues></_>
        <_>
          <internalNodes>
            0 -1 110 -1000527730 1220812933 -1856565268 1760193262
            1624090445 1552074817 -2315464 -1261131586</internalNodes>
          <leafValues>
            -4.2288899421691895e-01 3.2206213474273682e-01</leafValues></_></weakClassifiers></_>
    <!-- stage 6 -->
    <_>
      <maxWeakCount>35</maxWeakCount>
      <stageThreshold>-8.9047867059707642e-01</stageThreshold>
      <weakClassifiers>
        <_>
          <internalNodes>
            0 -1 171 -741347330 -744773936 134562268 -103946039
            -1358759206 2033428640 321887707 2140135403</internalNodes>
          <leafValues>
            -4.7916665673255920e-01 4.4230768084526062e-01</leafValues></_>
        <_>
          <internalNodes>
            0 -1 0 -136315954 -256458401 -1341595128 -218963767
            -36984823 1360509185 -179580116 -193732917</internalNodes>
          <leafValues>
            -4.2327079176902771e-01 3.9373871684074402e-01</leafValues></_>
        <_>
          <internalNodes>
            0 -1 188 2001698799 -585117185 -242789557 -3675395
            -472278900 1073997320 -206658613 1998040671</internalNodes>
          <leafValues>
            -4.4716006517410278e-01 3.5129949450492859e-01</leafValues></_>
        <_>
          <internalNodes>
            0 -1 8 -478296660 -1872246283 1080100181 -383423295
            -1438137292 -1971608832 714042126 -274474137</internalNodes>
          <leafValues>
            -5.8598929643630981e-01 2.3880365490913391e-01</leafValues></_>
        <_>
          <internalNodes>
            0 -1 194 -2018924766 -1532444280 -2063515632 -18882483
            171949807 185238027 27513333 1340985555</internalNodes>
          <leafValues>
            -6.2510067224502563e-01 2.0402862131595612e-01</leafValues></_>
        <_>
          <internalNodes>
            0 -1 122 -67666434 -9208001 -16780744 -139281862 -168280623
            96436223 -839022404 -168840453</internalNodes>
          <leafValues>
            -2.7596357464790344e-01 4.7072455286979675e-01</leafValues></_>
        <_>
          <internalNodes>
            0 -1 26 -750795295 240896439 1086865590 -1975058033
            -175784997 -755523985 1083140692 -1948291601</internalNodes>
          <leafValues>
            -3.9010974764823914e-01 3.3455342054367065e-01</leafValues></_>
        <_>
          <internalNodes>
            0 -1 129 -1713505248 -224459329 -905862994 1737228694
            1859108634 -1349675352 299725381 -1041138366</internalNodes>
          <leafValues>
            -4.4688260555267334e-01 2.6881140470504761e-01</leafValues></_>
        <_>
          <internalNodes>
            0 -1 9 -2097222210 -217972030 1207976591 -129765233
            -2137852929 -1738259295 547648741 -163090681</internalNodes>
          <leafValues>
            -3.4298229217529297e-01 3.5664629936218262e-01</leafValues></_>
        <_>
          <internalNodes>
            0 -1 94 -850058831 -1886516530 -846664397 -915842938
            -292967653 -1430335813 -507145727 -767324892</internalNodes>
          <leafValues>
            -5.4632812738418579e-01 2.0485438406467438e-01</leafValues></_>
        <_>
          <internalNodes>
            0 -1 63 67114180 -104595260 -784318057 -7597875 -624202857
            -1165458966 -292931058 -1539829210</internalNodes>
          <leafValues>
            -5.7128500938415527e-01 2.0547355711460114e-01</leafValues></_>
        <_>
          <internalNodes>
            0 -1 7 -2133619275 1895708167 1145312379 310063381
            -1581249605 544737583 575352767 2065464799</internalNodes>
          <leafValues>
            -4.8428720235824585e-01 2.4728392064571381e-01</leafValues></_>
        <_>
          <internalNodes>
            0 -1 210 -271327381 503087 -285829994 -1080038239
            -1522367134 -1245695510 -1383219316 -508560431</internalNodes>
          <leafValues>
            -2.8250887989997864e-01 4.4881811738014221e-01</leafValues></_>
        <_>
          <internalNodes>
            0 -1 190 982540602 -1021607512 -939277828 -1143006888
            -1307397133 823143088 495962303 1866193329</internalNodes>
          <leafValues>
            -4.3563383817672729e-01 2.8021138906478882e-01</leafValues></_>
        <_>
          <internalNodes>
            0 -1 227 -616320451 -1078264132 -83954766 -281290411
            674553122 -1665548292 1576391996 -336480321</internalNodes>
          <leafValues>
            -2.8964972496032715e-01 4.0241834521293640e-01</leafValues></_>
        <_>
          <internalNodes>
            0 -1 61 473363232 1107837233 136424726 -150449626 63700413
            571054164 1350891404 1737827892</internalNodes>
          <leafValues>
            -5.6183016300201416e-01 1.9949534535408020e-01</leafValues></_>
        <_>
          <internalNodes>
            0 -1 67 -185569938 -834910059 -1818490946 1564750476
            861201223 2000732249 1773730592 871310011</internalNodes>
          <leafValues>
            -4.5651766657829285e-01 2.5863400101661682e-01</leafValues></_>
        <_>
          <internalNodes>
            0 -1 243 -273339121 338933753 -151166388 2027691811
            771709541 1953783399 -1111984502 -1478574849</internalNodes>
          <leafValues>
            -3.1461107730865479e-01 3.6444255709648132e-01</leafValues></_>
        <_>
          <internalNodes>
            0 -1 153 534812183 -791024265 788414135 -274974937
            1490873208 -1298597909 -1640739382 -811600124</internalNodes>
          <leafValues>
            -2.6822996139526367e-01 4.1756051778793335e-01</leafValues></_>
        <_>
          <internalNodes>
            0 -1 66 -402280825 1722901815 -4501508 1866297166 1322710983
            2012348341 -67807220 -1494390073</internalNodes>
          <leafValues>
            -3.0383476614952087e-01 3.7844955921173096e-01</leafValues></_>
        <_>
          <internalNodes>
            0 -1 185 -1957045366 -1885678065 102856 1082802631 867348487
            277495816 -760487692 402111198</internalNodes>
          <leafValues>
            -6.2638932466506958e-01 1.8329197168350220e-01</leafValues></_>
        <_>
          <internalNodes>
            0 -1 146 583165425 -215547224 -1182330439 -1977848949
            -1171732045 -1702641656 -1694146053 -1622289445</internalNodes>
          <leafValues>
            -3.4209722280502319e-01 3.4777039289474487e-01</leafValues></_>
        <_>
          <internalNodes>
            0 -1 222 -874814607 -797451849 -2136150068 -16122791
            276032306 321353462 -1711707544 -1113523541</internalNodes>
          <leafValues>
            -2.7889946103096008e-01 4.0870046615600586e-01</leafValues></_>
        <_>
          <internalNodes>
            0 -1 174 306636533 1389592880 -2147356641 -259495699
            -1233116506 -2113207983 925956850 1869895917</internalNodes>
          <leafValues>
            -6.4616882801055908e-01 1.7452576756477356e-01</leafValues></_>
        <_>
          <internalNodes>
            0 -1 73 -361388699 1802273103 -1827536491 2080931999
            1381060967 1909805589 -706367723 849555577</internalNodes>
          <leafValues>
            -4.4240179657936096e-01 2.6132825016975403e-01</leafValues></_>
        <_>
          <internalNodes>
            0 -1 80 -176162866 1350476403 -1508912374 -28308830
            -1006976943 1130802 -290154323 -1016796358</internalNodes>
          <leafValues>
            -3.8655108213424683e-01 3.0362093448638916e-01</leafValues></_>
        <_>
          <internalNodes>
            0 -1 108 -1507564436 -480484946 831703934 214868910
            1137403477 -202634872 1984817972 824718630</internalNodes>
          <leafValues>
            -5.8122485876083374e-01 2.0738956332206726e-01</leafValues></_>
        <_>
          <internalNodes>
            0 -1 92 -2003431276 -832610089 1247156511 1024353031
            -2133983085 -1197506502 736520203 1328532322</internalNodes>
          <leafValues>
            -4.8558893799781799e-01 2.4839341640472412e-01</leafValues></_>
        <_>
          <internalNodes>
            0 -1 158 1163300907 75694231 1628488 1391120843 -738853638
            -959479798 -791947962 1565412814</internalNodes>
          <leafValues>
            -4.6961054205894470e-01 2.6560157537460327e-01</leafValues></_>
        <_>
          <internalNodes>
            0 -1 165 -607373023 -180110881 17017106 -260007806
            -855396717 1431473275 -871672764 -723855272</internalNodes>
          <leafValues>
            -3.9398002624511719e-01 3.1163465976715088e-01</leafValues></_>
        <_>
          <internalNodes>
            0 -1 181 622246455 1389150335 -544538496 -1235541234
            1777589115 -339012971 1607209309 596120398</internalNodes>
          <leafValues>
            -3.5103935003280640e-01 3.4565261006355286e-01</leafValues></_>
        <_>
          <internalNodes>
            0 -1 189 -1161026594 60531160 -1340961584 2140824009
            -1828635925 1241703040 437083609 998215337</internalNodes>
          <leafValues>
            -4.8973521590232849e-01 2.3600801825523376e-01</leafValues></_>
        <_>
          <internalNodes>
            0 -1 3 1666068200 -711716643 12316 1358954633 -2138891956
            210379265 1896641289 -70565941</internalNodes>
          <leafValues>
            -5.9032171964645386e-01 1.9382025301456451e-01</leafValues></_>
        <_>
          <internalNodes>
            0 -1 221 1364311609 -529354833 -1484812762 -94298698
            -1284050188 -135282715 -1359100706 1944581119</internalNodes>
          <leafValues>
            -3.1173112988471985e-01 3.9565354585647583e-01</leafValues></_>
        <_>
          <internalNodes>
            0 -1 244 -138989865 1977560957 -403470530 1624768492
            -303143340 -815073670 -1923411909 -1792247880</internalNodes>
          <leafValues>
            -3.1171581149101257e-01 3.7039628624916077e-01</leafValues></_></weakClassifiers></_>
    <!-- stage 7 -->
    <_>
      <maxWeakCount>35</maxWeakCount>
      <stageThreshold>-6.0089105367660522e-01</stageThreshold>
      <weakClassifiers>
        <_>
          <internalNodes>
            0 -1 137 -17825793 -3157652 2138430832 -2630181 -984584
            -1154458532 -9371888 -16777217</internalNodes>
          <leafValues>
            -4.0761855244636536e-01 5.0079590082168579e-01</leafValues></_>
        <_>
          <internalNodes>
            0 -1 4 -211846177 -1050208031 432538044 292884609 -244826648
            973078752 1767190861 -540599549</internalNodes>
          <leafValues>
            -3.7390276789665222e-01 3.8180917501449585e-01</leafValues></_>
        <_>
          <internalNodes>
            0 -1 97 -1904761455 -494982849 2616799 2015791682
            -1975604551 -1360361297 -905426673 1515953327</internalNodes>
          <leafValues>
            -4.2026120424270630e-01 3.0587172508239746e-01</leafValues></_>
        <_>
          <internalNodes>
            0 -1 180 -621416641 -118771525 -33816961 1993655794
            -1081365574 -207439192 1597537374 -956916712</internalNodes>
          <leafValues>
            -3.2403171062469482e-01 3.9920306205749512e-01</leafValues></_>
        <_>
          <internalNodes>
            0 -1 179 1900759050 -488636173 352326098 -132710070
            2063324810 1246414984 -769411946 1398792863</internalNodes>
          <leafValues>
            -6.7984282970428467e-01 1.4703984558582306e-01</leafValues></_>
        <_>
          <internalNodes>
            0 -1 59 110103552 -1122758656 427856909 -1114634542
            -1198523969 -1098428327 701159837 429480121</internalNodes>
          <leafValues>
            -5.8507323265075684e-01 1.9280588626861572e-01</leafValues></_>
        <_>
          <internalNodes>
            0 -1 106 611232334 -1743225994 -788122436 -1183528697
            579862389 -92788550 1743960578 67249702</internalNodes>
          <leafValues>
            -5.3367602825164795e-01 2.0956934988498688e-01</leafValues></_>
        <_>
          <internalNodes>
            0 -1 15 -478068412 1194234159 -1306279185 1637007883
            1816329003 1581712075 -1608480187 -1596396914</internalNodes>
          <leafValues>
            -3.8793259859085083e-01 2.8357204794883728e-01</leafValues></_>
        <_>
          <internalNodes>
            0 -1 122 -795740706 -168668129 1174770258 892997714
            -737402880 -1858912190 151585004 124203199</internalNodes>
          <leafValues>
            -4.7207507491111755e-01 2.2737494111061096e-01</leafValues></_>
        <_>
          <internalNodes>
            0 -1 224 -270584129 1106489335 -1167602 -221707002
            -2013739853 899161527 -1689085219 -1179785448</internalNodes>
          <leafValues>
            -2.7426224946975708e-01 4.0109428763389587e-01</leafValues></_>
        <_>
          <internalNodes>
            0 -1 77 -91963131 34837442 308514954 -522864038 1787809824
            319500292 -114705593 -1225317554</internalNodes>
          <leafValues>
            -3.1946343183517456e-01 3.3980509638786316e-01</leafValues></_>
        <_>
          <internalNodes>
            0 -1 104 -1540514290 672384214 -720658662 923071634
            2046542634 160376135 -687717582 231700163</internalNodes>
          <leafValues>
            -4.8715299367904663e-01 2.0216621458530426e-01</leafValues></_>
        <_>
          <internalNodes>
            0 -1 186 1072642047 -46399494 -268435480 -5544150 -149160581
            385957832 1601936893 -1109393413</internalNodes>
          <leafValues>
            -2.9033270478248596e-01 3.6606058478355408e-01</leafValues></_>
        <_>
          <internalNodes>
            0 -1 28 1624813535 -16826370 1790721639 1979580263
            -1885294598 1058160639 2147401326 -218891449</internalNodes>
          <leafValues>
            -2.3506681621074677e-01 4.6790143847465515e-01</leafValues></_>
        <_>
          <internalNodes>
            0 -1 184 -1970471363 1549188646 -1031624323 1719968739
            -1708423106 -1747410712 798639083 522244393</internalNodes>
          <leafValues>
            -3.7519800662994385e-01 2.9777032136917114e-01</leafValues></_>
        <_>
          <internalNodes>
            0 -1 44 2014608191 1073828483 -1589574847 1140886148
            -1312622385 1074266136 -1459553615 348460422</internalNodes>
          <leafValues>
            -4.3219715356826782e-01 2.6408565044403076e-01</leafValues></_>
        <_>
          <internalNodes>
            0 -1 239 1508221484 1943847132 -939275921 -422615587
            319205893 1395004105 409692900 -2064570583</internalNodes>
          <leafValues>
            -3.9546644687652588e-01 2.7420645952224731e-01</leafValues></_>
        <_>
          <internalNodes>
            0 -1 116 63682641 -1285059724 805898309 2046932997
            -1060716355 -1577054080 1745093801 -1708221646</internalNodes>
          <leafValues>
            -4.4804224371910095e-01 2.5105041265487671e-01</leafValues></_>
        <_>
          <internalNodes>
            0 -1 233 1436107682 -377372541 1493190538 -237387575
            -913631093 -1968462808 545415251 -857799029</internalNodes>
          <leafValues>
            -3.7651154398918152e-01 2.8927960991859436e-01</leafValues></_>
        <_>
          <internalNodes>
            0 -1 133 -17942001 221429748 805224176 -1653231893
            -573049081 -1748118221 -151533539 -695685833</internalNodes>
          <leafValues>
            -3.1741645932197571e-01 3.6234462261199951e-01</leafValues></_>
        <_>
          <internalNodes>
            0 -1 135 -8663094 -542670905 -16847110 65666815 -2055209056
            1096660853 -33703763 -940837205</internalNodes>
          <leafValues>
            -3.1881123781204224e-01 3.4905603528022766e-01</leafValues></_>
        <_>
          <internalNodes>
            0 -1 107 -510647458 1197999094 -351578739 -603126852
            1082161351 964853898 -1557802732 612647234</internalNodes>
          <leafValues>
            -4.7874259948730469e-01 2.5583490729331970e-01</leafValues></_>
        <_>
          <internalNodes>
            0 -1 24 1141511392 1926797507 540692 151060610 902799649
            900715318 776905894 716538337</internalNodes>
          <leafValues>
            -4.7828027606010437e-01 2.2733150422573090e-01</leafValues></_>
        <_>
          <internalNodes>
            0 -1 124 46891445 -1902227845 2030879131 487206539
            -1974956845 -1937503461 -819984039 -502076277</internalNodes>
          <leafValues>
            -3.5156968235969543e-01 3.2035803794860840e-01</leafValues></_>
        <_>
          <internalNodes>
            0 -1 200 645387375 -1273397474 -277268711 1876917545
            -1477248067 1877866169 1500975486 1944735478</internalNodes>
          <leafValues>
            -2.8940242528915405e-01 4.0914216637611389e-01</leafValues></_>
        <_>
          <internalNodes>
            0 -1 21 -1307837570 -771712699 1896371457 -1761394167
            -1211190945 -2103097250 979852596 -585148843</internalNodes>
          <leafValues>
            -4.2762064933776855e-01 2.7024278044700623e-01</leafValues></_>
        <_>
          <internalNodes>
            0 -1 99 1479560378 1612833334 2146856913 1895364587
            -555941974 -140329164 -1510277123 -11211986</internalNodes>
          <leafValues>
            -3.0624604225158691e-01 3.8998395204544067e-01</leafValues></_>
        <_>
          <internalNodes>
            0 -1 167 -1252021780 1296056611 16828426 1153959110
            -1467285000 1073743880 -1714714444 1422444015</internalNodes>
          <leafValues>
            -5.2087384462356567e-01 2.2774742543697357e-01</leafValues></_>
        <_>
          <internalNodes>
            0 -1 199 -52959393 -1561088101 1064917580 1980489293
            -270796873 -361006544 765800479 -1487487627</internalNodes>
          <leafValues>
            -3.1451499462127686e-01 3.8133218884468079e-01</leafValues></_>
        <_>
          <internalNodes>
            0 -1 214 2145745988 402620087 2142737897 -546185290
            1332463233 -2045284386 1199363349 -1560413572</internalNodes>
          <leafValues>
            -3.2097595930099487e-01 3.6078712344169617e-01</leafValues></_>
        <_>
          <internalNodes>
            0 -1 70 -514845204 -1865661863 -117347955 -1903853331
            811825706 722060308 -223626558 -1141363794</internalNodes>
          <leafValues>
            -3.5096925497055054e-01 3.1907749176025391e-01</leafValues></_>
        <_>
          <internalNodes>
            0 -1 223 -1275309020 39078237 1760325372 1657872697
            -653909566 1368746937 1850420072 -456514843</internalNodes>
          <leafValues>
            -3.8678595423698425e-01 2.8129458427429199e-01</leafValues></_>
        <_>
          <internalNodes>
            0 -1 83 -507453234 -84467519 486609632 -498594430
            -1433171884 805308568 -1700619520 1614846619</internalNodes>
          <leafValues>
            -6.5309381484985352e-01 1.7472900450229645e-01</leafValues></_>
        <_>
          <internalNodes>
            0 -1 152 -896105323 1489289911 524545 335675915 -1090058438
            -573136080 999550847 -597526035</internalNodes>
          <leafValues>
            -3.5436889529228210e-01 3.1250536441802979e-01</leafValues></_>
        <_>
          <internalNodes>
            0 -1 240 -1417680553 748744434 66172011 -1900396997
            -59126969 1428611053 -543494245 787408710</internalNodes>
          <leafValues>
            -3.1175914406776428e-01 3.7140429019927979e-01</leafValues></_></weakClassifiers></_>
    <!-- stage 8 -->
    <_>
      <maxWeakCount>34</maxWeakCount>
      <stageThreshold>-6.6389036178588867e-01</stageThreshold>
      <weakClassifiers>
        <_>
          <internalNodes>
            0 -1 173 -12582934 -5767253 -134217744 -538050579 -327681
            212336635 -2013276673 -674236465</internalNodes>
          <leafValues>
            -3.4608945250511169e-01 5.1330256462097168e-01</leafValues></_>
        <_>
          <internalNodes>
            0 -1 172 1779554299 -77766577 419468275 -89339890 -86327910
            -585449214 -2088328453 1464585759</internalNodes>
          <leafValues>
            -4.0967249870300293e-01 3.9728134870529175e-01</leafValues></_>
        <_>
          <internalNodes>
            0 -1 10 -922696457 -1965408036 1239807319 1599000703
            -1979676933 -1731033907 -1748987085 1801307191</internalNodes>
          <leafValues>
            -4.2907598614692688e-01 3.0348539352416992e-01</leafValues></_>
        <_>
          <internalNodes>
            0 -1 36 1472211964 1208172545 268539922 167887002 672741779
            196674 -236094513 -138937522</internalNodes>
          <leafValues>
            -3.8837116956710815e-01 3.1800723075866699e-01</leafValues></_>
        <_>
          <internalNodes>
            0 -1 1 -1848663524 1884501403 -2146368422 361828824
            -1069412629 806027304 141786 2013262811</internalNodes>
          <leafValues>
            -4.8091521859169006e-01 2.5573351979255676e-01</leafValues></_>
        <_>
          <internalNodes>
            0 -1 156 -656957379 -86470577 1241821324 856692818
            -2120238689 -208760628 717420735 -686493043</internalNodes>
          <leafValues>
            -3.3900383114814758e-01 3.2815429568290710e-01</leafValues></_>
        <_>
          <internalNodes>
            0 -1 32 1118740752 -894824370 -2071936731 -1756723194
            -1039494737 -427818438 -2004874483 -682997676</internalNodes>
          <leafValues>
            -4.2619088292121887e-01 2.6932466030120850e-01</leafValues></_>
        <_>
          <internalNodes>
            0 -1 13 1646962540 579339273 399837 -1006419967 -1609916559
            -1995767807 2030178557 1070997731</internalNodes>
          <leafValues>
            -4.6952652931213379e-01 1.9732205569744110e-01</leafValues></_>
        <_>
          <internalNodes>
            0 -1 101 1301381638 -2078982128 82175 -754974702 -2115299966
            -1918809685 -1131679024 -708586686</internalNodes>
          <leafValues>
            -4.9219661951065063e-01 2.4063311517238617e-01</leafValues></_>
        <_>
          <internalNodes>
            0 -1 118 1678178958 -1073004228 16389 -1072365412 1073935233
            537069825 -985460091 -842117803</internalNodes>
          <leafValues>
            -4.7815617918968201e-01 2.1348147094249725e-01</leafValues></_>
        <_>
          <internalNodes>
            0 -1 186 -783461162 -921599974 17164264 -988836476
            -133621025 723093640 1347322063 522038223</internalNodes>
          <leafValues>
            -3.5887017846107483e-01 3.2166373729705811e-01</leafValues></_>
        <_>
          <internalNodes>
            0 -1 211 -803675767 1650069629 -586233403 311465344
            355407446 330220545 445117128 1999596207</internalNodes>
          <leafValues>
            -3.7812790274620056e-01 2.8788501024246216e-01</leafValues></_>
        <_>
          <internalNodes>
            0 -1 209 -212054216 -2101825012 2081428737 -729135975
            -141891678 -1374871551 650328803 1422551180</internalNodes>
          <leafValues>
            -4.2659389972686768e-01 2.6012894511222839e-01</leafValues></_>
        <_>
          <internalNodes>
            0 -1 68 -2112609207 -1611006267 -4261075 2129227326
            1605738447 1739962220 -17976664 1465962143</internalNodes>
          <leafValues>
            -3.0669242143630981e-01 3.4852150082588196e-01</leafValues></_>
        <_>
          <internalNodes>
            0 -1 219 1324072430 -412651289 2111121983 2004725657
            -1289426523 1475984247 -121633139 -1492416458</internalNodes>
          <leafValues>
            -2.7959600090980530e-01 3.7388253211975098e-01</leafValues></_>
        <_>
          <internalNodes>
            0 -1 130 -1413661486 -1104478230 -32974 -83902466 -12583121
            -2020659320 889124347 -551895569</internalNodes>
          <leafValues>
            -2.9684221744537354e-01 3.6794221401214600e-01</leafValues></_>
        <_>
          <internalNodes>
            0 -1 53 -2134405772 1934946523 134447630 1619641248
            -2090216944 -1215592150 2063751877 1590903445</internalNodes>
          <leafValues>
            -4.7586691379547119e-01 2.3326942324638367e-01</leafValues></_>
        <_>
          <internalNodes>
            0 -1 247 1172259939 867638828 753365044 -1178948066
            -439456496 -1544037145 -688288507 -674760286</internalNodes>
          <leafValues>
            -2.6100841164588928e-01 4.4322612881660461e-01</leafValues></_>
        <_>
          <internalNodes>
            0 -1 170 -1722744440 -526450687 3162306 -243119988 571011247
            25272480 830654939 -2132882546</internalNodes>
          <leafValues>
            -3.3781275153160095e-01 3.3642193675041199e-01</leafValues></_>
        <_>
          <internalNodes>
            0 -1 7 284804917 -1060339619 1448477971 295180543
            -2136997719 -1595537977 1147824271 1445220151</internalNodes>
          <leafValues>
            -4.4890990853309631e-01 2.4341309070587158e-01</leafValues></_>
        <_>
          <internalNodes>
            0 -1 166 1687652998 -993701187 -1048264211 -1756445618
            1504960901 15779440 -1647962104 1390879682</internalNodes>
          <leafValues>
            -4.0830230712890625e-01 2.6686000823974609e-01</leafValues></_>
        <_>
          <internalNodes>
            0 -1 145 -13893656 -65609 1073643506 -4231581 -1112541784
            -1782644821 -21523970 -572680977</internalNodes>
          <leafValues>
            -1.8337032198905945e-01 5.6629133224487305e-01</leafValues></_>
        <_>
          <internalNodes>
            0 -1 75 1465133924 -268418465 294125960 43483529 -779186110
            1469218824 -1154121183 393554208</internalNodes>
          <leafValues>
            -5.5589294433593750e-01 1.8351855874061584e-01</leafValues></_>
        <_>
          <internalNodes>
            0 -1 105 789815610 -1543221168 134217817 -972996407
            1965920445 -1190428115 430586905 126608124</internalNodes>
          <leafValues>
            -5.0789910554885864e-01 1.9959855079650879e-01</leafValues></_>
        <_>
          <internalNodes>
            0 -1 65 -658061165 -325992437 2030818850 449113896 508084560
            -1056636927 696831830 -1473978151</internalNodes>
          <leafValues>
            -3.7923818826675415e-01 2.6421830058097839e-01</leafValues></_>
        <_>
          <internalNodes>
            0 -1 213 -844288557 2146717436 -595603809 691674569
            444585932 -690972751 -1511500610 -389193795</internalNodes>
          <leafValues>
            -2.2913382947444916e-01 4.9099624156951904e-01</leafValues></_>
        <_>
          <internalNodes>
            0 -1 236 -409000026 -1987673650 1539571842 -288448084
            -1440490846 1745387520 1614997937 1346804378</internalNodes>
          <leafValues>
            -4.1625893115997314e-01 2.5062406063079834e-01</leafValues></_>
        <_>
          <internalNodes>
            0 -1 127 -259460191 -1040087039 688554657 -1602188657
            579633308 -1585209043 234933544 1666145001</internalNodes>
          <leafValues>
            -6.3004225492477417e-01 1.6393114626407623e-01</leafValues></_>
        <_>
          <internalNodes>
            0 -1 225 458415624 -1152057261 -2009054330 1589786758
            -1546648715 811696203 1255968892 265005602</internalNodes>
          <leafValues>
            -4.1568258404731750e-01 2.4900601804256439e-01</leafValues></_>
        <_>
          <internalNodes>
            0 -1 242 919085568 279890453 1124074949 1891829708
            -1154934254 -1875686321 812208788 2144399065</internalNodes>
          <leafValues>
            -4.2435479164123535e-01 2.4530737102031708e-01</leafValues></_>
        <_>
          <internalNodes>
            0 -1 218 -88475857 -162878190 -199063 -1401031337
            -1481457734 -138559712 1578409979 -237111722</internalNodes>
          <leafValues>
            -2.2908958792686462e-01 4.6787187457084656e-01</leafValues></_>
        <_>
          <internalNodes>
            0 -1 92 -2146116155 14581939 -1049836281 1499810816
            -2142732150 -1744141685 -1362582869 -1707668977</internalNodes>
          <leafValues>
            -3.3415910601615906e-01 3.1407126784324646e-01</leafValues></_>
        <_>
          <internalNodes>
            0 -1 14 -398934337 -1356092867 -536936449 2147483646
            -349496108 -81002508 1866329999 -341071166</internalNodes>
          <leafValues>
            -2.1618327498435974e-01 4.8222711682319641e-01</leafValues></_>
        <_>
          <internalNodes>
            0 -1 234 -1915094251 1308940290 -787886058 -2021555502
            10093297 -183922418 -1466858276 1666242250</internalNodes>
          <leafValues>
            -3.3786332607269287e-01 3.4107014536857605e-01</leafValues></_></weakClassifiers></_>
    <!-- stage 9 -->
    <_>
      <maxWeakCount>37</maxWeakCount>
      <stageThreshold>-9.0601485967636108e-01</stageThreshold>
      <weakClassifiers>
        <_>
          <internalNodes>
            0 -1 117 -1048833 -29507 -536912387 -40963 -536883729
            -1073804235 -571515395 -294913</internalNodes>
          <leafValues>
            -3.7444239854812622e-01 4.4747570157051086e-01</leafValues></_>
        <_>
          <internalNodes>
            0 -1 168 -993021985 -585383718 -201063336 -183513892
            -390206881 590529219 153029103 1532989391</internalNodes>
          <leafValues>
            -3.8821065425872803e-01 4.0066248178482056e-01</leafValues></_>
        <_>
          <internalNodes>
            0 -1 93 -1056844419 -104853487 -1920606885 -585826017
            -1498625891 -642578195 -1999929344 -318839319</internalNodes>
          <leafValues>
            -3.6800599098205566e-01 3.6087974905967712e-01</leafValues></_>
        <_>
          <internalNodes>
            0 -1 204 -340525253 -126144208 -537034884 -848339627
            -1147027526 -272892112 660524510 -671091233</internalNodes>
          <leafValues>
            -2.4298487603664398e-01 4.2976686358451843e-01</leafValues></_>
        <_>
          <internalNodes>
            0 -1 126 1778815333 -905508301 59419889 -1081569726
            -930173781 -1438874842 504547595 1380558987</internalNodes>
          <leafValues>
            -4.0261781215667725e-01 2.3880237340927124e-01</leafValues></_>
        <_>
          <internalNodes>
            0 -1 31 -1570963658 -1038876664 -1060777664 1628135435
            -1601810017 -1073709016 317339885 1854038405</internalNodes>
          <leafValues>
            -4.9693477153778076e-01 2.0572584867477417e-01</leafValues></_>
        <_>
          <internalNodes>
            0 -1 90 -17324068 -17613825 1006550766 -88949846 -8445963
            1647671167 -608018 -138421573</internalNodes>
          <leafValues>
            -2.3863017559051514e-01 4.4262161850929260e-01</leafValues></_>
        <_>
          <internalNodes>
            0 -1 246 -645806385 263209236 -788148068 1610860058
            -641801963 1365650444 -1064502508 860470044</internalNodes>
          <leafValues>
            -3.6667948961257935e-01 2.9851600527763367e-01</leafValues></_>
        <_>
          <internalNodes>
            0 -1 176 -783231925 -2002681840 1417988138 1212235776
            2065626016 -343354408 1252806728 1205147781</internalNodes>
          <leafValues>
            -4.1650721430778503e-01 2.4931375682353973e-01</leafValues></_>
        <_>
          <internalNodes>
            0 -1 216 1141440910 539517314 1166562160 -448723832
            455828171 151302795 -1626242672 1365961230</internalNodes>
          <leafValues>
            -5.3839260339736938e-01 1.8847079575061798e-01</leafValues></_>
        <_>
          <internalNodes>
            0 -1 52 -1985416137 1904445691 -2097147258 -2020181310
            547916416 -2129706934 -1536993597 -695854939</internalNodes>
          <leafValues>
            -3.2511872053146362e-01 3.1190767884254456e-01</leafValues></_>
        <_>
          <internalNodes>
            0 -1 80 -305147481 1398214813 -1319761842 -1027452726
            -784157696 306718721 -1316640653 -1313361723</internalNodes>
          <leafValues>
            -3.2646995782852173e-01 3.1622675061225891e-01</leafValues></_>
        <_>
          <internalNodes>
            0 -1 164 -820886676 1436059742 1344448622 575281179
            738666615 1276596568 -779359446 -289217564</internalNodes>
          <leafValues>
            -3.6263221502304077e-01 2.9286831617355347e-01</leafValues></_>
        <_>
          <internalNodes>
            0 -1 238 -878951540 -998010726 -1851637504 -420841696
            441456752 553853121 988020841 426138380</internalNodes>
          <leafValues>
            -4.6982696652412415e-01 2.1180890500545502e-01</leafValues></_>
        <_>
          <internalNodes>
            0 -1 241 354627148 -220888950 -1811562340 -2147003704
            -1144290815 1338737251 -1547387938 -1292427124</internalNodes>
          <leafValues>
            -3.5313150286674500e-01 2.7538543939590454e-01</leafValues></_>
        <_>
          <internalNodes>
            0 -1 84 -1778105898 26493137 537919903 1093425157
            -2146950573 -2066871879 -1391704357 505433115</internalNodes>
          <leafValues>
            -4.1881108283996582e-01 2.4672839045524597e-01</leafValues></_>
        <_>
          <internalNodes>
            0 -1 202 623319018 -1986740032 -1069462632 1841762567
            -1055167494 185254019 219501001 1026108157</internalNodes>
          <leafValues>
            -5.4403412342071533e-01 1.6538885235786438e-01</leafValues></_>
        <_>
          <internalNodes>
            0 -1 195 1649096309 30873875 4194703 -679272256 1904873664
            1180696768 -383778904 1243814366</internalNodes>
          <leafValues>
            -3.3154764771461487e-01 3.0795878171920776e-01</leafValues></_>
        <_>
          <internalNodes>
            0 -1 162 -377472974 -2133376971 -1200993358 -208461692
            -876434106 612672642 -921788300 533626509</internalNodes>
          <leafValues>
            -3.6257109045982361e-01 2.9396134614944458e-01</leafValues></_>
        <_>
          <internalNodes>
            0 -1 109 745455359 1014606078 -223609095 -552325522
            -42074297 2002069365 -138561736 -404401633</internalNodes>
          <leafValues>
            -2.8349146246910095e-01 3.5595679283142090e-01</leafValues></_>
        <_>
          <internalNodes>
            0 -1 72 1274282444 2085093262 1073581807 -583180834
            -713169467 2002548693 -426065923 -1249440214</internalNodes>
          <leafValues>
            -3.1112509965896606e-01 3.4488618373870850e-01</leafValues></_>
        <_>
          <internalNodes>
            0 -1 182 -1853702127 -1404420080 1074331652 -645595135
            -1556905381 50466818 1233295833 1606130093</internalNodes>
          <leafValues>
            -4.8984575271606445e-01 2.1817882359027863e-01</leafValues></_>
        <_>
          <internalNodes>
            0 -1 160 -2082810917 542482474 -887909767 -805212284
            1636037122 1234831372 1453101930 1588878338</internalNodes>
          <leafValues>
            -3.6663243174552917e-01 3.0231186747550964e-01</leafValues></_>
        <_>
          <internalNodes>
            0 -1 2 944712984 1405424228 84164638 285515793 -741924320
            1133445248 272892115 -255540881</internalNodes>
          <leafValues>
            -4.7610589861869812e-01 2.3514203727245331e-01</leafValues></_>
        <_>
          <internalNodes>
            0 -1 112 380471749 -1910267327 1124274334 1757859979
            1485042247 310607877 -1064988639 1119830540</internalNodes>
          <leafValues>
            -4.1564682126045227e-01 2.6528301835060120e-01</leafValues></_>
        <_>
          <internalNodes>
            0 -1 245 32998750 1576365805 -572244928 -1027888210
            133997680 -1334657051 1872574436 -691801558</internalNodes>
          <leafValues>
            -3.2245194911956787e-01 3.5223156213760376e-01</leafValues></_>
        <_>
          <internalNodes>
            0 -1 193 772645672 1360010806 -1056945530 -924372470
            -534765418 -333971250 1952213530 1741494721</internalNodes>
          <leafValues>
            -4.0317258238792419e-01 2.7543658018112183e-01</leafValues></_>
        <_>
          <internalNodes>
            0 -1 232 33857926 90177799 -1585410048 1613140171
            -1815985233 1151008792 -128322688 344304353</internalNodes>
          <leafValues>
            -6.2652015686035156e-01 1.7331051826477051e-01</leafValues></_>
        <_>
          <internalNodes>
            0 -1 212 458089604 277648597 -1324839907 2139627792
            -1349881724 638305293 683884928 375885623</internalNodes>
          <leafValues>
            -4.5586377382278442e-01 2.2377966344356537e-01</leafValues></_>
        <_>
          <internalNodes>
            0 -1 206 -1984085457 -159777876 1652181711 -395235744
            2109740435 1062336510 -1770035624 -1379582247</internalNodes>
          <leafValues>
            -3.0303454399108887e-01 3.6583569645881653e-01</leafValues></_>
        <_>
          <internalNodes>
            0 -1 119 -1082196299 -32897 -1082983773 -1683048586 -787623
            -1061617893 -210247991 -583942305</internalNodes>
          <leafValues>
            -2.6462468504905701e-01 3.8328197598457336e-01</leafValues></_>
        <_>
          <internalNodes>
            0 -1 134 406924194 -389431100 -1065279360 -2096102230
            -1878463677 -1068916736 592091978 1225460236</internalNodes>
          <leafValues>
            -4.0297096967697144e-01 2.6370549201965332e-01</leafValues></_>
        <_>
          <internalNodes>
            0 -1 143 -2012501167 -116713893 117629211 -1976809475
            -1598028160 -634910696 -2130415078 306694824</internalNodes>
          <leafValues>
            -4.2263060808181763e-01 2.6269558072090149e-01</leafValues></_>
        <_>
          <internalNodes>
            0 -1 54 -431466531 190114726 2080355840 -302057486
            -1363322300 -1070334990 -950566708 702086493</internalNodes>
          <leafValues>
            -3.1303083896636963e-01 3.4915357828140259e-01</leafValues></_>
        <_>
          <internalNodes>
            0 -1 163 -850597079 1363313626 -1951814678 559031251
            -1970579115 763429038 -1020337065 727775842</internalNodes>
          <leafValues>
            -3.9972358942031860e-01 2.7387318015098572e-01</leafValues></_>
        <_>
          <internalNodes>
            0 -1 248 -395467345 -348164308 -1363264410 1115924415
            1694249989 1095663558 -1327044794 -1012148309</internalNodes>
          <leafValues>
            -1.9741725921630859e-01 5.4975849390029907e-01</leafValues></_>
        <_>
          <internalNodes>
            0 -1 96 958209671 -779091569 536987644 1342198104
            -1071362323 -2147473406 -1061115752 -263210102</internalNodes>
          <leafValues>
            -3.4531185030937195e-01 3.2894220948219299e-01</leafValues></_></weakClassifiers></_></stages>
  <features>
    <_>
      <rect>
        0 0 1 1</rect></_>
    <_>
      <rect>
        0 0 1 2</rect></_>
    <_>
      <rect>
        0 0 1 3</rect></_>
    <_>
      <rect>
        0 0 1 4</rect></_>
    <_>
      <rect>
        0 0 1 5</rect></_>
    <_>
      <rect>
        0 0 1 6</rect></_>
    <_>
      <rect>
        0 0 2 1</rect></_>
    <_>
      <rect>
        0 0 2 2</rect></_>
    <_>
      <rect>
        0 0 2 3</rect></_>
    <_>
      <rect>
        0 0 2 7</rect></_>
    <_>
      <rect>
        0 0 3 2</rect></_>
    <_>
      <rect>
        0 0 3 4</rect></_>
    <_>
      <rect>
        0 0 3 6</rect></_>
    <_>
      <rect>
        0 0 3 7</rect></_>
    <_>
      <rect>
        0 0 4 8</rect></_>
    <_>
      <rect>
        0 0 5 4</rect></_>
    <_>
      <rect>
        0 1 1 1</rect></_>
    <_>
      <rect>
        0 1 1 2</rect></_>
    <_>
      <rect>
        0 1 1 3</rect></_>
    <_>
      <rect>
        0 1 2 2</rect></_>
    <_>
      <rect>
        0 1 2 3</rect></_>
    <_>
      <rect>
        0 1 2 5</rect></_>
    <_>
      <rect>
        0 1 3 2</rect></_>
    <_>
      <rect>
        0 1 4 4</rect></_>
    <_>
      <rect>
        0 1 5 7</rect></_>
    <_>
      <rect>
        0 1 6 3</rect></_>
    <_>
      <rect>
        0 1 6 4</rect></_>
    <_>
      <rect>
        0 1 7 6</rect></_>
    <_>
      <rect>
        0 2 1 7</rect></_>
    <_>
      <rect>
        0 2 2 2</rect></_>
    <_>
      <rect>
        0 2 2 3</rect></_>
    <_>
      <rect>
        0 2 2 5</rect></_>
    <_>
      <rect>
        0 2 3 2</rect></_>
    <_>
      <rect>
        0 2 3 4</rect></_>
    <_>
      <rect>
        0 2 3 6</rect></_>
    <_>
      <rect>
        0 3 1 1</rect></_>
    <_>
      <rect>
        0 3 2 7</rect></_>
    <_>
      <rect>
        0 3 3 2</rect></_>
    <_>
      <rect>
        0 3 4 2</rect></_>
    <_>
      <rect>
        0 4 1 1</rect></_>
    <_>
      <rect>
        0 4 2 1</rect></_>
    <_>
      <rect>
        0 4 3 6</rect></_>
    <_>
      <rect>
        0 4 4 2</rect></_>
    <_>
      <rect>
        0 4 4 6</rect></_>
    <_>
      <rect>
        0 5 2 3</rect></_>
    <_>
      <rect>
        0 5 3 2</rect></_>
    <_>
      <rect>
        0 6 1 1</rect></_>
    <_>
      <rect>
        0 6 2 1</rect></_>
    <_>
      <rect>
        0 6 2 5</rect></_>
    <_>
      <rect>
        0 6 3 2</rect></_>
    <_>
      <rect>
        0 6 3 5</rect></_>
    <_>
      <rect>
        0 6 5 4</rect></_>
    <_>
      <rect>
        0 6 5 5</rect></_>
    <_>
      <rect>
        0 6 5 6</rect></_>
    <_>
      <rect>
        0 6 7 3</rect></_>
    <_>
      <rect>
        0 7 1 1</rect></_>
    <_>
      <rect>
        0 7 2 1</rect></_>
    <_>
      <rect>
        0 7 3 1</rect></_>
    <_>
      <rect>
        0 7 4 3</rect></_>
    <_>
      <rect>
        0 8 2 1</rect></_>
    <_>
      <rect>
        0 8 3 1</rect></_>
    <_>
      <rect>
        0 8 4 5</rect></_>
    <_>
      <rect>
        0 8 7 4</rect></_>
    <_>
      <rect>
        0 9 1 1</rect></_>
    <_>
      <rect>
        0 9 2 1</rect></_>
    <_>
      <rect>
        0 9 8 3</rect></_>
    <_>
      <rect>
        0 11 3 4</rect></_>
    <_>
      <rect>
        0 12 2 2</rect></_>
    <_>
      <rect>
        0 12 3 3</rect></_>
    <_>
      <rect>
        0 12 3 4</rect></_>
    <_>
      <rect>
        0 13 1 1</rect></_>
    <_>
      <rect>
        0 13 1 2</rect></_>
    <_>
      <rect>
        0 13 2 2</rect></_>
    <_>
      <rect>
        0 13 3 2</rect></_>
    <_>
      <rect>
        0 14 1 2</rect></_>
    <_>
      <rect>
        0 15 1 2</rect></_>
    <_>
      <rect>
        0 15 8 3</rect></_>
    <_>
      <rect>
        0 16 1 2</rect></_>
    <_>
      <rect>
        0 16 4 2</rect></_>
    <_>
      <rect>
        0 21 1 1</rect></_>
    <_>
      <rect>
        1 0 1 1</rect></_>
    <_>
      <rect>
        1 0 1 2</rect></_>
    <_>
      <rect>
        1 0 1 5</rect></_>
    <_>
      <rect>
        1 0 2 1</rect></_>
    <_>
      <rect>
        1 0 2 2</rect></_>
    <_>
      <rect>
        1 0 2 3</rect></_>
    <_>
      <rect>
        1 0 3 2</rect></_>
    <_>
      <rect>
        1 0 4 4</rect></_>
    <_>
      <rect>
        1 0 5 7</rect></_>
    <_>
      <rect>
        1 0 7 2</rect></_>
    <_>
      <rect>
        1 1 1 1</rect></_>
    <_>
      <rect>
        1 1 1 2</rect></_>
    <_>
      <rect>
        1 1 2 2</rect></_>
    <_>
      <rect>
        1 1 3 1</rect></_>
    <_>
      <rect>
        1 1 3 2</rect></_>
    <_>
      <rect>
        1 1 3 5</rect></_>
    <_>
      <rect>
        1 2 1 1</rect></_>
    <_>
      <rect>
        1 2 2 2</rect></_>
    <_>
      <rect>
        1 3 7 7</rect></_>
    <_>
      <rect>
        1 4 6 4</rect></_>
    <_>
      <rect>
        1 5 1 1</rect></_>
    <_>
      <rect>
        1 5 4 2</rect></_>
    <_>
      <rect>
        1 6 1 1</rect></_>
    <_>
      <rect>
        1 6 2 1</rect></_>
    <_>
      <rect>
        1 6 5 2</rect></_>
    <_>
      <rect>
        1 7 2 1</rect></_>
    <_>
      <rect>
        1 9 2 2</rect></_>
    <_>
      <rect>
        1 9 2 4</rect></_>
    <_>
      <rect>
        1 10 2 2</rect></_>
    <_>
      <rect>
        1 12 2 3</rect></_>
    <_>
      <rect>
        1 13 2 2</rect></_>
    <_>
      <rect>
        1 15 1 2</rect></_>
    <_>
      <rect>
        1 18 1 2</rect></_>
    <_>
      <rect>
        1 18 6 2</rect></_>
    <_>
      <rect>
        2 0 1 1</rect></_>
    <_>
      <rect>
        2 0 1 2</rect></_>
    <_>
      <rect>
        2 0 1 3</rect></_>
    <_>
      <rect>
        2 0 1 4</rect></_>
    <_>
      <rect>
        2 0 1 5</rect></_>
    <_>
      <rect>
        2 0 2 2</rect></_>
    <_>
      <rect>
        2 0 2 3</rect></_>
    <_>
      <rect>
        2 0 3 2</rect></_>
    <_>
      <rect>
        2 1 1 1</rect></_>
    <_>
      <rect>
        2 1 1 2</rect></_>
    <_>
      <rect>
        2 1 2 2</rect></_>
    <_>
      <rect>
        2 2 2 1</rect></_>
    <_>
      <rect>
        2 2 2 2</rect></_>
    <_>
      <rect>
        2 2 2 3</rect></_>
    <_>
      <rect>
        2 4 1 1</rect></_>
    <_>
      <rect>
        2 5 3 3</rect></_>
    <_>
      <rect>
        2 6 2 1</rect></_>
    <_>
      <rect>
        2 6 2 2</rect></_>
    <_>
      <rect>
        2 10 3 3</rect></_>
    <_>
      <rect>
        2 12 7 4</rect></_>
    <_>
      <rect>
        2 15 1 3</rect></_>
    <_>
      <rect>
        3 0 1 1</rect></_>
    <_>
      <rect>
        3 0 1 2</rect></_>
    <_>
      <rect>
        3 0 1 3</rect></_>
    <_>
      <rect>
        3 0 2 2</rect></_>
    <_>
      <rect>
        3 0 2 4</rect></_>
    <_>
      <rect>
        3 0 4 2</rect></_>
    <_>
      <rect>
        3 0 4 3</rect></_>
    <_>
      <rect>
        3 1 1 1</rect></_>
    <_>
      <rect>
        3 1 2 2</rect></_>
    <_>
      <rect>
        3 1 3 2</rect></_>
    <_>
      <rect>
        3 2 1 1</rect></_>
    <_>
      <rect>
        3 2 2 2</rect></_>
    <_>
      <rect>
        3 3 1 1</rect></_>
    <_>
      <rect>
        3 3 1 2</rect></_>
    <_>
      <rect>
        3 3 2 1</rect></_>
    <_>
      <rect>
        3 4 1 1</rect></_>
    <_>
      <rect>
        3 4 2 1</rect></_>
    <_>
      <rect>
        3 4 2 3</rect></_>
    <_>
      <rect>
        3 4 6 5</rect></_>
    <_>
      <rect>
        3 4 7 4</rect></_>
    <_>
      <rect>
        3 5 2 1</rect></_>
    <_>
      <rect>
        3 5 2 3</rect></_>
    <_>
      <rect>
        3 6 1 1</rect></_>
    <_>
      <rect>
        3 6 2 1</rect></_>
    <_>
      <rect>
        3 6 3 2</rect></_>
    <_>
      <rect>
        3 6 4 6</rect></_>
    <_>
      <rect>
        3 6 7 6</rect></_>
    <_>
      <rect>
        3 7 4 4</rect></_>
    <_>
      <rect>
        3 8 3 3</rect></_>
    <_>
      <rect>
        3 9 3 3</rect></_>
    <_>
      <rect>
        3 9 6 5</rect></_>
    <_>
      <rect>
        3 15 3 3</rect></_>
    <_>
      <rect>
        4 0 1 1</rect></_>
    <_>
      <rect>
        4 0 1 2</rect></_>
    <_>
      <rect>
        4 0 1 3</rect></_>
    <_>
      <rect>
        4 1 1 1</rect></_>
    <_>
      <rect>
        4 1 1 2</rect></_>
    <_>
      <rect>
        4 1 2 2</rect></_>
    <_>
      <rect>
        4 2 1 1</rect></_>
    <_>
      <rect>
        4 2 1 3</rect></_>
    <_>
      <rect>
        4 3 1 1</rect></_>
    <_>
      <rect>
        4 3 3 3</rect></_>
    <_>
      <rect>
        4 3 6 4</rect></_>
    <_>
      <rect>
        4 3 6 5</rect></_>
    <_>
      <rect>
        4 4 2 1</rect></_>
    <_>
      <rect>
        4 4 2 3</rect></_>
    <_>
      <rect>
        4 4 3 5</rect></_>
    <_>
      <rect>
        4 5 1 1</rect></_>
    <_>
      <rect>
        4 5 2 1</rect></_>
    <_>
      <rect>
        4 6 2 3</rect></_>
    <_>
      <rect>
        5 0 1 1</rect></_>
    <_>
      <rect>
        5 0 1 2</rect></_>
    <_>
      <rect>
        5 0 1 3</rect></_>
    <_>
      <rect>
        5 0 2 2</rect></_>
    <_>
      <rect>
        5 1 1 2</rect></_>
    <_>
      <rect>
        5 2 1 2</rect></_>
    <_>
      <rect>
        5 3 1 1</rect></_>
    <_>
      <rect>
        5 4 1 1</rect></_>
    <_>
      <rect>
        5 4 2 5</rect></_>
    <_>
      <rect>
        5 5 1 1</rect></_>
    <_>
      <rect>
        5 12 2 3</rect></_>
    <_>
      <rect>
        6 0 1 1</rect></_>
    <_>
      <rect>
        6 0 1 2</rect></_>
    <_>
      <rect>
        6 0 1 3</rect></_>
    <_>
      <rect>
        6 0 2 6</rect></_>
    <_>
      <rect>
        6 0 3 7</rect></_>
    <_>
      <rect>
        6 1 1 1</rect></_>
    <_>
      <rect>
        6 1 1 2</rect></_>
    <_>
      <rect>
        6 2 1 1</rect></_>
    <_>
      <rect>
        6 2 1 3</rect></_>
    <_>
      <rect>
        6 2 3 3</rect></_>
    <_>
      <rect>
        6 2 5 4</rect></_>
    <_>
      <rect>
        6 3 1 1</rect></_>
    <_>
      <rect>
        6 3 1 2</rect></_>
    <_>
      <rect>
        6 3 2 2</rect></_>
    <_>
      <rect>
        6 3 4 7</rect></_>
    <_>
      <rect>
        6 3 5 3</rect></_>
    <_>
      <rect>
        6 4 4 3</rect></_>
    <_>
      <rect>
        6 5 4 3</rect></_>
    <_>
      <rect>
        6 9 6 5</rect></_>
    <_>
      <rect>
        7 0 1 1</rect></_>
    <_>
      <rect>
        7 0 1 2</rect></_>
    <_>
      <rect>
        7 0 1 3</rect></_>
    <_>
      <rect>
        7 0 1 5</rect></_>
    <_>
      <rect>
        7 1 3 7</rect></_>
    <_>
      <rect>
        7 3 1 1</rect></_>
    <_>
      <rect>
        7 4 3 6</rect></_>
    <_>
      <rect>
        7 4 4 4</rect></_>
    <_>
      <rect>
        7 5 2 4</rect></_>
    <_>
      <rect>
        7 5 4 5</rect></_>
    <_>
      <rect>
        7 8 2 4</rect></_>
    <_>
      <rect>
        8 0 1 2</rect></_>
    <_>
      <rect>
        8 0 1 3</rect></_>
    <_>
      <rect>
        8 0 2 6</rect></_>
    <_>
      <rect>
        8 0 4 3</rect></_>
    <_>
      <rect>
        8 0 5 6</rect></_>
    <_>
      <rect>
        8 0 5 8</rect></_>
    <_>
      <rect>
        8 1 1 1</rect></_>
    <_>
      <rect>
        8 3 1 1</rect></_>
    <_>
      <rect>
        8 6 3 5</rect></_>
    <_>
      <rect>
        9 0 1 1</rect></_>
    <_>
      <rect>
        9 0 1 2</rect></_>
    <_>
      <rect>
        9 0 1 4</rect></_>
    <_>
      <rect>
        9 0 2 5</rect></_>
    <_>
      <rect>
        9 0 3 4</rect></_>
    <_>
      <rect>
        10 10 3 4</rect></_>
    <_>
      <rect>
        11 4 3 3</rect></_>
    <_>
      <rect>
        12 0 4 4</rect></_>
    <_>
      <rect>
        12 1 2 2</rect></_>
    <_>
      <rect>
        15 1 3 2</rect></_>
    <_>
      <rect>
        15 3 3 3</rect></_>
    <_>
      <rect>
        15 9 3 4</rect></_>
    <_>
      <rect>
        16 5 2 3</rect></_>
    <_>
      <rect>
        20 13 1 3</rect></_></features></cascade>
</opencv_storage>
