<?xml version="1.0"?>
<opencv_storage>
<stage9>
  <maxWeakCount>37</maxWeakCount>
  <stageThreshold>-9.0601485967636108e-01</stageThreshold>
  <weakClassifiers>
    <_>
      <internalNodes>
        0 -1 1383 -1048833 -29507 -536912387 -40963 -536883729
        -1073804235 -571515395 -294913</internalNodes>
      <leafValues>
        -3.7444239854812622e-01 4.4747570157051086e-01</leafValues></_>
    <_>
      <internalNodes>
        0 -1 2669 -993021985 -585383718 -201063336 -183513892 -390206881
        590529219 153029103 1532989391</internalNodes>
      <leafValues>
        -3.8821065425872803e-01 4.0066248178482056e-01</leafValues></_>
    <_>
      <internalNodes>
        0 -1 806 -1056844419 -104853487 -1920606885 -585826017
        -1498625891 -642578195 -1999929344 -318839319</internalNodes>
      <leafValues>
        -3.6800599098205566e-01 3.6087974905967712e-01</leafValues></_>
    <_>
      <internalNodes>
        0 -1 3864 -340525253 -126144208 -537034884 -848339627
        -1147027526 -272892112 660524510 -671091233</internalNodes>
      <leafValues>
        -2.4298487603664398e-01 4.2976686358451843e-01</leafValues></_>
    <_>
      <internalNodes>
        0 -1 1493 1778815333 -905508301 59419889 -1081569726 -930173781
        -1438874842 504547595 1380558987</internalNodes>
      <leafValues>
        -4.0261781215667725e-01 2.3880237340927124e-01</leafValues></_>
    <_>
      <internalNodes>
        0 -1 131 -1570963658 -1038876664 -1060777664 1628135435
        -1601810017 -1073709016 317339885 1854038405</internalNodes>
      <leafValues>
        -4.9693477153778076e-01 2.0572584867477417e-01</leafValues></_>
    <_>
      <internalNodes>
        0 -1 792 -17324068 -17613825 1006550766 -88949846 -8445963
        1647671167 -608018 -138421573</internalNodes>
      <leafValues>
        -2.3863017559051514e-01 4.4262161850929260e-01</leafValues></_>
    <_>
      <internalNodes>
        0 -1 7544 -645806385 263209236 -788148068 1610860058 -641801963
        1365650444 -1064502508 860470044</internalNodes>
      <leafValues>
        -3.6667948961257935e-01 2.9851600527763367e-01</leafValues></_>
    <_>
      <internalNodes>
        0 -1 2816 -783231925 -2002681840 1417988138 1212235776
        2065626016 -343354408 1252806728 1205147781</internalNodes>
      <leafValues>
        -4.1650721430778503e-01 2.4931375682353973e-01</leafValues></_>
    <_>
      <internalNodes>
        0 -1 4325 1141440910 539517314 1166562160 -448723832 455828171
        151302795 -1626242672 1365961230</internalNodes>
      <leafValues>
        -5.3839260339736938e-01 1.8847079575061798e-01</leafValues></_>
    <_>
      <internalNodes>
        0 -1 356 -1985416137 1904445691 -2097147258 -2020181310
        547916416 -2129706934 -1536993597 -695854939</internalNodes>
      <leafValues>
        -3.2511872053146362e-01 3.1190767884254456e-01</leafValues></_>
    <_>
      <internalNodes>
        0 -1 736 -305147481 1398214813 -1319761842 -1027452726
        -784157696 306718721 -1316640653 -1313361723</internalNodes>
      <leafValues>
        -3.2646995782852173e-01 3.1622675061225891e-01</leafValues></_>
    <_>
      <internalNodes>
        0 -1 2435 -820886676 1436059742 1344448622 575281179 738666615
        1276596568 -779359446 -289217564</internalNodes>
      <leafValues>
        -3.6263221502304077e-01 2.9286831617355347e-01</leafValues></_>
    <_>
      <internalNodes>
        0 -1 5256 -878951540 -998010726 -1851637504 -420841696 441456752
        553853121 988020841 426138380</internalNodes>
      <leafValues>
        -4.6982696652412415e-01 2.1180890500545502e-01</leafValues></_>
    <_>
      <internalNodes>
        0 -1 6202 354627148 -220888950 -1811562340 -2147003704
        -1144290815 1338737251 -1547387938 -1292427124</internalNodes>
      <leafValues>
        -3.5313150286674500e-01 2.7538543939590454e-01</leafValues></_>
    <_>
      <internalNodes>
        0 -1 745 -1778105898 26493137 537919903 1093425157 -2146950573
        -2066871879 -1391704357 505433115</internalNodes>
      <leafValues>
        -4.1881108283996582e-01 2.4672839045524597e-01</leafValues></_>
    <_>
      <internalNodes>
        0 -1 3821 623319018 -1986740032 -1069462632 1841762567
        -1055167494 185254019 219501001 1026108157</internalNodes>
      <leafValues>
        -5.4403412342071533e-01 1.6538885235786438e-01</leafValues></_>
    <_>
      <internalNodes>
        0 -1 3646 1649096309 30873875 4194703 -679272256 1904873664
        1180696768 -383778904 1243814366</internalNodes>
      <leafValues>
        -3.3154764771461487e-01 3.0795878171920776e-01</leafValues></_>
    <_>
      <internalNodes>
        0 -1 2371 -377472974 -2133376971 -1200993358 -208461692
        -876434106 612672642 -921788300 533626509</internalNodes>
      <leafValues>
        -3.6257109045982361e-01 2.9396134614944458e-01</leafValues></_>
    <_>
      <internalNodes>
        0 -1 1232 745455359 1014606078 -223609095 -552325522 -42074297
        2002069365 -138561736 -404401633</internalNodes>
      <leafValues>
        -2.8349146246910095e-01 3.5595679283142090e-01</leafValues></_>
    <_>
      <internalNodes>
        0 -1 596 1274282444 2085093262 1073581807 -583180834 -713169467
        2002548693 -426065923 -1249440214</internalNodes>
      <leafValues>
        -3.1112509965896606e-01 3.4488618373870850e-01</leafValues></_>
    <_>
      <internalNodes>
        0 -1 2878 -1853702127 -1404420080 1074331652 -645595135
        -1556905381 50466818 1233295833 1606130093</internalNodes>
      <leafValues>
        -4.8984575271606445e-01 2.1817882359027863e-01</leafValues></_>
    <_>
      <internalNodes>
        0 -1 2334 -2082810917 542482474 -887909767 -805212284 1636037122
        1234831372 1453101930 1588878338</internalNodes>
      <leafValues>
        -3.6663243174552917e-01 3.0231186747550964e-01</leafValues></_>
    <_>
      <internalNodes>
        0 -1 2 944712984 1405424228 84164638 285515793 -741924320
        1133445248 272892115 -255540881</internalNodes>
      <leafValues>
        -4.7610589861869812e-01 2.3514203727245331e-01</leafValues></_>
    <_>
      <internalNodes>
        0 -1 1346 380471749 -1910267327 1124274334 1757859979 1485042247
        310607877 -1064988639 1119830540</internalNodes>
      <leafValues>
        -4.1564682126045227e-01 2.6528301835060120e-01</leafValues></_>
    <_>
      <internalNodes>
        0 -1 7442 32998750 1576365805 -572244928 -1027888210 133997680
        -1334657051 1872574436 -691801558</internalNodes>
      <leafValues>
        -3.2245194911956787e-01 3.5223156213760376e-01</leafValues></_>
    <_>
      <internalNodes>
        0 -1 3404 772645672 1360010806 -1056945530 -924372470 -534765418
        -333971250 1952213530 1741494721</internalNodes>
      <leafValues>
        -4.0317258238792419e-01 2.7543658018112183e-01</leafValues></_>
    <_>
      <internalNodes>
        0 -1 4824 33857926 90177799 -1585410048 1613140171 -1815985233
        1151008792 -128322688 344304353</internalNodes>
      <leafValues>
        -6.2652015686035156e-01 1.7331051826477051e-01</leafValues></_>
    <_>
      <internalNodes>
        0 -1 3966 458089604 277648597 -1324839907 2139627792 -1349881724
        638305293 683884928 375885623</internalNodes>
      <leafValues>
        -4.5586377382278442e-01 2.2377966344356537e-01</leafValues></_>
    <_>
      <internalNodes>
        0 -1 3893 -1984085457 -159777876 1652181711 -395235744
        2109740435 1062336510 -1770035624 -1379582247</internalNodes>
      <leafValues>
        -3.0303454399108887e-01 3.6583569645881653e-01</leafValues></_>
    <_>
      <internalNodes>
        0 -1 1389 -1082196299 -32897 -1082983773 -1683048586 -787623
        -1061617893 -210247991 -583942305</internalNodes>
      <leafValues>
        -2.6462468504905701e-01 3.8328197598457336e-01</leafValues></_>
    <_>
      <internalNodes>
        0 -1 1942 406924194 -389431100 -1065279360 -2096102230
        -1878463677 -1068916736 592091978 1225460236</internalNodes>
      <leafValues>
        -4.0297096967697144e-01 2.6370549201965332e-01</leafValues></_>
    <_>
      <internalNodes>
        0 -1 2088 -2012501167 -116713893 117629211 -1976809475
        -1598028160 -634910696 -2130415078 306694824</internalNodes>
      <leafValues>
        -4.2263060808181763e-01 2.6269558072090149e-01</leafValues></_>
    <_>
      <internalNodes>
        0 -1 366 -431466531 190114726 2080355840 -302057486 -1363322300
        -1070334990 -950566708 702086493</internalNodes>
      <leafValues>
        -3.1303083896636963e-01 3.4915357828140259e-01</leafValues></_>
    <_>
      <internalNodes>
        0 -1 2400 -850597079 1363313626 -1951814678 559031251
        -1970579115 763429038 -1020337065 727775842</internalNodes>
      <leafValues>
        -3.9972358942031860e-01 2.7387318015098572e-01</leafValues></_>
    <_>
      <internalNodes>
        0 -1 8356 -395467345 -348164308 -1363264410 1115924415
        1694249989 1095663558 -1327044794 -1012148309</internalNodes>
      <leafValues>
        -1.9741725921630859e-01 5.4975849390029907e-01</leafValues></_>
    <_>
      <internalNodes>
        0 -1 841 958209671 -779091569 536987644 1342198104 -1071362323
        -2147473406 -1061115752 -263210102</internalNodes>
      <leafValues>
        -3.4531185030937195e-01 3.2894220948219299e-01</leafValues></_></weakClassifiers></stage9>
</opencv_storage>
