<?xml version="1.0"?>
<opencv_storage>
<stage6>
  <maxWeakCount>44</maxWeakCount>
  <stageThreshold>-8.6589378118515015e-01</stageThreshold>
  <weakClassifiers>
    <_>
      <internalNodes>
        0 -1 2026 -134220833 -204484130 -1842757352 -3161621 -135202052
        -382713780 -296682693 -2098193</internalNodes>
      <leafValues>
        -5.9059584140777588e-01 2.8105840086936951e-01</leafValues></_>
    <_>
      <internalNodes>
        0 -1 2185 -973119693 -6351717 1443369971 -1249591137 -7823478
        -615921238 -406259830 1998768300</internalNodes>
      <leafValues>
        -5.0917583703994751e-01 2.7151292562484741e-01</leafValues></_>
    <_>
      <internalNodes>
        0 -1 4326 -33555017 -1153766544 2111241653 -43320015 859504638
        993148796 1430216159 -145228449</internalNodes>
      <leafValues>
        -3.3426257967948914e-01 3.6824560165405273e-01</leafValues></_>
    <_>
      <internalNodes>
        0 -1 18 -896537179 -12091537 1603294705 -30422299 -1984248523
        -410047681 -654456047 -1016356299</internalNodes>
      <leafValues>
        -4.8996821045875549e-01 2.3099353909492493e-01</leafValues></_>
    <_>
      <internalNodes>
        0 -1 139 -99992140 -1969209484 -16793745 -129 -1574192745
        -1413611657 2080341951 -2617</internalNodes>
      <leafValues>
        -3.1373828649520874e-01 3.8248068094253540e-01</leafValues></_>
    <_>
      <internalNodes>
        0 -1 1492 -2074095087 -552713188 -1043480334 -595572540
        -19092310 -594016097 -623187286 268982952</internalNodes>
      <leafValues>
        -3.8369241356849670e-01 2.6537016034126282e-01</leafValues></_>
    <_>
      <internalNodes>
        0 -1 3270 -790846667 -1814048463 1183052254 -975547999
        -1171079366 -1248865920 990960858 -75674675</internalNodes>
      <leafValues>
        -3.8738381862640381e-01 2.5864711403846741e-01</leafValues></_>
    <_>
      <internalNodes>
        0 -1 3288 -889208097 314448478 -1207978500 1870653056 -79954049
        -147865669 -1774892475 -476152374</internalNodes>
      <leafValues>
        -2.6095026731491089e-01 3.7730252742767334e-01</leafValues></_>
    <_>
      <internalNodes>
        0 -1 539 1960290183 1861969847 -275128322 -29528098 -403179825
        1064421311 -700132 -4084001</internalNodes>
      <leafValues>
        -1.9987350702285767e-01 4.2533481121063232e-01</leafValues></_>
    <_>
      <internalNodes>
        0 -1 1000 1146463534 -1436658600 21983 -174538671 -1937013878
        -1971074645 818635728 -607206310</internalNodes>
      <leafValues>
        -4.4870010018348694e-01 2.1774238348007202e-01</leafValues></_>
    <_>
      <internalNodes>
        0 -1 65 -1418282956 -254329579 -1580200675 969030499 -263322332
        813846699 -1327023906 -1144784869</internalNodes>
      <leafValues>
        -4.8594734072685242e-01 1.9736887514591217e-01</leafValues></_>
    <_>
      <internalNodes>
        0 -1 1389 -925103905 -1671479087 -1906434093 498041326
        -1426822199 -2135102949 -1601118125 2015184959</internalNodes>
      <leafValues>
        -4.1143098473548889e-01 2.1939745545387268e-01</leafValues></_>
    <_>
      <internalNodes>
        0 -1 2864 502716704 480235582 1046178032 1045786116 2023361330
        555182220 1513889436 50612004</internalNodes>
      <leafValues>
        -5.3610682487487793e-01 1.8287077546119690e-01</leafValues></_>
    <_>
      <internalNodes>
        0 -1 2669 -5275649 -1363181704 -1352580 2127527336 -4622338
        1159266290 -1613095457 -807432194</internalNodes>
      <leafValues>
        -2.3349750041961670e-01 4.0506714582443237e-01</leafValues></_>
    <_>
      <internalNodes>
        0 -1 3885 -140828632 1632030842 -1668329492 572952400 1175338215
        625870239 2020475120 1088638624</internalNodes>
      <leafValues>
        -4.9026483297348022e-01 2.0344160497188568e-01</leafValues></_>
    <_>
      <internalNodes>
        0 -1 425 972841479 -529005950 -912452081 -226685956 -2053379249
        -206838965 2074589037 1743120642</internalNodes>
      <leafValues>
        -3.6477583646774292e-01 2.4693953990936279e-01</leafValues></_>
    <_>
      <internalNodes>
        0 -1 1384 1218343918 -1610412884 1344558353 -2121727812
        -1827740799 -1610217423 -1358220023 -315654923</internalNodes>
      <leafValues>
        -4.2423570156097412e-01 2.1643663942813873e-01</leafValues></_>
    <_>
      <internalNodes>
        0 -1 511 -512234871 -279227819 -578988193 1042232346 600308909
        363479736 -1258850580 1735076533</internalNodes>
      <leafValues>
        -3.0416855216026306e-01 2.9821947216987610e-01</leafValues></_>
    <_>
      <internalNodes>
        0 -1 4786 -958551236 -1618365732 -1689560228 -275254452
        1527551471 -1677156216 2042950073 -897715201</internalNodes>
      <leafValues>
        -3.1376641988754272e-01 3.0321502685546875e-01</leafValues></_>
    <_>
      <internalNodes>
        0 -1 689 -1314056980 -606424933 -1274984660 -831999814
        -1408375499 -476397378 -1687930483 1719615815</internalNodes>
      <leafValues>
        -3.8003447651863098e-01 2.5938835740089417e-01</leafValues></_>
    <_>
      <internalNodes>
        0 -1 183 -1654778320 1600012410 -846603687 1506918872 1881483448
        1815742634 541236453 1980301730</internalNodes>
      <leafValues>
        -5.3924179077148438e-01 1.8435589969158173e-01</leafValues></_>
    <_>
      <internalNodes>
        0 -1 383 784467244 -313520106 -1455075126 -266580561 -1074803053
        -1861507761 766835405 1584674439</internalNodes>
      <leafValues>
        -5.6467044353485107e-01 1.5920919179916382e-01</leafValues></_>
    <_>
      <internalNodes>
        0 -1 7104 1473716296 -1946205859 321063004 1905690826 256773191
        589590083 -1067424764 620193516</internalNodes>
      <leafValues>
        -4.2561048269271851e-01 2.1208164095878601e-01</leafValues></_>
    <_>
      <internalNodes>
        0 -1 1719 1052928830 -355461974 -753918448 1977174119
        -1019624692 -897154610 1426551795 1470260149</internalNodes>
      <leafValues>
        -4.4574588537216187e-01 2.0566621422767639e-01</leafValues></_>
    <_>
      <internalNodes>
        0 -1 2969 -1885628293 -1756249506 -1417508216 -694163602
        -1549058362 -173246003 -1104503536 1055521537</internalNodes>
      <leafValues>
        -3.1672546267509460e-01 2.9306450486183167e-01</leafValues></_>
    <_>
      <internalNodes>
        0 -1 1300 -2043922332 -1129576396 50977612 -360394020 1456067078
        1937768490 -32850039 585368576</internalNodes>
      <leafValues>
        -6.1276680231094360e-01 1.5522395074367523e-01</leafValues></_>
    <_>
      <internalNodes>
        0 -1 2137 1138011489 -81850622 139014201 304623503 -342903760
        -1908178536 -1970449941 509192328</internalNodes>
      <leafValues>
        -4.1175454854965210e-01 2.0687741041183472e-01</leafValues></_>
    <_>
      <internalNodes>
        0 -1 1683 236728100 1421408434 151882546 1667824583 406730436
        1840415126 1249206910 248816258</internalNodes>
      <leafValues>
        -4.9526655673980713e-01 1.8292222917079926e-01</leafValues></_>
    <_>
      <internalNodes>
        0 -1 1631 -1726641742 -1962803192 1375759282 272631307
        -208950297 -880002612 1368584613 1444829386</internalNodes>
      <leafValues>
        -5.6710880994796753e-01 1.6028778254985809e-01</leafValues></_>
    <_>
      <internalNodes>
        0 -1 3402 -186267619 441547541 1786938444 -486678329 563327645
        -208698960 428763726 -2031292648</internalNodes>
      <leafValues>
        -2.9924696683883667e-01 3.1254315376281738e-01</leafValues></_>
    <_>
      <internalNodes>
        0 -1 736 -570498098 844531379 -1030436086 -498937696 -1299461863
        1696399382 -435597208 -1288180995</internalNodes>
      <leafValues>
        -3.8307389616966248e-01 2.3620805144309998e-01</leafValues></_>
    <_>
      <internalNodes>
        0 -1 3268 -519557111 -343064448 1213399266 -370290234 345115358
        11174463 -1142033932 1087257556</internalNodes>
      <leafValues>
        -5.1275330781936646e-01 1.7650891840457916e-01</leafValues></_>
    <_>
      <internalNodes>
        0 -1 728 1626732834 -263036909 -1068136114 -1936534643
        1909603123 1680408714 1842035503 -185622566</internalNodes>
      <leafValues>
        -3.1511980295181274e-01 3.0737963318824768e-01</leafValues></_>
    <_>
      <internalNodes>
        0 -1 2911 -1026806484 1473371255 1971495690 1432446277
        -1188706640 -256830848 -1279167372 -1302638003</internalNodes>
      <leafValues>
        -4.0377950668334961e-01 2.3821352422237396e-01</leafValues></_>
    <_>
      <internalNodes>
        0 -1 799 89251700 -1829044007 4510386 -233077580 1170780882
        -1874239333 -1412503603 1880512271</internalNodes>
      <leafValues>
        -3.9920487999916077e-01 2.2970330715179443e-01</leafValues></_>
    <_>
      <internalNodes>
        0 -1 461 955783184 -1126688367 1082660365 1030755312 2030218114
        -73904077 751383203 749265536</internalNodes>
      <leafValues>
        -4.9376413226127625e-01 1.8706959486007690e-01</leafValues></_>
    <_>
      <internalNodes>
        0 -1 342 -829685664 2115796918 21014531 427852610 -1366315854
        2123989064 738866122 157290580</internalNodes>
      <leafValues>
        -5.9072440862655640e-01 1.4946828782558441e-01</leafValues></_>
    <_>
      <internalNodes>
        0 -1 4365 2012053415 -1163346400 1844969073 -21626896 -542378086
        386039666 1331590493 -810838541</internalNodes>
      <leafValues>
        -2.9300600290298462e-01 3.1732469797134399e-01</leafValues></_>
    <_>
      <internalNodes>
        0 -1 5 -168558657 -1376813731 805289901 1057878537 -1073744419
        937301773 -1346603011 -3513</internalNodes>
      <leafValues>
        -1.5245617926120758e-01 6.3172698020935059e-01</leafValues></_>
    <_>
      <internalNodes>
        0 -1 3363 1008919054 1347576634 -265131638 1040937368
        -1190743266 2136197272 -1924314803 656607817</internalNodes>
      <leafValues>
        -4.2697075009346008e-01 2.3900240659713745e-01</leafValues></_>
    <_>
      <internalNodes>
        0 -1 5300 2012299302 -1534869163 -925920022 -1397923821
        186122834 537070296 697715575 543297940</internalNodes>
      <leafValues>
        -5.2045053243637085e-01 1.9724644720554352e-01</leafValues></_>
    <_>
      <internalNodes>
        0 -1 1583 2033195776 8143248 843901132 -775155572 1778387948
        -896923492 680430316 497680840</internalNodes>
      <leafValues>
        -6.8979161977767944e-01 1.3188157975673676e-01</leafValues></_>
    <_>
      <internalNodes>
        0 -1 6617 391094904 -801662510 251843612 -1630965114 -1803030009
        -1547009809 -1291867426 -1238509835</internalNodes>
      <leafValues>
        -3.5123705863952637e-01 3.1042754650115967e-01</leafValues></_>
    <_>
      <internalNodes>
        0 -1 271 166415787 -2146786522 2080370625 -1772587213 -507905542
        -139152730 -1317702671 -1345021364</internalNodes>
      <leafValues>
        -2.7204328775405884e-01 3.4131762385368347e-01</leafValues></_></weakClassifiers></stage6>
</opencv_storage>
