<?xml version="1.0"?>
<opencv_storage>
<stage4>
  <maxWeakCount>31</maxWeakCount>
  <stageThreshold>-1.0770043134689331e+00</stageThreshold>
  <weakClassifiers>
    <_>
      <internalNodes>
        0 -1 1 -17409 -35684353 -1436841222 1069233115 -69522773
        1063987974 -1090801665 -1</internalNodes>
      <leafValues>
        -6.6054785251617432e-01 3.4464597702026367e-01</leafValues></_>
    <_>
      <internalNodes>
        0 -1 740 -1 -58003 -1078116883 -1076947479 -1073758755
        1073683805 2147442101 -32781</internalNodes>
      <leafValues>
        -4.6115103363990784e-01 4.8493915796279907e-01</leafValues></_>
    <_>
      <internalNodes>
        0 -1 17 -673331721 -538141187 -549097165 2138496831 -1931493461
        -1076524498 -236088525 -12592834</internalNodes>
      <leafValues>
        -5.4862886667251587e-01 3.4933188557624817e-01</leafValues></_>
    <_>
      <internalNodes>
        0 -1 3905 -1179403461 -1162107984 -712783398 -11174020
        -1089815554 -1078273318 520279551 1600117246</internalNodes>
      <leafValues>
        -4.4003248214721680e-01 3.7227389216423035e-01</leafValues></_>
    <_>
      <internalNodes>
        0 -1 82 -18973556 -157926949 -740296277 -1177103714 -1431324865
        864010559 267861823 -34663100</internalNodes>
      <leafValues>
        -4.7470259666442871e-01 3.3291894197463989e-01</leafValues></_>
    <_>
      <internalNodes>
        0 -1 792 -2705476 -86363681 -1717767540 -91081830 -83026468
        1194683775 761178348 -1098925057</internalNodes>
      <leafValues>
        -3.8661316037178040e-01 3.5632851719856262e-01</leafValues></_>
    <_>
      <internalNodes>
        0 -1 293 792137484 -1672596434 -784245282 -653967257 -7358534
        -1155811910 496762360 251784290</internalNodes>
      <leafValues>
        -5.6995588541030884e-01 2.5794711709022522e-01</leafValues></_>
    <_>
      <internalNodes>
        0 -1 2680 -1563231173 -526744097 277794109 -728821049 -88885441
        -492818672 1329896717 -806527740</internalNodes>
      <leafValues>
        -4.6332362294197083e-01 2.7278536558151245e-01</leafValues></_>
    <_>
      <internalNodes>
        0 -1 736 -2134554 1903610355 -302002106 -227374344 -117747452
        1426088192 -71441928 -436748886</internalNodes>
      <leafValues>
        -3.5348340868949890e-01 3.4507691860198975e-01</leafValues></_>
    <_>
      <internalNodes>
        0 -1 120 1042227728 -43713 -535780646 -51217670 -1208080500
        2137746461 -1194546994 -277009606</internalNodes>
      <leafValues>
        -4.6605476737022400e-01 2.5780874490737915e-01</leafValues></_>
    <_>
      <internalNodes>
        0 -1 5244 2062240556 1826608013 -373069438 -297123633 319771459
        321363178 -40255200 -155780114</internalNodes>
      <leafValues>
        -5.2879679203033447e-01 2.3446179926395416e-01</leafValues></_>
    <_>
      <internalNodes>
        0 -1 467 888270854 1565537874 -409043092 -50457738 -209724607
        2143148745 2012594046 1475412195</internalNodes>
      <leafValues>
        -4.6233466267585754e-01 2.5650167465209961e-01</leafValues></_>
    <_>
      <internalNodes>
        0 -1 129 -268509700 -1006571367 -390914115 -787222582 1871420765
        -97560391 1072249341 992230832</internalNodes>
      <leafValues>
        -7.7799206972122192e-01 1.5240165591239929e-01</leafValues></_>
    <_>
      <internalNodes>
        0 -1 3772 -270586898 -829505333 -533085312 -292912690
        -1817185675 1351690687 -140254766 1392442367</internalNodes>
      <leafValues>
        -6.5066474676132202e-01 1.6190668940544128e-01</leafValues></_>
    <_>
      <internalNodes>
        0 -1 1723 1701378632 1975035039 197364398 1763244554 -2109236496
        -470970166 -948787044 1697002391</internalNodes>
      <leafValues>
        -5.1342636346817017e-01 2.1779102087020874e-01</leafValues></_>
    <_>
      <internalNodes>
        0 -1 2800 -1388904781 -1048793 2147483441 -151027783 -541147138
        -1886388305 1476367547 -542507521</internalNodes>
      <leafValues>
        -2.5173100829124451e-01 4.8372402787208557e-01</leafValues></_>
    <_>
      <internalNodes>
        0 -1 793 -159924400 -18925708 -251266082 924399131 -1281606774
        2018193672 169589438 467118319</internalNodes>
      <leafValues>
        -4.3357059359550476e-01 2.7886623144149780e-01</leafValues></_>
    <_>
      <internalNodes>
        0 -1 1473 -890355583 -1459694449 -1257808913 -1364207305
        -311236528 -5510989 -1149087289 1979136863</internalNodes>
      <leafValues>
        -4.6305856108665466e-01 2.5843670964241028e-01</leafValues></_>
    <_>
      <internalNodes>
        0 -1 565 -185307442 1861757429 -1730210418 -72565906 2003166551
        1931547117 -1593988184 870660027</internalNodes>
      <leafValues>
        -4.4814866781234741e-01 2.7161854505538940e-01</leafValues></_>
    <_>
      <internalNodes>
        0 -1 3456 -910561859 1946105655 -135344435 1978692464 -394532947
        -155847274 502521292 -620109957</internalNodes>
      <leafValues>
        -2.4689513444900513e-01 4.8155453801155090e-01</leafValues></_>
    <_>
      <internalNodes>
        0 -1 1625 287361553 -745193381 -884778531 -661528193 698609575
        -1472998934 -604702243 -818258499</internalNodes>
      <leafValues>
        -4.6762400865554810e-01 2.7026149630546570e-01</leafValues></_>
    <_>
      <internalNodes>
        0 -1 64 -36258140 -2027971841 -976706866 1993519834 1015742989
        543385607 -1396594743 -1494529553</internalNodes>
      <leafValues>
        -3.7749028205871582e-01 3.2483890652656555e-01</leafValues></_>
    <_>
      <internalNodes>
        0 -1 2677 -1396621382 -1344443683 827666960 517947359 -823134335
        1293901329 -718875950 324353916</internalNodes>
      <leafValues>
        -6.5245705842971802e-01 1.7740745842456818e-01</leafValues></_>
    <_>
      <internalNodes>
        0 -1 14 -285692498 -16385 1572765631 -16908289 -388051026 -49153
        817528779 -137920953</internalNodes>
      <leafValues>
        -3.3541673421859741e-01 3.6499944329261780e-01</leafValues></_>
    <_>
      <internalNodes>
        0 -1 1381 805306364 -8552516 -1083149910 2050702203 -1078215172
        1999796152 1027218586 -4460609</internalNodes>
      <leafValues>
        -3.0504634976387024e-01 4.0790683031082153e-01</leafValues></_>
    <_>
      <internalNodes>
        0 -1 538 2004462575 2129477195 -23 2139062139 1417121247
        1978930871 1602075708 -421021761</internalNodes>
      <leafValues>
        -2.4710552394390106e-01 4.9141702055931091e-01</leafValues></_>
    <_>
      <internalNodes>
        0 -1 2035 -1975075276 1382650328 704831577 -471100917
        -1207821135 988760493 457186653 2046052556</internalNodes>
      <leafValues>
        -7.6726675033569336e-01 1.6925080120563507e-01</leafValues></_>
    <_>
      <internalNodes>
        0 -1 3 1274952908 1491755205 270819600 1525369073 -1311828859
        1900225224 1928973903 -19469</internalNodes>
      <leafValues>
        -4.7897231578826904e-01 2.3927775025367737e-01</leafValues></_>
    <_>
      <internalNodes>
        0 -1 3302 -1495304762 970958967 -108559338 -710138889
        -1888121292 2009198940 -81402876 -201943996</internalNodes>
      <leafValues>
        -4.4908487796783447e-01 2.6849469542503357e-01</leafValues></_>
    <_>
      <internalNodes>
        0 -1 2024 -271331860 -592161981 -1157479446 -86246486 -516721792
        1074241571 -1470424 -1778536053</internalNodes>
      <leafValues>
        -4.1173669695854187e-01 2.8433316946029663e-01</leafValues></_>
    <_>
      <internalNodes>
        0 -1 456 813725376 -74997545 -209596041 -1188429 -103220523
        -643266024 -338023442 -285366778</internalNodes>
      <leafValues>
        -4.0838119387626648e-01 2.9803326725959778e-01</leafValues></_></weakClassifiers></stage4>
</opencv_storage>
