<?xml version="1.0"?>
<opencv_storage>
<stage1>
  <maxWeakCount>18</maxWeakCount>
  <stageThreshold>-1.3372986316680908e+00</stageThreshold>
  <weakClassifiers>
    <_>
      <internalNodes>
        0 -1 3221 -6 -4459622 -875572832 -273948246 -544475141 453765259
        1476383216 -536871429</internalNodes>
      <leafValues>
        -8.2700353860855103e-01 4.5319831371307373e-01</leafValues></_>
    <_>
      <internalNodes>
        0 -1 128 -8913616 -79700617 1970667519 -8392201 -97862215
        -1062727 -46138881 -4194369</internalNodes>
      <leafValues>
        -7.1375918388366699e-01 4.5827254652976990e-01</leafValues></_>
    <_>
      <internalNodes>
        0 -1 3352 -13639774 -1349524573 -782763024 -5245517 -1979876353
        261076907 1370478069 -536873025</internalNodes>
      <leafValues>
        -6.0041636228561401e-01 5.1308912038803101e-01</leafValues></_>
    <_>
      <internalNodes>
        0 -1 737 -134479883 -13402257 -1082283336 858929979 -1086649110
        1060322808 -13334294 -4473925</internalNodes>
      <leafValues>
        -4.2363104224205017e-01 6.4999026060104370e-01</leafValues></_>
    <_>
      <internalNodes>
        0 -1 79 -34098895 -67226306 -1722863309 1061051251 -1141403501
        -1140904961 -1590718189 -1820385410</internalNodes>
      <leafValues>
        -6.9952982664108276e-01 3.9442750811576843e-01</leafValues></_>
    <_>
      <internalNodes>
        0 -1 3394 1068809122 -1347686262 -541853199 -67251235
        -1953580097 260738026 -741616235 -805464085</internalNodes>
      <leafValues>
        -5.4588842391967773e-01 4.8129057884216309e-01</leafValues></_>
    <_>
      <internalNodes>
        0 -1 1023 989395965 -608120376 -1870286337 -50426147 -1165254660
        -90074390 -1074291715 -1073865283</internalNodes>
      <leafValues>
        -5.6323182582855225e-01 4.3910926580429077e-01</leafValues></_>
    <_>
      <internalNodes>
        0 -1 4364 -173073 -1882198102 -16811136 -33554451 369065975
        1163352047 -1795696729 -402671634</internalNodes>
      <leafValues>
        -4.6385398507118225e-01 5.4947638511657715e-01</leafValues></_>
    <_>
      <internalNodes>
        0 -1 295 1686955044 407126805 -726055561 -1727341 715046715
        -39847333 839122831 -1221119385</internalNodes>
      <leafValues>
        -6.1345571279525757e-01 3.9257299900054932e-01</leafValues></_>
    <_>
      <internalNodes>
        0 -1 2024 -4721208 -374378074 -1332621086 954912858 -2063339152
        1078067730 1440723450 -704923142</internalNodes>
      <leafValues>
        -4.9663054943084717e-01 5.1768696308135986e-01</leafValues></_>
    <_>
      <internalNodes>
        0 -1 1493 -14232079 -30574287 420738385 1069239331 -91577941
        -1147426645 1544110585 -586553205</internalNodes>
      <leafValues>
        -5.3008544445037842e-01 4.2434975504875183e-01</leafValues></_>
    <_>
      <internalNodes>
        0 -1 774 -365433050 -1963685214 -1794915953 1049435571 -99353821
        -88198349 151031808 -1082657257</internalNodes>
      <leafValues>
        -5.1256251335144043e-01 4.4181159138679504e-01</leafValues></_>
    <_>
      <internalNodes>
        0 -1 4324 -134369361 -1385371257 -767114296 -456221389
        -212512587 96191168 -202640491 -185075241</internalNodes>
      <leafValues>
        -5.3812336921691895e-01 4.0935510396957397e-01</leafValues></_>
    <_>
      <internalNodes>
        0 -1 9 -580984912 -776326589 1342310451 960181055 -1084292551
        2052738094 623213499 993886015</internalNodes>
      <leafValues>
        -7.0689284801483154e-01 3.1207785010337830e-01</leafValues></_>
    <_>
      <internalNodes>
        0 -1 2725 -219777244 -1478569514 -733527812 -16975377 -16589392
        714795424 1951518169 1063254961</internalNodes>
      <leafValues>
        -6.6881233453750610e-01 2.9801097512245178e-01</leafValues></_>
    <_>
      <internalNodes>
        0 -1 1295 -587203255 -539370023 -939454029 -1232789089
        2102227221 550510439 -739791353 -990946477</internalNodes>
      <leafValues>
        -5.3270286321640015e-01 3.8237977027893066e-01</leafValues></_>
    <_>
      <internalNodes>
        0 -1 2716 -458838 -424677585 -65630 1542094766 -1073775121
        78509565 -134228493 -695730498</internalNodes>
      <leafValues>
        -4.2267829179763794e-01 4.9075829982757568e-01</leafValues></_>
    <_>
      <internalNodes>
        0 -1 3319 -36505848 -1174752321 -1718902636 -589368481
        -1074942814 956340384 1230771420 -1211020818</internalNodes>
      <leafValues>
        -5.2160429954528809e-01 4.1169476509094238e-01</leafValues></_></weakClassifiers></stage1>
</opencv_storage>
