<?xml version="1.0"?>
<opencv_storage>
<stage4>
  <maxWeakCount>21</maxWeakCount>
  <stageThreshold>-8.7484002113342285e-01</stageThreshold>
  <weakClassifiers>
    <_>
      <internalNodes>
        0 -1 2275 -111682630 -882630257 -1023293517 -5660549 -279894
        -1886745462 -172768769 1465909243</internalNodes>
      <leafValues>
        -6.1806607246398926e-01 5.5093216896057129e-01</leafValues></_>
    <_>
      <internalNodes>
        0 -1 2717 -2 -79954064 -4227624 -131592 -1087176710 -1088749584
        1060871615 -12591617</internalNodes>
      <leafValues>
        -4.4611090421676636e-01 5.9028738737106323e-01</leafValues></_>
    <_>
      <internalNodes>
        0 -1 65 -67162320 -539543435 -1116658307 1073691767 -1078320991
        1038039256 -1112064341 -2359825</internalNodes>
      <leafValues>
        -5.3444653749465942e-01 4.3855062127113342e-01</leafValues></_>
    <_>
      <internalNodes>
        0 -1 2227 1025400624 -46298856 194750289 -2840643 -83760272
        -1618238325 359289333 -1647325763</internalNodes>
      <leafValues>
        -6.8553394079208374e-01 2.9714390635490417e-01</leafValues></_>
    <_>
      <internalNodes>
        0 -1 763 -138942189 1403642591 -72723971 -271955221 -349967581
        593914619 -746380540 185328183</internalNodes>
      <leafValues>
        -5.8524072170257568e-01 3.2405808568000793e-01</leafValues></_>
    <_>
      <internalNodes>
        0 -1 421 144512768 -1098376944 394895037 -542043145 -1147148049
        -1147993857 464247231 968694267</internalNodes>
      <leafValues>
        -5.6880199909210205e-01 3.1970521807670593e-01</leafValues></_>
    <_>
      <internalNodes>
        0 -1 3772 -421675538 -810550801 1079218594 -474247057 -613441212
        10518699 -789339438 -167838721</internalNodes>
      <leafValues>
        -5.3274190425872803e-01 2.9739502072334290e-01</leafValues></_>
    <_>
      <internalNodes>
        0 -1 2840 -209993961 -2052855873 1743221805 275015461 -543691264
        1928557932 -865599998 -409226707</internalNodes>
      <leafValues>
        -3.6106091737747192e-01 4.7040152549743652e-01</leafValues></_>
    <_>
      <internalNodes>
        0 -1 3905 -1314868358 -1834837968 -1042820624 -414781340
        -1107108162 -1190927894 453034489 -1080583772</internalNodes>
      <leafValues>
        -5.3128451108932495e-01 3.2998648285865784e-01</leafValues></_>
    <_>
      <internalNodes>
        0 -1 593 -428022648 -355610147 -2143039320 -1899126305 -85105088
        1132757723 -389420473 -1210113329</internalNodes>
      <leafValues>
        -4.8497372865676880e-01 3.6422684788703918e-01</leafValues></_>
    <_>
      <internalNodes>
        0 -1 2025 -12714001 -5603472 -8406216 -537183253 -1078200835
        1429429680 1058943390 -578890561</internalNodes>
      <leafValues>
        -2.9721850156784058e-01 5.6192153692245483e-01</leafValues></_>
    <_>
      <internalNodes>
        0 -1 1534 923339568 -1123302272 491091060 -1187246024
        -1306711052 -1198890949 249242108 1591356328</internalNodes>
      <leafValues>
        -6.9849687814712524e-01 2.4096168577671051e-01</leafValues></_>
    <_>
      <internalNodes>
        0 -1 1681 -629281519 -804110285 -1006580834 938766007 -473973954
        -1161060018 59183454 -942102666</internalNodes>
      <leafValues>
        -4.1756060719490051e-01 3.8042262196540833e-01</leafValues></_>
    <_>
      <internalNodes>
        0 -1 792 -671832 -22135937 -1073811732 -501075270 -1073799860
        1077378911 267815244 -550337</internalNodes>
      <leafValues>
        -3.6520731449127197e-01 4.5753961801528931e-01</leafValues></_>
    <_>
      <internalNodes>
        0 -1 129 -471933443 -749430401 -624830315 -82057058 -5563427
        -357721559 732527607 939408327</internalNodes>
      <leafValues>
        -4.1555100679397583e-01 3.9052736759185791e-01</leafValues></_>
    <_>
      <internalNodes>
        0 -1 807 1304769585 -3274249 156104499 -1722859314 -743922797
        -1299264374 -425205199 1139272205</internalNodes>
      <leafValues>
        -6.9357490539550781e-01 2.6042675971984863e-01</leafValues></_>
    <_>
      <internalNodes>
        0 -1 4215 -336081069 -806879361 -1342312702 -1529417890
        -1671434425 -1034348602 2013108224 -523599269</internalNodes>
      <leafValues>
        -4.0636438131332397e-01 4.4296234846115112e-01</leafValues></_>
    <_>
      <internalNodes>
        0 -1 4786 -673974600 -1283415144 -250666168 1763662813
        -1722116166 941262912 432488556 -58895361</internalNodes>
      <leafValues>
        -4.2435044050216675e-01 3.9968490600585938e-01</leafValues></_>
    <_>
      <internalNodes>
        0 -1 641 -2818356 -352927877 1068318446 -1460670469 2013013792
        1467248511 1072146018 -1208508697</internalNodes>
      <leafValues>
        -3.7511897087097168e-01 4.3479019403457642e-01</leafValues></_>
    <_>
      <internalNodes>
        0 -1 1744 471863302 -1174105968 -2122247075 -77792310 730822747
        -91152254 1048812219 954998220</internalNodes>
      <leafValues>
        -7.1887999773025513e-01 2.3364607989788055e-01</leafValues></_>
    <_>
      <internalNodes>
        0 -1 1492 -53650671 -46245444 -1303587758 -1122827154 -842475126
        -1660333810 -913706241 822935230</internalNodes>
      <leafValues>
        -4.4180551171302795e-01 3.6306279897689819e-01</leafValues></_></weakClassifiers></stage4>
</opencv_storage>
