<?xml version="1.0"?>
<opencv_storage>
<stage1>
  <maxWeakCount>73</maxWeakCount>
  <stageThreshold>-1.0179659128189087e+00</stageThreshold>
  <weakClassifiers>
    <_>
      <internalNodes>
        0 -1 42330 7.8020133078098297e-03</internalNodes>
      <leafValues>
        -3.5693863034248352e-01 6.6163879632949829e-01</leafValues></_>
    <_>
      <internalNodes>
        0 -1 70721 -2.7766292914748192e-03</internalNodes>
      <leafValues>
        6.3807594776153564e-01 -2.1680656075477600e-01</leafValues></_>
    <_>
      <internalNodes>
        0 -1 1265 1.5115199494175613e-04</internalNodes>
      <leafValues>
        -6.0612839460372925e-01 2.3754140734672546e-01</leafValues></_>
    <_>
      <internalNodes>
        0 -1 14641 -1.8664411982172169e-05</internalNodes>
      <leafValues>
        2.1658541262149811e-01 -6.0977268218994141e-01</leafValues></_>
    <_>
      <internalNodes>
        0 -1 49727 1.6710124909877777e-03</internalNodes>
      <leafValues>
        2.1877841651439667e-01 -5.2610921859741211e-01</leafValues></_>
    <_>
      <internalNodes>
        0 -1 154819 -7.0619322359561920e-02</internalNodes>
      <leafValues>
        -9.0376919507980347e-01 6.9081149995326996e-02</leafValues></_>
    <_>
      <internalNodes>
        0 -1 888 -1.4627516269683838e-02</internalNodes>
      <leafValues>
        -6.6602671146392822e-01 1.6048537194728851e-01</leafValues></_>
    <_>
      <internalNodes>
        0 -1 19743 1.1129578575491905e-02</internalNodes>
      <leafValues>
        -2.4817204475402832e-01 3.9179742336273193e-01</leafValues></_>
    <_>
      <internalNodes>
        0 -1 857 -3.5035669803619385e-01</internalNodes>
      <leafValues>
        4.5881986618041992e-01 -1.9157293438911438e-01</leafValues></_>
    <_>
      <internalNodes>
        0 -1 26048 -2.0653048995882273e-03</internalNodes>
      <leafValues>
        -6.2633633613586426e-01 1.4991882443428040e-01</leafValues></_>
    <_>
      <internalNodes>
        0 -1 81527 8.5530700162053108e-03</internalNodes>
      <leafValues>
        -1.2933099269866943e-01 7.0937371253967285e-01</leafValues></_>
    <_>
      <internalNodes>
        0 -1 62079 1.2613849248737097e-03</internalNodes>
      <leafValues>
        -2.0786926150321960e-01 4.4790872931480408e-01</leafValues></_>
    <_>
      <internalNodes>
        0 -1 6670 -1.3397200964391232e-03</internalNodes>
      <leafValues>
        -6.8100625276565552e-01 1.3170318305492401e-01</leafValues></_>
    <_>
      <internalNodes>
        0 -1 5009 2.6283001061528921e-03</internalNodes>
      <leafValues>
        8.1315279006958008e-02 -8.7008154392242432e-01</leafValues></_>
    <_>
      <internalNodes>
        0 -1 14587 -2.3119512479752302e-03</internalNodes>
      <leafValues>
        1.5994174778461456e-01 -3.6939972639083862e-01</leafValues></_>
    <_>
      <internalNodes>
        0 -1 43116 -5.6449435651302338e-03</internalNodes>
      <leafValues>
        4.2584368586540222e-01 -1.7448440194129944e-01</leafValues></_>
    <_>
      <internalNodes>
        0 -1 49575 -4.3796263635158539e-03</internalNodes>
      <leafValues>
        3.4543806314468384e-01 -2.0047922432422638e-01</leafValues></_>
    <_>
      <internalNodes>
        0 -1 60600 2.0760754123330116e-03</internalNodes>
      <leafValues>
        1.1316321790218353e-01 -5.9715670347213745e-01</leafValues></_>
    <_>
      <internalNodes>
        0 -1 80779 -4.3985107913613319e-03</internalNodes>
      <leafValues>
        5.1438933610916138e-01 -1.3780216872692108e-01</leafValues></_>
    <_>
      <internalNodes>
        0 -1 117436 -4.2025177390314639e-04</internalNodes>
      <leafValues>
        -5.7590323686599731e-01 1.0900356620550156e-01</leafValues></_>
    <_>
      <internalNodes>
        0 -1 154231 3.5130318254232407e-02</internalNodes>
      <leafValues>
        9.2422261834144592e-02 -5.9586971998214722e-01</leafValues></_>
    <_>
      <internalNodes>
        0 -1 6078 -3.1401190906763077e-02</internalNodes>
      <leafValues>
        5.4287064075469971e-01 -1.1041145771741867e-01</leafValues></_>
    <_>
      <internalNodes>
        0 -1 26288 -2.6522050611674786e-03</internalNodes>
      <leafValues>
        -5.3954523801803589e-01 1.2016147375106812e-01</leafValues></_>
    <_>
      <internalNodes>
        0 -1 103270 -1.7073210328817368e-03</internalNodes>
      <leafValues>
        -5.1457583904266357e-01 1.0327954590320587e-01</leafValues></_>
    <_>
      <internalNodes>
        0 -1 7515 4.1148904711008072e-03</internalNodes>
      <leafValues>
        -1.2825109064579010e-01 4.8430785536766052e-01</leafValues></_>
    <_>
      <internalNodes>
        0 -1 42329 -1.6208220273256302e-02</internalNodes>
      <leafValues>
        -1.1906372010707855e-01 5.7198476791381836e-01</leafValues></_>
    <_>
      <internalNodes>
        0 -1 26477 -5.7537844404578209e-03</internalNodes>
      <leafValues>
        -6.4167153835296631e-01 1.1474514007568359e-01</leafValues></_>
    <_>
      <internalNodes>
        0 -1 60436 7.9566915519535542e-04</internalNodes>
      <leafValues>
        -1.5836185216903687e-01 4.6963679790496826e-01</leafValues></_>
    <_>
      <internalNodes>
        0 -1 4989 -1.0233774082735181e-03</internalNodes>
      <leafValues>
        -4.7442167997360229e-01 1.1662580072879791e-01</leafValues></_>
    <_>
      <internalNodes>
        0 -1 16380 -5.4981024004518986e-04</internalNodes>
      <leafValues>
        1.3336840271949768e-01 -3.8128536939620972e-01</leafValues></_>
    <_>
      <internalNodes>
        0 -1 5 3.1787999905645847e-03</internalNodes>
      <leafValues>
        -9.3454845249652863e-02 5.7860749959945679e-01</leafValues></_>
    <_>
      <internalNodes>
        0 -1 40699 -5.1561719737946987e-03</internalNodes>
      <leafValues>
        -5.3795200586318970e-01 1.0463150590658188e-01</leafValues></_>
    <_>
      <internalNodes>
        0 -1 42882 6.6489097662270069e-03</internalNodes>
      <leafValues>
        7.2740443050861359e-02 -6.3384395837783813e-01</leafValues></_>
    <_>
      <internalNodes>
        0 -1 53524 -1.9189730286598206e-02</internalNodes>
      <leafValues>
        -9.1015303134918213e-01 4.4785633683204651e-02</leafValues></_>
    <_>
      <internalNodes>
        0 -1 82234 -9.9866509437561035e-02</internalNodes>
      <leafValues>
        -9.6385073661804199e-01 3.6257021129131317e-02</leafValues></_>
    <_>
      <internalNodes>
        0 -1 136958 -8.5012530907988548e-03</internalNodes>
      <leafValues>
        -5.1374930143356323e-01 8.5383415222167969e-02</leafValues></_>
    <_>
      <internalNodes>
        0 -1 108429 -4.7182675451040268e-02</internalNodes>
      <leafValues>
        -3.9235517382621765e-01 1.2043358385562897e-01</leafValues></_>
    <_>
      <internalNodes>
        0 -1 20367 -7.1362834423780441e-03</internalNodes>
      <leafValues>
        7.2014236450195313e-01 -7.0347033441066742e-02</leafValues></_>
    <_>
      <internalNodes>
        0 -1 17189 -2.1141290199011564e-03</internalNodes>
      <leafValues>
        -6.3914716243743896e-01 8.9905552566051483e-02</leafValues></_>
    <_>
      <internalNodes>
        0 -1 51227 -1.4190997462719679e-03</internalNodes>
      <leafValues>
        3.3049181103706360e-01 -1.7667111754417419e-01</leafValues></_>
    <_>
      <internalNodes>
        0 -1 11884 -4.3720449320971966e-04</internalNodes>
      <leafValues>
        -5.6577366590499878e-01 9.0803727507591248e-02</leafValues></_>
    <_>
      <internalNodes>
        0 -1 30652 -7.1794120594859123e-03</internalNodes>
      <leafValues>
        2.2944656014442444e-01 -2.2905300557613373e-01</leafValues></_>
    <_>
      <internalNodes>
        0 -1 5898 5.4939165711402893e-03</internalNodes>
      <leafValues>
        -1.3638862967491150e-01 5.6249535083770752e-01</leafValues></_>
    <_>
      <internalNodes>
        0 -1 8235 3.5126353614032269e-03</internalNodes>
      <leafValues>
        -1.2081773579120636e-01 4.0453767776489258e-01</leafValues></_>
    <_>
      <internalNodes>
        0 -1 70957 1.9125572871416807e-03</internalNodes>
      <leafValues>
        8.4134720265865326e-02 -6.3122779130935669e-01</leafValues></_>
    <_>
      <internalNodes>
        0 -1 134098 -1.8340063095092773e-01</internalNodes>
      <leafValues>
        8.9751213788986206e-01 -7.2978854179382324e-02</leafValues></_>
    <_>
      <internalNodes>
        0 -1 27851 6.4243050292134285e-04</internalNodes>
      <leafValues>
        1.5602138638496399e-01 -3.8903850317001343e-01</leafValues></_>
    <_>
      <internalNodes>
        0 -1 89848 -8.7645845487713814e-03</internalNodes>
      <leafValues>
        6.7888575792312622e-01 -9.2684634029865265e-02</leafValues></_>
    <_>
      <internalNodes>
        0 -1 26997 -6.6405221819877625e-02</internalNodes>
      <leafValues>
        -8.9640438556671143e-01 6.7324571311473846e-02</leafValues></_>
    <_>
      <internalNodes>
        0 -1 49490 1.8213397124782205e-03</internalNodes>
      <leafValues>
        -1.3960966467857361e-01 3.8496023416519165e-01</leafValues></_>
    <_>
      <internalNodes>
        0 -1 109821 -1.6572998138144612e-03</internalNodes>
      <leafValues>
        -4.0783533453941345e-01 1.2692306935787201e-01</leafValues></_>
    <_>
      <internalNodes>
        0 -1 161187 4.4069322757422924e-04</internalNodes>
      <leafValues>
        7.8179121017456055e-02 -5.8982861042022705e-01</leafValues></_>
    <_>
      <internalNodes>
        0 -1 106 2.9849018901586533e-02</internalNodes>
      <leafValues>
        4.6149887144565582e-02 -9.3763643503189087e-01</leafValues></_>
    <_>
      <internalNodes>
        0 -1 102599 6.4536817371845245e-02</internalNodes>
      <leafValues>
        8.1797994673252106e-02 -4.7516086697578430e-01</leafValues></_>
    <_>
      <internalNodes>
        0 -1 50389 -7.6191639527678490e-04</internalNodes>
      <leafValues>
        2.6582837104797363e-01 -1.7895428836345673e-01</leafValues></_>
    <_>
      <internalNodes>
        0 -1 39082 -6.7918107379227877e-04</internalNodes>
      <leafValues>
        -3.4144362807273865e-01 1.4129841327667236e-01</leafValues></_>
    <_>
      <internalNodes>
        0 -1 6664 -1.0013040155172348e-03</internalNodes>
      <leafValues>
        -7.8431141376495361e-01 5.0167318433523178e-02</leafValues></_>
    <_>
      <internalNodes>
        0 -1 1343 -5.1178624853491783e-03</internalNodes>
      <leafValues>
        1.6661565005779266e-01 -2.4916109442710876e-01</leafValues></_>
    <_>
      <internalNodes>
        0 -1 5176 1.8868254497647285e-02</internalNodes>
      <leafValues>
        -6.3283540308475494e-02 8.1751298904418945e-01</leafValues></_>
    <_>
      <internalNodes>
        0 -1 64331 -8.1099830567836761e-03</internalNodes>
      <leafValues>
        4.1659763455390930e-01 -1.0451623797416687e-01</leafValues></_>
    <_>
      <internalNodes>
        0 -1 30366 -4.4766096398234367e-03</internalNodes>
      <leafValues>
        -5.1244902610778809e-01 9.3191236257553101e-02</leafValues></_>
    <_>
      <internalNodes>
        0 -1 576 7.3450207710266113e-02</internalNodes>
      <leafValues>
        3.8750506937503815e-02 -9.3124490976333618e-01</leafValues></_>
    <_>
      <internalNodes>
        0 -1 73975 -3.3636563457548618e-03</internalNodes>
      <leafValues>
        -5.3248172998428345e-01 6.5352573990821838e-02</leafValues></_>
    <_>
      <internalNodes>
        0 -1 81005 -1.7252597957849503e-02</internalNodes>
      <leafValues>
        4.9194002151489258e-01 -9.6382781863212585e-02</leafValues></_>
    <_>
      <internalNodes>
        0 -1 2207 1.2674592435359955e-03</internalNodes>
      <leafValues>
        -2.5490510463714600e-01 1.7679019272327423e-01</leafValues></_>
    <_>
      <internalNodes>
        0 -1 91989 -3.9169747382402420e-02</internalNodes>
      <leafValues>
        -8.0038154125213623e-01 5.4908405989408493e-02</leafValues></_>
    <_>
      <internalNodes>
        0 -1 33264 -6.6439494490623474e-02</internalNodes>
      <leafValues>
        -6.2309879064559937e-01 5.9554945677518845e-02</leafValues></_>
    <_>
      <internalNodes>
        0 -1 30366 4.7898185439407825e-03</internalNodes>
      <leafValues>
        3.5417266190052032e-02 -1.</leafValues></_>
    <_>
      <internalNodes>
        0 -1 39894 6.5571367740631104e-03</internalNodes>
      <leafValues>
        -1.2597537040710449e-01 3.7408760190010071e-01</leafValues></_>
    <_>
      <internalNodes>
        0 -1 73079 5.7574054226279259e-03</internalNodes>
      <leafValues>
        -7.3653064668178558e-02 5.8316898345947266e-01</leafValues></_>
    <_>
      <internalNodes>
        0 -1 120790 -1.9183709518983960e-03</internalNodes>
      <leafValues>
        -5.1753193140029907e-01 9.4442076981067657e-02</leafValues></_>
    <_>
      <internalNodes>
        0 -1 24920 -4.2228549718856812e-02</internalNodes>
      <leafValues>
        6.8696415424346924e-01 -7.4406318366527557e-02</leafValues></_>
    <_>
      <internalNodes>
        0 -1 154181 -1.3910087291151285e-03</internalNodes>
      <leafValues>
        -4.5849823951721191e-01 1.0597282648086548e-01</leafValues></_></weakClassifiers></stage1>
</opencv_storage>
