<?xml version="1.0"?>
<opencv_storage>
<stage6>
  <maxWeakCount>200</maxWeakCount>
  <stageThreshold>-7.7933353185653687e-01</stageThreshold>
  <weakClassifiers>
    <_>
      <internalNodes>
        0 -1 70735 8.3943232893943787e-03</internalNodes>
      <leafValues>
        -2.0153163373470306e-01 4.9067714810371399e-01</leafValues></_>
    <_>
      <internalNodes>
        0 -1 30647 -4.1320067248307168e-04</internalNodes>
      <leafValues>
        1.8639449775218964e-01 -4.4380199909210205e-01</leafValues></_>
    <_>
      <internalNodes>
        0 -1 14641 -3.0087755294516683e-04</internalNodes>
      <leafValues>
        1.2218838930130005e-01 -5.0431889295578003e-01</leafValues></_>
    <_>
      <internalNodes>
        0 -1 13573 -2.2792909294366837e-02</internalNodes>
      <leafValues>
        -4.6894311904907227e-01 1.3161662220954895e-01</leafValues></_>
    <_>
      <internalNodes>
        0 -1 3206 -6.2425842043012381e-04</internalNodes>
      <leafValues>
        2.0380094647407532e-01 -2.7145844697952271e-01</leafValues></_>
    <_>
      <internalNodes>
        0 -1 15365 7.3448487091809511e-04</internalNodes>
      <leafValues>
        -1.4594893157482147e-01 3.8983458280563354e-01</leafValues></_>
    <_>
      <internalNodes>
        0 -1 49486 -4.9345586448907852e-03</internalNodes>
      <leafValues>
        4.2113569378852844e-01 -1.1583422124385834e-01</leafValues></_>
    <_>
      <internalNodes>
        0 -1 25903 5.7601963635534048e-04</internalNodes>
      <leafValues>
        1.1536970734596252e-01 -3.8795551657676697e-01</leafValues></_>
    <_>
      <internalNodes>
        0 -1 12342 -1.2688618153333664e-03</internalNodes>
      <leafValues>
        1.6640365123748779e-01 -2.2799676656723022e-01</leafValues></_>
    <_>
      <internalNodes>
        0 -1 13636 -2.6201098226010799e-03</internalNodes>
      <leafValues>
        -5.2018696069717407e-01 7.1804553270339966e-02</leafValues></_>
    <_>
      <internalNodes>
        0 -1 80779 8.3486596122384071e-03</internalNodes>
      <leafValues>
        -1.1129952967166901e-01 3.2955324649810791e-01</leafValues></_>
    <_>
      <internalNodes>
        0 -1 71638 -3.7282244302332401e-03</internalNodes>
      <leafValues>
        2.5402522087097168e-01 -1.2390197068452835e-01</leafValues></_>
    <_>
      <internalNodes>
        0 -1 84580 -4.3329812586307526e-02</internalNodes>
      <leafValues>
        -5.3534179925918579e-01 5.0729420036077499e-02</leafValues></_>
    <_>
      <internalNodes>
        0 -1 40688 -4.2392713949084282e-03</internalNodes>
      <leafValues>
        -6.4273774623870850e-01 3.0537962913513184e-02</leafValues></_>
    <_>
      <internalNodes>
        0 -1 74458 1.0123040992766619e-03</internalNodes>
      <leafValues>
        -1.0743720829486847e-01 2.5881761312484741e-01</leafValues></_>
    <_>
      <internalNodes>
        0 -1 26902 -1.3724550604820251e-02</internalNodes>
      <leafValues>
        -3.7383356690406799e-01 7.4793078005313873e-02</leafValues></_>
    <_>
      <internalNodes>
        0 -1 41509 -2.3532625287771225e-02</internalNodes>
      <leafValues>
        4.5897546410560608e-01 -7.0137038826942444e-02</leafValues></_>
    <_>
      <internalNodes>
        0 -1 25804 -8.8596442947164178e-04</internalNodes>
      <leafValues>
        3.4194764494895935e-01 -6.4073257148265839e-02</leafValues></_>
    <_>
      <internalNodes>
        0 -1 185 -3.5960875451564789e-02</internalNodes>
      <leafValues>
        -5.2733302116394043e-01 4.4569894671440125e-02</leafValues></_>
    <_>
      <internalNodes>
        0 -1 0 -3.9792573079466820e-04</internalNodes>
      <leafValues>
        2.1332657337188721e-01 -1.1379049718379974e-01</leafValues></_>
    <_>
      <internalNodes>
        0 -1 92097 2.9394619632512331e-03</internalNodes>
      <leafValues>
        5.0214163959026337e-02 -4.2581251263618469e-01</leafValues></_>
    <_>
      <internalNodes>
        0 -1 8186 1.4372000005096197e-03</internalNodes>
      <leafValues>
        -1.4739921689033508e-01 1.7909340560436249e-01</leafValues></_>
    <_>
      <internalNodes>
        0 -1 5838 2.1003084257245064e-03</internalNodes>
      <leafValues>
        -7.7494055032730103e-02 3.4771817922592163e-01</leafValues></_>
    <_>
      <internalNodes>
        0 -1 60690 -7.3881195858120918e-03</internalNodes>
      <leafValues>
        -3.4909284114837646e-01 6.9850794970989227e-02</leafValues></_>
    <_>
      <internalNodes>
        0 -1 13406 1.3183951377868652e-03</internalNodes>
      <leafValues>
        -9.3076035380363464e-02 2.2932046651840210e-01</leafValues></_>
    <_>
      <internalNodes>
        0 -1 37985 -1.5081588644534349e-03</internalNodes>
      <leafValues>
        2.5485238432884216e-01 -9.6872881054878235e-02</leafValues></_>
    <_>
      <internalNodes>
        0 -1 4171 9.9721318110823631e-04</internalNodes>
      <leafValues>
        7.1681208908557892e-02 -3.0837017297744751e-01</leafValues></_>
    <_>
      <internalNodes>
        0 -1 19577 -1.8974095582962036e-03</internalNodes>
      <leafValues>
        -4.1597235202789307e-01 4.5209422707557678e-02</leafValues></_>
    <_>
      <internalNodes>
        0 -1 81083 -1.4486832544207573e-02</internalNodes>
      <leafValues>
        4.2729441076517105e-02 -4.6401542425155640e-01</leafValues></_>
    <_>
      <internalNodes>
        0 -1 12639 -6.3214479014277458e-03</internalNodes>
      <leafValues>
        -2.0018696784973145e-01 1.2311183661222458e-01</leafValues></_>
    <_>
      <internalNodes>
        0 -1 44971 5.7796873152256012e-03</internalNodes>
      <leafValues>
        -5.1529638469219208e-02 4.0864884853363037e-01</leafValues></_>
    <_>
      <internalNodes>
        0 -1 649 -1.4489223249256611e-02</internalNodes>
      <leafValues>
        -5.1148587465286255e-01 4.7639355063438416e-02</leafValues></_>
    <_>
      <internalNodes>
        0 -1 2421 -7.4540649075061083e-04</internalNodes>
      <leafValues>
        2.1813867986202240e-01 -1.0728697478771210e-01</leafValues></_>
    <_>
      <internalNodes>
        0 -1 60380 3.5111471079289913e-03</internalNodes>
      <leafValues>
        -8.9467570185661316e-02 2.6786667108535767e-01</leafValues></_>
    <_>
      <internalNodes>
        0 -1 61787 1.7200567526742816e-03</internalNodes>
      <leafValues>
        5.9935238212347031e-02 -3.6247652769088745e-01</leafValues></_>
    <_>
      <internalNodes>
        0 -1 17898 2.3660384118556976e-01</internalNodes>
      <leafValues>
        2.8058892115950584e-02 -7.0943272113800049e-01</leafValues></_>
    <_>
      <internalNodes>
        0 -1 20982 1.0378031060099602e-02</internalNodes>
      <leafValues>
        -4.8755854368209839e-02 4.4496664404869080e-01</leafValues></_>
    <_>
      <internalNodes>
        0 -1 38132 -1.6140088438987732e-02</internalNodes>
      <leafValues>
        -1.8967382609844208e-01 1.1351225525140762e-01</leafValues></_>
    <_>
      <internalNodes>
        0 -1 91898 2.3094192147254944e-03</internalNodes>
      <leafValues>
        -6.8656094372272491e-02 3.2724428176879883e-01</leafValues></_>
    <_>
      <internalNodes>
        0 -1 31236 -5.4679969325661659e-03</internalNodes>
      <leafValues>
        2.5885355472564697e-01 -8.3347752690315247e-02</leafValues></_>
    <_>
      <internalNodes>
        0 -1 80764 1.0415157303214073e-03</internalNodes>
      <leafValues>
        4.2647052556276321e-02 -5.2688622474670410e-01</leafValues></_>
    <_>
      <internalNodes>
        0 -1 1873 8.1678412854671478e-02</internalNodes>
      <leafValues>
        2.0078476518392563e-02 -9.3507397174835205e-01</leafValues></_>
    <_>
      <internalNodes>
        0 -1 138200 -4.5998483896255493e-02</internalNodes>
      <leafValues>
        -8.3680206537246704e-01 1.7993202432990074e-02</leafValues></_>
    <_>
      <internalNodes>
        0 -1 9599 -1.0875941067934036e-01</internalNodes>
      <leafValues>
        2.9471928253769875e-02 -5.9018152952194214e-01</leafValues></_>
    <_>
      <internalNodes>
        0 -1 13359 -6.4175769686698914e-02</internalNodes>
      <leafValues>
        -4.1412249207496643e-01 4.4428586959838867e-02</leafValues></_>
    <_>
      <internalNodes>
        0 -1 44328 -5.2005760371685028e-02</internalNodes>
      <leafValues>
        -4.0223870426416397e-02 5.8725488185882568e-01</leafValues></_>
    <_>
      <internalNodes>
        0 -1 36088 -1.6838535666465759e-03</internalNodes>
      <leafValues>
        1.0442848503589630e-01 -1.9497199356555939e-01</leafValues></_>
    <_>
      <internalNodes>
        0 -1 4468 -3.2303553819656372e-01</internalNodes>
      <leafValues>
        -6.7920058965682983e-01 2.7858497574925423e-02</leafValues></_>
    <_>
      <internalNodes>
        0 -1 162316 2.9785470105707645e-03</internalNodes>
      <leafValues>
        5.3967397660017014e-02 -3.3619463443756104e-01</leafValues></_>
    <_>
      <internalNodes>
        0 -1 16503 3.3532858360558748e-03</internalNodes>
      <leafValues>
        4.3338362127542496e-02 -4.5948997139930725e-01</leafValues></_>
    <_>
      <internalNodes>
        0 -1 73805 4.9462607130408287e-03</internalNodes>
      <leafValues>
        5.4893542081117630e-02 -3.3079445362091064e-01</leafValues></_>
    <_>
      <internalNodes>
        0 -1 11954 -7.3864990845322609e-03</internalNodes>
      <leafValues>
        1.9318935275077820e-01 -1.1365297436714172e-01</leafValues></_>
    <_>
      <internalNodes>
        0 -1 52049 -1.6355289844796062e-03</internalNodes>
      <leafValues>
        2.1327845752239227e-01 -9.3792408704757690e-02</leafValues></_>
    <_>
      <internalNodes>
        0 -1 55560 6.6465665586292744e-03</internalNodes>
      <leafValues>
        1.8297832459211349e-02 -7.8172695636749268e-01</leafValues></_>
    <_>
      <internalNodes>
        0 -1 15582 1.0520627722144127e-02</internalNodes>
      <leafValues>
        -6.9015301764011383e-02 2.8313222527503967e-01</leafValues></_>
    <_>
      <internalNodes>
        0 -1 148030 3.0539798899553716e-05</internalNodes>
      <leafValues>
        -1.1019167304039001e-01 1.6876226663589478e-01</leafValues></_>
    <_>
      <internalNodes>
        0 -1 123385 1.0741655714809895e-03</internalNodes>
      <leafValues>
        3.6646079272031784e-02 -4.7107014060020447e-01</leafValues></_>
    <_>
      <internalNodes>
        0 -1 51300 -2.1012729033827782e-02</internalNodes>
      <leafValues>
        6.7627817392349243e-01 -2.9052414000034332e-02</leafValues></_>
    <_>
      <internalNodes>
        0 -1 1274 1.5683786943554878e-02</internalNodes>
      <leafValues>
        2.5525344535708427e-02 -7.2929722070693970e-01</leafValues></_>
    <_>
      <internalNodes>
        0 -1 60441 -1.3192365877330303e-03</internalNodes>
      <leafValues>
        2.0713356137275696e-01 -9.8614081740379333e-02</leafValues></_>
    <_>
      <internalNodes>
        0 -1 81513 -1.2224586680531502e-03</internalNodes>
      <leafValues>
        1.6436703503131866e-01 -1.1445657908916473e-01</leafValues></_>
    <_>
      <internalNodes>
        0 -1 649 -3.7983288057148457e-03</internalNodes>
      <leafValues>
        -2.5079399347305298e-01 8.0559417605400085e-02</leafValues></_>
    <_>
      <internalNodes>
        0 -1 17313 6.4847683534026146e-03</internalNodes>
      <leafValues>
        -5.6364964693784714e-02 3.9682427048683167e-01</leafValues></_>
    <_>
      <internalNodes>
        0 -1 40689 -3.0584009364247322e-03</internalNodes>
      <leafValues>
        -2.4755567312240601e-01 9.3416653573513031e-02</leafValues></_>
    <_>
      <internalNodes>
        0 -1 4216 -7.6476810500025749e-04</internalNodes>
      <leafValues>
        1.3818758726119995e-01 -1.7650343477725983e-01</leafValues></_>
    <_>
      <internalNodes>
        0 -1 50957 2.4190261960029602e-02</internalNodes>
      <leafValues>
        -1.1593288183212280e-01 1.6136544942855835e-01</leafValues></_>
    <_>
      <internalNodes>
        0 -1 89824 3.2949887099675834e-04</internalNodes>
      <leafValues>
        -1.2202596664428711e-01 1.7330922186374664e-01</leafValues></_>
    <_>
      <internalNodes>
        0 -1 62861 -6.9544017314910889e-03</internalNodes>
      <leafValues>
        -4.7310593724250793e-01 4.0626019239425659e-02</leafValues></_>
    <_>
      <internalNodes>
        0 -1 137231 1.0735991597175598e-01</internalNodes>
      <leafValues>
        -2.8921712189912796e-02 6.8176048994064331e-01</leafValues></_>
    <_>
      <internalNodes>
        0 -1 45587 -8.4376707673072815e-02</internalNodes>
      <leafValues>
        1.1409034579992294e-01 -1.6211803257465363e-01</leafValues></_>
    <_>
      <internalNodes>
        0 -1 32143 -3.2917980104684830e-02</internalNodes>
      <leafValues>
        -5.3697470575571060e-02 4.0723881125450134e-01</leafValues></_>
    <_>
      <internalNodes>
        0 -1 5961 9.9528282589744776e-05</internalNodes>
      <leafValues>
        2.0174625515937805e-01 -9.2803128063678741e-02</leafValues></_>
    <_>
      <internalNodes>
        0 -1 151444 2.0632062107324600e-02</internalNodes>
      <leafValues>
        2.6063805446028709e-02 -7.9123568534851074e-01</leafValues></_>
    <_>
      <internalNodes>
        0 -1 20984 -4.4750157394446433e-04</internalNodes>
      <leafValues>
        -1.9867488741874695e-01 8.3013027906417847e-02</leafValues></_>
    <_>
      <internalNodes>
        0 -1 29722 -1.5731645748019218e-02</internalNodes>
      <leafValues>
        1.4067143201828003e-01 -1.4721240103244781e-01</leafValues></_>
    <_>
      <internalNodes>
        0 -1 80770 3.4112790599465370e-03</internalNodes>
      <leafValues>
        -5.8999978005886078e-02 2.8779914975166321e-01</leafValues></_>
    <_>
      <internalNodes>
        0 -1 49727 -1.5374357462860644e-04</internalNodes>
      <leafValues>
        8.6792722344398499e-02 -2.0227900147438049e-01</leafValues></_>
    <_>
      <internalNodes>
        0 -1 13401 8.1687181955203414e-04</internalNodes>
      <leafValues>
        -8.5192106664180756e-02 2.3553463816642761e-01</leafValues></_>
    <_>
      <internalNodes>
        0 -1 11485 1.7157990951091051e-03</internalNodes>
      <leafValues>
        -2.9342114925384521e-02 5.5780982971191406e-01</leafValues></_>
    <_>
      <internalNodes>
        0 -1 6567 -5.4692305624485016e-02</internalNodes>
      <leafValues>
        1.6297543048858643e-01 -1.0479951649904251e-01</leafValues></_>
    <_>
      <internalNodes>
        0 -1 90185 -3.8886662572622299e-02</internalNodes>
      <leafValues>
        -2.2339767217636108e-01 8.5788518190383911e-02</leafValues></_>
    <_>
      <internalNodes>
        0 -1 6495 1.9324247841723263e-04</internalNodes>
      <leafValues>
        6.5902665257453918e-02 -2.6276865601539612e-01</leafValues></_>
    <_>
      <internalNodes>
        0 -1 89775 -4.7696800902485847e-03</internalNodes>
      <leafValues>
        -6.5193152427673340e-01 2.4566426873207092e-02</leafValues></_>
    <_>
      <internalNodes>
        0 -1 15 -6.0760346241295338e-03</internalNodes>
      <leafValues>
        3.7424921989440918e-01 -4.8002082854509354e-02</leafValues></_>
    <_>
      <internalNodes>
        0 -1 14566 1.5477640554308891e-03</internalNodes>
      <leafValues>
        6.9294363260269165e-02 -2.6944446563720703e-01</leafValues></_>
    <_>
      <internalNodes>
        0 -1 102275 -9.5020690932869911e-03</internalNodes>
      <leafValues>
        -5.5367124080657959e-01 2.7583047747612000e-02</leafValues></_>
    <_>
      <internalNodes>
        0 -1 99338 1.0525325313210487e-02</internalNodes>
      <leafValues>
        -2.3862332105636597e-02 8.4535044431686401e-01</leafValues></_>
    <_>
      <internalNodes>
        0 -1 106804 1.1886961292475462e-03</internalNodes>
      <leafValues>
        3.6578789353370667e-02 -6.0360807180404663e-01</leafValues></_>
    <_>
      <internalNodes>
        0 -1 80882 -3.6381170153617859e-02</internalNodes>
      <leafValues>
        2.0298803225159645e-02 -6.9378942251205444e-01</leafValues></_>
    <_>
      <internalNodes>
        0 -1 158983 -1.4115609228610992e-02</internalNodes>
      <leafValues>
        -4.8864510655403137e-01 3.0756615102291107e-02</leafValues></_>
    <_>
      <internalNodes>
        0 -1 1282 -1.2387594580650330e-01</internalNodes>
      <leafValues>
        -9.6790336072444916e-02 1.8279466032981873e-01</leafValues></_>
    <_>
      <internalNodes>
        0 -1 83612 -5.0831265747547150e-02</internalNodes>
      <leafValues>
        1.0226693749427795e-01 -1.9929409027099609e-01</leafValues></_>
    <_>
      <internalNodes>
        0 -1 30647 5.0779907032847404e-03</internalNodes>
      <leafValues>
        3.1917892396450043e-02 -4.9785864353179932e-01</leafValues></_>
    <_>
      <internalNodes>
        0 -1 43121 3.8482364267110825e-02</internalNodes>
      <leafValues>
        -2.7950996533036232e-02 6.4463442564010620e-01</leafValues></_>
    <_>
      <internalNodes>
        0 -1 7569 -1.8720073625445366e-02</internalNodes>
      <leafValues>
        -1.0090433061122894e-01 1.7248304188251495e-01</leafValues></_>
    <_>
      <internalNodes>
        0 -1 103815 -6.7943255417048931e-03</internalNodes>
      <leafValues>
        1.6850019991397858e-01 -1.0267067700624466e-01</leafValues></_>
    <_>
      <internalNodes>
        0 -1 3244 5.1871826872229576e-04</internalNodes>
      <leafValues>
        7.7000342309474945e-02 -2.1877083182334900e-01</leafValues></_>
    <_>
      <internalNodes>
        0 -1 4441 2.2007606923580170e-02</internalNodes>
      <leafValues>
        -1.1171711981296539e-01 1.6546234488487244e-01</leafValues></_>
    <_>
      <internalNodes>
        0 -1 2133 1.0553852189332247e-03</internalNodes>
      <leafValues>
        -8.7654873728752136e-02 2.3024964332580566e-01</leafValues></_>
    <_>
      <internalNodes>
        0 -1 38076 -1.9964221864938736e-02</internalNodes>
      <leafValues>
        -6.1504960060119629e-01 3.0099404975771904e-02</leafValues></_>
    <_>
      <internalNodes>
        0 -1 40742 1.9908142276108265e-03</internalNodes>
      <leafValues>
        -5.1637321710586548e-02 3.9027816057205200e-01</leafValues></_>
    <_>
      <internalNodes>
        0 -1 62090 1.8118466250598431e-03</internalNodes>
      <leafValues>
        5.5396128445863724e-02 -3.4165015816688538e-01</leafValues></_>
    <_>
      <internalNodes>
        0 -1 92553 2.2129788994789124e-02</internalNodes>
      <leafValues>
        3.1583096832036972e-02 -5.2228778600692749e-01</leafValues></_>
    <_>
      <internalNodes>
        0 -1 65158 -9.4490014016628265e-03</internalNodes>
      <leafValues>
        -6.8606507778167725e-01 2.1917348727583885e-02</leafValues></_>
    <_>
      <internalNodes>
        0 -1 54311 1.3069501146674156e-03</internalNodes>
      <leafValues>
        -7.5970269739627838e-02 2.6448762416839600e-01</leafValues></_>
    <_>
      <internalNodes>
        0 -1 80780 -3.8379579782485962e-03</internalNodes>
      <leafValues>
        1.9900290668010712e-01 -1.1052185297012329e-01</leafValues></_>
    <_>
      <internalNodes>
        0 -1 61444 -2.6377189904451370e-02</internalNodes>
      <leafValues>
        -3.7794962525367737e-01 4.9414556473493576e-02</leafValues></_>
    <_>
      <internalNodes>
        0 -1 70726 -1.2573787011206150e-02</internalNodes>
      <leafValues>
        5.7618027925491333e-01 -3.2713782042264938e-02</leafValues></_>
    <_>
      <internalNodes>
        0 -1 98172 1.3997504720464349e-03</internalNodes>
      <leafValues>
        -1.0976156592369080e-01 1.6426576673984528e-01</leafValues></_>
    <_>
      <internalNodes>
        0 -1 12808 -3.8829981349408627e-04</internalNodes>
      <leafValues>
        -3.7745803594589233e-01 4.9385018646717072e-02</leafValues></_>
    <_>
      <internalNodes>
        0 -1 140740 -1.1790898861363530e-03</internalNodes>
      <leafValues>
        1.8156886100769043e-01 -9.0648539364337921e-02</leafValues></_>
    <_>
      <internalNodes>
        0 -1 121348 6.5644318237900734e-04</internalNodes>
      <leafValues>
        4.1059236973524094e-02 -4.1796401143074036e-01</leafValues></_>
    <_>
      <internalNodes>
        0 -1 133846 -3.4297332167625427e-03</internalNodes>
      <leafValues>
        2.4849389493465424e-01 -6.9966599345207214e-02</leafValues></_>
    <_>
      <internalNodes>
        0 -1 60780 4.4115655124187469e-02</internalNodes>
      <leafValues>
        -5.4732877761125565e-02 2.9451110959053040e-01</leafValues></_>
    <_>
      <internalNodes>
        0 -1 62459 -6.2382541596889496e-02</internalNodes>
      <leafValues>
        3.8649484515190125e-01 -4.3659251183271408e-02</leafValues></_>
    <_>
      <internalNodes>
        0 -1 43919 9.9326893687248230e-03</internalNodes>
      <leafValues>
        3.4197974950075150e-02 -4.8353043198585510e-01</leafValues></_>
    <_>
      <internalNodes>
        0 -1 4806 -2.7289316058158875e-01</internalNodes>
      <leafValues>
        -5.1817911863327026e-01 2.8558336198329926e-02</leafValues></_>
    <_>
      <internalNodes>
        0 -1 151868 -2.1501653827726841e-03</internalNodes>
      <leafValues>
        -5.3983008861541748e-01 2.6395270600914955e-02</leafValues></_>
    <_>
      <internalNodes>
        0 -1 9978 -3.6034153308719397e-03</internalNodes>
      <leafValues>
        1.7005756497383118e-01 -8.9655108749866486e-02</leafValues></_>
    <_>
      <internalNodes>
        0 -1 9898 1.0646685026586056e-02</internalNodes>
      <leafValues>
        -3.7144396454095840e-02 4.2940983176231384e-01</leafValues></_>
    <_>
      <internalNodes>
        0 -1 113831 -3.8963705301284790e-02</internalNodes>
      <leafValues>
        -8.9571142196655273e-01 1.9947726279497147e-02</leafValues></_>
    <_>
      <internalNodes>
        0 -1 2149 1.6735207755118608e-03</internalNodes>
      <leafValues>
        4.1173487901687622e-02 -3.2374599575996399e-01</leafValues></_>
    <_>
      <internalNodes>
        0 -1 2517 -4.9848627299070358e-02</internalNodes>
      <leafValues>
        5.3652006387710571e-01 -3.7194307893514633e-02</leafValues></_>
    <_>
      <internalNodes>
        0 -1 41503 6.1327614821493626e-04</internalNodes>
      <leafValues>
        4.2299278080463409e-02 -3.9512941241264343e-01</leafValues></_>
    <_>
      <internalNodes>
        0 -1 52853 8.2139484584331512e-03</internalNodes>
      <leafValues>
        3.8513075560331345e-02 -3.8590261340141296e-01</leafValues></_>
    <_>
      <internalNodes>
        0 -1 31316 7.3366776108741760e-02</internalNodes>
      <leafValues>
        -2.4485403671860695e-02 7.2757893800735474e-01</leafValues></_>
    <_>
      <internalNodes>
        0 -1 13493 2.2810287773609161e-02</internalNodes>
      <leafValues>
        2.5357063859701157e-02 -7.4665784835815430e-01</leafValues></_>
    <_>
      <internalNodes>
        0 -1 153917 5.4196335375308990e-02</internalNodes>
      <leafValues>
        3.5902425646781921e-02 -4.0754735469818115e-01</leafValues></_>
    <_>
      <internalNodes>
        0 -1 154520 -2.9262460768222809e-02</internalNodes>
      <leafValues>
        -3.3843958377838135e-01 4.7956671565771103e-02</leafValues></_>
    <_>
      <internalNodes>
        0 -1 71553 2.6155444793403149e-03</internalNodes>
      <leafValues>
        -7.2177417576313019e-02 2.4896509945392609e-01</leafValues></_>
    <_>
      <internalNodes>
        0 -1 73126 4.3452689424157143e-03</internalNodes>
      <leafValues>
        6.2600225210189819e-02 -2.8949415683746338e-01</leafValues></_>
    <_>
      <internalNodes>
        0 -1 108550 -1.7978987097740173e-01</internalNodes>
      <leafValues>
        8.6042717099189758e-02 -2.0412550866603851e-01</leafValues></_>
    <_>
      <internalNodes>
        0 -1 50667 -1.8586020171642303e-01</internalNodes>
      <leafValues>
        -3.6528382450342178e-02 5.8592164516448975e-01</leafValues></_>
    <_>
      <internalNodes>
        0 -1 14503 -1.0402895510196686e-02</internalNodes>
      <leafValues>
        2.5269761681556702e-02 -7.9649472236633301e-01</leafValues></_>
    <_>
      <internalNodes>
        0 -1 80692 1.5276980411726981e-04</internalNodes>
      <leafValues>
        -9.6883095800876617e-02 1.5521077811717987e-01</leafValues></_>
    <_>
      <internalNodes>
        0 -1 106797 -2.2124746814370155e-02</internalNodes>
      <leafValues>
        -1.0735956579446793e-01 1.4353737235069275e-01</leafValues></_>
    <_>
      <internalNodes>
        0 -1 78309 -1.0411009192466736e-02</internalNodes>
      <leafValues>
        2.7889797464013100e-02 -6.0928934812545776e-01</leafValues></_>
    <_>
      <internalNodes>
        0 -1 25813 9.2715816572308540e-04</internalNodes>
      <leafValues>
        -7.3290765285491943e-02 2.2454136610031128e-01</leafValues></_>
    <_>
      <internalNodes>
        0 -1 39379 1.5415425878018141e-03</internalNodes>
      <leafValues>
        4.6403575688600540e-02 -4.1260293126106262e-01</leafValues></_>
    <_>
      <internalNodes>
        0 -1 108117 3.5607580095529556e-02</internalNodes>
      <leafValues>
        1.5092185698449612e-02 -7.8171879053115845e-01</leafValues></_>
    <_>
      <internalNodes>
        0 -1 99948 2.8407710487954319e-05</internalNodes>
      <leafValues>
        -1.2958025932312012e-01 1.1862920969724655e-01</leafValues></_>
    <_>
      <internalNodes>
        0 -1 17022 -4.8858821392059326e-03</internalNodes>
      <leafValues>
        3.6408331990242004e-01 -4.0708549320697784e-02</leafValues></_>
    <_>
      <internalNodes>
        0 -1 16435 1.1495790677145123e-03</internalNodes>
      <leafValues>
        -1.5296174585819244e-01 1.1008740216493607e-01</leafValues></_>
    <_>
      <internalNodes>
        0 -1 166 -3.6419711541384459e-03</internalNodes>
      <leafValues>
        -2.3794369399547577e-01 7.1690633893013000e-02</leafValues></_>
    <_>
      <internalNodes>
        0 -1 320 6.6871205344796181e-03</internalNodes>
      <leafValues>
        3.0046299099922180e-02 -5.4192447662353516e-01</leafValues></_>
    <_>
      <internalNodes>
        0 -1 37985 2.1023829467594624e-03</internalNodes>
      <leafValues>
        -5.8370813727378845e-02 3.2615128159523010e-01</leafValues></_>
    <_>
      <internalNodes>
        0 -1 3408 -7.5659630820155144e-03</internalNodes>
      <leafValues>
        -1.8471950292587280e-01 1.0216749459505081e-01</leafValues></_>
    <_>
      <internalNodes>
        0 -1 9494 -9.5204981043934822e-03</internalNodes>
      <leafValues>
        -2.7139204740524292e-01 5.4795157164335251e-02</leafValues></_>
    <_>
      <internalNodes>
        0 -1 34451 -4.1164908558130264e-02</internalNodes>
      <leafValues>
        5.6797069311141968e-01 -4.3515354394912720e-02</leafValues></_>
    <_>
      <internalNodes>
        0 -1 28375 1.0840025544166565e-01</internalNodes>
      <leafValues>
        -6.0143988579511642e-02 2.5054359436035156e-01</leafValues></_>
    <_>
      <internalNodes>
        0 -1 48034 -1.4361035823822021e-01</internalNodes>
      <leafValues>
        5.5385327339172363e-01 -3.1109891831874847e-02</leafValues></_>
    <_>
      <internalNodes>
        0 -1 9536 6.0646981000900269e-03</internalNodes>
      <leafValues>
        7.5258277356624603e-02 -2.4811065196990967e-01</leafValues></_>
    <_>
      <internalNodes>
        0 -1 62385 -6.6985607147216797e-02</internalNodes>
      <leafValues>
        -3.9551820605993271e-02 4.3934607505798340e-01</leafValues></_>
    <_>
      <internalNodes>
        0 -1 36969 -7.3588244616985321e-02</internalNodes>
      <leafValues>
        1.1182872205972672e-01 -2.0269043743610382e-01</leafValues></_>
    <_>
      <internalNodes>
        0 -1 49485 -1.5394019428640604e-03</internalNodes>
      <leafValues>
        2.5519496202468872e-01 -6.6202506422996521e-02</leafValues></_>
    <_>
      <internalNodes>
        0 -1 34412 4.3382169678807259e-04</internalNodes>
      <leafValues>
        -9.6815884113311768e-02 1.5977095067501068e-01</leafValues></_>
    <_>
      <internalNodes>
        0 -1 62861 8.0711225746199489e-04</internalNodes>
      <leafValues>
        6.8222574889659882e-02 -2.3558370769023895e-01</leafValues></_>
    <_>
      <internalNodes>
        0 -1 3364 1.8444838933646679e-03</internalNodes>
      <leafValues>
        -5.9848058968782425e-02 3.8001784682273865e-01</leafValues></_>
    <_>
      <internalNodes>
        0 -1 26918 -1.1129463091492653e-03</internalNodes>
      <leafValues>
        6.8976603448390961e-02 -2.4825051426887512e-01</leafValues></_>
    <_>
      <internalNodes>
        0 -1 5183 -8.9515849947929382e-02</internalNodes>
      <leafValues>
        -1.0853140056133270e-01 1.4835208654403687e-01</leafValues></_>
    <_>
      <internalNodes>
        0 -1 22197 -1.2689635157585144e-02</internalNodes>
      <leafValues>
        4.2481362819671631e-01 -3.9195887744426727e-02</leafValues></_>
    <_>
      <internalNodes>
        0 -1 81513 -7.7973175793886185e-03</internalNodes>
      <leafValues>
        5.0333863496780396e-01 -3.0476717278361320e-02</leafValues></_>
    <_>
      <internalNodes>
        0 -1 10613 1.6509780660271645e-02</internalNodes>
      <leafValues>
        2.5974586606025696e-02 -6.7698073387145996e-01</leafValues></_>
    <_>
      <internalNodes>
        0 -1 25720 2.3323213681578636e-03</internalNodes>
      <leafValues>
        -4.4861864298582077e-02 3.7685757875442505e-01</leafValues></_>
    <_>
      <internalNodes>
        0 -1 241 1.7262483015656471e-03</internalNodes>
      <leafValues>
        5.2937939763069153e-02 -3.3282169699668884e-01</leafValues></_>
    <_>
      <internalNodes>
        0 -1 109948 1.1124834418296814e-02</internalNodes>
      <leafValues>
        -8.8682681322097778e-02 1.7365369200706482e-01</leafValues></_>
    <_>
      <internalNodes>
        0 -1 130322 3.4537032246589661e-02</internalNodes>
      <leafValues>
        2.7550127357244492e-02 -7.1402370929718018e-01</leafValues></_>
    <_>
      <internalNodes>
        0 -1 13240 -9.0212700888514519e-03</internalNodes>
      <leafValues>
        4.0597295761108398e-01 -4.5453749597072601e-02</leafValues></_>
    <_>
      <internalNodes>
        0 -1 13071 -3.7967027164995670e-03</internalNodes>
      <leafValues>
        -2.0266686379909515e-01 9.2675976455211639e-02</leafValues></_>
    <_>
      <internalNodes>
        0 -1 99404 -1.6628480516374111e-03</internalNodes>
      <leafValues>
        1.5757453441619873e-01 -9.7977146506309509e-02</leafValues></_>
    <_>
      <internalNodes>
        0 -1 14 8.5867609595879912e-04</internalNodes>
      <leafValues>
        -8.9145779609680176e-02 1.7670561373233795e-01</leafValues></_>
    <_>
      <internalNodes>
        0 -1 5 1.2112384429201484e-03</internalNodes>
      <leafValues>
        -8.9459799230098724e-02 1.8343895673751831e-01</leafValues></_>
    <_>
      <internalNodes>
        0 -1 12599 -2.7072016149759293e-02</internalNodes>
      <leafValues>
        3.5264644026756287e-01 -4.5672297477722168e-02</leafValues></_>
    <_>
      <internalNodes>
        0 -1 98441 9.2882607132196426e-03</internalNodes>
      <leafValues>
        4.0875874459743500e-02 -3.9698287844657898e-01</leafValues></_>
    <_>
      <internalNodes>
        0 -1 121614 -3.0205771327018738e-02</internalNodes>
      <leafValues>
        2.7190878987312317e-01 -5.7286642491817474e-02</leafValues></_>
    <_>
      <internalNodes>
        0 -1 62622 -1.1383589357137680e-01</internalNodes>
      <leafValues>
        -7.2404098510742188e-01 2.5597039610147476e-02</leafValues></_>
    <_>
      <internalNodes>
        0 -1 10411 4.4827210903167725e-01</internalNodes>
      <leafValues>
        -2.1101940423250198e-02 9.1570234298706055e-01</leafValues></_>
    <_>
      <internalNodes>
        0 -1 50551 4.9468964338302612e-02</internalNodes>
      <leafValues>
        -1.4903713949024677e-02 7.6481854915618896e-01</leafValues></_>
    <_>
      <internalNodes>
        0 -1 27963 5.9493891894817352e-03</internalNodes>
      <leafValues>
        5.2131511270999908e-02 -3.6228421330451965e-01</leafValues></_>
    <_>
      <internalNodes>
        0 -1 40744 3.3430093899369240e-03</internalNodes>
      <leafValues>
        -9.0448558330535889e-02 2.0051477849483490e-01</leafValues></_>
    <_>
      <internalNodes>
        0 -1 4984 1.9957765471190214e-04</internalNodes>
      <leafValues>
        7.1319550275802612e-02 -2.1895581483840942e-01</leafValues></_>
    <_>
      <internalNodes>
        0 -1 64938 8.0412197858095169e-03</internalNodes>
      <leafValues>
        2.0558087155222893e-02 -7.3242747783660889e-01</leafValues></_>
    <_>
      <internalNodes>
        0 -1 24811 -4.5126654207706451e-02</internalNodes>
      <leafValues>
        -5.1834613084793091e-01 2.5490464642643929e-02</leafValues></_>
    <_>
      <internalNodes>
        0 -1 13210 -3.8463252130895853e-03</internalNodes>
      <leafValues>
        1.5996053814888000e-01 -1.1609469354152679e-01</leafValues></_>
    <_>
      <internalNodes>
        0 -1 7412 -1.1629161890596151e-03</internalNodes>
      <leafValues>
        -6.3183641433715820e-01 2.7417710050940514e-02</leafValues></_>
    <_>
      <internalNodes>
        0 -1 7409 3.6084355087950826e-04</internalNodes>
      <leafValues>
        -1.1789655685424805e-01 1.3671827316284180e-01</leafValues></_>
    <_>
      <internalNodes>
        0 -1 3348 -2.6486937422305346e-03</internalNodes>
      <leafValues>
        1.0161697119474411e-01 -1.7055568099021912e-01</leafValues></_>
    <_>
      <internalNodes>
        0 -1 5961 -1.5831492841243744e-02</internalNodes>
      <leafValues>
        6.3076436519622803e-01 -2.9195051640272141e-02</leafValues></_>
    <_>
      <internalNodes>
        0 -1 11880 -6.1607534007634968e-05</internalNodes>
      <leafValues>
        1.5665879845619202e-01 -1.0252565890550613e-01</leafValues></_>
    <_>
      <internalNodes>
        0 -1 54319 -3.7387155462056398e-03</internalNodes>
      <leafValues>
        1.8895387649536133e-01 -8.3824604749679565e-02</leafValues></_>
    <_>
      <internalNodes>
        0 -1 33863 -5.9480633353814483e-05</internalNodes>
      <leafValues>
        1.3166353106498718e-01 -1.3229280710220337e-01</leafValues></_>
    <_>
      <internalNodes>
        0 -1 77187 3.7472348660230637e-02</internalNodes>
      <leafValues>
        2.0609792321920395e-02 -8.1758713722229004e-01</leafValues></_>
    <_>
      <internalNodes>
        0 -1 24536 7.4033378623425961e-03</internalNodes>
      <leafValues>
        -3.7591826170682907e-02 4.8127403855323792e-01</leafValues></_>
    <_>
      <internalNodes>
        0 -1 3347 9.6737692365422845e-04</internalNodes>
      <leafValues>
        2.1438734605908394e-02 -8.2805901765823364e-01</leafValues></_>
    <_>
      <internalNodes>
        0 -1 115075 1.2842529453337193e-02</internalNodes>
      <leafValues>
        2.8379112482070923e-02 -4.9860420823097229e-01</leafValues></_>
    <_>
      <internalNodes>
        0 -1 91898 2.7876994572579861e-03</internalNodes>
      <leafValues>
        -5.3107216954231262e-02 3.2581019401550293e-01</leafValues></_>
    <_>
      <internalNodes>
        0 -1 31365 -3.9424583315849304e-02</internalNodes>
      <leafValues>
        -3.5177577286958694e-02 4.6623086929321289e-01</leafValues></_>
    <_>
      <internalNodes>
        0 -1 40760 -2.2970933467149734e-02</internalNodes>
      <leafValues>
        2.6220526546239853e-02 -6.6019964218139648e-01</leafValues></_>
    <_>
      <internalNodes>
        0 -1 49640 5.1824394613504410e-03</internalNodes>
      <leafValues>
        1.5864513814449310e-02 -7.6211631298065186e-01</leafValues></_>
    <_>
      <internalNodes>
        0 -1 96860 -4.5547233894467354e-03</internalNodes>
      <leafValues>
        -7.1991443634033203e-01 1.6466397792100906e-02</leafValues></_></weakClassifiers></stage6>
</opencv_storage>
