<?xml version="1.0"?>
<opencv_storage>
<stage3>
  <maxWeakCount>20</maxWeakCount>
  <stageThreshold>-5.6879544258117676e-01</stageThreshold>
  <weakClassifiers>
    <_>
      <internalNodes>
        0 -1 3220 -22 -827392018 -290459712 -991232030 -134742029
        96468991 -134219790 -671088641</internalNodes>
      <leafValues>
        -4.6158224344253540e-01 7.3318064212799072e-01</leafValues></_>
    <_>
      <internalNodes>
        0 -1 80 -543451651 -73680705 -633333251 -1679573253 -643311127
        -1464874773 424302921 -575673457</internalNodes>
      <leafValues>
        -6.2047952413558960e-01 5.6841534376144409e-01</leafValues></_>
    <_>
      <internalNodes>
        0 -1 4325 -5514582 -1901170774 -8016 -273940568 -952633345
        92536263 1427494384 -738460161</internalNodes>
      <leafValues>
        -4.9673965573310852e-01 5.4455971717834473e-01</leafValues></_>
    <_>
      <internalNodes>
        0 -1 3352 -5382237 -1347420253 -4112 -4227141 -813826338
        -1886391361 1442829813 -538978309</internalNodes>
      <leafValues>
        -4.3966901302337646e-01 5.4135668277740479e-01</leafValues></_>
    <_>
      <internalNodes>
        0 -1 341 -1501413617 -1877966578 -712391733 1569525763
        -1206936646 -1147424736 1033625023 532361531</internalNodes>
      <leafValues>
        -5.5960232019424438e-01 4.3445032835006714e-01</leafValues></_>
    <_>
      <internalNodes>
        0 -1 1583 1562732864 2030796946 268595393 -678477577 856390061
        -1901428600 185373165 -68233064</internalNodes>
      <leafValues>
        -6.7081183195114136e-01 3.0429852008819580e-01</leafValues></_>
    <_>
      <internalNodes>
        0 -1 785 -136711921 -1366553265 297750877 -384878270 -1072627677
        -1329594337 -893384703 -1006662755</internalNodes>
      <leafValues>
        -5.7298195362091064e-01 3.9422020316123962e-01</leafValues></_>
    <_>
      <internalNodes>
        0 -1 2036 -493684937 -2044525911 60244893 -1416945131
        -1761467429 -1312388608 991962751 -726730679</internalNodes>
      <leafValues>
        -5.0219196081161499e-01 4.1574567556381226e-01</leafValues></_>
    <_>
      <internalNodes>
        0 -1 1029 453093297 -1753049838 319895989 -437186489 521126651
        -1467770642 -1450538499 1595919999</internalNodes>
      <leafValues>
        -4.5083561539649963e-01 4.7185426950454712e-01</leafValues></_>
    <_>
      <internalNodes>
        0 -1 2669 -1078247450 -80511048 -1059792 -292586062 2134507002
        890372091 532288979 -1889611782</internalNodes>
      <leafValues>
        -4.5181897282600403e-01 5.1253032684326172e-01</leafValues></_>
    <_>
      <internalNodes>
        0 -1 2024 -69745810 -116998013 -1861762846 -622951730
        -2091703550 1073905922 1904995032 -707006038</internalNodes>
      <leafValues>
        -4.8525115847587585e-01 4.4765552878379822e-01</leafValues></_>
    <_>
      <internalNodes>
        0 -1 800 -1311249999 -593083693 -1050443725 757989937
        -1739675470 -48264262 677274027 255851483</internalNodes>
      <leafValues>
        -5.1722657680511475e-01 4.1126617789268494e-01</leafValues></_>
    <_>
      <internalNodes>
        0 -1 4336 -373294997 -1439813976 603382208 -1912607923
        1716902312 -1543602374 292887645 -943367233</internalNodes>
      <leafValues>
        -3.9431354403495789e-01 5.5151957273483276e-01</leafValues></_>
    <_>
      <internalNodes>
        0 -1 2808 -791642185 118665712 1663371773 -159147385 -969954144
        -1962243686 1091158465 252704987</internalNodes>
      <leafValues>
        -5.7943850755691528e-01 4.1293129324913025e-01</leafValues></_>
    <_>
      <internalNodes>
        0 -1 2838 -715157627 964723350 1363742760 -1788755135
        -1005722332 -1147027277 -2059335628 -1285833071</internalNodes>
      <leafValues>
        -4.8387059569358826e-01 4.3689638376235962e-01</leafValues></_>
    <_>
      <internalNodes>
        0 -1 1 -88185 2122268661 -1103984086 1069170675 -1342297457
        931086111 1061011391 -268566529</internalNodes>
      <leafValues>
        -3.6267721652984619e-01 5.4844778776168823e-01</leafValues></_>
    <_>
      <internalNodes>
        0 -1 3175 -464614847 2115963805 143146649 243343312 -184475257
        1159209131 1254879191 -2023560335</internalNodes>
      <leafValues>
        -4.9496713280677795e-01 4.4757544994354248e-01</leafValues></_>
    <_>
      <internalNodes>
        0 -1 3863 -1751104910 -1786666560 8636701 -976305211 570635006
        -1097887557 453445117 -551560998</internalNodes>
      <leafValues>
        -4.7500267624855042e-01 4.7668609023094177e-01</leafValues></_>
    <_>
      <internalNodes>
        0 -1 416 612374641 961773784 1342212565 -1114144489 -1605780552
        -251099926 648481483 -1078248800</internalNodes>
      <leafValues>
        -6.0004520416259766e-01 3.7539324164390564e-01</leafValues></_>
    <_>
      <internalNodes>
        0 -1 1397 -586170405 -138080049 54827379 1172267036 -1220114957
        -772993829 568775505 -471930434</internalNodes>
      <leafValues>
        -4.9676215648651123e-01 4.3484950065612793e-01</leafValues></_></weakClassifiers></stage3>
</opencv_storage>
