<?xml version="1.0"?>
<opencv_storage>
<stage7>
  <maxWeakCount>15</maxWeakCount>
  <stageThreshold>-1.2988063097000122e+00</stageThreshold>
  <weakClassifiers>
    <_>
      <internalNodes>
        0 -1 70721 1.1290856637060642e-03</internalNodes>
      <leafValues>
        -6.4609050750732422e-01 3.1972789764404297e-01</leafValues></_>
    <_>
      <internalNodes>
        0 -1 19686 1.3225656934082508e-02</internalNodes>
      <leafValues>
        -4.0518257021903992e-01 5.4772728681564331e-01</leafValues></_>
    <_>
      <internalNodes>
        0 -1 49725 -3.6147367209196091e-03</internalNodes>
      <leafValues>
        -7.8157347440719604e-01 1.9975958764553070e-01</leafValues></_>
    <_>
      <internalNodes>
        0 -1 0 -2.2899970645084977e-04</internalNodes>
      <leafValues>
        3.8010779023170471e-01 -3.7502238154411316e-01</leafValues></_>
    <_>
      <internalNodes>
        0 -1 53585 8.8528358901385218e-05</internalNodes>
      <leafValues>
        -6.4812642335891724e-01 2.2559994459152222e-01</leafValues></_>
    <_>
      <internalNodes>
        0 -1 11275 -1.7423164844512939e-01</internalNodes>
      <leafValues>
        -7.3930734395980835e-01 1.6731882095336914e-01</leafValues></_>
    <_>
      <internalNodes>
        0 -1 33300 4.9618165940046310e-04</internalNodes>
      <leafValues>
        -3.4473860263824463e-01 3.8707360625267029e-01</leafValues></_>
    <_>
      <internalNodes>
        0 -1 82865 5.4784971289336681e-03</internalNodes>
      <leafValues>
        2.1424703299999237e-01 -7.5952911376953125e-01</leafValues></_>
    <_>
      <internalNodes>
        0 -1 26059 -2.9662903398275375e-02</internalNodes>
      <leafValues>
        -8.5327953100204468e-01 1.2894299626350403e-01</leafValues></_>
    <_>
      <internalNodes>
        0 -1 52134 6.4989371458068490e-04</internalNodes>
      <leafValues>
        1.1871401220560074e-01 -9.6086364984512329e-01</leafValues></_>
    <_>
      <internalNodes>
        0 -1 49476 -2.4754431797191501e-04</internalNodes>
      <leafValues>
        3.0236729979515076e-01 -4.1142982244491577e-01</leafValues></_>
    <_>
      <internalNodes>
        0 -1 30054 -1.2140794843435287e-01</internalNodes>
      <leafValues>
        7.1771198511123657e-01 -1.7973591387271881e-01</leafValues></_>
    <_>
      <internalNodes>
        0 -1 108126 -7.2440970689058304e-03</internalNodes>
      <leafValues>
        4.8423343896865845e-01 -3.1580305099487305e-01</leafValues></_>
    <_>
      <internalNodes>
        0 -1 82494 -2.5269798934459686e-03</internalNodes>
      <leafValues>
        -7.5907945632934570e-01 1.7982666194438934e-01</leafValues></_>
    <_>
      <internalNodes>
        0 -1 49807 -2.2277992684394121e-03</internalNodes>
      <leafValues>
        1.6416552662849426e-01 -6.3973438739776611e-01</leafValues></_></weakClassifiers></stage7>
</opencv_storage>
