<?xml version="1.0"?>
<opencv_storage>
<stage2>
  <maxWeakCount>7</maxWeakCount>
  <stageThreshold>-1.0144348144531250e+00</stageThreshold>
  <weakClassifiers>
    <_>
      <internalNodes>
        0 -1 52886 -4.1265375912189484e-03</internalNodes>
      <leafValues>
        8.1818181276321411e-01 -5.7723575830459595e-01</leafValues></_>
    <_>
      <internalNodes>
        0 -1 14509 -4.1620269417762756e-02</internalNodes>
      <leafValues>
        -7.7793425321578979e-01 4.6238997578620911e-01</leafValues></_>
    <_>
      <internalNodes>
        0 -1 53633 -2.0296177826821804e-03</internalNodes>
      <leafValues>
        3.0432417988777161e-01 -7.9610019922256470e-01</leafValues></_>
    <_>
      <internalNodes>
        0 -1 39309 -1.2052762322127819e-03</internalNodes>
      <leafValues>
        3.3701774477958679e-01 -6.7611920833587646e-01</leafValues></_>
    <_>
      <internalNodes>
        0 -1 26392 -1.4495646953582764e-01</internalNodes>
      <leafValues>
        6.5502744913101196e-01 -4.3542104959487915e-01</leafValues></_>
    <_>
      <internalNodes>
        0 -1 114437 6.4962636679410934e-03</internalNodes>
      <leafValues>
        -3.0542621016502380e-01 8.3162438869476318e-01</leafValues></_>
    <_>
      <internalNodes>
        0 -1 5000 -3.2055957708507776e-03</internalNodes>
      <leafValues>
        4.3629837036132813e-01 -7.7412152290344238e-01</leafValues></_></weakClassifiers></stage2>
</opencv_storage>
