<?xml version="1.0"?>
<opencv_storage>
<stage3>
  <maxWeakCount>8</maxWeakCount>
  <stageThreshold>-8.8110691308975220e-01</stageThreshold>
  <weakClassifiers>
    <_>
      <internalNodes>
        0 -1 80845 -5.6657390668988228e-03</internalNodes>
      <leafValues>
        3.7820512056350708e-01 -7.2222220897674561e-01</leafValues></_>
    <_>
      <internalNodes>
        0 -1 49481 -8.8582909666001797e-04</internalNodes>
      <leafValues>
        4.6753859519958496e-01 -5.4531276226043701e-01</leafValues></_>
    <_>
      <internalNodes>
        0 -1 416 1.1547645553946495e-03</internalNodes>
      <leafValues>
        -8.3067399263381958e-01 2.6823949813842773e-01</leafValues></_>
    <_>
      <internalNodes>
        0 -1 49892 7.3962435126304626e-03</internalNodes>
      <leafValues>
        2.4046002328395844e-01 -9.8678022623062134e-01</leafValues></_>
    <_>
      <internalNodes>
        0 -1 858 -4.8360103368759155e-01</internalNodes>
      <leafValues>
        7.5644695758819580e-01 -3.4987288713455200e-01</leafValues></_>
    <_>
      <internalNodes>
        0 -1 90024 4.5521445572376251e-02</internalNodes>
      <leafValues>
        -2.3226355016231537e-01 9.1813200712203979e-01</leafValues></_>
    <_>
      <internalNodes>
        0 -1 89990 9.1314176097512245e-04</internalNodes>
      <leafValues>
        2.8062820434570313e-01 -8.7475562095642090e-01</leafValues></_>
    <_>
      <internalNodes>
        0 -1 71122 -8.6788330227136612e-03</internalNodes>
      <leafValues>
        -8.4102094173431396e-01 2.7811625599861145e-01</leafValues></_></weakClassifiers></stage3>
</opencv_storage>
