<?xml version="1.0"?>
<opencv_storage>
<stage6>
  <maxWeakCount>182</maxWeakCount>
  <stageThreshold>-1.2128378152847290e+00</stageThreshold>
  <weakClassifiers>
    <_>
      <internalNodes>
        0 -1 43051 4.6189520508050919e-03</internalNodes>
      <leafValues>
        -5.0632596015930176e-01 2.3872026801109314e-01</leafValues></_>
    <_>
      <internalNodes>
        0 -1 30346 -6.0063425917178392e-04</internalNodes>
      <leafValues>
        1.2684565782546997e-01 -4.2618963122367859e-01</leafValues></_>
    <_>
      <internalNodes>
        0 -1 13753 1.9895908189937472e-04</internalNodes>
      <leafValues>
        -2.6877593994140625e-01 1.9651506841182709e-01</leafValues></_>
    <_>
      <internalNodes>
        0 -1 50530 -9.2494074488058686e-04</internalNodes>
      <leafValues>
        1.9516880810260773e-01 -3.5192722082138062e-01</leafValues></_>
    <_>
      <internalNodes>
        0 -1 2648 3.8973873015493155e-03</internalNodes>
      <leafValues>
        9.5133841037750244e-02 -4.2710143327713013e-01</leafValues></_>
    <_>
      <internalNodes>
        0 -1 60441 3.2343848142772913e-03</internalNodes>
      <leafValues>
        -7.9759687185287476e-02 4.3457379937171936e-01</leafValues></_>
    <_>
      <internalNodes>
        0 -1 70820 -4.1983779519796371e-03</internalNodes>
      <leafValues>
        2.4186414480209351e-01 -1.5841099619865417e-01</leafValues></_>
    <_>
      <internalNodes>
        0 -1 82215 6.6241077147424221e-03</internalNodes>
      <leafValues>
        -7.7042348682880402e-02 4.0402603149414063e-01</leafValues></_>
    <_>
      <internalNodes>
        0 -1 49640 -1.3694186927750707e-03</internalNodes>
      <leafValues>
        -4.6314007043838501e-01 6.9747842848300934e-02</leafValues></_>
    <_>
      <internalNodes>
        0 -1 49557 -9.2983443755656481e-04</internalNodes>
      <leafValues>
        -4.5206725597381592e-01 1.0619891434907913e-01</leafValues></_>
    <_>
      <internalNodes>
        0 -1 30647 -3.6974503018427640e-05</internalNodes>
      <leafValues>
        7.3337271809577942e-02 -2.8722432255744934e-01</leafValues></_>
    <_>
      <internalNodes>
        0 -1 26050 -3.0725255783181638e-05</internalNodes>
      <leafValues>
        1.1602394282817841e-01 -2.4927389621734619e-01</leafValues></_>
    <_>
      <internalNodes>
        0 -1 38149 5.4744090884923935e-03</internalNodes>
      <leafValues>
        5.8886632323265076e-02 -3.5466739535331726e-01</leafValues></_>
    <_>
      <internalNodes>
        0 -1 100046 6.8889427930116653e-03</internalNodes>
      <leafValues>
        6.9780342280864716e-02 -2.9344692826271057e-01</leafValues></_>
    <_>
      <internalNodes>
        0 -1 41558 -1.1029598303139210e-02</internalNodes>
      <leafValues>
        4.7276815772056580e-01 -4.4118955731391907e-02</leafValues></_>
    <_>
      <internalNodes>
        0 -1 4984 6.3206593040376902e-04</internalNodes>
      <leafValues>
        6.4531616866588593e-02 -4.9350145459175110e-01</leafValues></_>
    <_>
      <internalNodes>
        0 -1 9 4.8956274986267090e-04</internalNodes>
      <leafValues>
        -1.3305629789829254e-01 2.1608193218708038e-01</leafValues></_>
    <_>
      <internalNodes>
        0 -1 0 6.4110010862350464e-04</internalNodes>
      <leafValues>
        -1.0704252123832703e-01 2.5951302051544189e-01</leafValues></_>
    <_>
      <internalNodes>
        0 -1 74455 3.2647780608385801e-04</internalNodes>
      <leafValues>
        -1.2153522670269012e-01 2.1165548264980316e-01</leafValues></_>
    <_>
      <internalNodes>
        0 -1 98653 5.9089047135785222e-04</internalNodes>
      <leafValues>
        6.2575325369834900e-02 -4.2992323637008667e-01</leafValues></_>
    <_>
      <internalNodes>
        0 -1 106878 -8.3957929164171219e-03</internalNodes>
      <leafValues>
        2.5859007239341736e-01 -9.2700652778148651e-02</leafValues></_>
    <_>
      <internalNodes>
        0 -1 12037 5.0254943780601025e-03</internalNodes>
      <leafValues>
        -5.4827045649290085e-02 3.9027041196823120e-01</leafValues></_>
    <_>
      <internalNodes>
        0 -1 41503 5.0369231030344963e-04</internalNodes>
      <leafValues>
        5.2440609782934189e-02 -4.2194798588752747e-01</leafValues></_>
    <_>
      <internalNodes>
        0 -1 19622 8.3351525245234370e-04</internalNodes>
      <leafValues>
        -8.5203699767589569e-02 2.6850989460945129e-01</leafValues></_>
    <_>
      <internalNodes>
        0 -1 5956 -8.4806850645691156e-04</internalNodes>
      <leafValues>
        2.6093527674674988e-01 -8.8219664990901947e-02</leafValues></_>
    <_>
      <internalNodes>
        0 -1 39981 -5.1950559020042419e-02</internalNodes>
      <leafValues>
        -5.8871112763881683e-02 4.4539761543273926e-01</leafValues></_>
    <_>
      <internalNodes>
        0 -1 10161 -7.7267348766326904e-02</internalNodes>
      <leafValues>
        4.3795552104711533e-02 -6.9296300411224365e-01</leafValues></_>
    <_>
      <internalNodes>
        0 -1 13712 3.4865406341850758e-03</internalNodes>
      <leafValues>
        4.4875051826238632e-02 -4.1569375991821289e-01</leafValues></_>
    <_>
      <internalNodes>
        0 -1 51219 4.1425207746215165e-04</internalNodes>
      <leafValues>
        -1.0587165504693985e-01 2.1805141866207123e-01</leafValues></_>
    <_>
      <internalNodes>
        0 -1 14877 -1.3562063686549664e-02</internalNodes>
      <leafValues>
        -3.7286275625228882e-01 5.8514140546321869e-02</leafValues></_>
    <_>
      <internalNodes>
        0 -1 45051 1.4437986537814140e-03</internalNodes>
      <leafValues>
        -1.2519784271717072e-01 1.6735923290252686e-01</leafValues></_>
    <_>
      <internalNodes>
        0 -1 51242 7.6821148395538330e-03</internalNodes>
      <leafValues>
        5.1452152431011200e-02 -4.2880508303642273e-01</leafValues></_>
    <_>
      <internalNodes>
        0 -1 70716 8.4803509525954723e-04</internalNodes>
      <leafValues>
        -7.4983701109886169e-02 2.9487457871437073e-01</leafValues></_>
    <_>
      <internalNodes>
        0 -1 49727 -1.5371761401183903e-04</internalNodes>
      <leafValues>
        9.9785305559635162e-02 -2.3422136902809143e-01</leafValues></_>
    <_>
      <internalNodes>
        0 -1 90638 3.9004231803119183e-03</internalNodes>
      <leafValues>
        -1.1069878935813904e-01 1.8370306491851807e-01</leafValues></_>
    <_>
      <internalNodes>
        0 -1 98672 -6.6971909254789352e-03</internalNodes>
      <leafValues>
        3.6197370290756226e-01 -6.6698029637336731e-02</leafValues></_>
    <_>
      <internalNodes>
        0 -1 159538 -2.7000461705029011e-03</internalNodes>
      <leafValues>
        -2.7932634949684143e-01 7.3807112872600555e-02</leafValues></_>
    <_>
      <internalNodes>
        0 -1 10847 -4.5375600457191467e-03</internalNodes>
      <leafValues>
        1.6665558516979218e-01 -1.1778987944126129e-01</leafValues></_>
    <_>
      <internalNodes>
        0 -1 50514 2.5494500994682312e-02</internalNodes>
      <leafValues>
        3.5019677132368088e-02 -5.9520375728607178e-01</leafValues></_>
    <_>
      <internalNodes>
        0 -1 78266 -2.2944740485399961e-03</internalNodes>
      <leafValues>
        -5.7296931743621826e-01 2.9274441301822662e-02</leafValues></_>
    <_>
      <internalNodes>
        0 -1 37635 3.5342881456017494e-03</internalNodes>
      <leafValues>
        -4.8858717083930969e-02 4.1472116112709045e-01</leafValues></_>
    <_>
      <internalNodes>
        0 -1 24453 -2.5607906281948090e-03</internalNodes>
      <leafValues>
        1.7303480207920074e-01 -1.1271632462739944e-01</leafValues></_>
    <_>
      <internalNodes>
        0 -1 908 -5.5425451137125492e-03</internalNodes>
      <leafValues>
        -2.3744636774063110e-01 8.0511763691902161e-02</leafValues></_>
    <_>
      <internalNodes>
        0 -1 16504 -2.1296506747603416e-03</internalNodes>
      <leafValues>
        4.5880150794982910e-01 -4.7339987009763718e-02</leafValues></_>
    <_>
      <internalNodes>
        0 -1 7412 -1.2259692884981632e-03</internalNodes>
      <leafValues>
        -7.0641839504241943e-01 3.0596140772104263e-02</leafValues></_>
    <_>
      <internalNodes>
        0 -1 1177 -2.3572400212287903e-02</internalNodes>
      <leafValues>
        6.9329553842544556e-01 -3.3394917845726013e-02</leafValues></_>
    <_>
      <internalNodes>
        0 -1 181 3.3081032335758209e-02</internalNodes>
      <leafValues>
        3.0773142352700233e-02 -7.2227770090103149e-01</leafValues></_>
    <_>
      <internalNodes>
        0 -1 11036 5.8925151824951172e-04</internalNodes>
      <leafValues>
        3.3491756767034531e-02 -4.3204763531684875e-01</leafValues></_>
    <_>
      <internalNodes>
        0 -1 2567 -1.5340321697294712e-03</internalNodes>
      <leafValues>
        1.9562295079231262e-01 -9.2264346778392792e-02</leafValues></_>
    <_>
      <internalNodes>
        0 -1 571 -9.1664632782340050e-04</internalNodes>
      <leafValues>
        -2.1059180796146393e-01 1.0031504184007645e-01</leafValues></_>
    <_>
      <internalNodes>
        0 -1 71555 -2.2279717959463596e-03</internalNodes>
      <leafValues>
        1.6021227836608887e-01 -1.1827024817466736e-01</leafValues></_>
    <_>
      <internalNodes>
        0 -1 3206 2.0255078561604023e-04</internalNodes>
      <leafValues>
        8.6394988000392914e-02 -2.0944815874099731e-01</leafValues></_>
    <_>
      <internalNodes>
        0 -1 95534 -2.3279973864555359e-01</internalNodes>
      <leafValues>
        3.8948467373847961e-01 -4.6384170651435852e-02</leafValues></_>
    <_>
      <internalNodes>
        0 -1 29073 -2.1329082548618317e-02</internalNodes>
      <leafValues>
        2.3790210485458374e-02 -8.7158900499343872e-01</leafValues></_>
    <_>
      <internalNodes>
        0 -1 16367 -6.3263238407671452e-03</internalNodes>
      <leafValues>
        -5.9445559978485107e-02 3.8888707756996155e-01</leafValues></_>
    <_>
      <internalNodes>
        0 -1 30910 3.1074646860361099e-02</internalNodes>
      <leafValues>
        -1.0260999947786331e-01 2.0477189123630524e-01</leafValues></_>
    <_>
      <internalNodes>
        0 -1 57812 -7.8672632575035095e-02</internalNodes>
      <leafValues>
        5.0239825248718262e-01 -4.0047559887170792e-02</leafValues></_>
    <_>
      <internalNodes>
        0 -1 164 1.2333292979747057e-03</internalNodes>
      <leafValues>
        7.2930261492729187e-02 -2.5294849276542664e-01</leafValues></_>
    <_>
      <internalNodes>
        0 -1 13393 5.6859152391552925e-04</internalNodes>
      <leafValues>
        5.9648655354976654e-02 -2.7399858832359314e-01</leafValues></_>
    <_>
      <internalNodes>
        0 -1 62079 4.7077005729079247e-03</internalNodes>
      <leafValues>
        -4.5500397682189941e-02 4.0131878852844238e-01</leafValues></_>
    <_>
      <internalNodes>
        0 -1 7408 -5.3413829300552607e-04</internalNodes>
      <leafValues>
        -3.5819831490516663e-01 4.7258324921131134e-02</leafValues></_>
    <_>
      <internalNodes>
        0 -1 83598 -5.8188587427139282e-03</internalNodes>
      <leafValues>
        2.4033595621585846e-01 -7.6279170811176300e-02</leafValues></_>
    <_>
      <internalNodes>
        0 -1 72328 -1.9021902699023485e-03</internalNodes>
      <leafValues>
        1.2389412522315979e-01 -1.4033335447311401e-01</leafValues></_>
    <_>
      <internalNodes>
        0 -1 86870 -5.1838479936122894e-02</internalNodes>
      <leafValues>
        1.3891015946865082e-01 -1.2357392907142639e-01</leafValues></_>
    <_>
      <internalNodes>
        0 -1 2521 -1.7853647470474243e-01</internalNodes>
      <leafValues>
        -7.6941087841987610e-02 3.0677238106727600e-01</leafValues></_>
    <_>
      <internalNodes>
        0 -1 49476 -6.6472671460360289e-04</internalNodes>
      <leafValues>
        1.9396664202213287e-01 -9.1285876929759979e-02</leafValues></_>
    <_>
      <internalNodes>
        0 -1 49481 2.7252116706222296e-04</internalNodes>
      <leafValues>
        -1.1033274978399277e-01 1.6575674712657928e-01</leafValues></_>
    <_>
      <internalNodes>
        0 -1 146798 -1.2072468176484108e-02</internalNodes>
      <leafValues>
        -2.9596298933029175e-01 6.1248987913131714e-02</leafValues></_>
    <_>
      <internalNodes>
        0 -1 50404 -6.0524931177496910e-03</internalNodes>
      <leafValues>
        -4.1212520003318787e-01 4.4013105332851410e-02</leafValues></_>
    <_>
      <internalNodes>
        0 -1 12613 -3.3489433117210865e-03</internalNodes>
      <leafValues>
        1.3413445651531219e-01 -1.4141362905502319e-01</leafValues></_>
    <_>
      <internalNodes>
        0 -1 8382 -6.0921413823962212e-03</internalNodes>
      <leafValues>
        3.8038626313209534e-01 -4.7597561031579971e-02</leafValues></_>
    <_>
      <internalNodes>
        0 -1 6826 -3.9897859096527100e-03</internalNodes>
      <leafValues>
        1.7042216658592224e-01 -1.2395810335874557e-01</leafValues></_>
    <_>
      <internalNodes>
        0 -1 26446 -5.5917000770568848e-01</internalNodes>
      <leafValues>
        -2.7448683977127075e-01 7.2538085281848907e-02</leafValues></_>
    <_>
      <internalNodes>
        0 -1 118687 -4.0224023163318634e-02</internalNodes>
      <leafValues>
        1.7445586621761322e-01 -1.1305046081542969e-01</leafValues></_>
    <_>
      <internalNodes>
        0 -1 83656 3.8468525744974613e-03</internalNodes>
      <leafValues>
        4.2076807469129562e-02 -4.3234500288963318e-01</leafValues></_>
    <_>
      <internalNodes>
        0 -1 82920 1.4934436418116093e-02</internalNodes>
      <leafValues>
        2.1879201754927635e-02 -6.7435342073440552e-01</leafValues></_>
    <_>
      <internalNodes>
        0 -1 13305 2.5206264108419418e-03</internalNodes>
      <leafValues>
        2.6527950540184975e-02 -5.3283125162124634e-01</leafValues></_>
    <_>
      <internalNodes>
        0 -1 54319 -4.5657246373593807e-03</internalNodes>
      <leafValues>
        1.9760952889919281e-01 -8.4141656756401062e-02</leafValues></_>
    <_>
      <internalNodes>
        0 -1 7906 -3.4922935068607330e-02</internalNodes>
      <leafValues>
        -6.0075515508651733e-01 2.7553424239158630e-02</leafValues></_>
    <_>
      <internalNodes>
        0 -1 156657 4.4888388365507126e-02</internalNodes>
      <leafValues>
        1.9894693046808243e-02 -6.9431805610656738e-01</leafValues></_>
    <_>
      <internalNodes>
        0 -1 89312 1.5262182801961899e-02</internalNodes>
      <leafValues>
        3.5027466714382172e-02 -4.3312111496925354e-01</leafValues></_>
    <_>
      <internalNodes>
        0 -1 185 -3.4050274640321732e-02</internalNodes>
      <leafValues>
        -4.1838604211807251e-01 3.5114135593175888e-02</leafValues></_>
    <_>
      <internalNodes>
        0 -1 13411 1.0259806877002120e-03</internalNodes>
      <leafValues>
        -9.6890352666378021e-02 1.9387711584568024e-01</leafValues></_>
    <_>
      <internalNodes>
        0 -1 14425 -2.5898874737322330e-03</internalNodes>
      <leafValues>
        2.8932252526283264e-01 -6.6177181899547577e-02</leafValues></_>
    <_>
      <internalNodes>
        0 -1 18033 4.1983040864579380e-04</internalNodes>
      <leafValues>
        6.9474808871746063e-02 -2.7459242939949036e-01</leafValues></_>
    <_>
      <internalNodes>
        0 -1 18073 7.0060975849628448e-03</internalNodes>
      <leafValues>
        -5.0077728927135468e-02 3.5187128186225891e-01</leafValues></_>
    <_>
      <internalNodes>
        0 -1 124738 6.4875893294811249e-03</internalNodes>
      <leafValues>
        2.4777451530098915e-02 -7.5467228889465332e-01</leafValues></_>
    <_>
      <internalNodes>
        0 -1 82506 -1.4083982445299625e-02</internalNodes>
      <leafValues>
        -2.2809647023677826e-02 8.5414874553680420e-01</leafValues></_>
    <_>
      <internalNodes>
        0 -1 12439 -1.2585621327161789e-02</internalNodes>
      <leafValues>
        4.2196315526962280e-01 -3.4696999937295914e-02</leafValues></_>
    <_>
      <internalNodes>
        0 -1 70196 -8.1610135734081268e-02</internalNodes>
      <leafValues>
        5.6284207105636597e-01 -2.9099512845277786e-02</leafValues></_>
    <_>
      <internalNodes>
        0 -1 20311 -1.2042345479130745e-02</internalNodes>
      <leafValues>
        4.3565773963928223e-01 -3.7019222974777222e-02</leafValues></_>
    <_>
      <internalNodes>
        0 -1 2260 -1.2525256723165512e-02</internalNodes>
      <leafValues>
        -2.1339938044548035e-01 8.5132449865341187e-02</leafValues></_>
    <_>
      <internalNodes>
        0 -1 10557 -3.2575133442878723e-01</internalNodes>
      <leafValues>
        4.7875117510557175e-02 -3.3887386322021484e-01</leafValues></_>
    <_>
      <internalNodes>
        0 -1 7919 -2.7541518211364746e-03</internalNodes>
      <leafValues>
        1.6697773337364197e-01 -1.1776338517665863e-01</leafValues></_>
    <_>
      <internalNodes>
        0 -1 8147 -4.5603606849908829e-03</internalNodes>
      <leafValues>
        -3.9177396893501282e-01 4.6037994325160980e-02</leafValues></_>
    <_>
      <internalNodes>
        0 -1 19100 -1.3524179812520742e-03</internalNodes>
      <leafValues>
        8.0060258507728577e-02 -2.1565853059291840e-01</leafValues></_>
    <_>
      <internalNodes>
        0 -1 5296 -5.2647199481725693e-02</internalNodes>
      <leafValues>
        -1.8105383217334747e-01 1.0770467668771744e-01</leafValues></_>
    <_>
      <internalNodes>
        0 -1 13356 -3.4784965217113495e-02</internalNodes>
      <leafValues>
        -4.3029198050498962e-01 3.9826545864343643e-02</leafValues></_>
    <_>
      <internalNodes>
        0 -1 1269 -3.1694238714408129e-05</internalNodes>
      <leafValues>
        8.1792443990707397e-02 -2.0460057258605957e-01</leafValues></_>
    <_>
      <internalNodes>
        0 -1 63768 -7.6094642281532288e-05</internalNodes>
      <leafValues>
        1.1345230787992477e-01 -1.4349193871021271e-01</leafValues></_>
    <_>
      <internalNodes>
        0 -1 70616 -8.9170979335904121e-03</internalNodes>
      <leafValues>
        1.3831143081188202e-01 -1.1895526200532913e-01</leafValues></_>
    <_>
      <internalNodes>
        0 -1 11971 3.9470177143812180e-03</internalNodes>
      <leafValues>
        8.2084946334362030e-02 -1.9225440919399261e-01</leafValues></_>
    <_>
      <internalNodes>
        0 -1 11132 4.2931558564305305e-03</internalNodes>
      <leafValues>
        -4.1968971490859985e-02 4.0069508552551270e-01</leafValues></_>
    <_>
      <internalNodes>
        0 -1 12552 -1.9570500589907169e-03</internalNodes>
      <leafValues>
        -5.1123285293579102e-01 3.4373663365840912e-02</leafValues></_>
    <_>
      <internalNodes>
        0 -1 13058 -1.4099347172304988e-03</internalNodes>
      <leafValues>
        -1.5112963318824768e-01 1.0188175737857819e-01</leafValues></_>
    <_>
      <internalNodes>
        0 -1 57915 -3.1147878617048264e-02</internalNodes>
      <leafValues>
        -8.5285794734954834e-01 1.8558759242296219e-02</leafValues></_>
    <_>
      <internalNodes>
        0 -1 49185 -1.7783980816602707e-02</internalNodes>
      <leafValues>
        3.9104127883911133e-01 -4.3657001107931137e-02</leafValues></_>
    <_>
      <internalNodes>
        0 -1 64512 -4.5541850849986076e-03</internalNodes>
      <leafValues>
        -2.9997882246971130e-01 5.0339799374341965e-02</leafValues></_>
    <_>
      <internalNodes>
        0 -1 5361 -6.8927623331546783e-02</internalNodes>
      <leafValues>
        3.5336023569107056e-01 -4.8381481319665909e-02</leafValues></_>
    <_>
      <internalNodes>
        0 -1 73094 5.8228718116879463e-03</internalNodes>
      <leafValues>
        5.3706791251897812e-02 -3.2300335168838501e-01</leafValues></_>
    <_>
      <internalNodes>
        0 -1 14 1.2361039407551289e-03</internalNodes>
      <leafValues>
        -8.3191476762294769e-02 1.8529292941093445e-01</leafValues></_>
    <_>
      <internalNodes>
        0 -1 30 8.6237658979371190e-04</internalNodes>
      <leafValues>
        -1.0701636970043182e-01 1.6405640542507172e-01</leafValues></_>
    <_>
      <internalNodes>
        0 -1 53627 -4.3867686763405800e-03</internalNodes>
      <leafValues>
        2.4907164275646210e-01 -6.4884990453720093e-02</leafValues></_>
    <_>
      <internalNodes>
        0 -1 12689 -1.3894717209041119e-02</internalNodes>
      <leafValues>
        4.5087006688117981e-01 -3.8306470960378647e-02</leafValues></_>
    <_>
      <internalNodes>
        0 -1 157454 -2.5853174156509340e-04</internalNodes>
      <leafValues>
        1.8740986287593842e-01 -8.1461504101753235e-02</leafValues></_>
    <_>
      <internalNodes>
        0 -1 52049 -1.5936160925775766e-03</internalNodes>
      <leafValues>
        1.7927952110767365e-01 -9.1144278645515442e-02</leafValues></_>
    <_>
      <internalNodes>
        0 -1 52853 8.1259217113256454e-03</internalNodes>
      <leafValues>
        4.2279548943042755e-02 -3.7987405061721802e-01</leafValues></_>
    <_>
      <internalNodes>
        0 -1 1873 8.1674784421920776e-02</internalNodes>
      <leafValues>
        1.5073612332344055e-02 -8.8514119386672974e-01</leafValues></_>
    <_>
      <internalNodes>
        0 -1 143114 -3.1417779624462128e-02</internalNodes>
      <leafValues>
        -7.6743519306182861e-01 1.4540358446538448e-02</leafValues></_>
    <_>
      <internalNodes>
        0 -1 159679 1.7477439541835338e-04</internalNodes>
      <leafValues>
        -1.0134771466255188e-01 1.6251520812511444e-01</leafValues></_>
    <_>
      <internalNodes>
        0 -1 80267 4.1463650763034821e-02</internalNodes>
      <leafValues>
        1.9919293001294136e-02 -8.3425408601760864e-01</leafValues></_>
    <_>
      <internalNodes>
        0 -1 41517 3.2363017089664936e-03</internalNodes>
      <leafValues>
        2.1151388064026833e-02 -6.3783496618270874e-01</leafValues></_>
    <_>
      <internalNodes>
        0 -1 17693 -9.2760242521762848e-02</internalNodes>
      <leafValues>
        -3.8465384393930435e-02 4.3462803959846497e-01</leafValues></_>
    <_>
      <internalNodes>
        0 -1 26970 -3.0605023726820946e-02</internalNodes>
      <leafValues>
        5.0687324255704880e-02 -3.8679701089859009e-01</leafValues></_>
    <_>
      <internalNodes>
        0 -1 5888 1.8980003893375397e-02</internalNodes>
      <leafValues>
        -2.6373319327831268e-02 6.5165239572525024e-01</leafValues></_>
    <_>
      <internalNodes>
        0 -1 4999 1.6233775531873107e-03</internalNodes>
      <leafValues>
        3.4759890288114548e-02 -4.7975572943687439e-01</leafValues></_>
    <_>
      <internalNodes>
        0 -1 52962 3.6380469799041748e-02</internalNodes>
      <leafValues>
        -4.1228458285331726e-02 4.0559226274490356e-01</leafValues></_>
    <_>
      <internalNodes>
        0 -1 82884 -1.5128547325730324e-02</internalNodes>
      <leafValues>
        -9.4705808162689209e-01 1.8517479300498962e-02</leafValues></_>
    <_>
      <internalNodes>
        0 -1 12832 -7.0867249742150307e-03</internalNodes>
      <leafValues>
        2.4365931749343872e-01 -6.2115889042615891e-02</leafValues></_>
    <_>
      <internalNodes>
        0 -1 94234 6.8958885967731476e-03</internalNodes>
      <leafValues>
        2.1301070228219032e-02 -7.1621197462081909e-01</leafValues></_>
    <_>
      <internalNodes>
        0 -1 81096 -5.1608186215162277e-02</internalNodes>
      <leafValues>
        -6.9546025991439819e-01 1.6812471672892570e-02</leafValues></_>
    <_>
      <internalNodes>
        0 -1 159873 5.0359098240733147e-03</internalNodes>
      <leafValues>
        4.0464520454406738e-02 -3.2250806689262390e-01</leafValues></_>
    <_>
      <internalNodes>
        0 -1 9209 -4.8516169190406799e-03</internalNodes>
      <leafValues>
        2.5993618369102478e-01 -5.5834125727415085e-02</leafValues></_>
    <_>
      <internalNodes>
        0 -1 26013 -7.0647792890667915e-03</internalNodes>
      <leafValues>
        -1.2988489866256714e-01 1.1717331409454346e-01</leafValues></_>
    <_>
      <internalNodes>
        0 -1 18342 1.2488044798374176e-02</internalNodes>
      <leafValues>
        -1.1008720844984055e-01 1.6212406754493713e-01</leafValues></_>
    <_>
      <internalNodes>
        0 -1 74522 4.0249833837151527e-03</internalNodes>
      <leafValues>
        -8.1577248871326447e-02 2.1162170171737671e-01</leafValues></_>
    <_>
      <internalNodes>
        0 -1 51227 1.8930854275822639e-03</internalNodes>
      <leafValues>
        -5.4429195821285248e-02 3.3198121190071106e-01</leafValues></_>
    <_>
      <internalNodes>
        0 -1 51218 3.7279300158843398e-04</internalNodes>
      <leafValues>
        -9.6492297947406769e-02 1.6893489658832550e-01</leafValues></_>
    <_>
      <internalNodes>
        0 -1 121632 6.9134533405303955e-02</internalNodes>
      <leafValues>
        -3.9915114641189575e-02 4.2278963327407837e-01</leafValues></_>
    <_>
      <internalNodes>
        0 -1 107748 -1.4970315620303154e-02</internalNodes>
      <leafValues>
        1.7639082670211792e-01 -1.0031990706920624e-01</leafValues></_>
    <_>
      <internalNodes>
        0 -1 8360 9.9876880645751953e-02</internalNodes>
      <leafValues>
        -2.3742377758026123e-02 6.9936364889144897e-01</leafValues></_>
    <_>
      <internalNodes>
        0 -1 13643 -8.3225294947624207e-03</internalNodes>
      <leafValues>
        -4.0396466851234436e-01 4.4135771691799164e-02</leafValues></_>
    <_>
      <internalNodes>
        0 -1 18772 -1.1422894895076752e-01</internalNodes>
      <leafValues>
        -2.6930266991257668e-02 5.9590858221054077e-01</leafValues></_>
    <_>
      <internalNodes>
        0 -1 15659 -1.3065178878605366e-02</internalNodes>
      <leafValues>
        3.1556013971567154e-02 -6.4030092954635620e-01</leafValues></_>
    <_>
      <internalNodes>
        0 -1 129948 3.9664104580879211e-02</internalNodes>
      <leafValues>
        1.7734818160533905e-02 -6.4055407047271729e-01</leafValues></_>
    <_>
      <internalNodes>
        0 -1 133775 -5.6137586943805218e-04</internalNodes>
      <leafValues>
        1.6725964844226837e-01 -9.1252937912940979e-02</leafValues></_>
    <_>
      <internalNodes>
        0 -1 50830 -2.0228981971740723e-02</internalNodes>
      <leafValues>
        2.4182890355587006e-01 -5.9448067098855972e-02</leafValues></_>
    <_>
      <internalNodes>
        0 -1 60968 -1.1723963916301727e-01</internalNodes>
      <leafValues>
        -1.7852272093296051e-01 1.0223986953496933e-01</leafValues></_>
    <_>
      <internalNodes>
        0 -1 39376 -3.5324668884277344e-01</internalNodes>
      <leafValues>
        4.8093044757843018e-01 -3.6966007202863693e-02</leafValues></_>
    <_>
      <internalNodes>
        0 -1 80770 4.1282330639660358e-03</internalNodes>
      <leafValues>
        -5.2841663360595703e-02 2.8387102484703064e-01</leafValues></_>
    <_>
      <internalNodes>
        0 -1 27758 5.9404494240880013e-03</internalNodes>
      <leafValues>
        3.4005917608737946e-02 -4.5981764793395996e-01</leafValues></_>
    <_>
      <internalNodes>
        0 -1 113330 -1.4729857502970845e-04</internalNodes>
      <leafValues>
        1.5240961313247681e-01 -9.9965311586856842e-02</leafValues></_>
    <_>
      <internalNodes>
        0 -1 61293 -8.6283711716532707e-03</internalNodes>
      <leafValues>
        5.7107961177825928e-01 -2.3748561739921570e-02</leafValues></_>
    <_>
      <internalNodes>
        0 -1 81812 2.1201397757977247e-03</internalNodes>
      <leafValues>
        6.2668576836585999e-02 -2.4682238698005676e-01</leafValues></_>
    <_>
      <internalNodes>
        0 -1 813 1.0940163396298885e-02</internalNodes>
      <leafValues>
        3.8458611816167831e-02 -4.0360796451568604e-01</leafValues></_>
    <_>
      <internalNodes>
        0 -1 144389 3.0584866181015968e-05</internalNodes>
      <leafValues>
        -1.1749866604804993e-01 1.4340604841709137e-01</leafValues></_>
    <_>
      <internalNodes>
        0 -1 17374 -2.3082441184669733e-03</internalNodes>
      <leafValues>
        2.3611068725585938e-01 -6.3503727316856384e-02</leafValues></_>
    <_>
      <internalNodes>
        0 -1 50469 -3.0709132552146912e-03</internalNodes>
      <leafValues>
        1.4528438448905945e-01 -1.2653414905071259e-01</leafValues></_>
    <_>
      <internalNodes>
        0 -1 41751 4.5341802760958672e-03</internalNodes>
      <leafValues>
        5.9315316379070282e-02 -2.6104468107223511e-01</leafValues></_>
    <_>
      <internalNodes>
        0 -1 51373 1.7145032761618495e-03</internalNodes>
      <leafValues>
        -1.2855055928230286e-01 1.3739986717700958e-01</leafValues></_>
    <_>
      <internalNodes>
        0 -1 3148 1.9690283806994557e-04</internalNodes>
      <leafValues>
        4.5709975063800812e-02 -3.5736531019210815e-01</leafValues></_>
    <_>
      <internalNodes>
        0 -1 156731 -6.7766662687063217e-03</internalNodes>
      <leafValues>
        -3.3559831976890564e-01 4.4014748185873032e-02</leafValues></_>
    <_>
      <internalNodes>
        0 -1 73796 9.9331792443990707e-03</internalNodes>
      <leafValues>
        2.4140315130352974e-02 -6.0752218961715698e-01</leafValues></_>
    <_>
      <internalNodes>
        0 -1 2400 2.6151280850172043e-02</internalNodes>
      <leafValues>
        -4.3484441936016083e-02 4.0042382478713989e-01</leafValues></_>
    <_>
      <internalNodes>
        0 -1 5176 8.6581688374280930e-03</internalNodes>
      <leafValues>
        -2.7847805991768837e-02 4.8741421103477478e-01</leafValues></_>
    <_>
      <internalNodes>
        0 -1 41508 4.6999077312648296e-04</internalNodes>
      <leafValues>
        5.1513414829969406e-02 -3.3334594964981079e-01</leafValues></_>
    <_>
      <internalNodes>
        0 -1 9394 -1.6823228448629379e-02</internalNodes>
      <leafValues>
        2.0650425553321838e-01 -7.5699813663959503e-02</leafValues></_>
    <_>
      <internalNodes>
        0 -1 2951 -3.8347104191780090e-01</internalNodes>
      <leafValues>
        -5.0988841056823730e-01 3.2051172107458115e-02</leafValues></_>
    <_>
      <internalNodes>
        0 -1 11527 1.4007186517119408e-02</internalNodes>
      <leafValues>
        1.7176544293761253e-02 -7.2344845533370972e-01</leafValues></_>
    <_>
      <internalNodes>
        0 -1 51321 -3.3016100525856018e-02</internalNodes>
      <leafValues>
        -6.9423681497573853e-01 1.6806323081254959e-02</leafValues></_>
    <_>
      <internalNodes>
        0 -1 2157 -5.8638155460357666e-03</internalNodes>
      <leafValues>
        3.4380277991294861e-01 -4.8602085560560226e-02</leafValues></_>
    <_>
      <internalNodes>
        0 -1 157476 5.3723268210887909e-03</internalNodes>
      <leafValues>
        2.7722822502255440e-02 -5.6410795450210571e-01</leafValues></_>
    <_>
      <internalNodes>
        0 -1 4984 1.9331343355588615e-04</internalNodes>
      <leafValues>
        6.6999599337577820e-02 -2.1082098782062531e-01</leafValues></_>
    <_>
      <internalNodes>
        0 -1 5050 -3.1139192287810147e-05</internalNodes>
      <leafValues>
        1.0586272925138474e-01 -1.4482524991035461e-01</leafValues></_>
    <_>
      <internalNodes>
        0 -1 49486 -1.3553129974752665e-03</internalNodes>
      <leafValues>
        1.6772539913654327e-01 -8.8059164583683014e-02</leafValues></_>
    <_>
      <internalNodes>
        0 -1 11151 9.8289325833320618e-03</internalNodes>
      <leafValues>
        6.0634292662143707e-02 -2.4527008831501007e-01</leafValues></_>
    <_>
      <internalNodes>
        0 -1 84890 7.1017704904079437e-03</internalNodes>
      <leafValues>
        1.5634426847100258e-02 -8.7688982486724854e-01</leafValues></_>
    <_>
      <internalNodes>
        0 -1 29655 -2.3595459759235382e-02</internalNodes>
      <leafValues>
        5.7373911142349243e-01 -2.9019221663475037e-02</leafValues></_>
    <_>
      <internalNodes>
        0 -1 47085 -1.8965710187330842e-03</internalNodes>
      <leafValues>
        -4.4834935665130615e-01 3.4735556691884995e-02</leafValues></_>
    <_>
      <internalNodes>
        0 -1 61313 -4.4402554631233215e-03</internalNodes>
      <leafValues>
        -2.8849300742149353e-01 4.7236673533916473e-02</leafValues></_>
    <_>
      <internalNodes>
        0 -1 2157 3.3281440846621990e-03</internalNodes>
      <leafValues>
        -6.7851379513740540e-02 2.1537593007087708e-01</leafValues></_>
    <_>
      <internalNodes>
        0 -1 12705 -1.2843748554587364e-02</internalNodes>
      <leafValues>
        4.2747080326080322e-01 -3.3429242670536041e-02</leafValues></_></weakClassifiers></stage6>
</opencv_storage>
