<?xml version="1.0"?>
<opencv_storage>
<stage7>
  <maxWeakCount>33</maxWeakCount>
  <stageThreshold>-1.1418398618698120e+00</stageThreshold>
  <weakClassifiers>
    <_>
      <internalNodes>
        0 -1 2025 -1042294785 -572533797 -1002042406 -169908785
        -807671555 1412489442 926357727 -1</internalNodes>
      <leafValues>
        -5.6287050247192383e-01 3.7456241250038147e-01</leafValues></_>
    <_>
      <internalNodes>
        0 -1 1632 -1026316995 -778579656 -1056378797 -1039400925
        -1088700998 -1078281478 520289787 2134629627</internalNodes>
      <leafValues>
        -4.7258594632148743e-01 3.1499728560447693e-01</leafValues></_>
    <_>
      <internalNodes>
        0 -1 1 -555776354 -119851777 -1878818790 1016740595 -481350742
        846073903 -1169642498 1944059839</internalNodes>
      <leafValues>
        -4.6513557434082031e-01 2.6899832487106323e-01</leafValues></_>
    <_>
      <internalNodes>
        0 -1 17 -841560841 -1077147425 -851125385 1561838876 -2033416005
        -1359244194 -1060322509 -245380039</internalNodes>
      <leafValues>
        -4.0753260254859924e-01 2.5895750522613525e-01</leafValues></_>
    <_>
      <internalNodes>
        0 -1 1492 -1983491278 -14753508 -993660686 940589128 -554975608
        -602913396 -892015990 411880588</internalNodes>
      <leafValues>
        -4.0016278624534607e-01 2.7499750256538391e-01</leafValues></_>
    <_>
      <internalNodes>
        0 -1 43 -1816722459 245393703 -1995550245 -825269037 -1881952301
        1970255743 45304388 -403281176</internalNodes>
      <leafValues>
        -4.1307932138442993e-01 2.6154518127441406e-01</leafValues></_>
    <_>
      <internalNodes>
        0 -1 5 1975697311 826939533 67252257 19866377 -1219029539
        17044225 -1278593555 -134792633</internalNodes>
      <leafValues>
        -3.4189289808273315e-01 3.1337982416152954e-01</leafValues></_>
    <_>
      <internalNodes>
        0 -1 4786 -648960204 -1625778406 -2046682096 -38729464
        1913836015 671646280 1505980445 -117965061</internalNodes>
      <leafValues>
        -3.3332777023315430e-01 2.9707652330398560e-01</leafValues></_>
    <_>
      <internalNodes>
        0 -1 697 -218911057 1458544379 -16814482 -391135681 -1389854909
        1951295487 -1087111325 -1493720117</internalNodes>
      <leafValues>
        -2.2609974443912506e-01 4.4896012544631958e-01</leafValues></_>
    <_>
      <internalNodes>
        0 -1 3385 -503600084 288481527 -1307918564 932999941 -2088383994
        1931583784 1313324644 -135678416</internalNodes>
      <leafValues>
        -4.0108826756477356e-01 2.5074818730354309e-01</leafValues></_>
    <_>
      <internalNodes>
        0 -1 1380 -153131026 -111698842 -1593816980 -212696565 -82795707
        1394938001 -1174670968 -1276910725</internalNodes>
      <leafValues>
        -3.2272177934646606e-01 3.2281789183616638e-01</leafValues></_>
    <_>
      <internalNodes>
        0 -1 429 -1555128870 1536005862 1370526106 228899235 562755827
        -1348748912 1853807588 1187001114</internalNodes>
      <leafValues>
        -4.0036028623580933e-01 2.4588577449321747e-01</leafValues></_>
    <_>
      <internalNodes>
        0 -1 1897 -161005749 1027063673 -37814479 -587879835 -572668141
        -171223755 -571093985 -941035761</internalNodes>
      <leafValues>
        -2.6956942677497864e-01 3.5307747125625610e-01</leafValues></_>
    <_>
      <internalNodes>
        0 -1 3904 395619298 -1425227008 420836561 2077622481 -746628179
        151752731 1430962640 536840443</internalNodes>
      <leafValues>
        -5.2988505363464355e-01 2.0989768207073212e-01</leafValues></_>
    <_>
      <internalNodes>
        0 -1 286 1507644677 173277202 16811517 -644873895 1930402420
        -2080700270 -1928263267 500569497</internalNodes>
      <leafValues>
        -4.9168667197227478e-01 1.7524376511573792e-01</leafValues></_>
    <_>
      <internalNodes>
        0 -1 1493 -14416527 -616625597 419685577 -1557592062 -1968463343
        -1413509605 -553428037 -771052529</internalNodes>
      <leafValues>
        -3.5734587907791138e-01 2.4490247666835785e-01</leafValues></_>
    <_>
      <internalNodes>
        0 -1 1236 1246137102 1865967717 -2096792356 257376324 -247464961
        1622479003 -672143712 -404547649</internalNodes>
      <leafValues>
        -3.1791874766349792e-01 3.1571146845817566e-01</leafValues></_>
    <_>
      <internalNodes>
        0 -1 1596 1073905957 -1070346046 34847 -1319558965 -152596588
        -1969580143 -2119959043 -606275499</internalNodes>
      <leafValues>
        -3.6978924274444580e-01 2.7104562520980835e-01</leafValues></_>
    <_>
      <internalNodes>
        0 -1 6828 1945962826 826247257 -1823284766 1421919606
        -1714716346 569633579 -1992199388 -1566277713</internalNodes>
      <leafValues>
        -3.5503032803535461e-01 2.6774427294731140e-01</leafValues></_>
    <_>
      <internalNodes>
        0 -1 792 -656631844 -1092200097 -1861039796 1901729994
        -771651240 540745742 199008460 -180905217</internalNodes>
      <leafValues>
        -3.0402007699012756e-01 3.1508570909500122e-01</leafValues></_>
    <_>
      <internalNodes>
        0 -1 1306 1574870856 -326692582 -784133299 1516015902 1940388017
        1646597811 2070741537 333925939</internalNodes>
      <leafValues>
        -4.5469677448272705e-01 2.1829630434513092e-01</leafValues></_>
    <_>
      <internalNodes>
        0 -1 1391 -336940368 -1441070851 -1845343579 -326495059
        -1562203650 -2088548107 994121772 1862162529</internalNodes>
      <leafValues>
        -6.3546442985534668e-01 1.3434757292270660e-01</leafValues></_>
    <_>
      <internalNodes>
        0 -1 2717 267906015 -623127680 -2013165436 1535986060 1242099707
        135881976 235279791 1053477835</internalNodes>
      <leafValues>
        -2.9902455210685730e-01 3.1064218282699585e-01</leafValues></_>
    <_>
      <internalNodes>
        0 -1 4602 -9780735 499380631 2022780974 650808658 -638328124
        -1485704564 189725592 904454704</internalNodes>
      <leafValues>
        -4.0026223659515381e-01 2.3634004592895508e-01</leafValues></_>
    <_>
      <internalNodes>
        0 -1 799 -1119398038 -122216300 -1991360326 -233074671 198971786
        -1806751719 -1293759541 538203663</internalNodes>
      <leafValues>
        -4.2734673619270325e-01 2.2117415070533752e-01</leafValues></_>
    <_>
      <internalNodes>
        0 -1 3539 1307380234 -724044321 1410321382 883167439 -1610011822
        276307982 -909379234 449491662</internalNodes>
      <leafValues>
        -3.7309676408767700e-01 2.6143974065780640e-01</leafValues></_>
    <_>
      <internalNodes>
        0 -1 4785 1543277482 -1954365158 160291136 -842903150 1212865519
        134269274 -754488731 -723406236</internalNodes>
      <leafValues>
        -4.5055443048477173e-01 2.1971529722213745e-01</leafValues></_>
    <_>
      <internalNodes>
        0 -1 5270 -1143068132 1944032734 -239055764 -1168651737
        1263503201 -1770798652 -1685264325 -488248375</internalNodes>
      <leafValues>
        -3.2894030213356018e-01 3.0310279130935669e-01</leafValues></_>
    <_>
      <internalNodes>
        0 -1 567 1650167439 -1359614337 -196881 -50615345 2132137551
        930917361 -75514563 -185274620</internalNodes>
      <leafValues>
        -2.7594608068466187e-01 3.5318353772163391e-01</leafValues></_>
    <_>
      <internalNodes>
        0 -1 1313 71665779 -673208337 1862252145 -587778386 -2089814175
        -713236619 -691028579 -1595564109</internalNodes>
      <leafValues>
        -2.8282508254051208e-01 3.3411017060279846e-01</leafValues></_>
    <_>
      <internalNodes>
        0 -1 849 -766099388 -2107699351 -905803483 470223618 -2146655463
        -1997856529 27003273 1510841935</internalNodes>
      <leafValues>
        -6.0263717174530029e-01 1.5711809694766998e-01</leafValues></_>
    <_>
      <internalNodes>
        0 -1 2827 299515803 509041361 730467016 -67896427 -543959564
        1619978920 -1475733831 1874647555</internalNodes>
      <leafValues>
        -3.0538046360015869e-01 3.0390062928199768e-01</leafValues></_>
    <_>
      <internalNodes>
        0 -1 2110 -967048317 542626262 1159860585 1312235795 -52754344
        -147936021 -1981627753 -269796846</internalNodes>
      <leafValues>
        -3.0983394384384155e-01 3.1597742438316345e-01</leafValues></_></weakClassifiers></stage7>
</opencv_storage>
