<?xml version="1.0"?>
<opencv_storage>
<stage7>
  <maxWeakCount>15</maxWeakCount>
  <stageThreshold>-6.0509645938873291e-01</stageThreshold>
  <weakClassifiers>
    <_>
      <internalNodes>
        0 -1 63569 1.3343454338610172e-04</internalNodes>
      <leafValues>
        -4.7826087474822998e-01 5.4789274930953979e-01</leafValues></_>
    <_>
      <internalNodes>
        0 -1 2772 -2.5907447561621666e-03</internalNodes>
      <leafValues>
        -7.2950255870819092e-01 2.8857567906379700e-01</leafValues></_>
    <_>
      <internalNodes>
        0 -1 80784 4.4242898002266884e-03</internalNodes>
      <leafValues>
        -3.9520367980003357e-01 4.5792815089225769e-01</leafValues></_>
    <_>
      <internalNodes>
        0 -1 71117 4.6736933290958405e-04</internalNodes>
      <leafValues>
        3.0129009485244751e-01 -6.9260382652282715e-01</leafValues></_>
    <_>
      <internalNodes>
        0 -1 52854 -6.6125169396400452e-03</internalNodes>
      <leafValues>
        -7.3949366807937622e-01 1.2337137758731842e-01</leafValues></_>
    <_>
      <internalNodes>
        0 -1 53576 -4.2630636016838253e-05</internalNodes>
      <leafValues>
        1.6507388651371002e-01 -8.7577921152114868e-01</leafValues></_>
    <_>
      <internalNodes>
        0 -1 9650 5.3758919239044189e-03</internalNodes>
      <leafValues>
        -2.5144907832145691e-01 5.7829082012176514e-01</leafValues></_>
    <_>
      <internalNodes>
        0 -1 124245 -3.3995201811194420e-03</internalNodes>
      <leafValues>
        -6.9356971979141235e-01 1.8957245349884033e-01</leafValues></_>
    <_>
      <internalNodes>
        0 -1 38391 -7.6649989932775497e-04</internalNodes>
      <leafValues>
        1.9481062889099121e-01 -7.0005261898040771e-01</leafValues></_>
    <_>
      <internalNodes>
        0 -1 60605 3.4335439559072256e-03</internalNodes>
      <leafValues>
        1.4422136545181274e-01 -7.2933578491210938e-01</leafValues></_>
    <_>
      <internalNodes>
        0 -1 17242 2.9199500568211079e-04</internalNodes>
      <leafValues>
        -5.9408390522003174e-01 2.1347248554229736e-01</leafValues></_>
    <_>
      <internalNodes>
        0 -1 45635 -3.7458492442965508e-03</internalNodes>
      <leafValues>
        7.6104700565338135e-01 -2.2383321821689606e-01</leafValues></_>
    <_>
      <internalNodes>
        0 -1 52982 -4.7510161995887756e-02</internalNodes>
      <leafValues>
        -9.3153721094131470e-01 2.3344244062900543e-01</leafValues></_>
    <_>
      <internalNodes>
        0 -1 5240 -2.8537683188915253e-02</internalNodes>
      <leafValues>
        -1.9515720009803772e-01 9.0184551477432251e-01</leafValues></_>
    <_>
      <internalNodes>
        0 -1 69120 -1.7412513494491577e-02</internalNodes>
      <leafValues>
        -5.9885728359222412e-01 2.6859319210052490e-01</leafValues></_></weakClassifiers></stage7>
</opencv_storage>
