<?xml version="1.0"?>
<opencv_storage>
<stage5>
  <maxWeakCount>12</maxWeakCount>
  <stageThreshold>-6.1564815044403076e-01</stageThreshold>
  <weakClassifiers>
    <_>
      <internalNodes>
        0 -1 90566 2.7968189679086208e-03</internalNodes>
      <leafValues>
        -4.6835443377494812e-01 6.0655736923217773e-01</leafValues></_>
    <_>
      <internalNodes>
        0 -1 54491 -4.6144652878865600e-04</internalNodes>
      <leafValues>
        3.2946711778640747e-01 -6.4814287424087524e-01</leafValues></_>
    <_>
      <internalNodes>
        0 -1 51227 8.8491395581513643e-04</internalNodes>
      <leafValues>
        -3.5122510790824890e-01 5.2867156267166138e-01</leafValues></_>
    <_>
      <internalNodes>
        0 -1 6675 -1.5206155367195606e-03</internalNodes>
      <leafValues>
        -8.9861655235290527e-01 1.9091846048831940e-01</leafValues></_>
    <_>
      <internalNodes>
        0 -1 496 -7.8183943405747414e-03</internalNodes>
      <leafValues>
        -8.6517965793609619e-01 1.3982670009136200e-01</leafValues></_>
    <_>
      <internalNodes>
        0 -1 26583 -3.9115607738494873e-01</internalNodes>
      <leafValues>
        5.6808388233184814e-01 -3.0664840340614319e-01</leafValues></_>
    <_>
      <internalNodes>
        0 -1 20333 -8.8851526379585266e-03</internalNodes>
      <leafValues>
        -9.2790806293487549e-01 1.9109617173671722e-01</leafValues></_>
    <_>
      <internalNodes>
        0 -1 31875 -5.7194396504200995e-05</internalNodes>
      <leafValues>
        1.9621303677558899e-01 -7.7686530351638794e-01</leafValues></_>
    <_>
      <internalNodes>
        0 -1 106900 1.9905995577573776e-02</internalNodes>
      <leafValues>
        -2.3027369379997253e-01 8.6785233020782471e-01</leafValues></_>
    <_>
      <internalNodes>
        0 -1 41898 2.5441035628318787e-02</internalNodes>
      <leafValues>
        -5.1445508003234863e-01 4.0350452065467834e-01</leafValues></_>
    <_>
      <internalNodes>
        0 -1 21604 8.0071549746207893e-05</internalNodes>
      <leafValues>
        -3.6144879460334778e-01 4.4795861840248108e-01</leafValues></_>
    <_>
      <internalNodes>
        0 -1 71638 -9.6212662756443024e-03</internalNodes>
      <leafValues>
        8.1010234355926514e-01 -2.4017155170440674e-01</leafValues></_></weakClassifiers></stage5>
</opencv_storage>
